784-4-10
-0.01915485103552454,0.02984770684769432,0.012072605194640623,-0.006892990290912764
-0.030850252564851535,0.019342324079698547,0.022333886579246835,0.019755541642710178
-0.008202673722588785,0.025076184583078573,0.019468364877348335,0.01923410752441844
3.341548641441622E-4,0.02027359206147103,-0.009761955878120312,-0.020813742410687446
0.013861925123971157,0.020514533280510748,-0.0022626188359620783,-0.0026964742624993043
0.022936764645255195,0.01754425032745406,-1.4941232267962762E-4,0.010035438190815121
0.01960079283156165,0.013992155209629417,0.006358829285356159,-0.0019065053444827576
0.01704596227613899,-0.025509978331497832,0.018220501163063722,0.008285407920095918
0.011961537116855943,-0.016483866186218766,0.02437008243776892,-0.01574112189802861
0.013051762200226379,0.00905529873598196,-0.01867923695913659,0.015158240775937415
-0.029953365092025404,-0.009875717752629923,0.008168202946095791,-0.0141235685905204
-0.02466847964432329,0.015034264504525732,0.002533131540293089,0.02207838519111749
3.7715025648056566E-4,-0.03000010401810065,0.02680966184384233,0.02122647398951642
-0.015254598366554635,-0.023731660134445852,0.03209424220717427,0.00776733921527919
0.02849486464549149,0.028115959439504817,0.025412508405292408,1.80935734831765E-4
-0.01583379519489521,0.01669301635093213,0.007211078745157945,-0.023017268268830937
0.035329121773701164,-0.017059463406319204,-0.01336193950204672,0.012405813446672256
0.005622427809586494,-0.023700299846227964,0.007848635567800924,0.008915422732704348
-0.0020427985435124627,0.005502926409717293,0.007117381102070421,-0.016299543649832316
-0.0023136216589862285,-0.027175043070692666,-0.013224869618217401,0.024466249901983365
0.034915214329777164,-0.021431151091296983,-0.032871216679225664,0.020949548452948177
0.0227604148175006,-0.03089640417330214,-0.022854759763062747,-0.02924094377943188
0.0025562469753951933,-0.02457788141503407,0.004431638763313359,-0.030467949343261087
-0.004570415317334011,-0.011838541739036614,0.009040419443265724,0.024148248075466845
0.02531647809753565,0.006673546160226015,0.017531532587161752,-2.833587372527077E-4
-0.008354314046879228,0.026242447113517503,0.03072044866399716,0.025703167783672348
0.017145947514291104,0.027124833663139947,6.614015761021025E-4,-0.030321471201679072
-0.019110255085295718,0.007946311060556578,0.0118834286852098,0.031934412884170676
0.0034302727551529313,-0.007232345803358367,0.009372016114599549,0.015619564730897567
-0.03388666646555683,0.006950286930776449,0.02895790719515491,0.008977585003747256
9.469465179259284E-4,0.010652502066982532,0.005699670517134624,-0.020232257867386853
-0.0173765898299764,-0.03523873180277907,0.03217248474481235,0.03255682659458825
-0.018561000795199827,0.020141553888420552,0.004639266068232748,0.0098439809459272
-0.02135682275475665,0.026224812290451996,0.01122262084876498,0.02476803755566674
0.012425046034756249,0.010693423026859564,0.009272696658630663,-0.02454814182347957
0.002998742558287616,0.016295540566411484,0.005464172122399408,0.0035021775660074236
-0.00960155724606404,0.010339127993703033,-0.012095331641661851,-0.01893720080691993
-0.01968284211298357,0.010524478996338354,-0.022233408388258692,0.0027597690251795664
-0.016221345954988073,0.015164927796183895,2.7356349683801517E-4,0.03135719034335728
0.030457941159471247,-0.017034652834244525,-0.01637516950616137,0.0021476893592958565
0.017773645739001014,0.02220651020715463,-0.015678352099691047,0.007679804152649947
0.015082415624361108,-0.012416334857414363,-0.023959248288933154,0.03187582816228717
0.013822615618663138,-0.00901671750175245,0.0020635811534321226,0.009255736865755268
0.026827409064193487,-0.004654685936468678,0.018889672669543833,0.021452408640635728
0.015508785451138606,-0.021903233016940797,0.0075001033047429125,0.020779432206499127
0.03371319072405987,-0.009988706734368124,0.012969485226954021,-0.03538181785319762
-0.029557195659247575,-0.021634116640768225,-0.003426315300205732,0.019921833002528304
-8.304587596951633E-4,0.02895415362536345,-0.0184625911787345,0.020348733741138356
0.018181066437542786,0.009006095119978786,-0.0343230227167292,0.020080101568149454
-0.023462572419351544,0.0017707007469008336,-0.0010805445862570938,0.02068698356887888
-0.025930619984708574,-0.007032234165991089,0.013016213192999629,0.01657249631631497
-0.025153669599524274,0.028680427396800823,-0.0028962285141951576,0.01698910769994974
0.03094318780447046,0.002381888513607419,-0.004421142404604242,7.561338539414236E-5
0.03093270452678404,0.017470723699438445,-0.005814163978095626,-0.027585157794432776
0.012972325898236207,-0.03358860632483686,-0.03295335250441366,-0.012698994308057036
0.026965297621652312,-0.01830898589385403,0.02421621050482988,-0.032554829371831476
-0.035162839048360206,-0.012911348844043474,0.028718961564152212,0.004480772204818406
-0.01847453305380238,0.016811360286845455,0.00816656354843772,0.015152718997035138
0.006722012780494509,-7.837629679288347E-4,0.006439580563318058,-0.008621279139367813
0.005368453910575707,0.023732705008152624,-0.030516569637259055,0.01293831416967458
-0.009129685750426601,0.010715279427120396,0.01956986256308971,0.026594456144991008
-0.005023209874631063,-0.031076685984628063,0.027534123494779707,0.0034055344676382653
0.02960132938235731,-0.03053115309616706,0.022639447919275225,-0.025457675055526582
-0.014058118957640149,-0.015214219330431964,-0.01806714483773228,-0.013638409236145472
-0.0214581785953553,0.016047225732029803,0.0187144414968215,-0.01749018579329832
0.015967946613594765,-0.007181340120874404,-0.007779544635778989,-0.01787500261747848
-0.01389405862260926,0.03248976763585887,0.016306811645812,0.0036915733675184177
0.018488540014327034,-0.02264478989207011,-0.0035124895178344395,-0.03402344913943143
-0.02549503635627874,0.0024971583078232207,-0.029623122219193925,0.008969594255938398
-0.028535958320435487,-0.03165464894771302,-0.005036692378602411,-0.01245994600813139
-0.037653101307763705,0.02747534634809857,-0.04385081767245199,-0.040506502677753665
0.010026557417627206,-0.012018464326388856,-0.016334770367285898,0.016889826378588928
-0.022939842585384757,0.015612802847240143,-0.016854835807259144,-0.035353791837189626
-0.03587738402134684,0.028488964091737616,-0.024613541931349514,0.02310279312284116
0.017505468552164727,-0.02247945942119819,0.028153886542950878,-0.02784324873234945
0.0063126795117265195,0.012196982168072357,-0.009289324061594478,0.007926414652944056
0.016618573072674437,-0.003566520189978755,-0.014421200250712609,-0.009215629413033078
0.01655584616852231,0.017487815638607233,-0.02404909823417098,0.019423333660110398
0.005152850700197947,-0.03174881680827945,-0.03368195458134163,-0.01253766965795423
-0.00598616317912091,-0.0012274954122821866,-0.025921004691779152,-0.01869437028141144
-0.002135039740584446,0.025650774976825556,0.0069371635352818446,-0.029560909744730055
-0.017854824605181643,-0.013862265570247525,-0.006444057279660157,0.030513228860240924
-4.5164565622178576E-4,0.014449618764167588,0.0037504986647681343,0.028145664840565965
0.003552053490644462,0.01721809475687116,0.022978611722295338,-0.024414569060160922
0.026509583680070684,0.0023674112055887056,-0.006330098001855314,0.029800930851724486
-0.02226110416101175,-0.01084363950364508,-0.02986427137506741,0.03514954250486321
-0.010779237767771377,0.02589707172678158,-0.016801016805923327,0.020191271227906243
-0.018779352373540087,-0.004723568972605918,0.034322696145580034,0.024645956014644605
0.023150099941266964,-0.025345069061118473,0.026076570721648817,0.008305454478550798
-0.016202536377190276,0.006213345622534316,-0.016731621674013854,0.02837491054773716
0.006308718440384372,0.02742264288601175,0.021558791931452093,0.012615536585683826
0.027862960403506342,-0.013075188080998713,-0.01511316636750838,-0.032561453249160995
0.007417772742327241,-0.029643934911252116,-0.006085918431714946,-0.0042629131025766
0.004903803767685146,-0.02212320932085764,-0.03221083482390672,0.03096147148428634
-0.004243468142481973,0.014269986795106328,-0.04151897399800174,0.011473789996419638
0.03457269714447257,-0.0298554052482932,-0.047610527381885294,-0.015487127237740695
-0.006251986190076253,-0.009833920568472194,-0.011606847182416117,-0.014101909099728112
0.002662077561650652,-0.001135467816932782,-0.013650775159748775,-0.012255866966389542
0.023015838545722554,-0.024390131070191053,-0.050294176467337394,-0.002540501380126752
0.01737516924265264,-0.04380398949213294,-0.05643487187868135,-0.03168754297844366
4.0115175094330774E-4,-0.021313690426647262,-0.05351855895242706,-0.026351047345161967
0.0066421822802545695,-0.037381558756837664,0.009370518877009735,-0.02112639556630662
0.031052415797387874,-0.04725052871643083,-0.027507524941969386,-0.005429764507902562
-0.01975830852726928,-0.024323895658363237,-0.014961008256689256,0.005951239810833666
-0.025883850304801212,-0.0087715742273936,0.006705386912812198,-0.02393660499707854
-0.024730252572725764,-0.04090665664231303,0.023580733275396396,0.034321427155212005
-0.03570061198489078,-0.03855986616687674,-0.013744145229529266,0.024133007307283443
0.023794925182942513,0.003536581851913436,0.021974489950008627,0.021672014171021933
0.004503784897842331,0.024131199324422183,-0.024828698392949204,0.013675242848440594
0.025510979560584304,-0.030280180342323347,0.019707248735926736,0.014319401415644983
-0.03346521870491367,0.021323479789170426,-0.0025232915045966444,0.02598404516886622
0.035032044122187495,0.011497187498796371,0.0035613755406561504,0.03160429171429639
0.006088499912581931,-0.022868766443385258,-0.028881027257449763,-0.03146486490067066
-0.031326253971935177,0.02386077396576921,0.02913748591011657,-0.017221989364176387
0.013285372227272585,-0.034081362753873384,-0.007155943841574422,0.00425672734500452
-0.026987761423148376,0.008733795034744222,-0.007224709743527586,-0.02712288815623525
0.01872261558927036,0.035312776921233996,-0.027839172142216293,-0.02024551835480993
0.03759601913658665,0.01273405542604385,0.018480946665831537,0.026658868610166284
0.029546538324132742,-0.00926173732763024,0.0070113918294558856,-0.02285234976192504
-0.01903932875024426,-0.02136382426664962,0.013149704535019464,0.016812876157507924
0.011784288428681323,-8.640941658646767E-4,-0.008267005877395428,-0.03636381330904536
0.022105787698053766,-0.02463721029723004,0.0025691225395212294,-0.039173175339362425
0.017057370276935546,0.003973943014362609,-0.02329375718507462,-0.046315003683110846
0.022589510835858292,0.005709869515338249,-0.027599318362355647,-0.052337879862948154
0.04286760279451048,4.86947841786001E-5,-0.0019975153709791815,-0.023488424360499756
0.006344649790521704,-0.016151067529479902,-0.03156423006852566,-0.013495499950836567
0.024081684769982865,2.3714842263682605E-4,-0.04474496699798241,-0.004327582607054308
0.018328028549325918,-0.01692345888333711,-0.02356062087612957,-0.05045877085526704
0.001833743179234332,-0.007225811368108902,-0.00441061507094393,-0.028042078225986942
0.009380612418187599,-0.022056243168114654,-0.018226225885713952,-0.009426723420560446
-0.0016239238020933047,-0.018629814393847397,-0.03630007382494545,-0.03727513659298774
8.306731896019885E-4,0.015733763340176392,-0.0060441050044274264,-0.03861535902638503
0.009677892094611092,-0.019021873195573392,4.245936834793609E-4,-0.031152756834017394
-0.009105952231782318,0.017152130918993258,0.011947441052881466,-0.04465899980321744
-0.027689371645476305,0.013864770714958265,-0.0019044028948677293,0.020585443031250178
0.018014094532564334,0.005905486468978047,0.02793386354408057,-0.02392282968400583
0.015667838196720747,-0.0015397274873264455,-0.0029896313802367986,0.0023745814032994222
-0.025081322605882805,0.004979726381783894,-0.02021191993769294,0.02623219650544271
0.023114601122098618,0.006858726697937412,-0.015958717556371082,-0.030816183700043825
-8.809646178542865E-4,-0.0024567810724475214,-0.018385017019775702,-0.022741714453586803
-0.002171463846093513,0.013464384533688555,-0.02737355062477255,-0.015688723594729306
-0.018920050574929282,-0.00813990732559905,-0.008317274923581926,-0.02925918439188978
0.03343268152123062,-0.009047180976229642,0.011147699901293958,-0.021214696939117726
-0.023234475707706245,-0.010619068420197783,-0.03149181939023441,-0.03169254620756216
-0.03179073597793379,-0.003701191007066464,-0.011821528398540804,0.002830295421841429
-0.012163795864344823,-0.004872274554934795,0.031016265210273647,0.01216521477736809
0.02901757876996348,-0.038266479386466,-0.021703407810414563,-0.02384697653813334
0.010728121518457043,0.008266988263702058,0.005874241705673888,0.013740651923495186
-0.010483018077465876,-0.03276435691380346,0.0165154416320661,-0.020583891531631888
-0.026707579759492547,-0.0645009388848259,-0.017493515534864,-0.012769711451825814
-0.002595426577802998,-0.03379060473440877,-0.009136554727103929,-0.05683196873035083
0.005668264579461775,-0.021039303312767255,-0.02288978448076145,-0.05047176461747972
-0.0017424103505347102,-0.019638333192878846,-0.029871612007557103,0.005414224825170769
0.018967951487450268,-0.017458528691283563,-0.026512474538390875,-0.01529717520917867
-6.420218289527593E-4,-0.002568545040944531,-0.013677277621925731,0.016910020579327553
0.010095933198829597,0.012769119875200748,-0.010643773249191787,0.03261317382209573
0.004513484160151734,-0.0030085575159945767,0.005327419508258466,0.018424857798822258
-0.01652987717697984,-0.013727849255565448,-0.03073334048822727,0.04403547751657706
0.016713793619484458,-0.0030512090029528333,0.013571592790788742,0.007836027788019137
-0.009891008120372585,-0.016841848947797618,-6.014648971152752E-4,0.016503577107075354
-0.0056545880190665134,0.01827708604960284,-0.005166973174501541,-0.02262626310498977
-0.025624968238775116,0.03217901717295074,-0.013346716438436922,-0.04081794075135031
-0.024069645549813435,0.043134027322943844,-0.01611804716493647,0.003629302832412722
-0.02588771949351428,-0.03283782275764623,-0.022926691408521868,-0.03193548819445804
0.01337656760040115,-0.028428346885641602,-9.990214429531246E-4,-0.04287711710122578
-0.010245989734157052,-0.014792403419659452,0.008999552352518243,9.694410864564173E-4
0.03256383279523245,0.006924382829576815,-0.032651981439230086,-0.014368258191615527
-0.03271302869336419,-0.03283047018915681,0.023441452096596274,0.0216713269725911
0.011887490393270743,-0.031019760554417908,0.019829129987111754,0.025376812001969742
0.018078902100797954,-0.003898408079207709,9.9645609987922E-4,-0.019345244246408162
-0.0037163259165731047,-0.026664551819679843,0.01324880333055499,-0.006940865550407227
0.019450557576465462,-0.014986678709506759,0.02741281052010156,0.01423847658442457
-0.003071756998530686,-0.03237249724255763,0.0179877896307507,0.0027188933193246336
-0.0160561966148152,-0.03250401990953406,0.0199409844028943,0.00248061197573278
0.006924312231822157,-0.038544395870434255,-0.016104443178160507,0.004270243255018796
-0.00952422861504148,-0.014022324039173641,-0.009064477479367178,-0.04632366973512373
0.021157129611294775,-0.05385468004558199,-0.010862890752683709,-0.05721678204560498
-0.015298706490686775,-0.07192392713993348,0.007436774202053391,-0.038230542854132986
0.01039570829187572,-0.0362786181530712,-0.018495867076742466,-0.051939078906529164
0.02223758055101914,-0.021765357958836263,-0.03927360025169366,-0.0443714892028651
0.007643883037442507,0.011512600153541141,0.003883908217126647,0.01741722438409547
0.012577165680126704,-0.02987661523757881,-0.023400737389535964,0.020909036715317166
0.03164272421462505,-0.006423438285632415,-0.010124249683057843,0.0970244620326462
0.015586814020984226,-0.03803288071834486,-0.021393923675009287,0.09985517745951364
-0.010914730594941632,-0.03593784536594774,0.016340324239192433,0.08319576379091335
0.019571173380916178,-0.02267499844860966,-0.0036211116904284316,0.047804953999277984
6.29958739145243E-4,0.005052555751441925,-1.3665845376594095E-4,0.011021550400065592
-0.005129614435730043,-0.0278223631112058,-0.012223985926443495,0.015884983042875937
0.01269156993377553,-0.021083943789153774,-0.0021280079532599566,-0.008472206954146915
-1.2261261923851872E-4,-0.0028874407543005537,-0.010592165628246858,-0.05378992972056059
-0.015608483263063048,0.008358366786386757,0.025983178307993262,-0.06895876096534789
-0.05917796980995713,0.02179164972035157,0.004350160292691437,-0.05370130630864387
-0.03945365971952064,0.01266552669128964,-0.00615735100922969,0.013188015375723016
-0.03950069943816281,-0.017083228668075996,-0.001829775603783682,0.003005286566799557
-0.013751353920990767,-0.03462690819656245,0.009810193400212797,0.008505449948568637
-0.021218420567634996,-0.010509677957226933,-0.009950494285857871,1.0407690830610608E-4
-0.03521215115676386,0.0015290229772782701,-0.002631592770271802,-0.03233611114135337
0.02255190936360876,-0.013727125896856318,0.034955767733098185,-0.013306574874503155
0.0359940026357959,0.009391521311556066,-0.004164748439249253,-0.01694175381779292
0.02105767339248365,0.01973663523089606,-0.034886873718173346,-0.0099585421705952
-0.009427590934588989,0.025678436891306004,0.01654004789738806,0.016887508845120205
0.014973767640807822,0.003957816145637022,-6.20121015656148E-4,-0.04193472798059321
1.6623267411896493E-4,-0.0020396374978055047,-0.0020643742926857674,-0.010143026916378143
-0.009360515225902533,-0.019543306184681437,-0.006093027621558606,-0.0397725560318708
0.007653287051704926,-0.04241313581181243,-0.023864431240562336,-0.05894913033830167
0.002907100887431458,-0.03560796860615281,-0.02183883185767564,-0.03505741296950806
0.001870825289318168,-0.036848732948861956,8.077895904512085E-4,-0.02611927376562464
-0.013913732390505213,-0.008458651471745304,-0.03345732985581203,-0.0036100947775275414
0.0019100241577444327,-0.021425787315899173,0.01135595007065504,0.0422555854975842
-0.0083632709558053,-0.010775547903851428,0.004569321197776386,0.03125309127574489
0.02707777145426436,-0.018844289162477747,0.018302148812120864,0.08988839322569046
-0.009755353362819621,-0.03599449229253288,0.020173906203849182,0.08528914266930666
-0.012755847945706264,-0.01671858985313601,0.004308287511944551,0.06556560092502794
0.018008741354141752,-0.00572670387739098,0.02356744667654802,0.07115335343315858
-0.020247975207416138,-0.04225684923191124,-0.017951448425151832,0.04740794199095402
-0.007851749364414493,0.03032396118915159,0.01691864251033772,-0.030764588594450006
0.0017549282040106755,0.011926978500500089,-0.007150447025545735,-0.024105457830739235
0.0033239933380768004,0.007967199250782455,-0.018723256163988143,-0.03306697626255864
-0.0018486659766272237,-0.0019199801758694043,-0.0015521957725990279,-0.010540751154547591
-0.020388954662199588,-0.03884580477066746,0.010466954551515816,-0.03799059656033953
-0.061425037025515536,-0.040434729315272006,-0.007938540447477022,0.0034865536952968052
-0.013819008472555483,-0.032043470369149396,0.01950046990307486,0.017474997329297266
0.001232649377309964,0.015898482957576072,-0.031554600692359026,0.0021574101723347712
0.014315898045581203,0.03420410659454899,-0.014668439808774695,-0.034764552270695
-0.034314216242010115,-0.010694624130748225,-0.02917629942846885,0.01284454859458909
0.03278243140297976,-0.022859036797582888,0.0331129566690366,0.0014460594131463144
0.004237688517126205,0.006047217901153515,0.010486743151590244,-0.029772660201325015
0.005596117626663434,-0.012545532780062646,-0.015454957066966311,-0.0342679244179582
-0.0023775553889387557,-0.005841182957088176,-0.025492357519493657,0.008300732542972332
-0.008052640065729826,0.008766401108172756,0.015390564218018163,-0.04530449776707097
-0.003986008044424909,-0.044469918551871455,0.012426451620601015,-0.06205512340741206
0.027635317400437388,-0.013639721239750697,0.010408104117191935,-0.026309387477859835
-0.017865827635021318,-0.055571651240782574,-0.006514783954489997,-0.05666843104179247
-3.0261326694331324E-6,-0.04636135735519058,-0.02669094010888914,-0.003830593361463165
0.0024013534592565297,-0.033321676796473514,0.005709636426163,0.020305618302181885
0.014039247333355395,-0.011374289580087429,0.007052939000590677,0.02526887190828779
0.002657894518229368,0.008656099942188862,-0.024760517980668684,0.026248403617309495
0.007712293096232185,-0.0021163265153244276,0.009727134750132968,0.07337535251819935
0.011554697179272653,-0.014427285608610915,-0.008589950007963466,0.04075227178362781
-0.01608592144665456,-0.017759956078641604,-0.01773808546053495,9.496685538313151E-4
0.03815532096955698,6.021294461430939E-4,-0.018497514459923748,-0.006421581288998224
-0.007529945508569684,-0.011342028836243058,-3.7019773929023944E-4,-0.002092867888930824
-4.4251007225821397E-4,0.0062278302074294505,0.01627263666386334,-0.0036164157112184786
0.018610561509943467,-0.01910111949474832,-0.012919305402232005,-0.009053433841106169
0.013102766296948298,-0.04171144043754721,-0.00926145428659783,-0.014671745301881995
-0.01707439533247397,0.006580923870335317,0.003276160457910548,0.036525246421073895
0.009258433093071103,-0.02716074896163098,-0.016299294415742162,-0.02181010497367761
-0.06289227459047059,-0.01425219784468142,-0.012405164086901907,-0.0031733459868141956
-0.04730663485690214,-0.039619622329047234,0.014801470743600616,-0.022883683559811602
0.01511148885070125,-0.011139429003152417,0.025577140993074222,-0.008467144839571046
-0.019030306336738287,0.016399241119114016,0.02869928553702446,0.015572100278648094
-0.02717783206294881,-0.0025723652805653766,0.010058952416702644,0.02332467303300644
0.03142348307567765,-0.018842318021357298,-0.021120770226458932,-9.774858433919047E-4
-0.0101979227505434,0.012582648165739778,-0.024884215638095994,0.02691140788551741
0.033428657931826256,-0.02378461849850263,-0.010901088110519366,-0.025476433400190967
0.015537791224084736,-0.014865927587853385,0.016638626778678833,0.00539803015493417
0.022122196031591688,-0.030453190890292567,0.0029133614744781587,0.01922728772153588
0.007567826789007804,-0.011075811185532823,-0.024492250166830924,-0.0021387826784616186
-0.0037170282700840877,-0.02041929606158303,-0.03790670654782704,-0.028554652370381132
0.006235811120964096,-0.0427113756320995,-0.02949941893285571,-0.030436033355921054
-0.004674679178387136,-0.020667005628572988,-0.008886876098870202,-0.04025569741490403
-0.0016193952416514487,-0.05571385958061772,-0.034200527880326126,0.025233717320443567
0.003774868105824385,-0.01936080722244674,-0.005253493052339464,0.03842940479925551
-0.025560754549661616,-0.006703130522514665,0.007608267086078004,0.06796231768731523
-0.031929034375985814,-0.028478229981115176,-0.0242810130112503,0.013341766759264378
-0.021388653873648553,0.006487528108029797,0.008896061779184464,0.01640523274098621
0.02302012407241152,0.009283725499442053,-0.03640446891842322,-0.06881851429655407
0.008498949805159186,-0.0015123726668903146,-0.031569930589383184,-0.05295999628753691
-0.015903678270487456,-0.0022181512633852067,-0.034177879987333445,-0.024202871140319146
0.026588353116887058,0.008104116164450165,-0.013277776645480507,-0.06370065690695302
0.016811037220137007,-6.660339712933791E-4,-0.01118058822080209,-0.02375517048749442
-0.01312093382860334,-0.002895538675355528,0.014033134261189238,0.024306809309012477
-0.011491189906186765,-2.969469989449408E-4,-0.0015857937717866945,0.03322811902464884
0.01950206445314048,-0.02883274445970042,-0.0012800187465727697,0.022548746951507437
0.02195696813721523,-0.02498854696934351,0.015350998686493334,0.04789780150756399
-0.055901099379940436,-0.015577992205156158,-0.017406230825978863,0.022776710657013793
0.01006093677310118,-0.01158069100034106,-0.03688755736107462,0.037719356417485486
0.024062953452371805,-0.01644441169138172,-0.021451641312332233,0.03488156896957776
0.0060357340326000165,-0.017111714724616183,0.03224877802088403,0.017631899524587855
0.0014751489616718714,-3.6021407118994096E-4,0.02570594964454468,0.0314807223408375
-0.03287568779152802,0.01390361875412021,0.034883987411048006,0.03534340470269818
-0.02898639869963967,0.011575727089452701,0.02544744171979117,0.022778911770052458
5.468531000612741E-4,0.030976248552133993,-0.018694511787862137,-0.03349568819690797
-0.0032768852741527736,-0.03199606700678619,0.010267635936858165,-0.013931162585446334
-0.0030865986146168503,-0.025059013456756384,-0.005678812272848814,-0.042610313856641956
0.002958677599516868,-0.03300744665724749,-0.021035752223990522,-0.027941522767407943
0.014644957091638577,-0.036102164129659074,0.023453259572559042,0.0030973022173052026
-0.0021601754682161784,-0.0059877232419673935,-0.025079915327915127,-0.042183377978130876
-0.045100420118200736,-0.019914087693143928,0.011515803516205514,0.035754527382871104
-0.04980824908668171,-0.05216646664238341,0.014763854190120865,0.05091611812511409
-0.08102582768055482,-0.025336345728543038,0.011441036485315883,0.08312992205455201
-0.07710229906203644,2.89545637697496E-4,0.002418806545812581,0.027834629349091762
-0.016654161340213358,0.013732840829060155,-0.028067259954019458,0.0026351532161613396
0.019215915350012377,0.0036907656024384554,-0.014142766299954255,-0.006155728924274434
0.024204189861546595,0.06506377690465866,-0.024502055864625793,-0.05374062501350042
-0.004420236469954204,0.033299433662034854,-0.04374746224007843,-0.06806908589168563
0.0015967221477527324,0.025997599314105228,-0.02596517722962264,-0.04704608669318877
0.005487387395987693,0.007103280950305406,0.0023552346672426603,0.018304012104205267
-0.007772425911509041,-0.03468680705920679,0.021962222034529195,0.03097400733268587
0.011745946461190402,-0.04956271338867905,-8.881874401121847E-4,0.03250375719763139
0.03233680886273645,-0.05343770426958975,0.02317496793344425,0.07020173385443061
-0.01216113213852982,-0.010864936200314708,-0.017485845316487104,0.008009149622644672
0.006948911951669097,-0.03994763851852573,0.014343090838707596,0.07039194072535275
-0.0328193567546618,-0.039478129998531945,0.01422589075395527,0.06301128954328661
0.00519718693924343,-0.023505063474800893,0.023153888526290925,0.042986211259206056
0.011475694214292472,0.01874014740068566,-0.0027795570564785495,0.015136316144009478
0.022371113020473878,-0.010289661151410555,-0.02940613254721786,0.017592442295635693
-0.01981668667724495,0.012656495401448694,0.03302249736968678,0.027721005319486142
-0.035443999811507886,-0.023630922426773386,-0.025414558698389243,0.013954130875584012
0.022961469346055214,0.007694173771222046,0.033686402247619915,3.3870065116029956E-4
0.022858440445850208,-0.024572079050679037,0.014193904646671146,-0.03585901105770021
0.02149360200922434,0.031114201494634283,-0.03248724720393698,-0.028095374417561908
-0.014248767117565602,0.021331637211425135,-0.021756989992649287,0.013479151245261223
-0.011661381205633098,-0.006695430788726356,0.023832410001490435,0.019933888242859212
-0.004958124200388048,1.921916515262336E-4,-0.006972524174307882,-0.028850206890812403
-0.0722849321298582,-0.017294274235491326,-0.0034670936201304024,-0.008027157098561045
-0.05167345138085882,-0.007800807854896623,-0.012107891571554808,-0.002190628236457272
-0.01113504102033986,-0.05333257312536376,0.03431091811732024,0.05326151726637266
-0.010561204815796279,-0.005108337023409042,0.012688424699333243,0.050347240371402646
0.004579758445683023,-0.0431210504821186,0.022210866350830714,0.05395153073728236
0.014764567131512162,-0.017699058893646116,0.020396492916757242,0.059008235278562235
0.007378931973230705,0.0201393135950705,-0.0510934403190061,0.019175905434480518
0.0069591882625170045,0.027324291704019052,-0.03437603809930561,0.03610122996316898
0.003897419803764653,0.06335243680907075,0.004854006173124323,0.004676074571873844
-0.017297856248241077,0.02901199779193876,-0.004042010907027641,0.036454644094097446
0.02913112020479557,-0.007183751119097242,-3.545407003557959E-4,0.018915588089050167
0.007251592930665306,0.0068348114344987925,0.010661086915918428,0.09983142860073466
-0.016807473524214866,-0.004209051916350105,0.02328491809421224,0.063533001263552
0.03547806416708515,0.015902159070403963,0.011865007352688695,0.08836781326562039
-0.023359224170123847,-0.02536810773092087,0.001974896867858053,0.04473429436905815
-0.038588516939892015,-0.03849539808987137,-0.028062910915801147,0.034227113205541046
-0.030745740823630074,-0.0019894910923786108,0.005355105152104849,0.00951598164610743
0.011774246313329,-0.0339197421573711,-0.029957454645009582,0.030973156998005322
0.0157849750900077,-0.027487469757160352,0.029328903640518416,-0.02206991069164154
0.03558182043856853,0.006242807648896955,0.0016891489792807699,0.026690004824757464
-0.014704986896818715,0.012278944682157263,-0.02848077738782419,0.015352775849852939
0.013547824347840798,0.013983009087258406,-9.807065545745924E-4,0.026299521977082192
-0.014837870995332264,0.035403415916619996,0.024745104165186344,0.015036771113449969
0.024092765656481285,0.012690070878642531,-0.02849902191561708,-0.024656153592795233
-0.005519220720522478,0.01887922143662511,-0.024886349007298532,0.029124501076588108
0.02531859269738874,0.01004500918668086,-0.026029803482298133,-0.03573007609473137
-0.044220127732220456,0.021477893678060116,-0.01956120682982519,-0.024922846885694242
0.009967081244126664,-4.326923974998767E-4,0.005945310023120124,0.004859686588478278
-0.051648033528470555,-1.3456941008008306E-5,0.0039563578704692355,0.03882061893690465
-0.0038754096849424034,-0.0013497072016468731,-0.0013323065912454197,0.01040339404059916
0.001751981267058424,-0.025224771430093103,0.021035515028009565,0.041054406332471954
0.011675934931258406,-0.052793151045246636,0.025755807287565154,-0.03527587391226423
5.907895705876094E-4,-0.024562397245110622,0.004188194361536971,0.01113157982273014
-0.02010078455924009,0.014796771488233293,0.04056274907372792,0.06159379745390896
0.014961347173943972,-0.00900491473511533,0.006634941577806771,0.03362452705819448
0.054368141655454776,0.076515526846442,-0.0277113040819174,0.07117118454716655
0.03366868512638516,0.0349494143518429,0.04541570732285699,0.08767969069233267
-0.0014014487800423385,-0.013746515266415512,0.031319860542514476,0.054435744924895446
0.02535439073772222,-0.0066771943107577555,0.025888274760596464,0.051764452612489145
0.02272732152930362,0.007612438753974879,-0.010291932332465349,0.06464244167699255
0.007286381291584429,0.010023385202528004,0.012555525597079857,0.04108468587041231
0.005949497553328401,-0.03855357054194444,-0.002188550869586346,0.016095378328574834
-0.022241218006738544,-0.03848945277821493,-0.008934751280829415,-0.014763929960449926
-0.0315850006421168,-0.032453936318887086,-0.02292786645813412,0.03657439636731595
0.022465512808667258,0.010261671866223463,0.0012043386991800044,-0.02039909954920569
-0.002380854715701328,0.021254469549032724,-0.042506441241236315,-0.028438805400010373
0.014073395779033493,-0.03537774362512311,0.01953230269373137,-0.01702992583455705
0.010451021415960072,-0.03258752947083498,0.02249721392734425,2.580891156045577E-4
0.031227019350935626,-0.024489477018716545,0.022429333602223597,0.018735019709164583
0.01438278788470163,8.66181507607365E-4,0.020010883304580354,0.03537304976515874
-0.017474693274783355,0.035712636720068275,0.03510208855264545,-0.027601937578226404
0.024290711676179345,-0.03558781028494552,-0.020934435154717768,-0.007185960729204798
1.984129853824223E-4,0.02564512884656545,-0.011914551530388957,0.007437772407120069
-0.004562816409535329,-0.017740141065604755,-0.01134164342399641,-0.032606314345073655
-0.008236469553977019,0.02279613587120103,0.013164697971967367,-0.0011728082590300114
0.01668542052628615,-0.04009817600002538,0.0035071949478913183,-0.011026961641118308
-0.008852760532434766,0.017387681178347398,0.01670798521204333,-0.0068956765423254214
0.006497058034859341,-0.012665641976855426,-0.01350905424073775,-0.03045516331936783
-0.012344325546452973,-0.008868312433570153,0.029658070289674324,-0.006985489205088135
-0.017600043248656227,-0.07679107475251197,0.015278553073007623,-0.06654601114271536
-0.015017000600717692,-0.06693254666216147,0.025655053114201895,-0.03637909739868921
0.042510200074553514,0.02153734933267529,0.027882986378780183,0.033818122432840374
0.021824591178364813,-0.0016122558512677923,-0.006767299812279343,0.12225284343187212
0.005125107791913674,0.17129770185542925,0.008144575996173603,0.08886627024530011
-0.004980828282210135,0.03271796512912711,0.04728917855252202,0.06997256100737027
0.027009938131369798,0.03557081035454197,0.030499425149269024,0.05032504932652544
-0.016683715155809725,0.0036153163682684413,0.03210414688849523,0.06709045116917305
-0.007879040937710975,-0.025589337762470035,0.030534587793539285,0.06983861748255257
-0.024615145594391385,-0.0582603920360578,0.029899991578892376,0.026231741882944873
-0.03500930906173491,-0.051347453891024,0.0020335778860598036,-0.035667897754732135
-0.015066045269089279,-0.025718225257866066,0.015528004615436025,-0.030636659743943837
-0.018952662988335575,0.025465439482218837,0.01263141366476777,-0.046618463177152944
-0.022490526685791733,-0.03739327276279824,-0.034584783248227884,-0.04217570638771888
-0.02868854994606646,-0.03216758542692519,-0.008731000568748933,-0.0085855835623298
0.0028364076184737223,0.020797355449664448,-0.035906595776260875,0.03497003739297175
-0.005877884013357082,0.007638770293156317,-0.01917582953488287,-0.0046750267472134305
-0.029100504464477112,0.031235137179708827,-7.233127150753951E-5,0.007206000069988073
-0.011233040202061987,0.027839088052169697,0.023397526898597372,0.007991195006824141
0.015770028606294867,-0.030102392896342547,9.983846446826358E-4,-0.033520607483173
-0.005696385009860074,0.032853923102417595,0.023316950222021057,-0.014576091763962603
0.025250768125988386,0.011770996036433659,0.02976717187838232,0.022804622150216693
-0.03608672553238361,0.012763580870889338,0.0294575426357229,-0.025138456154373472
-0.027015083602168605,-0.024944266805410575,0.011989623976334325,-0.010688601860023865
-0.019824980705014584,-0.034755278550107356,0.002191019312895746,0.003240848957846023
-0.011354756341245281,0.00241720332118237,0.0065717094030740865,-0.06589159876541721
0.005738970765645575,0.015331551964131296,-0.0038198952315292322,-0.05822699567135815
-0.007663159790488687,-0.04053669501986361,0.003555032135525926,-0.042093095788491484
0.018276346238873798,-0.07029010205070943,0.023662305813507575,-0.0841431702430753
-0.03190794883971,-0.031239997614577977,0.012236717950825808,0.02865839114111597
5.30897330760762E-4,0.013169193402323894,-0.0010754266044708067,0.05674666675805932
0.021614741033777425,-0.015407303413245978,-0.00252474476700954,0.13719064379901927
-2.873070581459557E-4,0.15822535312140573,0.005038769852711763,0.124158890693967
0.014233236446097076,0.004880616958008177,0.023595218970922087,0.06594486900290447
-0.0029896289307297067,0.03845016167895301,0.05087395285225167,0.01864335069930206
-0.013894553943484609,0.0037358927012625474,0.04399513373731509,-0.017527431227411166
-0.005322072751475638,-0.08296646453797091,-0.011605341940466389,-0.028930626251250497
-0.020400993509837477,-0.016602279360453553,0.0035668095739940535,-0.10576967049935083
-0.02362277490784206,0.003685201437842454,7.321355393547337E-5,-0.09691982815550523
-0.015785735598957545,-0.030857302631516762,-0.03993607241109482,-0.04371826637395424
0.00804834315545803,-0.0090667052048154,-0.005126439193400468,-0.024983951956886418
-0.012234487148161407,-0.0146652683723024,-0.00197061616684649,-0.021749863376549126
-0.018170269484772638,-0.008045390889369973,-0.01940227168174274,0.014603803457304918
0.02637596075412901,-0.009170921412344346,-0.021122105124179107,-0.008496007385264124
0.0011120316312743007,-0.02796671416195512,-0.03603644718998323,-0.032281896546969724
-0.03182253081268472,-0.03526209194287922,0.02534206971341301,-0.008178788204257674
0.024932702118683158,0.026903193627311348,-0.008653370835602147,-0.014400596335334824
-0.007067876243968489,-0.004640877957445087,-0.018364909846073668,0.012535650812829256
0.009802233665765374,0.0013241196524395845,-0.02448575442456779,0.017932300573389934
-0.003882805469737635,0.011137762434243003,0.03080586579471603,0.020840889911386266
0.00757701699393067,-0.01642040391082736,-3.481679348013444E-4,-0.033394282889300374
0.012244265330206177,0.026835617636201143,0.0026734948098298306,-0.030621257446241116
-0.0077039268443829445,-0.044486078639471224,-0.01826720873487682,-0.010800796930902995
-0.036788629867136755,0.019669501346117134,-0.007926626596507735,-0.05587070726711773
-0.007609893786528878,-0.04148260656035853,-0.009539645525477616,-0.07341752106944997
-0.006871449088938508,-0.03463399558071705,0.007331914827319273,-0.07228089336766279
-0.004156839089520169,-0.028300546927284457,0.006348790619834326,-0.05125034553710163
0.006433713837321905,0.023801480680518256,0.0016033433811138357,-0.024272941213326453
-0.003007533633311275,0.02629274163011297,0.038188071299473735,0.12415844092110175
0.031174852490495952,0.023464182595654654,0.0012997816553498842,0.1458085870578271
0.025808198314785608,0.14359978378217325,0.021230220824930403,0.0848525343055279
-0.024575258266754572,-0.028186861475771673,0.02686769171967621,0.021998949078398215
-0.016828361793065086,0.04063566022599332,0.07296420554427084,0.0024512332750314925
-0.026013495822788623,-0.06537394794097046,0.03981515767872024,-0.06740223152990554
-0.00898071977846494,-0.025988438496934205,0.015513922194505928,-0.07465462259274412
-9.157684169988631E-4,-0.01713674724712802,-0.027275336531808275,-0.12200797969356103
0.021896122337779655,-0.034519238034264495,-0.025435657325335533,-0.06418644343430971
0.036435323018209904,-0.037310521570169224,-0.010785970114182966,-0.03448964481963309
0.007439826121468978,-0.02135789148593189,0.003214130972187737,-0.040914249413927156
-0.0068271905595958145,0.024664311737277303,-0.015199581448128406,-0.016568708138376978
-0.027077373280409288,0.029563751279654986,-0.020866271395621076,-0.04008144847919769
-0.022217478481007375,-0.003216302176917016,-0.03500730500751723,0.004533570180559998
-0.02493209848595764,0.028043132529962163,-0.01830638439669448,-0.03053254712884453
-0.026852867420659902,-0.025200899000947304,-0.023901871142247,-0.026315348467748842
-0.008710320562936184,0.010128175430372165,0.023993499575722308,-0.010386889613291733
0.009125663645773658,-0.009551807395870566,-0.015181157326478184,0.003552764345583956
-0.022723323411910704,0.009640265117132346,-0.026779367345872888,0.022120186958648928
-0.005403769181324287,9.183144696142325E-4,-0.03630994243443999,-0.03638347509365032
-0.006304780348379701,0.023335915591791535,0.005801767971151416,-0.03877793646726384
-0.009164886514033826,0.008649215605409754,-0.015687932909542044,0.0016598803304550464
-0.020582398538363474,-0.019546750828259914,-0.021426682321086864,-0.020253397717601273
0.0017966785269667729,-0.03644820125922338,-0.031633862819238516,-0.06020155698746583
1.5333835193946595E-4,-0.03212255353224512,0.002981623626398113,-0.06732999254506776
0.0011006420621408122,-0.021508299138403745,0.016377767451419903,-0.03505683784247785
-0.010152791156731249,-0.02210545952034984,0.020020322594290443,-0.029500789025338425
-0.0035274460973976577,0.0018313548508658744,-0.0014444904593593417,0.040751398621913425
0.023802777165629167,-0.009553412089353033,0.017941218973911658,0.13191119016299735
0.05882067761557242,0.06364626626705884,-0.0048070695701777615,0.08287901327460873
-0.0013750520838756801,0.06980266395320306,0.005043587707090454,0.02655190786900369
-0.024459460473982605,-0.007587037546044444,0.04132634866244939,0.006039921648937929
0.010373130914747316,-7.986806758540196E-4,0.03904764409375227,-0.011289637365738424
0.004866150827898058,-0.035381189433222,0.01062823380984056,-0.03434914907830322
0.030089101217702596,-0.06783540024993981,0.00829156614193899,-0.10385034858641579
0.045783370681874554,-0.048326860081191206,-0.026659543102212097,-0.08280488114891421
-0.021932256912077758,-0.022820613971183637,0.002327723037463593,-0.06381235613556556
0.006821379166921537,-0.017255757744523162,-0.0042807173794986615,-0.06278005413389053
0.0478957144691322,-0.008782668665625862,-0.00627758787007305,-0.012319977932148283
-0.014865069106747904,-0.03466441239307941,0.022125611050953474,-0.01988475594863265
-0.035199832225443164,-0.008153799446701701,-0.016285673603649388,0.026973883880190827
0.004493615368380642,-0.010547085595903163,0.005314201066212632,0.011366180348672351
0.03486587919947339,-0.020731211193827218,0.010667792032342789,-0.016699071391026846
-0.032251439612248925,-0.019705512589927792,-0.0019419062627605594,-0.02598916387863767
0.02620889948906025,-0.001692921094732569,-0.0011968219245539133,-0.010680796281896134
-0.033208547788773995,0.017702004437331553,-0.008509252906154043,0.025821789057524205
0.012901549422499006,-0.025455031743161993,0.003302931832509768,-0.005114673314409987
0.04237672718322358,-0.018279948629395602,-0.017202622768710978,-0.010295951305083071
-0.018942310573175476,0.03043173399653984,-0.018025354350668557,0.02475205395419378
-0.019243654368844888,0.013772217802159065,1.0265759312501178E-4,-0.017206293595698627
0.02834691586073207,-0.018081639705449813,0.008436033312956361,-0.01354991163601907
-0.03665896467623437,-0.027918947961804098,0.0074887902302410115,-0.04214665634843703
-0.057931044894321305,-0.02849462299453309,0.02252531384146261,-0.03397027068619307
-0.05052364854653646,-0.013845268259370245,0.009698773366071839,-0.021603191365068577
-0.08619517241036558,-0.011927849530689708,-0.011868349845267608,0.0023378575121257364
-0.1069513524234407,0.005515797737972783,4.0624245230303977E-4,0.11503907464947427
-0.09151548733581123,0.00926950382328197,-0.0010363274152505114,0.11225076440612765
-0.03801491101643958,0.008526225036183119,0.01167791898769304,0.05480932607589454
-0.04731513492912389,0.0034869579086981572,0.025955339710155432,-0.020782035048677965
-0.023899708669924503,-0.011878469397029447,0.025103586307008093,-0.02157359685837168
0.006136540718382273,-0.025210726150623124,0.03415111500941226,0.02090717909064166
1.0569442956557814E-4,-0.0560905397852348,0.004282374538512886,-0.03282889269377835
0.012075460364697588,-0.038878208384493365,0.013778326611391235,-0.054291294470631475
0.010218734477375842,0.005413113155291778,-0.03225398362557503,-0.06928185469160815
-0.01000027592929301,6.553322852435009E-4,-0.004528905943295652,-0.10279323937083029
0.02062009232008249,-0.014433388799091661,8.312800150683661E-4,-0.04736318148944237
0.02728458211140953,-0.0033790068262887067,-0.03387572212973314,-0.07028210256866244
0.022848824620789607,-0.018026967729570867,-0.002897013688077235,-0.033830068229258554
-0.03189908240925652,-0.03229383469853017,-0.05253691325672957,-0.03319699782951417
-0.021884342845459953,0.005247706292606956,0.007965785887884292,0.012974858457855397
-0.03055877781820931,-0.033597477692418144,-0.01994533543006947,0.007617143362968554
-0.02598980352195821,-0.013968120698167602,-0.019304767393389877,0.025569279239035382
0.023023810337310577,-0.03172832965674774,0.00494081174367468,-0.014308232364254434
-0.01027267522435114,-0.008191301755277595,0.023766269873238686,-0.025446630820412146
0.012354419862205415,0.010139566291344859,-0.021797026506262272,-0.03713539597195398
0.030976899213226706,-0.02881015417244934,0.00925959248246136,-0.03386260829752597
0.01123279518339424,-0.02150503508363905,-0.031389907967507354,-0.0475740625569975
-0.0200847993820946,-0.05456514835481231,-0.009326155702863215,-0.038999331716861735
0.0038952241663814773,-0.05508328685357207,-0.004197640406870419,-0.010050283200427248
-0.008569889601710894,-0.017038794996501586,-0.001825592392954941,-0.023459485815851302
-0.04056824957217365,-0.016246264293867947,0.028871241908302977,-0.016503376519610417
-0.02930394432682633,0.016661371873508104,-0.008474294995954552,0.02102561513136216
-0.04462988208718801,-0.012150622721431826,-0.00221916080376833,0.08792035784192578
-0.09087185040231906,0.020144660171192978,-0.005773119248334093,0.11454329386272886
-0.09633867776845892,0.03725069440719841,0.03737964681978553,0.045147353090283456
-0.07128282360191736,0.00844768990147462,0.008739629073593495,-0.051831580611046556
-0.029758646153757565,0.038140614289087875,0.017593688459758193,-0.007187778980920135
0.01591583201240821,-0.01591131891829179,0.00314883378007129,0.01986548214593342
0.03234315398041892,-0.028973681507363232,-0.02568618486631838,0.03531708476214678
0.010460998628145902,-0.030092297708173118,-0.013456162328481935,-0.031624396288340996
-0.006586327878832611,-0.01742237985190289,-0.010782545047902025,-0.04507946875420242
0.013852004546890935,-0.04182853714806588,-0.02581966350847586,-0.05785719185157808
0.004225372552031208,-0.038929243709516746,0.0020773865499725654,-0.06859502974571215
-0.010690833959743008,-0.024618140149257135,-0.019290909278836338,-0.04995091096523392
0.016174236853019826,0.011348942277143257,-0.06318365790107863,-0.0044726628015765895
0.016084498451263474,-0.011592444947071564,-0.025960073605760216,-0.05172996368956488
-0.03558770709865314,-0.02743922756782915,-0.039288153185651126,-5.017817221368856E-4
-0.025973615094956787,-0.02265461882637881,-0.022560967712384177,-0.019957913672968567
-0.009525411442823725,0.014410746705196271,-0.019354367217141184,-0.03341581715206886
-0.011661955850949353,0.014048556630212511,-0.026528144564321735,-0.031167597216842962
0.02737683292364407,-0.011780660466584943,0.024129228378328094,-0.019204565066371637
-0.010160704768730447,-0.01734309411046136,0.01293798137656495,0.022546995105740986
-0.00393448339153541,0.01768301702235236,-0.01126779168751858,-0.0016014433005417344
0.027471334914899365,-0.02396461372884004,0.02534606348049634,0.005185541456951473
0.010414830363991713,-0.031290061101372425,-0.0428445327925787,-0.014729608534086273
0.00893062496626566,6.244792709482479E-4,0.013251238848248711,-0.057903309404506526
0.014041300424654962,-0.05965911387718202,-0.021981190344471175,-0.02097262177777388
0.008366433249419158,-0.034917984135402376,-0.02406065523550028,-0.06284580715680471
0.01676753185699422,-0.017955728171049835,-0.02665204577088731,0.01678513837543156
-0.001813771764171366,-0.0024922450014208974,-0.041894061794569,0.030590594681092084
0.007492698573886928,-0.029392614413201585,-0.037142280462263914,0.05293666555306884
0.016068669732837406,-0.01403812745876276,-0.03934550365627386,0.06678808697268312
-0.01620440174333273,-0.007339050849635216,-0.04739109505991693,-0.011912217096877302
-0.02616158319139973,-0.019807475292510944,0.005228139973347283,-0.06396011100120981
-0.0031500671662468087,0.024847927495007104,-0.026013531013999152,-0.04301603703804168
-0.00676765709208783,0.006636969859208306,-0.026805454390913027,-0.018548999601114852
5.392498780707084E-5,-0.02227752399421454,-0.012453716422322837,-0.005415652996782738
0.013022290868334988,0.023875961423290692,-0.025088211252000198,-0.021858743677518406
0.012836256775457676,-0.04184062647289625,-0.052196193687947694,-0.019072468514621552
-0.005273089206348955,0.0018643264248673875,-0.0390670503545404,-0.03286179303350431
0.020995690064788696,-0.03722087337049207,-0.038701132186041674,-0.012927154232918235
0.006344322467066104,0.011799358303196006,-0.04162211629643024,-0.044932514211527726
-0.018178870249112244,-0.0498025222436286,-0.01813445019307645,-0.04833395809628197
-0.02496417645254957,-0.012582683615649693,-8.258821787683624E-4,-0.0017243051937233802
-0.04855349071789159,-0.02531651969097049,-0.03948853182314986,-0.0425750204306826
0.020616827597230596,0.010124336557902801,0.003174053515938455,-0.032296548325207064
-0.0066261835209170455,0.029957035312705882,-0.006528301115198868,0.020027111179850666
-0.0026438419820112237,0.00803584403796175,-0.034805941056313267,-0.02181497108413377
0.0017324603277234646,0.007474769901770019,0.029398303725495636,0.01325714661254622
-0.023503890522010636,0.019031835722903064,-0.011817018755201535,-0.0035323070423242658
-0.00242485680195733,0.033386481107915644,-0.02567967636079509,0.020609681519962023
0.005929814224445682,0.021657724679302885,-1.7788939358223612E-6,-0.024131335012212648
0.021720695039120552,-0.017742820264119056,-0.029218201383315434,0.01562070184832893
-0.018033449081923853,-0.004929078622613856,-0.00545371484374154,-0.019259065986314335
0.01577266637455943,-0.004583554228900719,-0.03007537876543308,-0.0411498537985348
-0.017586484307654675,-0.009977432003646144,-0.03816961348255339,-0.03631386678779344
-0.0026680303275654627,-0.02833176579250972,-0.0712940229756771,0.006553628475875561
0.003928974082693515,0.015267258628426627,-0.0648394866621907,0.006268529896308173
0.016533008410732533,0.011334987270952642,-0.060240805004572025,0.031484017134227486
-0.005241702712114718,0.02057757507299861,-0.010521549491731036,-0.019059766576806948
0.02613364402350534,0.02586306503855225,-0.02661501992542561,-0.03503358836930066
-0.024786704361975997,-0.0056349198623657235,-0.03659583567058321,-0.10086128287903279
-0.014801995610463945,-0.0192769533647305,-0.00992709995080192,-0.08845365747973807
-0.01785996843669632,-0.01111108735188141,0.001026910691111678,-0.06041017196115372
-0.0125909001338312,0.009290198087731578,-0.010104400446326168,-0.05690596081228744
-0.024894901837107013,-0.02087325794172969,-0.031037920884108592,-0.09074681538769665
0.005383935534393366,-0.005704206906279812,-0.017785952772435797,-0.031729580983157875
-0.01057584885928356,-0.04765426516110469,-0.03990767573815819,-0.009042072915848682
-0.009672188517995225,-0.0019567934727907498,-0.051164043373335674,-0.07195961401133359
-0.004821232909335313,-0.03860246241634202,0.0052720001443532435,-0.06430962231202304
0.006404846081723452,-0.030124082950716898,-0.03475719938324467,0.007152924124545887
-0.03554104658373346,0.022179374632729246,-0.012692083040307795,-0.03644809620200421
-0.03838909443311692,-0.0035426722040946892,-0.02228566501613027,-0.004738030723567104
0.02658459591338625,0.025535905329196466,0.023430622559405118,0.006400382080485066
-0.028560259760942164,0.0225305773287706,-0.007391679934466318,-0.022947408652074435
0.02367509585951354,0.02739018284199379,0.01110879520604735,0.023534028762287985
-0.015148138642659275,0.02924429490784591,0.0213041935775916,-0.02061539236558664
0.035341358876818975,-0.033419421445476126,-0.030735913293763756,0.023925823147904073
-0.0038804279942010705,-0.008410424341876164,-0.0017441909887994892,0.030635563172854187
0.008140346401835705,-0.03338922388163889,0.028315109662361244,-0.02154484042025751
-0.014698187988200882,0.009876656647721681,-0.023120409789858357,-0.001992676533920898
0.00403739746411615,0.016972214016989118,-0.04774809573106363,-0.019423286172174873
-0.013832512284973373,-0.015623611331001024,-0.07244155178609454,-0.02067607341220185
0.004714193946933769,-0.006584965950329081,-0.036666344644782495,-0.012779237874039846
0.012507144629879507,-0.017310486435253333,-0.014159423597552042,-0.047629051843221
-0.0068937664252244745,-0.02653014735906813,-0.03176223450411379,0.014991754042328928
-0.026676790760413314,0.013373477601051908,0.012405036040963787,-0.04378304647338814
-0.012855225614108127,-0.03859222179346895,-0.023393815480104743,-0.014987804485341403
0.0033266727393888285,-0.015778108130981173,-0.03020160172165632,-0.04244536158822784
0.008470618309643534,-0.036018486845555545,-0.02028101915233362,-0.058152317035137686
0.0019043010045106054,-0.013901108122512128,-0.012144097783118306,-0.07971044592828812
-0.02012727244255893,1.5873339367918803E-4,-0.003714343782307866,-0.013780557172746488
-0.01897598894352648,0.0017253861927030837,-0.0170896841985069,-0.003430822035489936
-0.0015811259499240856,0.011284299993945672,-0.0022089655588332625,-0.03251529345001288
-0.015080732372362465,-0.019233821311376884,-0.033613728433934204,-0.033779127311268815
0.0036195389211035526,-0.040600010279136164,0.009894045154964956,-0.013492036180898863
-0.01484464159660855,-0.028124561588808494,-0.006555839443964608,-0.04863444526161205
0.011523728474704028,-0.009242471903071177,1.4040745739679925E-4,-0.05273071937656188
0.004853335189184277,-0.018212053407906555,0.02052581008796767,0.027354597453526277
-0.0326105046966459,-0.037041667257078234,-0.0020042291545177855,-0.0026393250128570215
-0.014098438023700359,0.01455223284410926,0.011096005756611087,-0.014533742335475148
0.01380757639346082,0.01611755692912337,-0.03286211592420866,-0.01943567401264345
-0.03228017418743394,0.027615074376261456,0.018444139538549797,-0.0289396947753891
-0.006773846937308741,0.0026975386263198356,0.006053780956405526,-0.00996446788901486
0.011424025750553788,0.012593631473339006,0.005230309434584242,0.020920365911842514
0.03350961547789697,-0.0062521504024919084,-0.027062480681643183,-0.025399631736861494
0.02601203300914909,0.019594802806140774,-0.023177079473042785,-0.02363449383387879
0.004757901730419266,-0.024587725199200147,-0.012657861648988704,-0.018674567131947067
-0.007350194068247789,0.014512787034308345,-0.02943888324702535,0.01845753167041809
0.025200785979716762,0.03527378591232339,-0.024455314782099294,-0.0030376874299408965
0.02402095204660508,0.02468041514230967,0.002574059188366536,-0.034796721478008975
0.01505380971629615,0.03216493026053144,-0.02767070794062926,-0.03776508889124999
-0.0053638820670068,-0.007239784227554819,-0.027681372794398577,0.003754341233102323
0.006141376028592464,0.011682963637464589,-0.02661479324170097,0.010491444357033875
-0.0052946816932991445,-0.023916851645199928,-0.03203065415260536,-0.02700652507530323
0.034750219890734034,-0.028761867271061586,-0.007384416401268671,0.01569763811281366
-0.003431777840835521,-0.03057168420620029,0.003565072381294575,0.04608012446690266
-0.015250650152896703,-0.005599366270854574,-0.019092489912482583,0.0339154092165977
0.014027510534858914,-0.009449174973563216,-0.019762358575556794,0.022573567113753492
0.01593410529602938,0.006225231669677881,-0.015128277077481015,0.005754920679732435
-0.02075952738333483,0.012452154637484093,-0.027426993467341027,-0.005663527420330907
0.002097428979612868,0.031246258124908752,-0.025039488634353745,8.555060217346725E-4
-0.02304447161643732,0.01898230600977959,7.336163867276975E-4,0.020606421948196504
0.019369449959151915,0.007628412154975799,0.014341357629062468,-0.042595715980888696
-0.005574929748849819,0.008270896724091734,-0.006339234415542893,-0.017928159490658905
-0.00926073137400035,-0.04950455620427222,-0.004805172387698723,-0.03461383306137497
-0.029224500242338695,-0.004431349932277102,0.0038570874633807916,0.009613953928568298
-0.004419499953622931,-0.010222987973165221,0.020948328942898557,0.006513790470016146
0.015468089004511661,0.030224709627213405,-0.02531236281512039,0.02560208231772532
0.03638894497332783,0.011491189682283702,-0.022426157678012305,-0.028416670791362956
0.03353334168409079,0.02460385149730422,0.03328376445650283,-0.03185392810465508
0.027893087784074552,0.013830059058902278,0.01723033419441796,0.003191667238967167
-0.01928309256395045,0.030658392019438208,-0.015247663304173598,-0.023267518818533284
-0.008067142013642406,-0.02840818621378881,-0.029578266014714305,-0.030285667196624247
-0.01816223652590223,-0.015105691274132324,0.017634204638040375,7.497602755846712E-4
0.0230824689733837,-0.03027555479460151,-0.03550355141810731,0.021884920959648932
-0.020080261674941563,-0.009520514025098313,0.01650378093111336,0.018298117919994816
0.005148012475663332,0.01394976488852972,0.01598370412846338,-0.03676327874738418
-0.0016185422294519454,0.016612507910445183,-0.03905812382634554,-0.04822454993712319
-0.02423342019231314,-0.0031934983421148515,-0.01564171719487272,-0.05079561060399098
-0.0355475499512584,-0.016855097335976885,-0.00508372364379848,-0.031106454979778115
0.018570776624521324,0.002440562359195329,0.011572090565467865,0.007817239518902383
0.016136943258411245,-0.029045390965363047,-0.03572939097430465,0.04652549407821858
-0.0041739733630108645,0.0018545575463062888,-0.018396447806146823,0.04928203184059291
-0.005890880382521005,-0.01516377084273349,-0.03957033470223008,0.11235478069481361
-0.0067523947199422405,-0.016764617106751978,0.0056132905163799734,0.09477237214024892
0.0019431258501818043,-7.483466759108327E-4,-0.015894337303791115,0.0907123240941278
0.013517262240209835,-0.007174529105583377,-4.409439146225861E-4,0.06803588633965597
-0.011550526429967144,0.001900780164283388,0.006726299318385637,0.05696920014700221
-0.024818134211819578,0.03132452014710837,0.0217203846433593,0.019728574207198965
0.027587149004518897,0.002730745684913729,-0.006876904782621823,0.034983811052261865
2.844497725929947E-4,-0.014911040645301852,-0.017388285765213358,0.029229072521915655
-0.011147220319362204,-0.009381404355272328,-0.005654135523665536,0.006405356080127732
-0.023505030815223277,-0.029617775260718765,0.014289464514452304,-0.030605608193648486
-0.021744439295801492,-0.02987069507642673,0.006660653709626284,0.01712275064159742
-1.9282270697410235E-4,0.026202447764848116,0.017008414535427528,-5.346851758971785E-4
-0.023327756868469506,-0.01758160637921704,-0.018837978826388824,-0.028550005205053054
-0.0055588986225994005,-0.010143568026566662,-0.02918891327611654,-0.03605229799356915
-0.027507454292738626,-0.008932635784566033,0.013029421586689903,-0.00142782279936794
-0.009804277852168815,-0.016216722692503443,-0.03217278536553992,-0.021137232389586945
0.022070741166671196,-0.012972998725416556,0.03450530352155763,-0.010496119049831457
-0.009945517836091686,0.0017318451461368276,-0.015865686565564283,-0.003544349934607942
0.005395207857292024,0.029139288969145416,-0.00947651451227059,-0.030470067902996476
0.01389376670657843,-0.01531152784149476,-0.027287663815476308,-0.02527795346763661
0.013996121286474233,-0.003751728669370359,-0.007851263312724508,3.982682073950942E-4
0.03192626777304669,-0.021795164257869863,0.02040321150567607,-0.018895736569105075
-0.01982618790510987,0.01854776612661285,0.005493905952039888,-0.039867696692871386
0.023743984330575778,0.01087751470321347,-0.017458987348382006,-2.697901072595791E-4
0.013417329038591611,-0.02304563535338644,-0.007504710517907863,0.017598194729172113
0.00342843949666695,0.007484134809453788,-3.6018232959982846E-4,-0.008394314059195093
0.0034596741929041157,-0.013869271408128537,-0.009726824653795152,0.010278756845097756
0.006626704652903376,-0.03340497169971329,0.023773401792555066,-0.003166877394725377
0.014419597937074594,-0.038400046616254235,0.007127303427917727,0.05217077729565983
2.7157955611701164E-4,-0.013460957847512998,-0.0033353956684962706,0.031604840628534324
0.017473549826026655,0.0022298225935311884,0.006331872402065435,0.06893973772366394
-0.0014893591292493961,-0.03191745241732831,0.015425710319884175,0.03289436004993755
0.0044012418525107245,-0.008497358910646312,0.010246627915626829,0.08098871027503456
0.0056551869915416235,0.02913377558567438,0.003438265842947422,0.06465596452313745
-0.02017364076555972,-0.013178163056012986,0.0013174360784022913,0.01698786674259028
0.0034370080015377292,0.019482440866107693,0.013774182119253544,0.043794133419445234
0.006111421440951664,0.025329966782250937,0.033860622743439726,0.044887289657321264
-0.0299565696536034,-0.027364897750190208,-0.010384115959735528,0.036898881381601405
0.027789433507797723,-0.015091398231231406,0.002296108642038713,0.02076497063723474
0.014597852943476054,0.012617009657245928,0.004764767138691676,0.02685485179392742
0.0042672741024880724,-0.01831713767076141,-0.01833831947926548,8.75549932263832E-4
0.0026217880617835274,-0.007603917525525671,0.0018875811844146888,0.023293556145768085
0.019963112878011332,0.030044996987708208,0.021536636262956602,0.015470667996755621
6.01529853475273E-4,-0.03493399879608978,0.02008948482186386,0.02809223291641333
-0.01414870626621403,0.033043714605919955,0.03136758355774036,0.035548799343874046
-0.003790657072197244,0.016095929780933736,-0.012154749197461748,-0.023801134347720306
9.322600776870487E-4,-0.0026827678087463433,-0.019767406703045633,0.033923846794281565
0.0013233624567122607,0.019828455869334204,0.02161981689416084,0.02224081844691339
0.009758809729122065,-0.0053412205850249354,-0.008913790682308716,0.029969749832877698
0.0020136877571728137,0.013355784337808957,-0.014271103506255224,-0.004629988206274624
-0.015947166730722447,0.013749860730070602,0.01402408022402664,-0.03748194872968273
0.035797155230343096,-0.03742328759693692,-0.016275826756749268,-0.03468684391115391
0.01123843114556347,-0.03358929936520398,-0.0021714393727658614,-0.03941685757464679
0.02001385226997419,-0.022519051297116652,-0.0037473247081747916,-0.014849391962156537
-0.02808843677498758,-0.058802612854285195,-0.021327359917577803,0.008716186844119808
0.0013125150804125319,-0.04003988672515075,-7.415027013661969E-4,0.002452719897022415
0.036824291053179616,-0.043068266426563376,0.0035808884375406573,0.0022813174255459593
-0.02842700647733771,-0.05458391301557574,0.006225053129843818,-0.020102699409172343
0.0044711940465685844,-0.06098157301826252,-0.012555816140127284,-0.017622733039118696
-0.05377874815243769,-0.05586216943930259,0.005051639764068953,0.05563680683269465
-0.00777763694408331,-0.04350961903950127,-0.030359794480222635,0.047854492483729125
-0.0370081729272651,-0.00852623927931197,0.006075647945603428,0.012239147096292537
-0.0017081497910073895,0.0314731613564275,-0.025954835044181224,0.03303484199261288
0.012181092568553662,3.076162122855386E-4,-0.03592843817612093,0.043774010351835535
-0.009855471483337678,0.004827175461548696,0.014010538826375627,0.040292157609433846
0.0011348721898310923,0.02629243961638265,-0.02253791704799334,-0.009413296048236824
-0.010937518898882954,-0.006585612572560449,-0.031977465515160564,-0.02115907906475184
-0.005863567453865565,0.027650983386559597,-5.021462871267933E-4,-0.010553872971771298
0.021119105302046637,0.01587285771231441,-0.025596800268520816,0.013852166548785294
-0.021553030660512812,-0.00658997152494311,-0.022854707788925867,-0.023994239337450245
0.02850327600566313,0.0011545897399706587,-0.014001400148434697,0.027765655513386542
-0.026608764218088075,0.03272518030263408,0.029705241171335606,-0.023488346222116332
-0.02443329635287552,-0.025097868895183877,0.011076933935576301,0.03507907317527058
0.027083826803009248,0.0034961835648242637,-0.01448720511605758,-0.02289719633839621
-0.03117940609585109,-0.005136123451199719,-0.0028991760071237077,0.02167788199197352
-0.03383723542077154,0.02335111658155315,0.032227865686975436,0.004225108734029828
-0.012838982861237243,0.031782112171185734,0.012127766236229678,0.014625557768257377
0.00572557909120341,0.01864549104599617,0.03266770055417757,0.023457159879696987
0.035251694796280805,7.058193978978311E-4,0.017388777244124534,0.009084006227405106
-0.029275337840385253,-0.00671883179626398,-0.020857385272070168,-0.013479889837533277
-0.024733316947210725,0.022747306561397233,-0.006409134102259667,0.01580405785390276
0.027799929369830507,-0.020133206397453966,-0.013148427888154197,0.026868006566200784
-0.014750321850203106,-0.03587047347838339,-0.01691405480765062,0.005375171623932724
-0.007268883641528521,-0.004222020629006622,-0.046137280222085915,-0.029486070662295232
-0.049179153671893815,-0.028034429972311967,-0.014489239393043467,-0.030073147579992653
0.0022064542705694384,-0.018354090174910867,-0.04382060159476301,-0.021182738081180468
-0.023045335284563435,0.006131778278703659,-0.02035949910421348,0.009569767851082048
-0.046983265024839585,0.020803109479255615,-0.007103448977341764,0.020903561215689995
-0.0035167495357450204,5.614959767134466E-4,-0.03244329334000539,0.034180284869899415
-0.005476910131343675,-0.031583342301735665,-0.012737384067647291,-0.01057654482604024
0.02313286075350473,3.4130449226447724E-4,-0.010546936582631119,0.021431681918422672
0.0065438304822602175,-0.0032096125058768887,-0.00571496901369275,-0.028059585766615328
0.024130515393428156,0.003409987007620599,-0.020865851400263206,0.02161956359464972
0.03134758842166591,0.03009043175329699,0.004085147715180484,-0.03189186716835139
0.020870675165964442,-0.033848176345689165,-0.002782628310627814,-0.023139413272141078
-0.015215414670775534,-0.0012654564007085775,-0.0339367667686854,0.01866606041179888
-0.0016427450896832063,-0.014637398340425479,0.03548564439858517,-0.014318088760916637
-0.03233428222176229,-0.0069737593818598766,0.030200399377740814,0.021369568219709156
0.007678847799893369,0.002962509239533985,-0.029019049836575397,-0.015487617432988137
0.011254971022863762,-0.004042424475831939,-0.004658595028574131,-0.030939845015275268
-0.03254033168102675,2.3085578710369675E-4,0.02944763755387851,0.02906716182688536
-0.029863337006374502,-0.007109255421839742,0.016091390702142536,0.023447414105288673
0.025606065453529107,0.012841772802564905,0.002869451411190667,0.031823491686863215
-0.03276889698052895,0.0028933932448672733,-0.0227325546135288,0.011186898929484532
4.999969740334259E-4,-0.03521160097677594,0.02350701112386121,-0.02154012682196958
0.019087731987132744,-0.023174817084611943,0.026296158516319758,0.006074724951118875
0.018753193739608993,0.025821963597316668,0.025698708380944884,-0.026128062222089056
0.011812123261365338,0.005010897577290772,0.005743548289149944,-0.013211005254518886
0.01602278620166541,0.013587568792464186,0.025398104607973808,-0.009119157341739669
0.031109894759150707,5.7570498442063E-4,-0.011851239770000356,-0.026058273666718933
0.012747617714005169,0.01447935904269024,-0.004576808843390075,0.015381998688233894
-0.023260128182733226,0.023540244371024185,0.013618046746528908,0.034309560478429466
0.027839369534128782,-0.02993477153040516,-0.014530305290996567,-0.03472726323529156
0.01994423294915443,0.020482003439275913,-0.017833377297032302,-0.028278945376175486
0.01916883210094179,0.021500353687927846,-0.018858347697491295,-0.011373486057384462
-0.010398699907532657,-0.02227188032409703,0.0023183773999831004,0.02463360468048473
0.01855807121848837,0.02043667074015535,0.027794188388891257,0.030127707301838128
0.022968435506557843,0.010757049353997227,-0.004018574849639222,-0.0034798953197401495
-0.014170855688754829,-0.01850880019980546,-0.03951694251133598,-0.002449835711203668
0.019933397277356834,-0.013142704251253946,-0.013388689512045733,-0.020003600618709014
0.018176212937567503,0.014765952782322775,-0.021694724596241683,0.034962756411115264
-0.02334864868567765,-0.00929801465163602,-0.004488710336549898,0.024756357322481902
-0.018708703116600167,0.0044644878390835835,-0.023246214438294915,0.015647303889781868
0.03119873707422932,-0.0060474003331241755,-0.0011903317423476861,-0.015912418159298676
-0.011963926338280233,0.03346082370263914,0.020348384272652953,0.03116843413372425
-0.029412525684649825,0.031842055419649934,-0.006769076074660898,1.3478270060128528E-4
-0.0012339217793845975,0.03158347429582695,-0.018164822428478975,0.028998237273257538
0.03281266724496411,-0.007940718301429815,-0.004714298260115029,-0.005497753862055279
-0.17176637739070788,-0.16509338127867856,0.07783323250279113,2.595904652869889,-0.519561322427366,-0.2779018516090721,-0.07106801337726514,-0.1949661757512231,-0.9556446309743245,-0.08843330710662105
3.7772780577018186E-8,1.6617774539969585,0.01927394918698169,-1.0356808997781153,0.010901546429450447,-0.1625129789100389,-0.15534852537094976,-0.3164279384025569,-0.644536189401873,-0.18155579331674046
-0.33893226865037884,-0.794892657392763,-0.481641506000226,-0.6882153475307542,2.448712665645025,-0.49248943925556643,0.0943420928196143,-0.265234340072967,-0.9588612177294761,0.8305365287101099
-0.19224503298194703,-0.07559515414480747,-0.27693267617577616,0.018282918473236064,-0.7402541840933619,-0.4052697484829648,-0.2725058941624557,-0.197739327246633,0.3099941204037027,0.043303968685669054