784-4-10
-0.01704005387789397,0.013158191194976139,-0.027596018302664265,0.029819696295403902
-0.008581079857755,-0.033542706973350205,0.01660803025942907,-0.0026659867700207854
0.03137467754158706,-0.009772458431486948,-0.007965123356194401,-0.03329051894602634
0.006677327166219653,0.004247904131016118,-0.0011536811508400038,-0.011178950216391037
0.0030722237715410453,-0.030045604872240266,-0.024914314549474147,-0.00763951793762915
-0.01609519214971326,-0.018279754840140685,0.022777474008169943,-0.010049215066250623
0.01088004653013347,-0.023399629075902033,0.013246161250146056,0.03243163456821878
-0.03232180293578584,-0.032474086307559956,-0.029787708298721117,-0.006795807270195846
0.01757170155060605,-0.020091500499048807,-0.030537524794145697,-0.013228533375623446
0.008730842341663887,0.029542773203494938,0.027308663029151373,-0.011324289135977994
0.023055971794480455,0.02549049766902628,-0.03536637315529497,-0.023244922902314398
0.026303792050005007,-0.021194301867491792,-0.02791621213624696,0.018193659957111863
-0.011055991021647536,-0.031125728467812364,-0.022598261293912878,0.03332823519865652
0.03525445489408463,-0.01653504808590631,0.002813801591496516,0.03514681162995291
0.023297424488302042,0.02450871410127055,-0.013452859618255413,0.03502638023264522
0.02674163052103873,0.020888726384190322,-0.025198942581416278,0.016640861351325725
-0.02465251825374947,-7.776591116635395E-4,0.0296427533609038,0.03216219838730558
-0.0341820483209208,0.01636917209591189,-0.034667273928434765,-0.027352362728496248
-0.010695895497288888,0.02162225728884752,-0.023975016918468824,0.02430376609698738
-0.03142224849981958,0.00960590031369242,0.015225162620413013,0.021639320686456645
0.019271841447099584,-0.012506423973054768,-0.018031293666861823,-0.034425338718530214
0.022613650488854296,0.011911356094431898,-0.009308021757101166,-0.016488878141628915
-0.0034230513530376996,-0.03194228769801058,0.01282277261639228,-0.02270999929620574
0.01571681376461049,0.004061934537371449,-0.011855118608337933,0.019700158261248324
0.022580112673479077,0.022550911989749955,-0.02918950293292114,0.01532226776110246
0.028221232788263856,-0.0027075045496200434,0.009443447743067789,-0.02061377721138851
-0.012805194033388059,-0.01609623827119443,0.004456064267829844,-0.01885012383005438
0.032132927361779584,0.005945362843438481,0.028288855663782697,-0.027947195975313033
-0.03049470493704808,0.006610213497431031,0.030717289920464103,0.006428282264976749
-0.02800453897087085,0.030871096729086334,-0.03452253971501859,0.00460855166708022
-0.02985203564313631,-0.005007118288202089,-0.005890798823709433,0.01949490321861313
-0.030720099889675213,-0.03346622239694055,-0.009460038595533054,0.020234302803814268
-0.012213533548207374,-0.0011769272662841626,-0.028522537346527065,-0.005800057407840169
-0.03370035236956921,0.010226295523069369,-0.02380240872972863,-0.03545178942503681
-0.008892612417094697,0.024427295156160878,-0.030649983169973558,-0.03430467063724632
-0.010465744388677058,-0.009271273939567337,0.0335629085201293,0.024426006974266987
-0.020348242707492976,0.027147484283224346,-0.00897719857994949,-0.033942605111458045
-0.0018349094815407266,0.012110050650187013,0.0016035673251083918,-0.0013006406386318267
0.005242080320060238,-0.010936868994541358,-0.0316646975398902,0.006369921801545109
0.01259952825987281,0.017547549773623397,-0.025036377095865772,-0.022272940250387594
0.023850977857502724,0.0217266933521131,0.004295725147532861,0.009458275923109952
-0.012753520913137355,0.032233524987683324,0.00624089866524339,-0.017748593033700966
0.011113218338333272,-0.01361556267290294,5.992086341098934E-4,0.03469712755425933
-0.023628986240743142,-0.02169942036549952,0.008106954896446819,0.016913225741532395
-0.009267040648920564,0.02354403439277311,-0.02538987895777796,-0.003835255141833707
0.02939784732667472,-0.03065878982589721,0.017170868485603216,0.01025783957935019
0.02901593899381935,-0.011352615657022724,-0.00940232294909537,-0.02621651035401431
-0.03024296133643659,-2.8644795704658305E-4,0.02857011685137123,-0.007805368207628043
-0.028984859260354615,0.03319055862093134,-0.02112517739406701,-0.023721005914068775
-0.01978894703330095,-0.012225906209827511,1.4834290887208446E-5,-0.00910575404820635
0.02332906297053139,0.03527000028483686,0.013279782034294668,0.01438729219440045
0.019563795646388188,-0.027796929119496397,-0.019863551008330895,-0.026799003290380728
-3.5221891373519304E-4,0.0016666307872097372,-0.018600307887179073,-0.021888510717768976
-0.01682341245895649,-0.028009650031877036,0.022174617047417813,-0.03300199178697633
0.005389836926144413,-0.017243942923455158,-0.0123645304963972,-0.024342680136240753
-0.024770958014212655,0.006154022440590948,-0.005920980554748132,0.016457487196091268
-0.02979591815275837,-0.004410301966600645,0.01905284246788931,0.003762924827557794
-5.961742921239896E-4,0.007110192535848769,0.009727134845887657,-0.030370818208969298
-0.015763233219265926,-0.005749548068801527,0.019923217042151303,0.014332448142147701
0.016652253523233324,0.03442842369169585,0.031617554149444754,-0.017705551898894556
0.0016199858276314469,-0.03493312136120078,0.004044635812442125,0.02566968520017155
0.015129911686316888,0.012364482643132564,-0.010765834448622405,0.029049054943786068
-0.02288462160107369,-0.029680693467780673,0.006241678782437192,0.015160981345106316
-0.010270419171913427,-0.019866129839685585,-0.031103424651725442,-0.03100693645659436
0.02880969808195563,-0.010369383419238747,0.03454686717677957,-0.00273614724847223
0.015655212275711372,0.03131044333429647,-0.013406896522180307,0.025558839107729873
0.012161566592167244,0.0028761996804393813,0.024104216821194985,-0.01813632139657077
0.013347446721219632,-0.010468798001168914,-0.010392370614452844,-0.030574933755842176
0.018961300760154114,0.0211741272244729,-0.008642780560712413,0.022571797770251978
0.0011704592520700996,-0.024179306673606443,0.024462158045548972,0.0028450267503445786
0.023084618137984077,-0.015770712876509187,0.0179904846572171,-0.02422108977151738
0.03531416581193664,0.005479157825120186,-0.0294372941227955,0.002522983054591081
-0.028328256819381725,0.03200994822680152,-0.006826323421328075,-0.030010126172828895
-0.021898332355656712,-0.007692985655238165,0.014362536130688816,-0.0037970060199635156
0.020688819792096746,-0.020982860614124108,-0.0022665126032113195,-0.0305654468457142
0.02940121245183075,0.014930864156933253,-0.0011616918257614586,-0.015337327382297847
-0.026287864306664757,-0.014851179040591578,-0.023278444881969028,-0.027408325073667326
-0.0019299690567596145,0.034899717088696255,0.008559153570994703,0.011143048508515926
-0.03154202046096221,-6.22369899804194E-4,0.009895060817253845,-0.02015570515761737
0.031029247188982728,-0.028704201101057494,-0.016961572729304732,-0.014398575582798681
0.027794896414111925,-0.025674834378744196,-0.027193368286689015,0.01918132879647079
0.02180600321412826,0.01849545257771791,0.011254921949191393,-0.033092314153891994
-0.011728345892401484,0.01679167413066869,-0.002069031326325875,0.003249684746223877
0.020327258108288254,0.024233156915115815,-0.022724793269076463,0.03083511593347925
9.133507193749418E-4,0.017078556642508666,-8.995255860542103E-4,-0.007066590797503554
-0.01896424983506012,-2.1088638222600126E-4,0.0017147261374252237,0.006763779226034314
0.015382471211924924,0.03473474079368402,-0.015909895696468397,0.005347397311378385
-0.017133889302079326,-0.011381417128971599,0.004038018389297536,-0.03199140507975023
0.027663254906103482,0.013533897864237553,-0.018436591291160122,0.0037572266415164327
0.03026410537971222,-0.017952697254455353,0.009633451833257048,0.003422911119500438
0.027186694630185013,0.010500497632665189,-0.034443321199360825,-0.0038288104313877053
-0.030253023059983626,-0.016424314203766156,0.007021799208303363,-0.0033198866611053868
-0.024960252718798575,-0.018046188444992377,-0.006179481124256179,0.027216559475744737
-0.009149461227512905,0.006077800803363419,-0.0226628611706768,-0.010716580243919652
0.018130091123189473,-0.015130466520438295,-0.029412967333003873,0.03435730400205536
-0.012155368146701047,0.016777610652323992,0.025792028742129276,-0.011217010660868134
-0.012672954003796904,0.024384181280556298,-0.027305726053587186,-0.027190311507686478
-0.015149543034972169,-0.019801149182202105,-0.024978766055868074,-0.0019187086350654775
-0.010108574586093304,0.015245999820642182,0.02299042569905286,0.004123035285993962
-0.002432841252191599,8.842444592994797E-4,-0.01809970533494494,-0.015122059053082573
0.030007917265085476,0.012271100044362875,0.03297426567245168,0.01343343785000086
0.020712023732658874,-0.011188777910795582,0.02863940018471256,-0.015698496588288948
-0.011083132135105336,0.027104983002010183,0.029733955337042664,-0.03502132251991392
0.004481970049713846,0.013401244377901696,0.014864347722750443,-0.03491624446182891
0.0030455103241949777,-0.01890760446324742,0.0103777307894087,0.016556298760660962
0.030068357445737215,-0.003723925790932274,-0.013439355574729406,0.017727886733331977
-0.02063645225885911,-0.007578729582870394,-0.02154880380080491,-0.02898770523666182
0.026614971713431926,-0.02798327331321744,0.03441212578222855,6.012607614857418E-4
0.01318492719564441,-0.023314371665816472,0.009294000593321736,0.0054226375709467076
-9.778111170173423E-4,0.0050781813166171225,-0.029207326766804494,0.007374747151096171
-0.025475866351992543,-0.029806019244948932,0.03141149489008331,-0.028453206369969473
1.8861267930837117E-4,0.016156706821860156,-0.030993303355506197,0.003816221055029219
0.03482786267136655,-0.0035811514188788807,-0.023283929819309584,-0.03462488859446083
-0.03430425731350089,-0.016100547576871762,-0.030880452692127913,0.024370644720217376
-0.028805082137525195,-0.032067017796290086,0.013342638108503467,0.012483605971307397
-0.005373725940338112,-0.0073827233606371355,0.006063536551307001,-0.03235371214720746
0.008284450039499104,-0.01164412713704898,0.023381987295629306,0.022854053027383213
0.021111703025675693,-0.030732994872029296,0.014627699365096503,-0.013202153828761411
0.003915526005527928,0.015808205052581223,0.00919363468996167,0.0088610508574158
-0.03107712286550675,-0.02873477333945455,0.02281369755105219,-0.008322798377578822
0.0026392728014160843,0.03380010172549676,9.159010122602382E-4,-0.030484431334281095
0.024225439587172465,0.025866862117306808,-0.003280661136269715,0.014255012501253439
-0.02357449733818378,-0.028856249800280388,0.0013992639297027293,0.014693333669893421
9.739688168288602E-5,-0.01334380282922135,0.016689971278699964,-0.022231252839548486
0.025943945278597724,-0.005597597395515946,0.014013770959586579,-0.03489023779569375
0.013030196882140507,-0.029092318036892842,-0.0352758063241575,0.006535326918687634
-0.03194572716913982,0.028297279511446588,0.0010571918424813267,0.021724912965631477
-0.01119530047279376,-0.02224441242962099,0.011103399493119143,0.008234740577957152
0.003937703190449247,-0.019108382084404477,-0.016560338662950803,0.009808529696369243
0.02689809523489932,-0.03284600455532221,0.03553822595703025,0.010181469653697331
0.0029794182731307656,0.024734987525550797,-0.018798337289501657,0.015562147429554259
0.016442571799003394,-0.0292303503251813,-0.021974773112039277,-0.00346342504540003
-0.0017788936978875708,-0.01151384794651366,0.003554780473905908,0.0028361934518760235
0.026328746852257376,-0.004601442809315293,-0.018307472858662337,-0.03065410639154269
-0.03123734703941361,-9.029455378735257E-4,0.005439130165097582,0.022771159903785074
8.385075716907456E-4,0.0031347437447361085,-0.020608551955965636,-0.022005926263900855
-0.030875441154813037,-0.031502914282880684,0.004966084484034357,-0.008325690831852504
0.0017592085965036017,0.011832979783758295,-0.021112325344383752,0.02388990804931798
-0.007230529550942229,-0.03256983869943041,0.0017059348800368898,-0.017971153902514088
-0.004176402922769017,-0.031803473437948614,-0.02800120037275463,0.001927861846153199
0.007354666451412785,0.03357292611918697,0.032510201622969845,-0.0013445282681725582
0.03320834327206472,0.034328333293424385,0.030529603229887653,-0.025519807511380693
0.011083357862833605,0.0028490953948688696,-0.03505027528779394,0.028571161642743134
0.0355646585602086,-0.012846753824464367,-0.0024870728458908434,-8.858398917560018E-4
0.033336900121362714,-0.00549975999630499,-0.02514364851675425,0.007523086878376238
-0.029662217965056976,0.028900169503017742,-0.010730846132982266,-0.032080625589307556
-0.0058354658238981005,-0.03445656243088004,0.017326115046756574,-0.0037113385838426632
-0.007450925181275395,0.03371898291616322,-0.011779694358705253,0.004175544377738691
-0.030139382566325788,-0.03396783721246464,0.026223249179850687,0.020582990562745568
0.014269607429747797,-0.033588421706664935,0.023517449077277063,-0.012083968775958989
0.019246892693354833,0.019442582615738606,-0.004882841936451481,-0.02297406705092065
-0.020906249148113152,0.029151191415849417,-0.010439279405688187,-0.0024892126600212436
-0.005752312151572958,-0.014918346020584259,0.008295427592772422,0.015555711553072227
0.01527773150716507,0.030365284353157135,0.019778447979706418,0.009308269720716696
0.027129134060981178,-0.029298186700463302,-0.034504522595639485,0.014218528301723488
-0.027610251880877318,-0.0014612537543398016,-0.0011135758759356698,-0.006891470908333301
-0.0073264760320964,-0.033171925426319394,0.03291717918824269,-0.017255148194014865
1.24688562450688E-4,0.030003357475880316,0.030478762859058303,0.028284266714115283
0.02974475707892557,-0.008015053490095514,0.03334068237512858,-0.005420823119344036
-0.009778940227861806,0.029380851692745694,-0.013543437882696296,0.009444668175147407
-0.015131053107069106,-0.02760356396314904,-0.016756064078935356,0.02638397530868901
0.031148771166785078,-0.005654776829875044,-0.018311276527478697,0.0013824618776203876
0.03391661946646668,0.01716338471091898,-0.03355197449562908,0.003095969885720175
0.007976187155772155,0.007486958130120472,0.03549155770137982,0.010367607926083808
0.02362728839986749,0.00254087656356506,0.01766411710380754,0.018154244375014353
-0.031591623104340986,0.002687056090257621,-0.012103005105962912,0.012853418247656775
0.028100862561971016,0.02731183671584521,-0.021932838579821444,-0.016578393874111686
0.010916300178845428,-0.030288998078637448,-0.0071488983277736146,-0.018773154325308666
0.03316176354319675,-0.020219105448379904,3.5364299561215645E-4,0.011862456125384127
-0.003927648814462351,0.00595759189060685,-0.03566980016732094,-0.03493380600678817
0.0058920804986486025,0.01507300810936514,-0.020371540743945482,-0.01698980088469924
0.005523683857899649,-6.891766483334213E-4,0.03248843629967432,0.02496682569813114
0.032458674133031384,0.005840444099430277,0.017024888446240345,0.016941279499245884
0.0018015199305829108,0.021724993062958428,-0.027734519012234782,0.02589308654016141
-0.029268566616576435,-0.03082550133712432,0.006848407100405414,-0.02016150015654525
-0.002778078898959112,0.020403690821502465,-0.024138262214732562,0.023431103243983772
0.005316888879756607,-0.03094590574237602,0.028082387571606332,-0.023884447932470805
-0.002069676242679473,-0.02831572248036016,0.03010935299870582,-0.007901651105643774
0.011277311086605166,0.012374836368564637,0.0012044991246173073,-0.022905674753904384
-0.023201542920809226,-5.28577298933991E-6,-0.013805103189801556,0.015932060165752854
-0.027285447461158907,-0.020187576597773267,0.015357533681483036,0.01620501686916441
-0.014431463205184892,0.016780789577748194,-0.028859006995998446,0.025734164180059124
0.029731962748217294,0.019239594463315267,-0.0044691261796939545,-0.001842791989624372
2.5531827210682756E-4,0.033870604757939876,0.007509121178661808,0.03441562776517816
0.00599100138758165,0.005689763508123627,-0.010312735256517783,-0.020637825376484807
0.026453951373987483,0.03075511571827569,0.0020557387286016457,0.004217757466844406
0.02261244073331082,-0.013520900741655604,0.018866230542060297,0.02466832166186949
-0.009242608993863206,-0.013467651842065529,-0.022320838095513294,0.02435455595568274
-0.005910916071197661,0.005692181592631289,0.007814187004394499,0.0032473340722368044
0.007544376737264838,-0.02338174847102175,0.008021220976873147,-0.026778576690193033
0.021034982275395374,0.012400672445015526,0.03570455897250749,0.0066695809119609525
-0.01356901166158865,-0.013422308140409137,0.0010757416716102863,-0.005094909362505926
-0.035645642542889294,0.02562613508213573,-0.021952841320724097,0.01839956937528886
0.030108442604509317,0.03520448729977216,0.008230478503076198,0.026710590715498958
-0.024932212297079252,-2.137215493969169E-5,-0.034862411763252506,0.008397647853447945
-0.013643167816971249,2.2987535438175055E-4,0.019853804644643473,0.012681864334102809
-3.4150847126622474E-5,0.021571925228572153,0.012779836725581521,0.01593147491088462
0.017985371514785783,-0.006156044586693981,0.03521100958843139,-1.2626505590942333E-4
-0.008049183954474695,-0.014778998695842267,-0.028637601458302034,-0.017628823859172724
0.00614071550381997,0.03555658925201052,-0.015612334838538338,0.02096434218404325
0.009155340433066157,0.006399557645969452,-0.005915600243658954,-0.02685229634181772
0.018521312365003394,-0.009945123087528644,0.027678912108344153,-0.010903331724908878
-0.026875431229521872,-0.02403715200706755,-0.03126552483101497,1.1348684079205001E-4
0.014723474507697412,-0.03459381629427922,-0.011382043047261273,-0.00753869488763842
0.035530674981184424,-0.01780058186201733,-0.028773034891459135,0.011608222053818923
0.03240760438989716,0.003275725626166015,-0.0017909082131560491,2.1350551879582846E-4
0.02124996322064593,-0.028992265094352987,0.0034883187603821225,-0.010078927051755972
-0.006787465157038715,0.009479724613041883,-0.02496381986438795,0.0071742892129528155
0.006003667036594253,-0.0019326287721487187,-0.011697508706163078,0.015875493212139657
0.017772389276027888,0.006712927661943757,-0.0014076651404304336,-0.022944680793932803
-0.03342251397083723,0.015878859008556914,-0.003734895106163337,-0.0262142413112803
-0.020476129185021594,0.015429146880624203,0.025520797285051314,-0.002863152342524787
-0.019204886061634476,0.017635791172599107,0.005350318416594682,-0.02604489419332399
-0.006937993323150187,0.004999484307776518,0.024828925907931523,0.019772508879942155
0.0104127636403986,-0.013632779319863762,-0.015406203939058258,0.007663762015754458
0.018281252847743554,0.022109912321771112,0.006224789590835257,0.0186477583808137
0.011947445592016985,-0.029440403302707772,-0.023222793086174736,1.813711099548504E-4
0.03252826221308089,0.01657258564927186,-0.005920547135334613,-0.013609139166117945
0.027879355125651484,-0.03505689306376845,-0.03149671729144327,-0.0237705797989172
0.010603966817885668,0.024408197799444746,-0.01453160101798262,-0.005222135500212721
0.02843598283199883,-0.012445606046068178,0.01856671006606468,-0.013137471648057033
0.03294076914587321,0.035053892666053854,-0.016217474296551793,0.019456096905456646
0.020550208635526118,0.005020857461580895,-0.0013385437454418933,-0.009788091897560684
-0.003083651194502046,0.011311905879719579,0.02436925445483651,-0.009456060134220796
-0.005431045217539857,-0.033451542055519215,-0.0350723948817876,0.007719853488037838
0.027250804492561773,0.02088687803133745,0.02885165042562811,0.017869654238360025
-0.02125781216490681,0.02831034389057542,0.003203709313872885,-0.03216621005861935
-0.01494773420378619,0.019549117996424635,0.00625521915523386,-0.00666606608397563
-0.026600400468773495,-0.002597780066982004,0.016730924469181056,0.03350658347924872
-0.013931460721694162,0.012849574833476596,0.015561358614006357,-0.023789083715384567
-0.03216178537803961,0.003818455946338381,0.022673836951720032,0.01860432200102225
-0.027287789355991382,-0.0139362326482117,0.012936378818223501,-0.025645906496973077
-0.032447540782791856,0.01588688792047871,0.031203797109701642,-0.03389419984407532
-0.02383287562069652,-0.031713815582559486,0.022720364580270477,-0.015723770945143125
0.028548525776851616,0.028246568281991263,9.901933303971752E-4,0.012010687981539724
0.02544964973751975,-0.0032954730519136333,0.033996147503128654,0.0028358849189348972
-0.03282521572525187,0.009874722317097184,-0.00836482106980688,8.119258434877222E-4
-0.026090893590904225,-0.013460769145568159,0.035479350573383917,0.010884487194810617
-0.009513245050559654,-0.011433540628525758,-0.03200475910227225,0.028640669831969404
0.02043672150544283,0.014042459206060648,0.022092311179053907,0.009892156676175282
0.00442252524887362,-0.02114116179848133,-0.006079342075927339,0.0022600799032498134
0.01848749005499957,0.0336424412678754,0.03049496270282065,-0.02122967420771956
-0.009588456451943561,-0.014041832607846971,0.005765783123837666,-0.025972165602693352
-0.0074554335841534175,0.021947454588666634,0.0313842770435213,-0.02300131480966306
7.236321268972584E-4,0.0053015494556356915,-0.022980806349017058,0.020402362054655468
0.007417432300678775,0.021900625430066885,0.0014469472512284032,0.02942398685343335
0.021104603762997054,-0.015887820541191967,-0.032447635367467635,0.009937883163626843
0.00630568708371336,-0.032670522469157866,0.006674193978496994,0.03257773207942549
0.03323865933553931,-0.02370040729478029,-0.0042581119221572275,0.018832364859628012
0.01779869970010775,-0.004355058649964556,-0.002156131912408675,0.011767288441533116
0.009869104481095452,0.015245196314542825,0.00947480056798948,0.033654386918544055
0.03212887679192428,-0.03132056181925971,-0.0160695017235534,0.01746987634303855
0.02073891556223452,-0.003764648686095648,0.029414710395235744,-0.019882243181633317
-0.0015867750504805003,-0.015076644658158247,0.021574552819944498,-0.005632926247232224
0.03451693911196162,0.003967422851345291,-0.0032665000719371076,-0.0013810514536658283
0.01376328932562522,-0.011261485432347555,5.146380142018528E-4,-0.007315307843934447
0.025111364005375163,-0.011555192151393969,0.029688943677338042,-0.014004148968572421
-0.006053408435112786,6.861083020971714E-5,0.032366575472417336,0.02731216863233682
0.026758701340859968,0.002203340355714241,0.004111125863383101,3.43075211830593E-4
-0.0063673853683824215,0.01941136753352815,0.030512853526442757,0.004914289117104384
0.03561612122554508,-0.023940753964138438,3.7348725815887496E-4,0.027308905475931677
0.018160434207552173,0.029516469316528765,-7.013610373078835E-4,-0.012888067356007487
0.03068775541334523,-0.024699609339259215,0.03314197297171012,-0.0010458227637897902
-0.028101181247288,0.017708844649313958,0.004923541101077622,0.0032515372378887283
4.885848090683056E-4,-0.007963373895377594,9.7025019208858E-4,-0.015753013786324804
0.02505018490894935,-0.011172895216178067,-0.026182717899697942,0.0033530592432007844
0.019581174264336317,-4.8790345927760687E-4,0.015685008384370938,-0.008521867138316302
0.03504689955472651,0.0259550275382514,0.0022865687675933666,-0.005483748233216908
-0.01904750445668664,-0.009056656980290005,-0.01654342983567353,-0.03328169423361524
0.011512397041856387,0.009242345520214565,0.004528621560839538,0.0011670566643966485
-0.0051762977275659,-0.010232436442241082,0.03432069661121638,0.02732690773135442
0.022932094569344648,0.021343021400026543,-0.019525133690017855,-0.010100860814365946
0.004933417175406886,-0.02548603418479604,-0.02108138019506841,-0.02718775930033098
0.028034759571265097,-0.03190980348009762,-0.030571382321902485,0.005025420905812504
-0.022474268963499116,0.02142352511550879,0.0279396401622648,-8.862638357050936E-4
0.025083962152842053,0.01679949342737609,0.01563843218775835,-0.0038819753951333663
0.007010487257486965,-0.011573893388515125,-0.0234579623681253,-0.022126240056034086
-0.022610775117509235,0.012598068703235488,-0.020980896403285827,-0.009218257860019157
0.027086751992323077,-2.2088638286024698E-5,0.016374565750246928,-0.0289386914847245
0.02502118808422589,0.0350541789930774,0.03188466171844438,0.024897285456322985
0.025411243137841127,0.034927696115141224,-0.0012441398566470571,0.0018729156410271647
-0.030972867364230834,0.02170937909101541,0.016852536126905564,-0.01564926385187454
0.012337788276330537,-0.00826602420456591,0.013655992494198077,0.008089624341406434
0.008038760776557081,0.03256007098896582,-0.02365720291751027,-0.011288303651333091
0.026486214896141697,0.007829321712748402,-0.005626870883203745,-0.0024576863191106274
0.029732107786785575,-0.030326886058447678,-0.0336620044731751,-0.0028014927744979892
1.1982271349653822E-4,-7.475721021856785E-4,-0.015740846831855226,0.034000205290619395
0.02196488332255237,-0.017608237971108862,0.0069337784855454734,-0.035186032935597265
0.018571288773651135,-0.002084069293997959,0.032433419621560086,0.003447694461135395
0.014920021072912681,0.001686935530961227,0.005762294066064121,-0.0011640852173381913
0.019936933494730386,-4.96073213043513E-4,-0.023071622903804743,-0.022963536053298046
-0.009731277901026885,0.01271202084022583,-0.026020355079597417,4.355784706702101E-4
0.022996746944074123,-0.002511522651058848,0.007982575749521041,0.012920131464793476
-0.020998037097730047,0.03132193908672651,0.02764439136643751,0.020305066781408213
-0.016207590255833515,-0.026441575754870755,0.010137449992796657,0.00755022043293202
0.024046392136325298,-0.0012983682362911059,0.014280978708257244,0.0012912384173353608
-0.016845451936470284,-0.011738860997996075,-0.01394742763046301,-0.022471712602031284
-0.021195165224685786,-0.0068870172746501555,0.028464106823602883,0.02145287669223255
0.030663995379301687,-0.020161922167845965,-0.03475873229156793,0.029998124867849724
-0.007841937292681369,-0.019223007635629164,-0.02517939655486623,0.015548110736368519
0.016817496458352794,0.003252635130879776,0.003956996286481586,-0.011887172906878074
-0.03267798427692734,-0.02240946697778404,-0.01725599810590597,0.014507739564255058
0.011573661808213592,-0.003590338704611437,-0.031648446308338476,0.031155107325083184
0.030795501272158174,5.398922817697396E-4,-0.010440883821905531,0.013872161408503274
0.03133249624126838,0.02010452275917443,-0.03052411419595525,-0.029039199663109336
-0.007224450203618265,0.03069345329338112,0.031302104866803945,-0.018506465526817364
-0.025949284846781523,0.004751975892755132,-0.018931305653502515,0.03281144020140295
-0.021612341482990436,-0.022146494599978715,0.018321539715665094,0.007203026761968663
-0.013138129551112883,-0.0035459137223614115,-0.020866002176240253,-0.0028995183226018864
0.02203620923404613,-0.03200041580813574,0.007276688449846268,-0.02963477405346825
0.023787597959138956,2.8899364060665234E-4,0.025969741487739728,-0.015415424529471904
-0.027358322668308364,0.035648746711851115,-0.010466037379294253,-0.027040142295432494
-0.03006232982534862,0.010023697853547807,-0.004122394188694603,0.007439293999169372
-0.015260350630537305,0.004709460823025917,0.0250330000490288,0.0033192541018099223
-0.018912029191252074,-0.011269854946826759,-0.029510807671007704,-0.007040689659301491
-0.029768166447434304,0.02133252853025111,-0.015604566445045803,-0.030840615489429804
-0.006809439364614461,0.014892126865965409,0.00480785895216073,-0.006841705973988945
0.030281282224685666,-0.01581469566377175,-0.009745977771153325,0.024943211946552094
0.007980666776071753,0.007168297992190924,0.01869513800137157,-0.0019453906326774573
-0.024549290501291614,-0.0015195577888720835,-0.008338468626041554,0.028087544433768194
-0.03269643023314997,-0.00863915690123157,-0.006430852458505547,-0.0045254200179719595
-0.0034013721906398647,0.03326319404003099,-0.020663118011769246,-0.0329337452291664
-0.010631670453327784,-0.020640985933315883,0.0017034552749654666,-0.021411229241883083
0.005852584932628475,-0.02338098715000023,0.02401381813938907,0.020703911743403768
-0.02187775788859654,-0.009472450355765383,-0.012455171780180525,0.005299721915547569
0.0053695174572055,0.014975291868572715,0.027710416054715692,0.007876881133228562
0.028284703848159773,-0.011777642098835497,-0.029261379738183955,-0.006905553861712488
0.03157998157114908,-0.03126216912753907,0.025838013658145545,-0.010523067430556015
0.012197323162710001,0.02474632917614524,-0.019963190750699005,0.03427463570360065
-0.004473524646842888,0.02449042652604179,-0.013539117235167455,-0.02755592643434085
0.011058413719893655,-0.01692572531088451,-0.026583983976538286,0.024842874933804937
-0.03289114608845084,0.03367838741271105,-0.0251792471351069,0.032102338116433066
-0.003597909081821872,-0.03306918227422747,0.008187725397681402,-0.007487430057077131
0.034676793259400915,0.0045067373739325,0.0036965994838639854,-0.006705093658265056
0.020021869755624436,-0.03138567892628333,-0.011796928385330679,-0.004386095449987935
0.009273816843410457,-0.03052041959539028,-0.031353307937146795,-0.01955943346359865
0.030822108842517404,-0.006031156256088903,-0.03032473158977983,0.005062590470213825
0.029827025072329538,-0.009543397786070718,0.013310973940109903,0.017874111562402192
-0.017565023485199307,-0.005797762019830954,-0.0323589692359645,-0.023655171459019422
0.026071762158204996,0.01798157452564915,-0.004471027365552747,-0.02613709880483863
-0.008372497976151916,0.005290150967926267,-0.015917201780014132,-0.02862819721741612
0.02843222785875997,-0.032894854019502595,-0.027388526582576678,0.014483181987265552
0.009460441212570614,-0.02936711556888528,3.3582064169539183E-4,-0.004704653171026411
-0.02690392442526318,0.028834467282232143,0.027651088460830475,-0.005018460911491163
0.027293836718210784,0.028113536297243655,-0.008837023326019235,0.0011146824852344972
0.0018686095936200076,-0.027137767732039818,0.020149177920515404,0.024526200434103328
0.029899452514348224,-0.012597729685810195,-0.016437780452264832,0.010204723757624955
-0.02218744580114149,-0.01044562674829284,0.00916283549719546,0.030813771158615985
-0.028471464074101636,-0.022700331900035613,-0.006472950871632948,0.0349452981834253
-0.035250674066547055,0.025737594561963895,0.0175539360333149,-0.028016350779198236
-0.030976599724659697,-0.030214279055357028,-0.005612095153555079,0.030424744182127594
-0.007126304374403432,0.005896728981846441,-5.71786624727337E-4,-0.003594730568643227
0.020069844559256804,0.028952940640568567,-0.03484098182354741,0.01309248448401791
0.010131137792768363,-0.016047391865649605,-6.149347486130649E-4,0.019513084012540635
-0.03382297482717501,0.015029431439762264,-0.013771353823140025,0.022323276587883918
0.03426524022300188,0.001917560803980367,-0.009015993698806506,0.032943272042308264
0.02634671929545606,-0.004312451340423094,0.0026741369938946824,-0.026244763925581678
-0.019108761756011186,0.024587349274838854,0.03273396464822939,-0.03351009411227309
0.02102474648926804,0.03289441294553272,-0.030103486191715774,-0.035189470544005896
0.005027879127883765,0.03560232434011992,-0.012160971903786302,-0.02797129264220856
-0.011581136484211312,0.013781165628131642,0.001016421448761455,0.02069058634405343
-0.03428474839119253,0.010618075807749844,-0.026019296238683126,0.0011408931966288352
-0.0011175461434046324,0.025197916318969234,0.010196532105275949,0.02629204615887603
0.03307460426455476,-0.02597214795628832,0.03094709958904507,-0.022354904833343434
0.014159224929241869,-0.0023913854922106917,-0.019772214297053177,0.014080576150400662
-0.027044308394333853,9.296094092169013E-4,-0.01624732569030859,-0.011516432189229747
0.024427533189523627,-0.01657002783372559,0.0331067002584188,-0.029986299379852546
0.02639490899901053,-0.021654161379673735,0.002236519373278907,0.030835115011207476
0.02289355123116389,0.016866095171593785,-0.03172180218992493,-0.03392887469445633
-0.03556005877362936,0.017592201567375995,0.03487835113576948,-0.014493447892880474
-0.0023209333340974067,-0.008010108050520683,0.029371654419347415,-0.01639735356360323
0.009110906938516863,-0.03160515420419931,-0.024931103196730205,0.0165024059169097
-0.020356464552680063,-0.005041702418311304,0.019278142993511237,-0.028080011559417115
-0.031400713084178515,0.018116471129474794,-0.021682697969548286,-0.02596663520586774
0.02812782566220487,0.029733120691530016,4.710570221924809E-4,0.001923686345837075
-0.0161608791574231,-0.018229403225428955,0.02706877960764595,0.03173094549415652
-0.03108255331839538,0.004501420594644902,-0.005665107710769841,0.0053224859227865365
0.024042308461922644,0.020426578513439674,0.0113303624296449,-0.009811521726536692
-0.005101173519602001,0.032668223869333365,0.03190806888949377,0.019672813399990656
-0.015383174540674418,0.005708176476407881,0.014892730466680063,0.00567413735777806
0.012619473217669826,-0.03122182696616946,0.003600625396301925,-0.03530979023269918
0.0023773380288827223,-0.025207300198849057,-0.01646360700133543,-0.013502875615962615
0.021916860560093274,-0.008375041716870271,0.0028415327475579746,0.009301307354936623
-0.023102557452303614,-0.007992411895750094,-0.0023399464920922444,-0.006409998897739029
-0.02662889756617065,-0.03334165036363592,-0.029737762708245675,0.01280658997656979
4.531528695906964E-4,0.002108957539527022,0.018884549693437745,0.032922083205899955
0.02969003527128214,1.9098034687128201E-4,0.028550767454045223,-0.03259666952969725
0.033424825228612204,-0.007188384987636194,0.0269935049325849,-0.009986373811884566
-0.025977209436461805,-0.003957667812977107,0.013372099369132015,-0.0050679853800556195
0.01621032388208704,-0.022020116570773827,0.003847885875326293,0.017003779454892114
-0.00649550622510698,-0.001216981895518783,-0.03494923096648896,-0.014054361244326637
0.008019345356011884,-0.018250083216914157,-0.007627104348085015,0.021325266644949263
-0.007152865640201827,-0.021267470412054235,-0.010545908968549938,0.009374089425959957
-0.03308317675873976,-1.5112861145655243E-4,-0.005520187127604666,-0.0038330092351475734
0.0026964594683755658,-0.026488150844034934,-0.026667730941407425,0.034969502714257195
-0.0026200836083755744,-0.0236868376526609,-0.011271979417717307,-0.023988423865399938
0.007652957857815661,-0.02158781575266448,0.008508938068936038,0.011238249093184903
0.0070420878582681395,-0.01431240985173141,-0.027388635115714193,0.02985208105709461
-0.021671986195109412,0.011676491308385398,-0.018820720141043395,0.03125764985093664
0.02023723111568408,0.029741238381086388,0.007624971351900801,-0.013136944776071031
-0.025135525946810927,-0.0056114014186972525,0.0037708602859091236,0.024624435530953906
-0.001957310285351156,-0.016295011310980632,0.01563413516067707,-0.018163820337662045
0.022402422683506687,0.009778189052987357,0.017990933925143227,0.015514624036693
0.01896623828161672,-0.01572411662282315,-0.017075910722621584,0.010695353971011859
0.033633633011568104,-0.010126776246835303,8.392131401123507E-4,-0.013256687464164512
0.023063322044076094,0.0058619335737599,-0.03237347690295729,-0.0024947329262788726
-0.022486913937616836,-0.033150166136030904,0.032027790696671096,0.018189910175632817
-0.031058961780405663,0.028949459318499224,-0.0027931604603157675,0.007677260906706056
0.0244435987594084,-0.008395898166957707,0.023753747249398202,0.013401802207588479
-0.02299660684781311,-0.009475121369057132,-0.018289575098780056,0.014660775386651878
-0.002411540876460186,0.014357263026014318,0.005822617110381789,-0.03537093445711305
0.0012783135268537443,-0.015999507127271724,-0.03283901569433744,0.02311079694410799
0.004279601366709247,-0.013739948392928587,-0.01911297189845371,0.014846328169662311
-0.023357465538657734,-0.005783795431326542,0.013058357291715297,0.008810320814443051
0.010254190371512206,-0.019061466788001483,-0.02934946731107455,-0.008027726581214787
0.012787091226552041,-0.03245256613732995,-0.010495002808024394,-0.0040492629074595846
-6.590804575083778E-4,0.0308161809498224,-0.014555048162388798,-0.01770618141926104
0.017910842372356704,0.024418531028154798,-0.007097031562269412,0.004817773594479144
0.014643764715952044,0.0019009304268592028,-0.008190793962654375,-0.020097124047228226
0.004682582360197064,0.0016853018622725799,0.03367345596071897,-0.0027997012379162717
-0.013514961320541561,0.007367390415868813,0.005332383713461744,0.008876825440462519
-0.018201640261345464,0.021089782761182632,-0.01563290831808636,0.012027595668297218
0.009851722668639054,0.0017108236708964913,-0.01703987969352132,0.01605841559085191
-0.0023932925082528547,0.026801115672286546,0.012637296147285551,-0.023021114695014236
-0.005013787791448478,0.004493801091649985,0.023716872449946143,0.011165181316717086
0.021640555803098836,-0.0028438352887476745,0.031225159750690998,0.031058909894851827
-0.005590774046548397,0.0030072992000706664,-0.035424384837235694,-0.02047979939692004
-0.023398740125183424,-0.001171719947254339,-0.03326267507954135,-0.0016446509920506266
-0.026870906810510478,-0.00612937395552722,0.03383682467380948,-0.0076815801171257435
0.026350063668210487,9.794946469299584E-4,-0.014668320763812127,0.00362352182086452
0.008692736970690798,-0.007913916346621981,-0.008168298402896495,-0.020928996774642487
0.00568868831749824,-0.03430707992812705,-0.004072938238101176,0.023096201731015946
0.006344840844860776,0.013702758992320672,-0.013308412517419044,0.010728048348713513
0.018814662425280626,0.021079032851659657,0.023903442952453155,0.002442950972812871
0.01582207996817938,-0.035542850569258426,0.027716455001644852,0.007687381863996499
0.025661639156637356,0.024388239483824403,-0.014440040499677627,0.035415642790667085
7.626877724337469E-4,0.011202841563439286,0.030826665710201845,0.019212244835691145
-0.033267158889642996,-0.023042265078499054,0.0029790184137121548,-0.0030107131163899306
-0.021241447183831107,0.008225069380166754,0.004635296238457563,0.004210762977174411
0.031807386826639916,-0.010050524598680523,-0.004274746971576114,0.030838953531450886
-0.034099430290285705,-0.023314513963494772,0.007522968319269331,2.3783454433233542E-5
0.029405331480433755,0.016062515037975116,-0.0016587940506884863,-0.006279796722590832
-0.017465797076656908,-0.013609306333050176,0.015826830359498584,0.03482572660542732
-0.025862826657196823,-0.013068913613322693,0.020258770171970503,0.014955804625842499
-0.013037769400232276,-0.01913347590615103,-0.021719801576063562,0.031757694405588885
0.012354044162680385,-0.01784420616545862,0.0031235871142264934,0.02833024912022747
-0.022095107204959226,-0.0356301485250818,-0.016105745557183866,-0.02864296342070714
-0.0021502655892899,-0.023155142966394614,-0.030160719757009336,-0.007651254150240143
-0.001884000297169612,-0.027036146572382284,-0.00954497920925041,-0.028837075887358263
0.03372853688538263,0.007932521003608153,-0.0263149909638059,-0.03444132349796402
-0.027629704408044513,-0.008568242080281618,0.029745850829450915,0.002376084607140068
-0.030548670338492883,-0.03388741627828376,-0.011386880206616077,-0.026782303583180928
0.009354391686884775,-0.001799681526748538,-0.019938607573817053,0.006424956275419502
-0.03004317514763228,-0.0222686424239686,0.023634505816952006,-0.03426378997670017
0.022545769813165056,-0.016492704007209504,-0.012730998043526929,0.017229162488318427
0.009408037852000117,-0.027597505421683304,0.03135552320797791,0.03307955264082252
-0.030311144833279624,0.003860001850996407,0.02669896194186322,0.028913461297698728
0.026548994878985314,-0.011154517770139032,-0.02113526820697114,0.013983485415782947
-0.02754957379508049,0.033992723873721625,-0.0013653248302756132,-0.034841770692013635
-0.034658696026663334,0.025234633217876896,0.026959823176033806,0.01655329090341348
0.03176799283257792,-0.017775005453279615,0.0019495321074459657,0.028563203073861274
-0.004532362679533188,-0.003996677116431646,-0.00779192097797566,0.0058572800609160355
0.010880896933870995,0.012265492176798114,0.021331090933716546,-0.03185626277463377
-0.017972925531494932,-0.024012035740192506,-0.01059723457770955,-0.03199844002430041
-0.012322987630820872,0.01756220078117672,-0.024955649679341545,-0.035311777665640386
-0.025709900865932417,0.017316342390008337,0.022414808635141073,-0.0029050379250326955
-0.017371100441612147,-0.0033351383834952578,-0.00885855366244424,-0.011805208864470076
-0.03441162293526351,-0.0344714509264254,0.017848953349324924,0.001673407051112255
-0.033729550370221656,-0.007992985285011252,0.025499978141949216,0.0012410916142275644
-0.024399502682522754,-0.012431947145366724,0.02911955372371204,-0.005640929684046732
-0.03305510119599705,-0.005436922794583021,0.03431790328947992,-0.003240031298321698
-0.010646962942652653,-0.007699283297845597,0.02219813023063491,-0.027528062770372057
0.008091573849473184,-0.023146406465676457,-0.007977750316901702,-0.03365022717070156
0.016780921862878044,0.006713722708299737,-0.028071405988131824,0.021255343016345962
-0.020608451631959138,-0.025756410577085415,0.024216600730285226,-0.028131570534737867
-0.011324808224554006,-0.031110089574498002,0.029538714289705448,5.417227896141741E-4
-0.013366790874730798,-0.035071728072302404,-0.022298255048487224,-0.005340964838016826
-0.027471200939355747,-0.021809924984077,-0.034577624155849425,0.011288316372856662
0.0015849838321662438,0.021799781408603017,-0.030454885825225746,8.094054699221073E-4
0.004461085847040136,-0.026661059241817546,-0.01004309899909515,0.014122203484051361
0.03379779287938163,-0.0019261475159427638,0.009450786737992559,2.2385554101785055E-5
-7.524221702067818E-4,0.005986010076386439,0.00865231537257033,0.02160194353404586
0.019328271844648123,0.0015500165826427478,0.029025414233480235,0.024214603257498385
-0.01590730446335818,-0.032016153222292,-0.03337916803669988,0.012188787701403303
0.02181657900980337,-0.031363041175714416,0.03483681519152812,0.023301841512216925
0.021407133950507376,0.02085859378887152,0.004153906622433846,-0.01886756565865788
0.03324531195156198,0.013952095508868237,0.028062110159174425,-0.001891305709191396
0.010537292658366441,-0.010994532004327928,0.002784811232106575,-0.014368334583525693
0.01859619504582726,-0.028839961027982718,0.02752341515403195,-0.008264271334273036
5.04580713152937E-4,2.5138067047345697E-4,0.011519623480298107,-0.021433097126962612
-0.02097231136639923,8.861336637309009E-4,-0.014062132320021726,0.008065592789387774
-0.00669364889557247,0.009522724741766415,-4.562018371853799E-4,-0.025262939291396114
0.005243669625245681,-0.02333118571630891,0.02926428880664131,-0.011719961764709654
-0.02576393659539104,-0.012302572351660941,0.028893891288619647,0.021024108782309453
0.0036785375805889822,0.03460178992278613,-0.028011238993184362,-0.007037730432903948
-0.03545893178755756,0.01256428158685937,-0.02759083452262831,-0.02551146988433272
0.023342589730484038,-0.009659762940270971,-0.001780847512545189,-0.02655334193082686
-0.027036650892198904,-0.007923716023972158,-0.010279980541954677,0.002778546574162613
0.006404574252204476,0.017870120622004146,-0.023220668081158396,-0.030834273385050973
-0.027389469363726243,-0.014910947039585929,-0.003147719724992802,0.02040039475700013
0.0015547288257085207,-0.02636825005105557,-0.023144976612781365,0.002320952582549593
-0.019946158522404753,0.013106555293244233,0.029711837493228296,-0.020398314413242087
-0.020547444326527886,-0.015755129688141148,-0.026974480951957605,0.00783846538780051
-0.021470570832013425,-0.010040664464083034,0.01784872782741352,0.023667700684134416
0.03094256467672571,0.023703656781806123,0.030946627727197362,-0.012346174971875248
-0.026267701456040387,0.030888375130410067,0.022954215812720162,0.03375042156637845
-0.01763058787100057,-0.009198649783751178,0.03222801092540516,-0.011245228662254081
-0.008731547023518207,-0.017870993082259392,0.007328077643284955,0.033202805272549374
-0.02463063270098015,-0.008371775592482603,5.730708630095754E-4,-0.012468728122374515
-0.02138712017381416,0.03145830506785846,-0.002974314037056107,0.03430862205147281
-0.032828818875340726,-0.03041270924400786,0.0019552471307239597,-0.018495196260301296
0.01445655730137562,0.020349641216961353,-0.010397799514929591,-0.03106050720412439
-0.03454348101223337,0.012919472724916524,0.03126676851056184,0.004890890085350923
-0.030496938458025414,-4.2925280243023833E-4,0.00878627984175049,0.006839940068678364
0.0014432343740358178,-0.00852655210048196,-0.024877703929126065,-0.030077529110366794
0.0010900489187680856,-0.018980904084280745,0.004589665307239567,0.02250416947970025
-3.397571852918474E-4,-0.0075743789567561115,0.023324072187338715,-0.009969950036580258
-0.02863869948410437,-0.005669811819119328,0.020256018357776705,-0.007418805312369943
0.00661543831930881,0.0019421699054160552,0.02430606292565695,-0.03174851003971357
0.026194308309891612,0.016693795530809324,-0.01001616362380682,-0.008312425587452384
0.0013878857500432482,0.014221030804371211,-0.026864720919048422,0.016925333427984537
-0.015159556633561888,0.031681757899529484,0.005376495849535569,-0.016544905395481035
-0.012775300092709399,-0.0066825508362475805,9.19072051250254E-4,0.022589478405692462
-0.03544729810008753,0.035372404320667655,0.03366943244575207,6.951121710591646E-4
-0.0028560194167509753,0.019515732427630897,0.03445501653912114,-4.0583517332504204E-4
0.0189125848931935,-0.035109358473387156,0.021759330166423146,-0.007396118292335489
-0.025483165225614855,-0.021166499393944414,0.02958863060696995,0.02480281738720349
-0.002219712367856126,0.025682966513530303,-0.005370583892308538,-0.034884210093335394
0.024065431021879427,-0.007496557798102321,-0.013766267084404305,-0.00323285820621997
0.023366006448018506,0.010912477690188868,-0.012365096385192325,-0.015880718499260243
-0.0015087150507959168,-0.00702984996116502,0.03321588667266981,-0.015674618028983647
-0.023637543770816,0.02243112312676262,8.55320557161858E-4,-0.007035839758631084
-0.0036658892723984357,-0.013107739302427042,0.035621321160750674,0.01180746732406257
5.37252937753592E-4,0.03235687390407904,-0.019850078688480946,0.0018462966590548288
-0.004020453870214442,-0.010344093126023746,0.019771799844123326,0.007016089768016466
0.017245126879934625,-0.020601608999616043,-0.0032224502777732297,0.03337132770855236
-0.015111334270939896,-0.03397575199464888,0.006344321291995705,0.022208746296224997
-0.013292421216446564,0.005510822682531599,0.010910916370429125,-0.013371379300714525
-0.025319153421987643,0.006312513828425702,-0.014269587682143248,-0.012152097356163467
0.009355214975963574,-0.0079916113168077,0.015246789024875994,0.015101586839154538
0.03283416704145023,-0.030996474644993655,-0.009017019838885587,0.016129848878121064
-0.027242508006429626,0.015708774297499492,-0.008523407659686795,0.014516131503525515
0.02310029151006409,-0.02978916145089463,-0.03029153794893826,-0.016561295574839135
-0.006704544848936567,-0.005997768949884446,-0.020873559047760504,0.02018605620797291
-0.004934049080359007,0.009485984147310153,0.033093806205960224,-0.027559954694623807
-0.029659396915665395,0.022076432557255117,0.02531874015601155,0.004285859441011522
0.007258071574237947,-0.013213017589339023,0.01903067365990003,-0.003765905323856733
-0.018153166532786733,1.8062678973620322E-4,0.016751877914136473,-0.03411973880742237
-0.029070456143811554,-0.007202531852654119,0.012032941753395414,0.006039101889437182
0.018019877981287673,-0.003555021287462337,0.021254607981893367,-0.02226284058416799
-0.02288789172536359,-0.032694867799284454,-0.021486771190506813,0.018869436098804843
-0.029444667127732325,0.014624372525125634,-0.02664932070102814,-0.0034381528630059513
3.8756998655033875E-4,-0.01996520086593146,-0.03180165738427003,0.03139141985552295
0.021871292050960972,-0.029005732917740484,-0.03210574980388309,-0.00692843190277858
-9.435834558127604E-4,-0.024784487857509162,-0.005492295102117999,0.006226518311850303
4.218532969726893E-4,-0.016425691742498274,-0.008216950234949696,-0.022330996436790856
-0.006835761153006888,-0.01157772787698215,0.035640590801904404,0.03384427831316025
-0.026845749811132302,0.03304098595769375,0.0326450400891579,0.02212057118001908
0.007112910503252794,0.011222412110573773,-0.009015214450575276,-0.014010247211405782
0.02426852210278671,0.0026476920163609682,0.00552783283564795,-0.021827650371092973
0.01626772513137128,0.023005083204866494,-0.013163552508553951,-0.026128516864276315
-0.025264397575239343,-0.01047071200163589,0.03067227341896034,0.015028731599163195
0.024885993106153144,0.018956721191035406,-0.031448190597329236,-0.0032238584282766047
-0.012234780675359491,0.020051600770401648,-0.01238498687831751,0.014333584042478531
-0.020570690624306973,-0.01987709893932227,0.020948411242870578,0.013701484001555034
-0.014891144964627425,0.020081306827724486,0.011565600684480974,-0.003894996641912944
-0.014148118586440755,-0.027686543645433173,0.03485466984912437,-0.035221138583985435
0.03541884128527585,-0.03497464965025362,-0.022948592899786645,-0.014905449481426452
-0.017181955647539483,-0.015205702804716961,-0.01483300376598359,0.022163809699132807
0.021866574915848876,0.03341798228307431,0.03456318848137904,0.02043012093462543
0.0265846429379053,-0.016782262747980805,-0.02672929218320269,-0.03221011775640792
-0.03555019757906872,-0.015323264430677653,0.005823383564754668,-0.023009599479607082
-0.011403016707789544,0.004851563255997116,0.017029500944101793,-0.009341313316911046
0.013243285885712795,-0.027307291081252863,0.015346588561067541,0.03449176077620812
0.0137146063169988,-0.020097342481130494,0.011209578041270672,0.016186698790930043
-0.020516511858951234,0.029135413595081122,0.028469743124919372,0.002718168132197732
0.017677880851983144,0.025996647305003506,-3.888243009916928E-4,0.0297898078041694
-0.005967269676574231,0.008660458928480039,-0.020689707829411597,-0.01982529316252266
0.02401395594586598,0.0065801693095232025,-0.020228315781310367,-0.002776789107724463
-0.008784636948730717,-0.0013943634654160625,-0.007704273008901839,-0.020550650008904985
0.026696793112193445,0.016683072870922362,0.03143738392188147,0.011817706086968686
-0.014390332127296734,9.354356000548653E-4,-0.027168996423967223,-4.773415666040684E-4
-0.012723087789308623,0.028418568474541092,-0.028761118317079677,-0.0348278342117226
0.030737266923104384,-0.007708634717624521,-0.01603193648631211,0.01652055345327029
-1.0466773849632932E-4,0.002450395885188042,4.541197545883044E-4,0.00627684482792721
-0.03082341346695581,0.026170693016041434,-0.006229371455770072,-0.02699574164293342
-0.03399146787375464,-0.02700838055373985,-0.01263327781693271,0.01989066866265443
-0.014384380376791912,-0.023221365705376043,-0.027887189451450627,-0.020047096665402876
-0.009630388013293904,-0.026300582676026134,-0.02003296614566383,-0.025882763393344735
0.006004223883161644,1.242651282035226E-4,0.006682788996576379,9.914789829865295E-4
0.01999448844793497,-0.008291725978702875,0.02674847604731634,-0.032042855222018295
0.008554322277091707,-0.01660385449711425,-0.019880049544626657,0.02659702162091948
0.02756339980759895,0.02573318525732101,0.009983271200596507,-0.023678032207186527
-0.004663940702909715,0.01173892001263744,-0.025271984298313326,0.01682713710032601
0.010353496221228102,0.015094561570944402,0.0027697005541508085,-0.0028108564410443543
-0.02371614768849547,0.02180127973036635,0.019861919660363603,0.00906308063392014
0.011807535769466498,-0.0013924697183514481,0.019074293207668576,-0.02298308016670069
0.03199836698421314,0.009119825880971558,0.01812835071441672,5.457879120697937E-4
-0.031577901277729956,-1.822255216050242E-4,-0.014638111520020456,0.004362947576589386
0.001839371075906808,-0.010434907344174633,-0.032828136826818094,0.02038841006678717
0.008907665871735394,0.007754636094900125,-0.03292936066375662,-0.02354875733080585
-0.026607302866079832,0.006189585689222475,0.004192592630859492,-0.026174819741329385
-0.030600314042843857,-0.011618924202144647,-0.027002309475104562,-1.464643736288629E-4
0.02935356311505842,0.028329382467529488,-0.03016369671084853,0.004891445879086291
-0.0011618020719979735,-0.03388102183008343,-0.02415401529890213,0.02090917951821762
-0.022343498857483282,0.028034002439580125,0.025192570198990516,-0.028827277680811825
0.020614654196926804,-0.003250424086906449,-0.033677292863413734,-0.025596439960457185
0.021457872997358615,-0.01797512110450744,0.035469716746250435,-0.032156636515591884
-0.009904596288705072,0.016532576866899795,0.003676558434395946,-0.017708982292223816
-2.1986513282688802E-4,-0.02783949356569799,0.028837246198231456,-0.013316636572194798
0.005226617682767901,0.03312327086712116,-0.0038973499643986317,0.023209951416868047
-0.013466615190427633,-0.007975700475117118,0.034841786315766274,-0.012698972242252478
-0.004644635898607488,0.014444588772290393,-0.02920860765959688,-0.03543375206366056
-5.948655933093044E-4,-0.01739664428936998,0.021598152424350953,-0.02950278259462076
-0.01982998742735298,0.018837608584855663,0.01684809437582456,7.211334807883801E-4
-0.0036326241470815493,-0.02130671824414434,0.0027777443101618185,-0.02097991072375365
-0.02641202428006663,0.014313749777228844,0.025272223073737547,1.196092604207194E-4
0.027167018530543402,-0.002785812013326873,-0.0011406982480351574,0.019715116238787578
0.03226035762281068,-0.028866497490189214,0.024490413718822844,-0.017355713864071094
0.03220169283156542,-0.003049771927559418,-0.035081485239496085,0.005649498801725571
0.007916782370056101,0.02647464568858148,0.0020540471986227743,-0.012629616722064013
0.02291859675486068,0.015981837782266126,-0.006702079724954537,0.033318804458575546
-0.0064476735105214456,-0.03517876529166938,0.018981371666569484,-0.021160582256189442
-0.0038297883269162378,-0.009540489542140443,0.025642153316673133,0.026322004191655438
0.001374821751026635,0.0034128544687711537,0.004419804913109324,0.002932568997626908
0.029510949527906005,0.016314853657476924,0.0331715316246739,0.018051218207379774
0.015089050035227529,0.010450324898063898,0.020722649557665215,-0.019661949586321406
-0.03468191972402447,0.03187062419182653,-0.003409263344324641,-0.030952360367682896
0.028133718314974077,-0.013151184167012497,-0.030283326955891095,-0.03562108304868972
0.00809942064877111,0.003798675312421604,0.02651016097646769,0.03276690941546856
-0.015753476242495155,-0.031331502155720455,0.010528883783817389,-0.01432571072721834
-0.014597391682818563,0.03479895708274015,-0.035433326517752904,-0.028678286892825776
-0.00896146252839795,0.02739491069092749,-0.024939424078762977,0.010729476532134186
-0.003718820629471091,0.013111470844040171,-0.008591180711074564,-0.02066124851017609
0.025546732207318575,-0.02937696851844616,0.027243286175105602,0.034745878908361644
-0.00880754271725405,-0.012024775970849482,0.013323414727121237,-0.010810397381023469
-0.019010386365175713,-0.008896631470042524,0.02683274177947899,0.028855538663106056
0.008789927535042312,-0.0011981361582099684,0.0267018748650166,-0.01680936894658709
0.0025606949803703358,0.02629526144655775,0.029221653166498746,-0.021374967269970784
-0.03170683140278645,-0.020488152754450387,0.030652308196435787,0.005097826394063136
-0.028317659911008264,-0.03566549061700374,-0.0013424108154564476,8.731968807790119E-4
-0.0038963285590093016,0.005518471143679135,0.02997292615909003,-0.020764895835919124
-0.024787121339122475,-0.015827520341774926,-0.0012106638364538028,-0.03354263922718285
0.02637763895581581,0.008511595752720522,-3.7093135795814025E-4,-0.008787965925548202
-0.006634218652109582,-0.015675930688398097,0.020096059121883343,-0.006207424663278567
0.009943121914671026,-0.013851943111810736,0.0018043856016588325,0.028372280611781903
-0.015849350409107937,-0.008544553371204806,0.023241019003263773,-0.03557983181308979
0.023641506385147004,-0.020194849186444062,0.015784546984024393,0.010873652953553928
0.0015728563669254597,0.010049055134638156,0.031419780894176824,0.03220421902286685
0.03547253540335303,-0.005781404977813136,-0.02184711662395054,0.034435311793334936
-0.02903088734420463,-0.004150782869259705,-0.029777090870968866,-0.029100630937487007
-0.028221166322313487,-0.008698102911450147,0.024613189582846945,-0.011634050201652812
-0.013347263131513614,-0.007966983308722267,-0.028917995203176568,0.029141592757404217
0.03081449391529975,0.014483748447337706,-0.009810621501186056,9.476505270940919E-4
0.013642945829409746,0.009602848920027628,0.02598317195627837,0.035245654948829364
-0.020908317458036167,-0.006677635309183281,0.01692916389727541,-0.009523324829295212
-0.003366235943443631,0.02408552483932254,-0.020103735889824406,0.015111812755471035
0.01999460914484172,0.0017194448111337093,-0.0012539058972373812,0.0025382031284847534
-0.02393665731316979,0.0319981120527633,0.008662027847572133,-0.017935462590196696
0.0038737151204884454,-0.027522355810582842,-0.001651369983559435,0.011868634422804454
0.031943342553351226,-0.030323146618408126,-0.009593169355867508,0.0014847903195469511
0.025934183795886023,-0.027366689321649366,0.004072314083610425,0.016381394505484467
-0.028435231381521778,-0.008887026882954618,-0.01148383830389356,0.00677141754042878
0.029065621383554063,-0.024615614907021986,0.027438572577103748,0.02492835629360872
-0.03344071888680206,-0.021383344971583125,-0.006000151017963196,0.02570924273110617
-0.015302136822948856,-0.035455151014418394,-0.013281763760807388,0.03327732070637998
0.01698362660714147,0.027589627258436694,0.010699492930673835,-0.010432371476420288
0.02875086349175361,0.03452722852227322,-0.0026369728279909826,0.022512959927405325
0.018159778839843148,-0.006367586611480028,0.01719748225235345,-0.01895396036439445
-0.024969640576043624,0.0020843344336642297,-0.024028073455185227,-0.009712105666001773
-0.010178088671035493,0.012016527329346681,-0.03175268571371743,-0.0024518298313745968
0.014279259705732239,0.026638191291585928,0.021828560106387902,0.03197002266226709
0.019270752424264306,-0.020683109416052295,-0.029354706907683055,0.019518259885229948
-0.02424391080863264,-0.03175940635785792,-0.02729851147573005,-0.016851043161745936
-0.023489464318575404,0.005464578309595257,0.01560417802225525,-0.03338087665873046
-0.0071013188870173855,-0.018958730176918404,0.018556391702390214,2.2351397086089325E-4
0.035701632181096066,0.014922695752656978,0.02221562162194137,0.017398607879547154
0.017483162342172967,-0.01618510605807722,-0.01397923218700104,-0.007789245403685259
0.00949143629801625,-0.012113183687732659,-0.01612733806441835,-0.026802730513382014
0.02512807902113908,0.010572525461012401,-0.014740461550348607,-0.03361938934288431
0.010259195070449534,0.029109994085598,0.004627353274605776,0.0179997386544447
0.003404809862243563,-0.013467531654737144,-0.02837114703514272,0.011242515309821802
0.010878024112237122,0.03337702608633984,-0.03479189532194298,-0.030155846731455556
0.0042557436578750454,0.0018883807116232831,-0.02874703734704297,0.03450071573914419
0.02026364890561627,0.019569403426812466,-0.001884642923885703,0.004110337058982581
-0.01759357762871319,-0.02310777935449504,-0.02232290259316708,0.032227686815670814
-0.014346478879418645,0.009827769936536397,-0.026311842802363344,-0.019843886351073883
0.030513644234709286,-0.014205316260854677,0.008402131058080894,-0.033554389333281975
0.030562895191851583,0.029923988376340777,-0.02903068935421594,0.008769285138494128
0.0036677342124334517,0.027494792420967903,-0.028456036674620367,0.02731151326054046
-0.014993859154131768,-0.007524055992882299,-0.016952501300359697,0.022119000234357616
-0.029694038774841905,0.034942571479358614,-2.1245608244306602E-4,0.0024376383983854485
0.005623309948227205,-0.020681778188572315,-8.862578652362799E-4,-0.01792132092673282
0.004087324724069107,0.007816163613270026,-0.027958709343158226,0.004637807072418322
0.011016064545066984,-0.022102197185713664,0.01831770120328559,0.024917794783170286
0.021974294116525205,-0.02576841603938037,-0.007821692785131833,0.021048247776367657
0.004362391018817295,0.0054066971089225535,0.0014131757958222302,0.022144563426263364
-0.02977371543014282,-0.02452527681593723,0.014273095867795509,0.00979873161630062
-4.020656050074817E-4,0.01995653660731806,0.019240098868054584,-0.015538383067423667
0.018590055775981947,0.013432495652838987,-0.014648899169344722,0.010411001665110914
0.004063739697887883,0.02487219973249382,0.03403966783458584,-0.014713931390606807
0.03419330608713558,-0.016908389191293925,-0.017973033470855024,-0.02610841959232975
-0.007367907543536976,-0.006376673871128041,-0.027262605246384568,0.02109155847685111
0.023897938647402597,-0.009608664279678412,-0.017002437594403317,0.019364340074078716
0.028884709122253424,-0.027074499028247045,0.0120403111872978,-0.03500510791530117
0.012221712011936989,0.018608468311634672,0.020681531462677226,0.01917201086600967
-0.011041176287243142,-0.0027746556140600467,-0.03337826817253519,0.007086141765060297
-0.00831944211520981,0.0016277919014796582,0.028400179496609418,0.022072259599615618
-0.029417235581539823,0.026297004529107604,-0.016368182654707655,0.0013017532576613602
-0.020815342985674466,0.004912951998084926,-0.008611355073330686,-0.02409330523914282
-0.02606064948097877,-2.3870738274276576E-4,-0.029827198093457033,-0.033316128849712495
0.021651617246145116,9.105726676292836E-4,-0.005460875965652312,0.014402915061784365
0.012918898087992757,0.003063593036912629,0.03052068258882626,-0.02309808239367972
0.013141163712652774,0.007614570676254984,0.015169070986660357,0.002628085335663159
-0.009678256696773326,1.9243775026261956E-4,-0.029053302666218295,0.010821340057301392
-0.030539296516290875,0.021138761962482176,0.034501435428046776,0.001602818134644357
-0.02828222261144835,-0.0196029278450455,0.02481602169032404,-0.005008590396193096
-0.02208698816770068,-0.032767611660629616,-0.013858776223654157,0.0294395196621655
-0.008850374846498945,-0.00263409952036419,0.03478149511765605,-0.0018866637064208977
0.0109486629379595,0.03542031282250711,0.001851599619617915,-0.014047323890387715
-0.03353644770351966,-0.028545906117101838,-0.02164486911343074,0.012096881481945702
0.010334046265576186,0.030271626649651454,0.022425189291676015,-0.005636932096699479
-0.005226346932161088,0.008181579205703067,0.021102841816443306,0.034169467280089905
0.025121212236582043,0.024919040272620777,0.02054151651215296,0.02483487016269892
-0.021083184410492457,-0.03188304141065597,8.257504832653167E-4,0.0171519713900678
0.020610296679137705,0.027769420941176556,-0.013456150404732675,-8.739277029077494E-4
-0.008111773551522268,0.014114803673512394,-0.02241620113147867,-0.018836865653651263
0.02357302911711274,-0.0170907925816155,0.03130392751942823,-0.03098582235595407
0.032030238858165735,-0.010137240486955024,0.005439954318512921,0.00625319097087762
0.01157094760498184,0.01467057330990415,0.02527521628082771,-0.029594846029292812
-0.013621594121471726,-0.03246195533779609,-0.024520898020801627,-0.028829466044134895
-0.029289743272073843,0.021353892030080757,0.019936996076014665,0.01650794583598962
0.03378131567844303,0.010442230064623623,0.018769113146112314,0.025428230978442386
-0.009062948620169802,0.02074604834087171,0.022760703308486625,-0.0010470168183197917
0.012804475894229644,-0.01051397081420418,-0.017777575823125596,0.001356792355070878
0.02839113214440496,-0.027071428849370187,-0.026365827242228794,4.8664968979367923E-4
0.034715595151849604,0.030322051932340333,-0.019371640454674866,-0.02611037917341076
-0.029752916290991326,0.011988388387274403,-0.010510837549240364,0.003021325739431764
0.00606491046269237,-0.003217937356277248,0.0300893597665043,-0.034391463623215955
0.022211059132996216,-0.012711537369174908,-0.010018442945152375,-0.01218876876962656
-0.035281987333671355,-0.031594906708598776,-4.3558953470766715E-5,-0.014296464112832554
0.021034002544402623,-0.023688429372025546,0.013579824119596448,0.022521768898822223
5.972553688849552E-5,-0.013863133186667858,-0.0041339162644262115,-0.005188368861890162
-0.03318679560298622,2.443201680362578E-4,0.030236189617134562,-0.0044434129729247
0.0016039646679359906,0.008753666701927558,0.011873156563309735,-0.012011168940073012
0.01732882596229484,0.03451199929663176,0.024676262013621435,-0.0027030056208356412
-0.022567965164147313,-0.023925279565797042,0.021010158239023073,-4.381316398032395E-4
-0.004399407771076468,0.014636313734497114,0.022092635802930957,-0.0033005710803620386
-0.0304025258083609,-0.009597440488905873,-0.018156450529372772,-0.027157367657228933
0.026005462666339282,0.018051977050028638,0.0015828246241992305,0.034881352825786166
0.0036895923115180876,0.018639660654882713,-0.03231572239061082,0.03364499372369538
-0.002763885332995694,-0.03144630655126851,0.019376778844231606,-0.0045168539828807155
0.002768669572594029,0.008129772616472374,0.007129949991973743,0.017163874438073712
-0.025054962378884542,0.032690696849055706,-0.01165858883049933,0.0037384865102989898
0.025051027567183165,0.0027521104281755665,0.025350466343632715,0.017994559636017864
-0.002678121261228461,0.014212393556475626,-0.0013819620040816522,-0.014552427818909346
0.00556718484370642,-0.007286474958554626,-0.026904197171068105,-0.005401925359898918
-0.019453083003493646,3.7303337424497707E-4,-0.03223571319489462,0.02813811120071416
0.013341312825826707,0.028025702501313296,-0.015512705341656979,-0.02493166150420621
0.02187708378645243,0.004004238523482841,0.022273495366323143,-0.03528964070487629
0.022613127051264406,0.010405323300497135,-0.029212182931058792,-0.015157415805741759
-0.0250709820702321,-0.007924590838885161,-0.011903041109421014,-0.03245809845669613
-0.005421440680205891,0.011633343878419307,0.03179977008030818,-0.02763836900846075
0.02254389684332727,-0.0268242225288668,0.025757675616525366,-0.005161524546193619
0.002523207092494137,-0.0149734209261566,0.0027743008146142237,-0.002385348177572702
0.009754665602156647,9.877397602051571E-4,-0.025996945179902402,-0.01837614755718701
0.01391297908007335,0.0048726730609200825,0.02695380448909372,-0.023847919022356397
0.0011852719449967422,0.029973618630312546,0.0028212380027040976,0.019256602518655533
0.008636458501386446,-0.008898281557941548,-0.022520907091846586,0.014156442098881325
0.020523147912182266,0.005613877110639091,-0.03106235671670856,0.02633441839099783
-0.00523219351461373,0.010633035359312877,0.02023318998558534,0.018998842603315858
-0.004554730117656416,0.016721013501913143,-0.03286433564507213,0.018399432069016522
0.015476933635122703,0.03436437859713583,0.01357522368939551,1.5384307834263866E-4
0.033983259495007884,-0.029562088777464413,-0.02866617680663017,-0.02876855621651965
-0.01680558965141521,-0.021701214891874487,0.025383446877533716,-0.023257812688478468
-0.004042909266035809,0.020817706261260255,-0.013796716423114266,-0.017068308489795774
0.03211711462171979,0.03376121191095757,-0.020748640624731363,0.028361296763245947
0.013898034715677451,-0.0162011902709467,0.007012743133366618,0.025958881503605327
0.008863117621966905,0.032901799259483874,0.03233867687697266,0.00962580120913048
0.0033507170290563645,-0.015291235310647966,-0.02184656674609308,-0.004538260628058604
0.00713162871568037,0.0054691301113182975,-0.0039939666039805685,-0.029100117256607032
-0.0274242576439059,0.0324819576576542,-0.014565379165179835,0.004058912459056076
0.010384316682017905,-9.81018498650947E-4,-0.016119718912919054,-0.01737908014609178
-0.029288892373541747,0.014418695097368657,-0.009762139055532606,-0.0025205798993461273
0.0377759517595484,0.42067835367415085,-0.0705647264342032,0.14949864214153397,0.4636557003230687,-0.14046728873168068,0.30559922750439994,0.11699520948477138,0.3403786255103808,-0.2254732896887024
-0.2524219637333177,-0.4028722534003223,-0.006098070408115386,0.3859933621095547,0.3205199356718087,-0.25919900466773604,-0.19845915932151192,0.10802375926016927,0.25436956735944727,-0.41332521057403615
-0.3673559684396491,-0.32541334503318,0.049482894357124274,0.44245348873947266,0.2484017553828033,-0.29586056899391,0.34761554503508163,0.3564021197027485,0.17177368838594842,0.27973839890904395
-0.24952905348892696,-0.08294489965870322,0.035543227301573665,0.31146450543609605,-0.13741971726903812,0.4714194156082354,-0.18189093178528382,-0.24013773341520384,-0.07328032987201782,-0.16761916134439236