-0.028906431257017473
-0.012723143577686231
0.026424661750590016
-0.002989975367895019
0.0054934154573463845
0.022370890235929856
0.024792796068811337
0.009826520466003616
-0.003970279377527745
0.03235084231707834
0.0023493316927699417
-0.005671311663130556
-0.011401455996524954
0.029923360970430912
0.031077433630570986
-0.017909957572608184
0.015578028373080248
-0.02394152856784369
0.013578344609088494
-0.010068942545193367
-0.030399253837793704
0.021247209612725852
0.002936042185565764
0.020118372000400973
-0.0061260279249387775
-0.004546904735175564
-2.3743801827268152E-4
-0.029063644735576297
-0.016182260029143452
-0.034108385229425726
-0.025869247024370823
0.027553313385095507
-0.008062696592061127
0.031355700053170704
-0.0019881952362440086
0.027017425624314778
0.004273679702303267
0.032500231226127635
-0.01681003004954777
-0.006162153269567896
-0.002367552789901757
0.026115345683413636
-0.010391967540075462
0.024870075212239676
0.03434734519771403
-0.03462051454268144
-0.014094852191897742
-0.01270761104092101
-0.034722103343239635
-0.01597543446326051
0.035213243183142645
0.016203014309810797
0.0345458763241662
-0.031497975476791916
0.00286221962341162
-0.033868283896982876
-0.03221049715469045
0.005786433821977854
0.006211990575356326
-0.027323180216009102
-0.030363305320352828
0.023014326993366592
0.01722268745358653
0.009642173589252373
-0.017672125721678793
0.0068734481646591655
0.00803394374688677
0.014677592159429452
-0.0033732412445342877
-0.015041015043314239
-0.03452302653167724
0.024263023858881447
-4.992467782901841E-4
-0.027171871807766756
-0.033325462349223615
0.023227378558231496
-0.023210188879815963
0.0037298441376508104
-0.014313184138844515
0.029653354539223062
0.03546329932111128
0.02576707597291513
0.012695174977796833
-0.0019458508467769392
-0.005980843520510124
-0.025027726913370567
-0.005587503312651603
0.03222095496747977
0.0318019713030251
-0.016289793732619396
0.006522858506721081
-0.03418834405783041
0.008311287935984048
0.0085135544144146
-0.02997379763033265
-0.002496606002936712
-0.009548165351295958
0.01657542478777265
-0.035090380728177294
-1.0046357426419378E-4
-0.02607325854803259
-0.012213644419799132
0.03203219459386303
-0.003926645297511015
-0.013077225695767074
-0.03148366718080357
-0.0033483682219831584
0.03495858373140623
-0.0010524244994879334
0.005155647582598774
-0.017629900836897534
-0.032416068616590965
0.01561138035336014
0.01960957372388545
-0.006515321952143875
0.013217698779132772
0.013320173778480701
-0.011807525548404734
-0.001400679802180664
-0.011756996158950712
0.0225418083829054
5.575568177042731E-4
0.03263413786671947
-0.007284894868675
-0.004562830991208831
0.0060729532483485005
-0.01247716101220974
0.022865421280086118
0.03251383456634384
0.005237931561377369
0.03358927215413958
0.03222305012833121
-0.013423846309066123
0.025056216926969466
-0.030540732654793533
0.02891203482006663
-0.005542949383966409
0.0075295827867426016
-0.007048227752806842
0.011892302806732376
0.01558792360269124
0.00856492242256355
-0.028053426894736267
3.362446744571354E-4
0.013689701163165653
-0.019694262133807965
0.015153329810404653
0.00729057701371013
-0.030893831493904723
-0.009162305528929129
-0.02495571058087405
0.021045157746820538
-0.014027084838680107
0.00802746346979289
0.01007111142860756
-0.02887948780183365
0.02618567688641326
-0.026716979850375272
-0.006431503981503311
0.015969177726419002
0.016405387325689365
-0.012237846351406487
0.0013407132138955821
0.028045623352266208
0.007775882140832281
0.007972756873225503
-0.0063905209678088125
0.008084629765714321
-0.02185921308804202
-8.906942348681571E-4
0.020446656093601676
-0.03091723968458144
0.020683223646226885
0.01245363455900611
-0.0279734074624686
-0.029352445198870272
0.035055872426539264
-0.012877877711670229
-0.0030213988559046404
-0.01559997747528338
-0.031685143353820305
-0.00959463259169516
-0.029374462880360497
-0.0015086653878674597
-0.009458522334071906
-0.017032133154228205
0.027213412312712043
0.004312713251363939
-0.011991889623617483
-0.031470684853158584
-0.03455323288536268
-0.019939167512223608
-0.035174286422660975
-0.019591607325215133
0.0035250869695358303
-0.02596628500787222
0.03353208178193044
-0.02367620764609813
-0.027387497676499988
-0.0024320643059283636
0.032935251110723915
0.009550182903916508
0.019918417239487757
0.027840633286883354
0.01761171836324986
-0.009029878745944835
0.015508258928702695
0.024355707752596545
-0.004696743711019413
2.700461516844041E-4
4.3394560570336055E-4
-0.012951656090579893
0.004682678877098841
0.012007542482023653
-0.028772987296382557
-0.015231767126234322
-0.03218501311691969
0.007815177502057909
0.02836356326638982
-0.026322387566837316
0.02995495668759919
0.009039942138963024
-0.029149710264241034
-0.033073658113132696
0.025491657547435875
-0.031108664608288355
-0.016231634835084354
-0.005790589177993109
0.008069163065554677
-0.015000093568875286
0.02882868886713555
0.010891178200785376
-0.006275561453458922
0.028586539737588373
-0.01942529414383719
0.005537622571865679
-0.014114486212128859
-0.006913921819904856
-0.021692144000962737
0.007881272695444357
-0.029982995046797443
-0.03332746094811295
0.03223525487984885
4.427340951526776E-4
-3.659735757795268E-5
-0.03079577915073887
0.007758934147970846
-0.02140872162162286
-0.027893624564450943
0.023629400989224524
-0.009377116275233664
-0.028106203392566347
-0.00399391290081285
-0.0203666712096955
-0.0070564509519719446
-0.002235371108743646
-0.012656255516886577
0.025729182626769265
0.02353227229488751
0.003310920957013963
0.012985030213398488
-0.010308939260049665
0.03556618834451067
0.02203027971252621
0.003814337067151667
0.010079403482806948
-0.022067235389896488
0.029578773658431007
-0.02249759514884632
-0.03211359258631655
-0.006590975353176036
-0.02006330754674326
0.003543834997126641
-0.02526674644772368
0.023560175483081862
-0.001210575295465914
0.015919298001458852
-0.005147761073418671
-0.028706190135590948
0.03242411164401353
1.168685968981481E-4
-0.02697148392751647
0.012069223127855938
0.013193898192565293
0.03097580591696107
0.02868411202189508
0.024318082554088072
-0.035079053376944114
0.030287133028895893
-0.029103688527438092
0.012890441252297796
-0.006071109214779127
0.0022194593502947585
0.021064981793785326
0.02572451577755648
0.0029677926216163247
0.017276623972768752
0.027182128567974972
-0.01185985445001517
0.0025738373484385027
-0.019540857979004667
-0.009785825707564508
-0.025216338649663904
0.005818441355415642
0.02408747677295485
0.030389952957612418
-0.015727167580951384
0.008168901700323826
0.003992122394451521
0.012295001988564785
-0.022286592313221457
0.010914629296710124
-0.015190286368018231
-0.031821496689414044
0.033377131409387556
-0.027055578127353007
0.015958098765866895
-0.01086220719211731
-0.023785266120693514
-0.013204546093138678
-0.02469074993501591
0.016466785166752727
0.0211696943531174
-0.026724800763408767
0.012018009732092404
0.004749611298585477
0.0106607985387377
0.025043558621367396
-0.017038735080605064
-0.03160466578682812
-0.03249527596075959
0.018220584356519375
0.0031307670155344483
0.004083088853799675
-0.028619057797647854
0.027603043339930508
0.03463594420834486
0.03495021543318004
-0.010610998494965933
-0.0016119419109155778
0.016004188095444502
-0.007114674761655004
0.02658858956918827
0.008689347966359236
-0.002546921079044584
0.0022038106659202777
0.015439077095042518
0.013368048207302752
0.019321928928850256
0.006101187111272131
-0.024017190564669617
-0.018513589780830095
-0.0037076830163322513
-0.02959220395414982
-0.021826321195552816
-0.017672668677491423
-0.026514854994549218
0.026923248492115054
-0.035195301390569825
0.02008502216208949
0.004928024868214809
-3.355290963866983E-4
-0.024394069086590205
0.007016639100571702
0.03376997826568817
0.01721963096807832
0.030969465699818982
-0.010195616201480746
-0.027387234416566604
0.011086405761481316
0.027607827086867973
0.028288613811879637
-0.0026018351303997225
0.024713452326491775
0.011163801766191236
-0.018411831118142714
0.03201796326642839
-0.015210559022700496
-0.01341842645146855
0.025298320665203183
-0.001540155585650023
0.020883622817655885
-0.002980512562127356
-0.006545962755842585
-0.01895891729287238
0.009723600754028665
-0.02585063743146132
0.025032785100533715
0.004958820055999298
-0.020399536434160575
0.030361063431469174
0.031073209833356596
0.026257156009107746
-0.03313652996625055
-0.0026572729150686966
-0.03514201285669857
0.030631157698960035
2.0161260211171844E-4
-0.014346510755190198
0.006082369751786165
0.010072777175915287
-0.021433947691771198
-0.020568183168744536
-0.03336750673355156
-0.014742023167084131
-0.013680114322746118
0.008434568161066601
-0.01492388785521942
0.0012873483789947252
0.017466066050077604
-0.003963640069607692
-0.003349232898811186
0.019378261078791974
0.018251737933140104
-0.005671111250769436
0.03202040887573834
0.012515335720155639
0.010630807543993502
-0.021579110683167518
0.014652314044599254
-0.009972970283081195
0.0023243911134094297
0.023887828677825844
0.03347660244645001
0.02325148750199514
0.027788981012785194
-0.034482455051324704
0.025226811022582354
0.029756088092706787
-0.01903229987092543
0.033764510144751
-0.009550248679121923
-1.5737631133260627E-4
0.0070810800754209854
-0.029294257534910682
-0.026596396373910307
0.0070048873520276375
-0.005607439074641323
0.007106538223927185
0.026632009591546005
0.02036426655034309
-0.034942766845900974
0.006453510626218836
0.004344438576071044
0.012345844767941594
0.007795604394200732
0.03208595355795836
0.029889589150257648
-0.007388172044415702
0.019867278771477218
-0.018259588586684868
0.011566130004027161
-0.0283958513146802
0.021363460949058236
-0.009418511116156554
-0.03397663098627893
0.009629841992369818
-0.02478413246568628
-0.016212511426592347
-0.012653804016843864
0.024396221022636305
-0.006283123571086957
-0.033528369152457216
0.022207436404676567
-0.02045898800021421
-0.014881825257378394
-0.029629984462906916
0.02299043065224629
-0.023637381749049134
-0.030767035720332837
0.03379905978659875
-0.027762043315345986
0.012832387030483353
-0.03432550124026301
-0.01609273813920553
0.026429027188586272
0.0016988564914581991
0.0020408410629195878
0.003526391323228628
-0.029101499046541877
0.02474174333965464
0.018080252241191162
-0.019307564726011917
0.01771392068123384
-0.03213206372717736
-0.02079639525055843
0.005924956039969356
-0.031971154539623466
-0.020730947922879533
-0.0337836347230749
-0.008427624163511838
-0.023687031150596734
-0.013186224542339618
0.011320011175804272
-0.028117679490703984
-0.030369131017851634
0.010445449951443829
-3.8394767424122095E-4
0.009177061174128753
0.02091762569360122
-0.01278295568558516
-0.011040653469009318
0.015965646202620663
0.012571711115709747
-0.021998807567422507
0.03259295867803538
-0.017901253593375775
-0.025525874227019636
-0.023997040428326493
0.03412993430752519
-0.013460377971321269
0.02536686178867796
-0.023485385221973583
-0.003108613703115007
-0.03492424093308318
0.016917997726859167
0.021809668948336185
-0.006514522813415594
-0.014028556414103822
0.002418057069216731
-0.03290510575646799
0.03020422949034976
0.0022483287159228774
0.024413505930962767
-0.016159369247616087
0.011854150855767812
0.013318220563903492
-0.01890898947920869
0.008040326593737088
0.01340685669354496
-0.019665263553761192
-0.005305676597569302
0.03145216516027695
-0.02440952894736607
-0.028090661084991298
-0.028492836817139742
-0.022470545516856948
0.021955710346795575
0.005408677408429825
0.03294832752988863
-0.022773921857530282
-0.0136565734412484
0.026709421341178104
-0.015175630584731599
0.006818541926271196
-0.001304262584288618
-0.025315130786713123
0.027339453537180272
0.004199672257643505
-0.02604576209470753
0.02904452125785109
-0.021780826638383138
-0.004407732140138419
-0.03335930808530471
-0.017109873727611642
0.012787112673514137
0.02500206126254577
0.015963575130048764
0.03034520931081991
0.014773807375317236
-0.0037481351733604923
0.00251059394632229
-0.028831470154808712
0.00904702827740455
2.779433393175004E-4
-0.011425546909886373
0.02227018518594353
-0.005279756263897921
0.021188697761953368
-0.003050668853314252
-0.015884683214940243
0.02429844492702648
-1.6949117393559587E-4
-0.015642514385631832
0.008962121321347265
0.00844589099891497
-0.01651681860007076
-0.003376503650817063
0.029500374176187616
0.01873566878372257
-3.811852397054352E-4
-0.03354210840809561
0.028304865512537705
0.018190221855476113
0.025942108875682712
-0.002920433274430645
0.025341900502199838
0.031579788858078606
-0.033409888169616674
-0.007561855681410958
0.030499190851890637
0.018031107298879787
0.0042939758348018026
0.03293972516955941
-0.021155886672597466
-0.01713281381458041
-0.03303606595079098
-0.02844458873414411
0.014434739304753016
0.021322299375966303
0.029710817753037147
-0.012487999456157355
-0.005171843682188242
-0.002998256637282773
-0.010819408642361344
0.0036048667629064238
0.025509606492544662
0.02245088044109085
0.028517460219534427
0.019244341425629925
-0.017004300508664867
-0.025750317764681743
-0.016787643550526848
0.01810534378660452
0.021165624237068498
-0.03212101250024753
0.025422022451921537
-0.008766484064411058
-0.0168104673452947
0.02952283034149558
-0.020362374726357234
0.03125124302874266
0.031156232789309707
0.02816914615133767
-0.029600218488503627
0.026660105314515625
0.00603029906184753
0.023952562702942333
0.024975983189784473
0.021954681590592516
-0.003422769309812758
-0.0013325464435703024
0.009840419112699297
-0.034821154718616146
-0.01906892779426267
-0.02247585386871792
0.003826447733028447
-0.019823122479580377
-0.030204832153019737
-0.01875458514322158
0.0018334883445568287
0.017192914210960024
0.025418358821928576
-0.020498570548957793
-0.016095266958518886
-0.01892049316021679
-0.021480988576950688
0.015926587189679306
-0.012423506912684242
-0.01491979718049834
0.03565150460181514
0.028820548368791957
0.015264822127730525
-0.02487050032872036
0.018309829811718276
-0.0206185203936111
0.012753039855734075
0.02484245695245829
-0.005873876560815932
-0.025963888071820825
0.03204592771417682
-0.01669620052935601
2.4697602632488963E-4
-0.032237178069106205
-0.023010184988132253
-0.024814177497299493
0.017090256992694015
0.03276659104870604
0.03169053835634726
0.0024105893817316856
-0.03527439766448998
0.017822376014966515
0.0019232680952584666
-0.009223683810053243
-0.0030080592331710523
-0.016370873301927536
-0.02169458664743133
0.01020327272950236
0.01762558552757206
0.031118112765302214
0.014756866219921519
-0.00387160305099956
9.528983963159737E-4
0.031674623144128555
0.023841648984874335
-0.014280776548962593
0.006539752414726534
0.0066265385727492035
0.009376030812226308
0.029218999263635276
-0.020916375567678707
0.034998420273142275
0.030076054049925957
0.0018814783184342501
0.031993262468327
0.020415563705656788
-0.02209113365044587
-0.022691545798939443
-0.02290029165236429
-0.024718333823435863
0.009696973099626575
-0.02192617511746598
0.03358404215511797
-0.0317833501487656
0.02787125053685599
-0.0070443087400993455
0.014805878998179
0.004249017212222442
-0.008697467361231646
-0.028415194385688465
0.015470341644863647
-0.03569854377863808
0.013291487449949617
0.013336768274469633
-0.004784785350714495
-0.02114875365823275
-0.017293834507587993
-0.014082058379510345
0.003782254113365649
-0.010372026479745118
-0.026104595047723618
-0.03141448015807828
0.025603905660008155
0.03038323548321613
0.008262285043964701
0.023058234715904027
-0.006473808654912039
0.012424392914596155
0.013645979401351503
0.027993606263860757
0.013749907980102734
0.00686711930059436
0.028147761687595696
-0.030691893670381363
-0.0022595224553822943
-0.01549889194450092
-0.019832053035103603
-0.010653879922264624
-0.012561298114461564
-7.272978916012182E-4
-0.028539848963012336
-0.014960781671445354
0.0016119135828360706
0.007117819644498695
-0.014594775777693119
0.003910407860325281
-0.008399017130514965
0.029588396130339645
-0.021860586549497407
-0.011927600979013311
0.011011852123884773
0.016144053073726974
0.006661281388698807
-0.012084919845897539
0.019553543729466126
0.021329071628589012
-0.0014339655949115251
-0.007117803226647717
0.0330532228296314
-0.03245436780733087
0.022757987516525996
0.008586515608184853
-0.003463288249936483
-0.009933631438919548
-0.023229451714323897
-0.008056567082972484
-0.028041610422966115
-0.025942436123395765
0.023255131345455024
-0.0345582264183162
0.03326754069904546
-0.024937078457211652
-0.019129407204309824
-0.03135850749140185
-0.0029491809646561076
-0.023452551893455922
-0.007180137669932758
0.008783654201311518
0.011259900240186554
-0.0029094010514785842
-0.017223582605471133
0.0063959807755800124
-0.009314877117834797
-0.012228088016980512
0.0080279885260904
-0.012891545107661526
0.013686897346177389
0.0016597073656296688
0.01897484986271926
0.010161900308738987
0.007895724841751953
0.02446230102522278
-0.007595315854223943
0.0182240777846671
0.0019017046917232314
-0.009942739577681062
0.01186845599395709
0.020730508250754037
0.0027041133474321605
-0.01969701575632639
-0.007353991131396929
0.029027615640516202
0.0017567570337527275
0.030919121283434603
-0.0014086953994308857
0.003168477538023899
-7.59640172782447E-4
-0.015829962021106037
-0.029881647372672793
0.012514491930573461
0.030117560367463075
-0.0071423810603570975
-0.007305793765390985
0.03009079377872112
-0.021814212179041875
0.01965317339910494
0.02507990151081245
0.021328046416119135
-0.013725055056505706
-0.020837129938955874
0.024136573937577233
-0.03465091806362125
-0.03472446848447361
-0.02707899583699149
-0.03554259261891926
-0.0053091165061215605
7.112580031287327E-4
-0.01987361830410803
0.011922445653814312
0.021437486840849992
-0.028866335977951477
-0.004259370610454102
0.03271479722180769
-0.022576519016632973
-0.023927858194768184
0.025275971178979402
-0.012736578821848588
0.0331515617023333
0.009849867787262996
-0.011166524296352634
0.031603030961164846
-0.02266967586239426
0.0054426280054306955
-0.007548415134225082
-0.03191405740313133
0.0350602098389777
0.001123103860870077
-0.008243990265274337
-4.575402077071494E-4
0.01806838692544202
-0.0037702699524636493
6.861352283830738E-4
-0.022928521754676738
-0.0225703626734406
-0.027545433713645873
-0.008819345210793122
0.003987284295086775
-0.01870136659957686
0.021147042726838698
-0.009837922940985462
0.02086847015125675
-0.016831831848621644
-0.015178423610976457
0.009036153753643722
0.0022711459799806336
-0.006747259847789455
0.022156158308614296
0.03237464256339892
-0.02272627595193666
-0.015283166411824065
-0.005306396893282231
-0.01642438039329933
-0.03099416471856581
0.02531335201341369
-0.014055939949358172
0.03518951295245107
-0.0283424963465731
0.03442049849717828
0.03449058902511498
0.02668033497809432
0.012166663954879135
0.015946972922635333
-0.016231228018251012
0.020338320479812037
-0.0076256872181939064
0.008989913426505722
-0.02921943480848939
0.032049142196594646
-0.01980032765762263
0.0057008649989055415
0.005883759026185598
-0.020663688217819394
-0.032896072269140854
0.010637185027580716
-0.003023502765932863
0.03436914123750011
-0.01867934072680837
-0.03192592082508618
-0.010639172100427537
-0.01616690509281447
0.02090644098853274
6.475385074360476E-4
0.008463663221837323
-0.00895481983953381
-0.019387838751682974
0.027931359064107306
-0.018890688401021465
-0.021542594350010928
5.397512655790013E-4
-0.018393060559346648
0.022804763396566896
-0.020506143792537117
0.031593010359406204
-0.005921216588583324
-0.0019050234114992848
-0.02866533947251787
-0.012234460374290393
-0.03014230107841938
0.030592593748180796
0.025772332162218456
-0.022007775747422187
0.0014745643541834164
-0.03353318334332046
-0.012795991824507795
0.03377534293782211
-0.030203087581132777
0.008485137913854399
0.013157073613810827
0.02757669597142247
0.017607848343079116
0.029396264077467496
0.026022895290359026
-0.016489347774024443
-1.9285733333984645E-5
4.633476970512945E-4
-0.01587395438092655
-0.03440482868201261
-0.008121686088706552
-0.022749123491567456
-0.032463502633050124
-0.026988192872450183
-0.031465135415573005
-0.01508042736823273
0.004038299754815448
0.010234846167238729
0.006088429060012071
0.016281465862528446
-0.022445788909870232
-0.03492825941414636
0.006447077902009636
0.005816380193428464
0.007746060559458867
-0.03229760109721017
0.013143084171872786
0.003742097652095225
-0.013609405811823277
0.024404406029574013
-0.03221563244445146
-0.03027586055401225
-0.028790278826977034
-0.013660495353333753
-0.024409761532780676
0.034093775125377104
0.01767853128664839
0.02528009978381021
0.014186514058109528
0.01235007405462929
0.022654135242026377
0.02788985835694542
0.0014972411028539648
-0.01842682082519295
-0.018692653555483392
0.01846818183888789
0.005048912512213462
-0.013511129376816547
-0.017370762768475354
-0.021877225412172907
0.02659496672541367
0.00277550137623319
0.03280305676444864
0.02080282153518758
0.010504211529232976
0.03542288365187951
0.023221434700903543
3.294264266681529E-4
-0.011196445451760864
0.006747546264605157
-0.004298873190114301
0.029533223081818716
0.01767409005879047
-0.02384441352717994
0.018522362057702926
-0.03413675210360109
0.01867767762385942
0.0015203392931543089
0.0020826214001219284
-0.018977441333278815
-0.022767336843145802
-0.0052126072724169165
-0.015983264012178904
0.011022999107750169
-2.315500271583698E-4
-0.020050627540371884
0.03446595850400694
-0.02879739364081276
-0.0037737506388252767
0.011267511231423243
0.02045191673250417
0.025732555800004518
-6.646413209153504E-4
-0.015381493657574796
-0.010612870063477029
-0.012885373677367053
0.0322481410690362
-0.027873204433556863
-0.01279344300270048
-0.0041253368477763425
0.0031713662161980335
0.003607872931648201
-0.032057953603504365
5.2118928041154644E-5
0.0034840347855426695
0.013414163052292663
-0.03437540374031825
0.03358674784136621
-0.016804750752465306
-0.016494077665619045
0.008920239554578414
0.03438626209647176
0.011142253488560482
0.020263182823974928
-0.018852590034888952
-0.024444741500146076
-0.01912076846570266
-0.03339227470575185
0.01841799268270418
-0.03383266836620344
-0.012261645447190106
-0.03496310081772061
-0.017943487346142324
0.032031079837887985
0.029325821096894522
-0.021954785747820962
0.00789585533551318
0.01881773393417776
0.015625933798700718
0.029481325068698813
-0.013610276878429695
0.005246651326906847
-0.03113114813727046
-0.021841770384993662
0.011974173808674687
0.012267341513614388
0.015004426627079452
0.008372093702357218
-0.014404361546395572
-0.021925401074830146
0.007324812202092426
-0.022946988320813322
0.018743591167496312
-0.020666872389128413
0.009906888431404748
-0.015972376010390366
0.02720871009653769
-0.018177907171946037
-0.024424893358425855
-0.012830312433952256
0.01422796554360281
-0.00948402620553265
-0.00870957150972355
-0.019375327278696508
0.01811045122923422
-0.031125963767680714
0.013806421793286824
0.026298138988200444
-0.018610072327893547
0.019512465193280544
-0.02121093258361017
-0.020823635751630952
5.432403344744346E-4
0.0018321694789739731
0.009082586345194037
0.03221411176161157
0.02568191977494818
-0.01635341393348735
0.030409624328584448
0.030096343475029264
0.013122156507836033
-0.033400232599863605
0.024856465866041844
0.020865422329077524
-0.021724238630300326
0.013560728363379675
-0.0037855331502930703
0.0037918240117930657
-0.006551649064211955
-0.020764036364996002
-0.012687642563844564
0.02060349061141395
0.006317709473931198
-0.01733109235102287
0.006887175553569769
-0.026232875968847665
-0.033612854776175094
-0.019208526488759082
0.026852683160316707
-0.02755893121077259
-0.023093352771515765
-9.94860532895596E-4
-0.003978684510482923
-0.0071714453308914065
-0.004966359278588437
-0.02222628022679187
0.033300189538603
-0.022244018293148496
0.00622792541849803
0.007826425271593482
0.029529164600623034
5.454785656351865E-4
0.007931398878568516
0.021231480203621443
-0.02593199263048357
0.03400220861299523
-0.002892353660755062
0.004236576326968403
0.027350355472781626
0.024699369981247242
-0.032711183238003115
-0.034959866894146666
-0.013172463858203871
0.005667967032082957
0.014547880369791114
0.019637381805779196
-0.028194835748347268
-0.030385475143619688
0.015250900739292694
0.0176872482343067
-0.024413176032337995
-0.028517331409526968
-0.006852863131666442
-0.005580672115227097
-0.005103660178889913
0.01243923590971354
0.029459252441120923
-0.030037226241416803
0.021341778106022904
-0.0207754279850947
0.007460025982741772
0.008194277827661432
0.03557841397782417
0.0038423262183604825
0.03131950736377406
-0.013163965894628094
0.014354016813167045
-0.034523287830363285
-0.004378138494833095
0.019328719897264562
0.025223496236920495
-0.008295508646313256
-0.0344594642806153
0.01027617279646622
0.03150247844551422
0.009491179881117938
-0.01422126217516756
-0.014093447871174836
0.0015483518726934695
-0.03450950343635604
0.031006400334244205
-0.009030769673842223
0.017709702973314922
0.031735656953878824
0.03346512678239322
-0.008474278406514515
0.02672434624100322
-0.02986642830637272
0.010007534747045639
-0.010673784208284479
0.026034200455071807
0.002622720515199198
-0.017454901152401215
-0.016783898129800166
-0.02947818737617289
-0.022328743636214676
0.009594817895560236
0.02812911089216784
0.028396678085626917
0.03187982952684394
-0.021394263695313314
-0.0012314637536438716
0.026726230909392218
-1.0325983170254849E-4
-0.034973850859977285
2.856620927575715E-5
0.013888362975993891
0.02662673575664303
0.016006103666007687
-0.033725764024922646
0.006537720942042476
0.035221356319371705
0.0020092958518803244
0.03087079796862191
0.010377210455850931
0.03267644722892582
0.033463688599020575
0.009197283210511893
0.034806989482145625
-0.010676718241709127
0.03187548470959993
0.030900515830083047
-0.008818486697067997
-0.03336909954113383
-0.014119116547028892
-0.02660704119916339
-0.002260459194585465
0.03543165666502436
-0.022823235447842347
0.004276962296987416
-0.016510402122092743
-0.004955597531473899
-0.0052987062000018174
0.030002582871376193
-0.010157948846993073
-0.02348397806103132
-0.007787787827557378
0.024893748049046864
-0.0184108177371646
-0.008641271522183039
-0.008690604843823849
0.03120453068232565
0.022821344524257173
-0.0189435353537621
-0.02046240281689523
0.029750932080032752
-0.02551160708848279
0.02687461920573618
-8.840682734178942E-4
0.008728681704883785
-0.010249822645837084
0.012040192645966771
0.008954571711920455
0.027711410671633033
0.013314630451263097
-0.02149097706168035
0.023739432515724426
0.010720304137518372
-0.006902991909569882
-0.025655206033609775
-0.01566015745208095
0.03319646776393728
0.02646402221043189
-0.010923890738329198
0.0045432009567948
-0.006964549326551533
0.015596829306780358
0.026612404372855274
-0.00471182740033407
-0.02899657832384045
-0.011257932502521058
0.010940630405343314
-0.018089266137153153
0.014581264321984519
0.008291220243030632
0.010869325275810277
0.018922283828225986
0.01421050640721662
0.0016452371230255766
-0.008784755618545921
0.0047050722080896265
-0.02676983811339298
-0.004137029880538719
0.024050951938915613
-0.0343124832810078
-0.03441755408885569
-0.01961298036137077
-0.011614114265102875
-0.016473715547693526
-0.033042207792358426
0.013934663955237223
-0.011017520640053735
0.015858180563228227
-0.01408321235071756
0.034666517842177794
0.020572403542916638
-0.0052413552010465644
0.03154264390711031
0.03313081407292166
0.034619144801581556
0.002623274459133622
-0.01629049794292794
0.02091830253028379
-0.022164661468234717
0.019398636328514733
0.0027114105521330242
0.01822677737453729
0.022750743329206388
-0.03179982347126227
0.016259351101445024
-0.016435576711001113
-0.003942164779936079
0.028849138539635832
-0.007354901305375985
-0.02345425593978724
0.0072698544486073935
-0.016748192040393975
0.023472085151102634
0.02424417010377758
-0.033280104170353715
0.028076082396468166
-0.001475926053966424
-0.02434173828246886
-5.726172390773179E-4
0.03419625822731147
-0.005921031485894408
0.013831734420678171
0.025258330338029794
0.01673762293521791
-0.029106105973047754
0.0011443643871604445
-0.003389842024106804
0.006764043232538451
-0.030771289968044957
-0.0013446268252145233
0.013069213626020593
0.009642244779842095
-0.03442643408425796
-0.024423851315194423
0.006569330454788309
0.0055472209315000215
0.001565318654683949
-0.03465611251328938
-2.1491704020265567E-4
-0.028845469096337648
0.00934214490460708
-0.007937621743448895
-0.017738304529579536
-0.0025222842704347714
0.03283630889401093
-0.010856270952038387
0.007741908804524203
0.022995120299314012
0.025963122369375806
-0.0033335014825826154
0.005012964362467252
-0.014599261734996014
0.02456395788022625
0.015128832326442618
0.0011649775777147348
-0.030856138511647327
-0.01753669323690581
0.02925780548693882
0.02570227263385829
0.01506770700689919
0.029365925064135642
-0.008225290588383297
-0.009518667941868675
-0.016411280898513483
-0.005685774246168531
-0.035622931735567756
-6.264861652392761E-5
0.01504550427912646
0.018739556901255977
-0.013766387007902597
-0.0020563080241443946
0.009192622083204552
-0.033842869232552385
0.021439389277823982
-0.0289182134097891
0.02867072286395482
0.02096035643188259
0.024958351004656362
0.024171362972762997
-0.011491066007879174
-0.01893330613987204
-0.010311525109652712
-0.03550723711461646
0.032848438033187405
0.026875470999982304
-0.02591870766430046
-0.010832774111276484
0.030609738688919627
0.03434131125005517
0.025267869770188633
0.014291609348500087
0.006355945960335299
1.1898212229932703E-4
-0.03321652805746434
0.01074978593794175
-0.033460561307541825
-0.010693288533105097
5.083228420232552E-4
0.03449086898088524
0.030100157662512103
-0.033427958046226565
0.035117927540642455
0.01032271616781679
-0.032077243754710605
-0.015114704888750954
-0.0353436921555736
0.006336786480570136
-0.018350794360519705
-0.002032882301954697
0.012789414804432624
0.001627727219959789
-0.029306885913222922
0.004162785445224908
0.025633159042216323
0.00628676454862661
-5.10044045717202E-4
0.026310705887671954
-0.02774514472207145
0.020143019854622295
0.0036486586320199424
0.024067484806007094
-0.016776285356306722
-0.02473675218893277
0.031141430790119606
-0.030904036929137957
-0.011214559686000505
0.02991679651859247
0.0267425804271771
0.008603874540296826
0.018767745231420947
-0.030825530616134925
-6.868982201582788E-4
-0.030283019604104067
-0.010914463920855457
-0.017378597995925806
0.031417430080860384
-0.016116044091787754
0.004479164896240541
0.005664142693065442
-0.01559822254728058
0.02152388237178203
0.016140738508463114
-0.02727295940717947
0.032603141245720696
0.03417695265797781
0.029286213082788642
8.360196310675735E-4
-0.008712108021401772
-0.0028248049930348212
-0.026206146412037612
0.025240291469386507
-0.006884891428020519
-0.012928745002558528
-0.025872830620106202
-0.011781150772703378
0.009992231790907365
-0.012165214931814938
3.7048989691201156E-4
0.01364316113654717
0.027733791742956496
0.011768825886634984
-0.01460920291312541
0.02691440040350214
0.003401702544401565
0.015274219921347414
0.010510780192804894
0.0341633489239542
-0.004248241019312128
-0.03398404789691446
-0.004934768261786435
-0.02627797585772352
-0.011508258493509591
0.014287034774631627
-0.024554366365418634
-0.033453505294859666
0.010471207793676711
-0.011689416780578728
0.014193274032505664
-0.021668518367273758
0.034670051272828836
-0.03116685974916177
0.028479874196928948
-0.017313167961238256
0.010832977843397443
0.029997124615781134
0.031523314131456565
0.02852321205383443
-0.012016103562519878
0.034600253533569145
-0.01676207082656647
0.011733138702994653
0.0035032055672788373
-0.014115294852303697
0.016301675427745486
-0.011264886935935463
0.027859564838805556
-0.0020689919809985385
-0.02861596433856738
-0.030106514816315842
0.017535086797326592
-0.006150774706385389
0.016644073249665034
0.01995442375591349
-0.009002658761982845
-0.002894940429774208
0.004429134753178188
0.0333151032815841
0.009965448869860734
-0.015944783497500097
-0.00326454682980621
0.008736083805672756
0.0254761543379126
0.015535894783157166
0.009616498582507044
-0.017131756781388143
7.583797147054996E-4
-0.015838570808996366
0.013276441901591399
0.032568276514947314
0.013535923638718653
0.032948674332583666
0.02644439374879564
-0.011868618921518779
-0.011773992232472837
0.014123271705743845
0.0039017359824438796
0.021938300637957257
-0.014503593465836007
-0.030020700336263813
0.021098079666507445
-0.03091719843333506
0.02110693808082966
-0.013526709819208085
0.025566962686849867
0.0313354120225159
2.1636003882413712E-4
0.008684290581905521
0.003457243063102966
0.032520669667663704
-0.016550755654230205
0.030743859208750862
-0.0027687634390213336
-0.025893766164687165
-0.03333184135143647
-0.005590508415146925
0.007096256564213664
0.014731582806910455
-0.0073422908402436746
-0.03103379050289063
0.015050548646830558
-0.009859341697014148
-0.006869545185581399
-0.03087988330110834
0.003979478870997366
0.005181987847016893
0.008243964534119096
-0.026600071749827307
-0.011737259233065338
-0.0355483753394338
0.004695709832210494
0.007866131105660971
-0.03033849155958233
7.127670848402351E-4
0.018579261289722822
-0.02060509712424425
0.034130485854304504
0.015475248877253454
-0.029207090523613165
-0.025808458227749076
-0.03377542465968059
-0.009027369002811085
0.01316376528645697
0.02720517763555838
0.014850957086695898
-0.02776182723952788
-0.024143837436541964
0.019783346623393316
-0.019416523091677785
0.03467028573418385
0.017623232309057275
0.03005166552477935
0.00289981472434548
-0.002845407024474396
8.002202097063052E-4
-0.0055944594207131965
0.008450982715031474
-0.024462499825379607
-0.0311740134584449
-0.009953757328068587
0.011375773134217948
0.024318293327713535
-0.01819955731310792
-0.018421021557219988
0.005481159927766967
-0.02704263324881275
0.009799306576665445
0.014439254355635714
-0.005441902904778813
-0.014249376999214303
0.010913864135225132
0.017119327013893196
0.0317166761517334
-0.010545834751118397
0.01948254084035239
0.01951233565734501
-0.024653220634770066
0.028432815159533983
-0.003913213537527049
-0.008511219503207372
-7.754306547053738E-4
-0.026659796181125045
0.024857037593086925
-0.001219090413386012
0.00892431345487451
-0.02121846731921624
-0.01453331567725935
0.034594571200800894
-0.02227897471482617
0.023906997812005046
-0.015258463376386904
-0.027446250012468698
-0.01114624401327977
0.015150213921622462
-0.0035903489286631673
0.026078932528818405
-0.02941260123861836
-0.03544407793976412
0.01107885306074214
0.024156039046805584
-0.011390401464559632
-0.02116352525736969
-0.0018091316091008516
-0.011837383431840827
-0.026840887123616285
-0.026247072984598812
0.01812834410768141
0.01621772710746283
-0.027918982450193076
-0.01154036085340979
0.03241319007055268
-0.031185101511958205
-0.029076265990623185
0.03091313843379072
0.02506904208508752
-0.021835520074628228
-0.02481890390460234
0.014606183161486735
-0.01881785362263129
0.020845043833374113
-0.013916799339233406
-0.006386762492831075
-0.008602898210011017
-0.014565629737108444
-0.017817785491320483
-0.009442748401378868
-0.0035531215522879994
0.005459299011472109
6.895810838503103E-5
-0.0162962758559237
0.002627239651232849
-0.02107799902840895
-0.03437649839807079
0.03473862042646236
-0.020525697739344904
0.020770982961918663
0.005829187741217164
0.010952398578631332
0.009979889508022408
-0.014354631938221268
-0.010696139753127862
0.005342416949611635
-0.022489676632153628
-0.012896630209262596
-0.009266863757428467
-0.010260800666806902
0.01085071156669145
0.008635284014616378
0.010707616642620703
-0.008981820342454427
0.035200202613787715
-0.019977354632699593
0.02889329940373285
0.015724008015685208
4.1730265637683617E-4
-0.012839374980165422
-0.03537408658922545
0.01695966294534905
-0.02564447257734672
0.032181080572501616
-0.02768527967271464
0.005243656156879946
-0.011605290076934251
0.004807672616169913
-0.017040864817975922
0.004355415430676468
0.0017772528899020062
0.012412057334878296
-0.03264557483029401
0.025358319253081046
8.012790357555394E-5
-0.015662427754599473
0.0045826486490508495
-0.0329793524713699
-0.009218931013825125
-0.03477239221380856
-0.02594405459429015
0.012975067074764361
0.015978755308509146
0.01813564937966529
0.02137435539137718
0.010090097237463395
-2.12755499843717E-5
0.024237200531843646
0.006322584996081092
0.018327421629227812
0.025988204500189974
1.5671518589945727E-4
0.0028880418302952363
-0.03174304553987838
0.029207629953828168
0.018995979301236997
-0.0010610502760645332
0.0033579374738551965
-0.004754070906113263
-0.03283121226512673
0.01986174318007096
-0.02699469035185282
-0.008105819338626974
-0.03557195397141389
-0.025903755210940627
-0.001946135105536824
-0.001854446035774844
0.032547478790404996
0.003631763970423134
0.035245082654240714
-0.022904520559167616
-0.0217896240365062
0.005326334752703242
0.005091464155619264
-0.018877133843897196
0.007527649466409762
0.007358674263900175
-0.009627749163232373
0.009933241671610998
-0.02099109295862117
0.03216258314677024
0.02320816488057631
0.02974265126993203
-0.032786382867257456
-0.028946583585468966
-0.022025683084708862
0.021667372911334866
-0.033802569296543405
0.029898351366955456
-0.011714843995774962
-0.007356415744782865
0.030980213211806384
-0.01257235300117895
-0.027723040791841957
0.027480013797860525
4.869311393549819E-4
0.023584523596297965
-0.004790597635488756
0.0069169772944801325
0.017390085924737758
-0.022198058442424014
-0.014497539508700315
0.009663651761533013
0.0026206998585663194
0.007896837948190794
-0.02385236658987134
0.01968577439204073
-0.03122393904927962
0.02604124778771852
0.024073092088761447
0.030729857989371334
0.01926946446873598
1.182320317017968E-4
-0.015967587133242294
0.02970486993897431
0.012917778832040691
-0.01847463186649925
-0.009165987062659618
0.017294926022037548
0.03347050595813987
0.004987223460628541
-0.016506062391411714
-0.007851631473136039
5.13794624919274E-4
-0.02511313535325253
-0.0018817321042136625
-0.008184099659269091
-0.01489879296912237
0.007841676178592397
0.030405191823447295
0.005311472975364558
0.02261849072702348
-0.011518405745155304
-0.007959758662913652
-0.03282513995739839
0.02438979883542418
0.016528675456687403
-0.010397306257463039
0.021925027206219194
0.027328535416723213
-0.0015227703278615778
0.006827517696410816
-0.014041382888039553
0.011786573956987394
0.005614778502287643
-0.008879015971998576
-0.003413382846008353
0.01641865986310837
0.02265059077389822
0.013820053553497975
-0.03547403905707143
0.011335037335969154
0.008008368471916258
-0.012221725235950134
-0.03459906892371934
3.5289710775682215E-6
-0.010036950287246833
-0.028441556191614415
0.0023866966556210095
0.006667169812995269
0.03205494757581459
-0.012987042893116967
0.03001924371422815
2.222414646551804E-4
0.0266751915344526
0.004278115080134932
0.0064453124639895915
0.008799043236625677
0.025518002171729497
0.0035739520874008
-6.350425297500725E-4
0.013395390866004268
-0.03368911683073456
0.030275422511240463
0.026609763948235443
-0.0013691264184911983
0.03392447317442836
-0.021396765740466457
-0.03520773590240866
0.032820537543342965
-0.007872793707626738
-0.0144450912353285
-0.01816239367749754
-0.03125636397599188
0.012024198098199879
0.012073872206344025
-0.022874699369259857
-0.012044690244006766
0.03163192529489792
-0.004838688197139975
0.028022843035206954
-0.014166637494251288
0.013768823466384743
0.029205180178935003
0.022493957282482928
0.02834476917636236
-0.0023795788289202383
0.003789044740289592
0.01912977962449426
0.014489198415811352
-0.0025289975920427185
0.03498325336130452
-0.011521861178035504
-0.029442403105856257
-0.029927662208845438
-0.023538391651617536
0.0011448134841022181
-0.022215619919575845
0.011011656411852491
0.03387411428531359
0.002191816388899169
-0.00484334900965671
0.009814607924121838
-0.03336040906147958
0.03347397318250614
0.031858734207414655
0.010496799492820973
-0.03404982627583282
0.022601540531176086
-0.010741092365530707
-0.023390178342447228
-0.004876369398957761
0.006593299055071236
0.014336305299991206
0.03132406929686897
-0.01453889485864832
-0.018241777014542056
-0.009436332041253707
0.02998187908093597
-0.006777567830480589
0.013811536070710055
-0.009817053460613394
-0.03364284170037657
0.01881857355563015
0.026410086229592886
-0.007988330975557734
0.017346534857949986
0.0034123139443590217
0.016126131044075898
0.004164745615064913
-0.0075428708685079116
0.030555137709560615
0.029716356638389826
-0.021335071334861726
0.0023740772497224047
-0.0025369311982119877
4.260011536762684E-4
-0.023804813106152265
0.005226833278788499
-0.0037154921706234884
-0.008410321645228338
-0.017762175956103996
0.029838933889892033
-0.015097400207139042
-0.007113528422406382
4.168565580894151E-5
0.015872427382411756
0.018367523061037186
0.02151040581689772
-0.01912075820555924
0.02916997728848912
-0.01835314698340639
0.015874381373198986
-0.02830746320789302
0.027946097110984197
-0.025438408048620947
0.03398011975962606
0.007661918172890504
-0.02451951952694312
0.017775704774029386
0.035452376240208666
0.023045803021203556
0.028921655940076993
0.012200990927416194
0.01713270433003518
0.032153147260549256
0.015930022365900805
-0.019254363448747074
-0.02689908042240892
-0.019246877153302835
-0.030639396468156704
-0.012164746098275097
0.029004109084500934
-0.0011384866240456357
0.006857560690014176
-0.01184606982433084
-0.006924794028401102
0.006362929063515939
0.009579009547325261
-0.015132656806439038
-0.03328177269678392
-0.01865930787405665
0.021655816901455446
-0.013772090158800033
0.032007891219544074
0.026784194817469763
-0.02562462508716625
0.031673174892329445
-0.018341246374692016
0.033621679806321164
2.495412072606104E-4
0.012971031787423752
-0.014793730429239305
0.022951711087323093
0.035464409629331006
0.03192451535282903
0.020759940335518104
0.02466742515652988
0.015187542942027003
-0.010865176952829039
0.011191839770576237
-0.00851013091881479
-0.0013881335921370197
0.02474655538123119
0.024786819490666023
-0.023999194863371646
0.007614907601774502
-0.010655433390117264
0.03243675879091143
-0.014002849676119047
-0.02424437432936086
-0.0029393839302544536
0.016667739418739135
-0.029550532944698716
-0.019737789630815586
-0.011093052404858885
0.03153628321259577
-0.02796913154844576
-0.020954070964536164
-0.010573267801950406
-0.03433032876422405
-0.03378629105859274
-0.011821434453629986
-0.009929649328781969
0.02838775540032905
-0.032141247399779305
0.029340098390668617
-0.008140170413851074
0.023499479469752643
0.025266853083618805
0.03526990109928477
0.019066219107853083
0.00220864372392153
0.029576869082485066
-0.010382222201891802
-0.007032815351767332
-5.818027976355264E-4
-0.030786080131679827
0.002834134743135437
0.01571022876195715
0.03018566108130341
-0.011745738755063698
0.032885646836083665
-6.937991917482164E-4
0.0035359502620671626
-0.023016587382899203
-0.023072843867138457
-0.00628717158381592
-0.013421816441103542
-0.008787496616575272
-0.005260629327027224
-0.032408762034596916
-0.02591295627905032
-0.021968434915902484
-0.002410914121275913
-0.012879048942928444
0.01989978380193807
-0.015293389168430885
0.020198125949912
-0.01917839649929832
-0.013140260101282664
-0.02894063044492726
-0.02039475104143068
-0.035621352890618914
0.030336475057510054
0.030600027300207194
-0.013391001964973202
0.015175622575295117
0.033713320213869705
-0.02867792637272055
-0.03394697718487106
0.006892091204265274
-0.009174262979810142
-0.023564814179394798
-0.012253444356963954
0.026610173751780937
-0.018842472493253173
-0.02272434404027999
0.021594530312711017
0.02806659550796034
0.013409909096817448
0.004467213170568911
-0.016353076838738514
0.005393525970371273
0.025440796745296174
-4.9650468942355475E-5
0.03370108541692077
-0.007760153166524706
0.01309426107617858
-0.026282468854401914
-0.011757298934145614
0.003184905566530956
-0.008682735216950479
0.02776824575893183
-0.030807839038457335
0.03466468921235637
0.012251276333418097
0.03388453187540803
-0.0161022153002411
-0.028668258583399053
-0.02137843723251865
-9.561235832248258E-4
0.014247283123255516
0.0041319033164449945
-0.011826217232628944
-0.0314664800014777
0.016615847520480606
0.003248167344830785
0.008301237995255277
-0.003923788982547305
0.009868648646766967
-0.025542147381384515
-0.01671975405484021
0.03228631969947027
-0.015140110143975441
-0.02076792877557864
0.0034379739136516027
0.034765128939538856
0.008559151672624957
-0.016698428040782087
0.015360742615613841
-0.027071938742158685
0.019979323707127232
0.027620945205000844
0.0074881597914311995
-0.004892441189522621
0.015206280359861456
-0.016060684769727464
-0.010926561432968725
-0.027748363390907353
-0.026799125797113514
0.02419944915120332
-0.026706885337090452
-0.013830205491940376
0.03145444844157805
0.024863967274086678
-0.0030200519137090764
0.010437643848640737
0.008269853770475497
-0.027867521254365073
-0.028452128270804185
-0.03416693073089262
0.0016637996747771375
0.020097694586147026
-0.028996321412347186
0.013329218495900186
-0.03528515910363949
0.013294489117678158
0.026160326614066087
0.025537935501971795
0.012475351334450213
0.005223430125468949
-0.031291874849976996
-0.034007504303849
2.1265963692729956E-4
-0.022781659336600597
0.02139259740425726
-0.006314270517445146
-0.013867004229632756
0.01205375245899875
0.00705057181053903
-0.03166928594201181
0.02404296576055711
-0.023214931327019094
-0.009303200301203747
0.018975111196970623
0.023703178108468344
-0.003099018854548545
0.02345568492765273
0.03054830430715949
-0.02432454708968199
-0.0024683011755191678
-0.018975032386817248
0.03214013201644278
-0.015371668088771811
0.012302634045074916
-0.008161372585971025
-0.017718193975376724
-0.034580583005992996
0.023040962900975917
-0.029080122202085668
0.0037662636225485532
0.011923754084917311
-0.03544991261069503
0.030330442856046233
-0.007198695880283448
0.02165099340126935
0.00906485080205692
0.013550731557527888
-0.029560959697852583
0.020408587091708806
0.001970956313409891
-0.012562591659188334
0.0015708771605750238
0.0189109834345327
-0.024621694715561658
-0.010457149738228713
-0.024241137234434267
-7.176768306192613E-4
-0.005707847923976113
0.028092911486226696
0.032777675537443235
-0.033983925093688326
-0.016160915856012162
-0.025439971460513505
0.009457480712540642
0.01589068127027228
-0.012757765787823044
-0.0033804641942459038
0.01037011902329539
-0.0280087926035011
0.0029164652160133878
0.032781347713666045
0.024310957077179347
0.013623775470241649
0.02659254481257608
-0.0016363476099345783
0.006032766344235177
0.008683110494760178
-0.025640403214001205
-0.0029261031779298508
-0.01463670204825563
0.013674333344806514
-2.885066574003711E-4
-0.013860418629475558
-0.019865561433941914
0.013266835255545527
0.0029006204717664866
-0.0242611804273134
-0.00976722640729255
-0.028074074185960536
0.004885173229336064
0.019184638086318137
-0.01844944977732958
-0.01691979126044044
-0.006277577274735609
0.018200815967661786
-0.02252115708212926
-0.0253274581158007
-0.031153655763116905
-0.017332700927272928
0.01872407253072815
0.03305219458390915
-0.022469687422608495
-0.029608113600416437
-0.034399081105274475
0.007543669283989647
0.006101053380201206
0.014802196952803444
0.023168191664297913
0.02462823842715823
-0.019368159915529076
-0.031226316084091835
-0.005748262101012647
0.033952731880837264
-0.03288393919772217
-0.018425176313693416
0.007305244654505945
0.03363840938343231
-0.014411326238200389
-0.0317200882790524
-0.029777445910776388
0.006184850307130285
-0.006598646236998462
-0.034049884734233586
0.01614089409927459
0.029360993761855483
0.008096712323278125
0.011925085888480486
-0.007980842687314953
-0.03274346906571014
0.027337741311583397
-0.018641739336999075
-0.007626333137041832
-0.017593439404490374
-0.006640920050780794
0.001680488814738812
0.026438651644803073
-0.019447459391743582
0.028323019867506752
-0.030815060724477348
0.025744112797644436
0.003945957151204174
-0.02177786367008261
-0.031121201426239736
0.03387799006466742
-0.031646056508599744
0.020560884419289556
0.015348767389671947
0.00799506009744573
-0.008368041953414014
0.022321835225055833
0.02204236140153229
0.015709282070163817
0.006268154870286917
-0.0066977436027478125
0.022026419476191814
0.020516657464412738
0.019895346378105805
0.016930606867479395
-0.019089547611107472
-0.031013755845772227
-0.016404242804874528
-0.03566053567572248
0.011106819257086384
-0.02919982480007392
-0.019087662346604684
-0.030080964035326847
-0.007133459944367995
-0.009043663972766274
-0.031027928058970436
0.026631077175274347
-0.021992860241636047
-0.02373384447614276
-0.02995555003067633
-0.004369626107260251
-0.019994809144240604
0.034071232525494224
0.0014907970309775836
0.03160488588621972
-0.01809616596722697
-0.01776496780221618
-0.033335286371022795
-0.03487323688147394
0.03328970492620298
-0.033458719692104004
-0.01637653844645035
0.030947234164377724
-0.009865822245134895
-0.010756833451602648
-0.012170799105269588
0.028576937539804392
0.029463172624731776
0.016075079266230877
0.015442810921438968
0.0195020707875741
-0.022592361763641877
-0.023816776239730646
-0.028802856206163983
0.034051610848111744
5.818335462453375E-4
0.031195323738299516
0.019027938741103916
0.030238823812669346
-0.03515013014216112
-0.03227502647991171
-0.005735067154134497
0.03529310574147314
0.009359977111290788
0.009809415622253091
0.023409660422938197
0.03326154874659813
0.012470193227502438
0.03525663355524475
-0.01787388905906774
-0.007197250129114867
0.01750684028536524
0.012544794064191553
0.01172761359196313
0.02052605384963921
0.012230654218127315
-0.009343880602829813
0.027815901258789022
-0.03209584541528441
0.03004782056816012
-0.009141377217108608
-0.004784423598926106
-0.02690122254942859
-0.022349181183317905
0.0027582052896325954
0.009264551000149432
0.019937139533390325
0.009431881268785643
0.02787514957890272
-0.010130022849520928
0.024559636381617053
0.029816924904049275
0.02823435097516809
-0.019522500354770114
-0.02813292511571771
-0.017507436928721753
-0.03207544973773182
-0.005312102598583668
-0.0184084421054801
-0.03468452309999851
0.030138035592843865
0.0204390633698273
-0.006880517132367703
8.610888335334257E-4
0.019315217300812412
0.00948642617515754
0.010588397723812863
0.014720947199942012
0.007894617460366113
-4.638774516459235E-4
0.020029099734907962
-0.013236261455725769
-0.028763566774693217
0.0023800133195986187
0.015440534213622396
-0.010421654634528092
-0.019837839353347344
0.01711737990356245
0.028564791090250646
-0.032446444769142824
-0.019700426737695
0.02044576352626988
0.01662757396762979
-0.001031869774334511
0.009530247811129045
0.014094365555763502
-0.03320212162038543
-0.012109299137470244
-0.025062721438623543
-0.027812916642392542
0.02233141050802051
-0.034682140095629733
0.03407128767737504
0.031171655618889335
-0.026534579048756217
0.027704765504649995
0.032984548570166125
0.013705801141088936
0.008070580622900982
0.017050890794877843
0.02375611340718859
0.016744739427695388
-0.0039911423882186825
-0.012361321361240088
-0.0072801691390639856
0.01205785226845911
0.010975458980664259
0.017450209629155042
-0.00696131751685454
0.006878809997462647
-0.02198580931369292
-0.01372474906391586
0.02960175808872549
-0.023336292949455655
0.03144380014229302
0.025216784530647587
0.027914777604141086
-8.257686252888946E-5
-0.008831378458642236
-0.03296493498496906
-0.012663488555861548
0.014641689413634668
-0.025964977481735207
0.024508510710510273
-0.005605968490005067
0.005042009767378543
-0.009434987698297457
0.014246522109935385
0.009419474402629635
0.014297749171736034
-0.023861972456350647
0.015242328216698867
-0.006733207980965897
0.021008112353699544
0.014146586519496802
-0.01817301928487001
0.03316221935137262
-0.015995528790812823
0.017898880098899082
0.030318068284631877
-0.012439834783441794
0.018594411132199826
-0.025564624918115446
-0.00573205922364612
0.024294055579368146
-0.019996694616474964
-1.4720208089014086E-5
0.0026858756226490407
-3.141766761007789E-4
0.010964393680620868
0.020639647479609544
-0.029028135304734904
-0.013574988823051248
0.02424227337676277
0.007079120455358141
0.014352141287852449
-0.00602418150057632
-0.00843777678263398
-0.0020853364489623535
0.008858942553687535
0.020044693946741382
0.010004032066863351
0.025160175748054063
0.021676050756645478
0.009459015420692558
-0.030907268659105123
-0.024583088922936563
0.031254188559725754
0.024835350098119442
0.01496892239061011
-0.013162917538911117
-0.004961035760859878
0.020430839658335198
-0.0030487226754181487
0.024904112925101203
0.0011682546413815734
0.009461739405425815
-0.02030313343246582
-0.010082882882703561
-5.539857085782099E-4
-0.017849294758785866
0.008521754186976052
-0.00714700777495892
-0.006002146077493664
-0.02630526486571136
-0.03198728809454171
-0.016430513411132646
0.02276613094601406
-0.027023888342758245
0.011966572767912208
0.0010082146383287513
-0.031063082189046416
0.015331917529881188
0.006216861416503787
0.033445524291520895
-0.0019465793895250272
-9.232864400485624E-4
-0.02732921026036879
-0.014181086999750472
0.02107092298668741
0.02308084121226118
-0.012472534754027757
0.020920764469029594
-0.021109928879502866
0.005522425168102703
0.0259276799694153
-0.03418310861274455
0.004852324952822715
9.935367979015952E-4
-0.013828390416645138
0.028126625106803027
0.020814219657914378
0.021537617222964586
0.005928021843899435
-0.03351805841565726
-0.00909717053934233
0.0260820644855796
0.0223991460766415
-0.006441867325812731
-0.008638677856025956
0.003628592622984435
0.026124439523012584
0.01103421685436718
-0.018552661849258623
-0.007895809923055767
-0.023708928558637876
0.029143080144697006
-0.01046424108550811
0.01614144957564973
0.006051096887946805
-0.015820400213821608
-0.025199979716023106
0.013025939374353417
0.005662140972464966
-0.018896748883003973
0.034564106040965825
-0.01301659681769897
-0.029596965203235792
0.02917666110184218
0.02276116911767699
0.005500406438512705
0.024834584663329544
-0.011359777738409085
0.029117725458762025
-0.010982049007718979
0.03340653519065227
0.0348632175950839
-0.004019617002723082
0.03453267958041084
-0.001209023992101356
-0.01006645082853335
0.03436628582849098
-0.021580060259992893
0.03303287124359704
0.025590787573731406
0.003976557575828224
0.023710285700347333
-0.005188597285578991
0.023281001214298484
-0.006716794911451114
-0.031603776212056164
0.03156287267394203
-0.035567228938380734
-0.01333199476529388
6.087021837608148E-4
0.032113810843051774
0.027551880477719462
-0.01553431964937561
-0.028528794383507503
-0.005482486767711028
-0.007567950443583771
0.018750197769455593
-0.034582836349043654
0.024152804397487473
-0.029186481041559686
0.010373991520557506
0.0013437613369222876
0.028693718258550785
-0.008928417295421192
-0.009227315313027156
-0.012751768686395635
-0.027307600988082697
-0.025667655190823604
-0.012352245476223472
-0.0191858537525593
0.00998510271214794
0.014928825521027374
-0.03334578379453569
-0.007048661809436814
-0.02864108727813113
-0.023967973636891387
-0.017413960063317937
-0.006593074076973102
-0.015802697801851062
-0.02973381011369637
-0.03259819615352797
-0.015020761442798094
-0.018922645140427397
0.0114756941153933
-0.03234338014264349
-0.001984889803750896
0.02968440745726189
0.006117337877959983
-0.0318204312125916
0.0022759846357674612
0.03120357646200929
0.0031495842181418
0.028327390473656094
0.011448932648436105
-0.002370060309416229
0.015025319369448106
0.017468644546339715
-0.012959809277646981
0.03210707438878818
0.015478404477281188
0.0284146636841158
-0.019426763043289448
0.02728473419654956
0.013373837968581631
0.001731721799288502
-0.02055130200104641
0.02915254739611188
-0.005204328948160697
-0.03173605547403266
0.022879581260999933
0.010020329649082227
-0.022897771789470334
-0.009496699209606774
0.019831856114572118
0.025418448969222934
-0.009420025740982298
0.00984524221038481
-0.02474666990628082
0.03415402900315742
0.027566666150721106
-0.015249946447845164
0.002447301526996702
0.024313444713056506
-0.010632064523407172
-0.031081439390211206
0.007605375394474881
0.010725884748840335
-0.030253710176658732
0.01381752102260405
0.03464762092362102
0.018535513068978354
-0.028607511583422052
0.011216169171028807
0.02606651059036072
0.007011930438264348
-0.0180931928077124
0.013143081199435094
0.007705354933968324
-0.030077832467266752
0.010538030927017272
-0.0032377575084631335
0.02855550434815056
0.02273519894744762
-0.023803248566146372
0.004114221861778657
0.010054575726702347
-0.02862457272737741
0.03288285416354855
-0.01702460258623341
-0.03535000364130963
-0.0018332757255633547
-0.01390150562311902
-0.019095095453792905
-0.02068826150164375
-0.008525489300345745
0.029670560550981107
-0.020418621395751423
0.01926540218635188
-0.005574651539256983
0.0016039453464452708
-9.285798653670269E-4
0.016930137115481685
0.0029838168796509773
-6.234646477195974E-4
0.030932890222232903
-0.011092444947774109
-0.001408037547627014
0.024382153180443372
0.017445617504875666
-0.0321032224118018
-0.02751354833859741
-0.014956062129562964
0.022604906160168324
0.0231643132978809
0.034398559653057686
-0.03504504243028284
0.013011183708582057
0.027410643925701986
0.023915679539188058
-0.023447679666052948
0.001915212907199447
-0.03562393682738325
0.004288289347189209
0.02565952733316567
-0.025254802676081017
-0.0338405695922604
0.03479780923000411
0.030412163328778524
0.010564206194885406
-0.02034730717798538
-0.03470940336654495
-0.0014340039621194567
0.027197396610252778
0.013807396993778469
0.019671679960142123
-0.009407861330015237
0.01882414010494904
-0.01425608514460706
0.016789188965104125
-0.020744549453933184
-0.024978539886537893
-0.006348397093192015
0.022483538455524275
-0.001217320307934762
0.0025640328140836277
0.02717373057523058
-0.008032241467155015
-0.013945549500742425
0.016225917771927785
-0.025121400261937897
-0.027697278105936113
-0.005309937190473339
-0.01204299680247984
0.016590583255238073
0.01636851876860454
0.03091618234966023
0.024196310669332997
0.021014043651885028
-0.02279354920516261
-0.03523470941113318
-0.02596486453999415
0.03302126508971241
-0.005844890582361255
-0.027894645910088927
-0.0020173973145201154
0.022499387206260935
-0.01536101140333318
0.009537486447881847
0.030281581058071994
0.003688465279637218
0.004796687367162419
0.008581047375714641
0.021403045113904527
-0.011650305356294195
0.022485586234696625
0.027652742395995494
0.012481453036457306
-0.01051645295094564
0.03452009059773581
0.032592594536391725
-0.009180046673669506
-0.0036880521268380234
0.016905542029563805
0.029592161494856162
0.029705019747726616
-0.022338636903395104
0.015393809095789121
-0.01642729868627499
0.02011412910355173
-0.0143658518119128
-0.002740791588414851
-0.019371640002986062
-0.004425978046217596
0.031002057802523658
0.007488281262912809
0.007627805148203236
0.02937081792244789
0.001852756007876953
-0.007919218968236687
-0.004923890219332774
-0.032700216812497
0.032152595528645384
0.027963606476513095
0.008475432071114744
-0.03528243922118721
-0.005795665886167558
0.016052427177614403
0.00668278410751931
-0.016459123132031635
-0.014922791104685473
-0.019832120002525058
0.01862071561720558
-0.027003110271516577
-0.002453015834055404
0.0216572714197084
-0.0033394813841312113
0.025014756680018672
-9.374778537624487E-4
-0.008572833980842923
-0.031752665908493787
0.02151944711230694
0.03422311599887033
-0.03307514110535085
0.027318926895006285
-0.019572427585271692
-0.008627885424008955
0.026319086024350978
-0.011293875113184897
-0.021118212429386694
0.011621597220049358
-0.008242861531880235
-0.007434175354925996
-0.008904336624309055
0.020609279739655664
-0.0071035402365155174
0.01987187014116755
0.013072528358306676
0.0010565248330905372
0.002501076700881337
0.011230393817016321
0.01929833020781336
0.010967505603392061
1.5843050188423663E-4
-0.005542055708817852
0.0022461209833396917
0.01698988489274547
0.013863160960270862
-0.029983659849247158
-0.03183006183847618
-0.007041146357761294
0.030039038776751098
-0.006908597552051088
-0.008218064124385995
5.627968046256968E-4
0.012891838523759143
0.019691616409565807
-0.010128215708923232
-0.017172814418964153
0.02418574100163222
-0.03482051841193285
0.013479879452875175
0.0065065761981171755
-0.02157658487965872
-0.021680774577041134
0.021888543167211415
-0.014242534222973818
0.03238515151777652
0.019166008200691878
0.0066510231004795264
-0.00682206343486411
-0.012749077418278632
-0.00358405735811311
0.011791931242355988
-0.026565364700868715
-0.01607366312349346
0.002113359620078359
-0.011460495305984388
-0.028792860647382273
-0.008084479435187728
0.028686173743750806
0.03286379121008362
0.009129492890239573
0.0350436310901575
-0.00821989062725971
-0.001031179382062035
-0.03379984972429731
-0.03047598778102838
0.031040629551706583
0.009281927639493842
-0.02125509472007188
0.01355986111837406
0.03563562473951115
-0.02380177763081337
0.009154957894283305
0.009673824832540104
-0.010439233344667818
-0.0019064304143685956
-0.025985230919825485
0.02592196116533292
0.010140025593602775
-0.020277994171002487
-0.02181892627012532
-0.022429385077635287
0.023203858591027422
0.004415849448343577
-0.019374858010118946
-0.010364220255433296
-0.02615283174530341
0.035315560480043695
0.006901169776833402
-0.007041936082046767
0.019305955790245515
-0.019457166723164703
0.02592786428833041
-0.02064499196665922
0.014007498120309957
-0.008496901610625631
-0.01180404180214675
-0.02247490159058968
-0.01607636085473852
-0.02689279593565181
-0.007626326723497761
0.00426089001035751
-0.028937273373762964
-0.016301871818481146
-0.025448640078183336
0.013090726904619723
0.001651590942970363
0.03201447882668057
0.03297525892519654
-0.03386390839811445
0.004871714661672258
-0.013307340879516474
-0.0020010608338696945
-0.03147809419197611
0.021363453857858816
-0.006010519466889502
0.01784258256546037
0.018447924574962048
0.01707889759828851
-0.017770980143180664
0.022060077769017188
-0.03435134803820649
-0.02790900401335312
0.023235820864046595
0.009576289869622875
-0.02220245929391839
0.004643504326737255
0.031310617292048176
0.0028124014014269255
-0.02669552795100672
-0.027376594355598076
-0.022354811511239643
-0.02733726302425355
-0.006112902629541554
0.032548275088296524
0.01992456444039726
0.018978008054182045
-0.028044730716112083
-0.02021131836825423
0.033210865783272966
0.015683691692555644
-0.025093047998871836
0.013049167376889458
0.013708707855759686
-0.028413599101701135
0.021562104821388046
0.0014065016287877624
-0.012844477346955
0.029513944301948092
-0.02088250486842023
-0.015598432421413795
-0.02334027553636591
-0.0161334516077939
-0.001357082488261531
0.030634075499949606
-0.025248098923305005
3.6535001509805515E-4
0.024262664252395094
-0.018833940144238986
-0.02885204632352495
0.022696314217860128
-0.009753936225656637
0.017945535906903592
0.012463374122169649
0.030972381465094068
0.0023104726514093094
0.02513994285297061
-0.03565139797828293
-0.0014572558439041247
0.02000638416571448
0.014038630279030614
0.018938057158996907
0.033280047564318516
-0.024758670003858063
0.015448892006919908
-0.00828804456719251
0.021567345452934546
0.021833819559029174
-0.011032162221333422
-0.025381845595875314
-0.030633935902097967
0.01575978274475478
0.023075168635684436
0.022649443536466585
-0.007998233321938115
0.01247093081786655
-0.0018286048664870394
-0.022292402427406106
-0.02501806948147494
-0.022539799748827256
-0.009008153545103384
0.02249823496781099
0.01738348787907272
-0.022851593543091384
-0.013832763654626924
0.012604408428425654
0.017156964873147072
0.0293947111478714
0.009194921397319165
-0.010002560808505138
0.01400167297797121
0.024682447089180125
0.03552895560757535
0.01461496276658382
-0.008307315230750036
-0.02963324401314832
0.02679071510691583
-0.007457121783823715
0.03391948587286668
-0.018875713370203464
-0.016075789854845826
-0.034008613460710276
0.01141891935451518
0.008131101999777852
-0.010879424090392078
0.02396340425914433
0.00928636149139258
0.020924214820525283
-0.00567588397615254
-0.010812395389748954
-0.007194321163103264
-0.0011368269814412968
-0.013036919672643404
0.012552966255457342
0.0046224739780723265
-0.023241247696822565
-0.027309452885585877
0.024421448234928977
-0.003369787716122709
0.010955476959821804
0.007443211532444385
-0.008524426020298657
-0.02488818224381955
-0.032694437745439404
0.018748479599142165
0.00840972775305393
-0.02863742651966302
-0.03558832762047979
0.007670160852938292
0.033590231077099436
-0.019617931775661384
0.014202863615894817
0.016366541433054868
0.023077845878921262
-0.00919717284304334
0.017783392267747014
-0.004568978977462446
-0.021662419711292194
-0.0236340004784565
-0.011755501466203848
0.0014733902985662115
-0.007773820351165844
-0.002654088785595969
0.003739114307037418
-0.035608114179494305
0.011400766389511138
0.02169049735512829
-0.013897112389838817
-0.03202460585070616
-0.03147873307275031
0.03243841592775558
-0.01899067754933899
-0.013169547671103819
0.020566653037057507
4.8543566465501786E-4
0.0062804261335673295
0.02548685993082358
0.033377071569443556
0.010001211577766872
-0.019922853592606083
9.907941825583674E-4
0.02376013247946824
0.0343702442987362
-0.013860507792654606
0.03287487865144059
0.03154367833172314
0.02992129394647408
0.014485245702887423
-0.012707416645560347
-0.03009120407170399
-0.029935350416291147
-0.02564570130382455
0.026468971175860542
-0.030187146055179255
0.014111911907191084
0.011501711435044068
-0.015185663614897107
-0.016414955748719953
-0.02504964183974475
0.03209689613830456
0.00806560873177204
-0.01833067359497826
-0.012861651451691658
-0.01920174444386398
0.018115807449518982
-0.004992568998669067
-0.011352644448954848
0.001272489799081962
-0.004787644016672747
-0.010531881321600742
0.03265963398778857
0.006038961510046646
-0.0019305406948216877
0.02254300268213482
0.01726381727894851
-0.005554994568897742
0.016997563821959355
0.017122454800703076
0.004382284009754621
-0.029314219480714592
0.0034137912835285333
-0.013654301483341392
-0.011887056224813428
0.027622356745977655
0.033807553471697754
0.030150294635596403
0.01796975070865848
-0.010276917173624459
0.011665418088143524
0.025988592065212937
-0.013557201399771235
0.0026169032563437278
-0.010929268317902283
0.021494455561243117
-0.01807626287534479
-0.02074907609827415
-0.01984071386847588
0.01734855943509802
-0.013664687656065402
0.005920796827069565
0.0011806247781531581
0.0033708437546681527
0.030065211693484722
0.0043281717784050405
-0.028256720511584295
-0.008338962877448133
-0.01913020547255404
0.03250700055840376
0.002454839290621194
-0.03383865628230023
0.0032560108760088594
-4.54724945366039E-4
-0.027128957978616926
-0.0344143533774262
-0.0018963223434230805
-0.02090850041502727
0.01959891539881943
-0.02832858553907468
-3.6178398807247547E-4
0.016288057312985327
-0.007671939233225105
-0.004545731481018125
0.019551078727038
0.01741787539848013
-0.00383070179120399
-0.0031699169648621364
-0.0043687899112025
-0.007213577731315771
0.027846796423085463
0.010776889697228564
0.002402298367975106
0.028176106759817632
-0.03277628952561166
-0.01773121680081671
0.010651693063583503
5.901736180006709E-4
-0.024762598217440517
-0.012554550488033927
-0.009084870833479489
0.012285446708424186
0.027639788308776822
0.011665099412480381
-0.0010659652771580347
0.030469437291889112
0.023252968954348356
0.02704538193457523
-0.008249629318812401
0.010663576250731222
-0.025320395983906722
-0.014723545721470284
0.035634271934157816
0.029399473569692136
-0.011172951146861447
0.0018600942212194244
-0.031601123894865434
0.01221362685356036
0.015519673190738374
-0.021026812388457397
7.010480627608826E-4
-0.008100251881832134
0.031789566113493484
-0.00224284834418019
-5.60831933481401E-4
0.009592134472243899
0.01316042610022923
-0.004362611626365198
-0.004206228648479818
0.009697148317935875
0.00824655162978448
0.02498158483539245
-0.034189541334952396
0.030501034038257588
0.028491721539782508
0.021339256486087088
-0.013826622988256612
0.012795360408233106
0.014927046833468474
-0.00565166279231151
0.0012139746727629769
-0.0027007833666958317
-0.023443395463648826
-0.02169197932641979
-0.02709734848763868
0.00790610208580119
3.38212491188275E-4
0.03304347021490295
-1.8651793770003977E-4
0.010605668659634401
0.006433104239536976
0.005250505693985018
-0.02362934598828435
-0.024975988281913677
0.03140125603310562
-0.01116536821500886
-0.033874051973482096
-0.027248701767540205
-0.0013662055387265934
-0.001664834550699025
0.02971930213999935
0.023356073122572554
-0.030314300162383154
-8.357821771687451E-4
-0.004292918115047541
-0.016546890162854235
-0.0283523871020845
0.020953962316137525
0.0077540154188780325
0.019149730217165414
-0.012935902186786655
-0.017643094283927154
-0.01143283053750235
0.033805647246214404
-0.00959202049324992
6.798613114549004E-4
0.01727608379745226
-0.01048206749174915
-0.023178795758348032
0.0295423763921554
0.003031834339290551
7.245379970221705E-4
-0.011310942153315542
0.03325606084444514
-0.0030095266891925973
-0.004269398391225913
0.022329204594162565
0.017446674464472366
0.030583014640342868
-0.022738997543511073
0.003602617851732659
0.017097439490425068
-0.0323009198330666
0.003946057786164844
0.019819883486122757
0.025620510962326225
0.034024584583582984
0.005353660370520118
0.0285159484539433
0.030588391914920382
-0.029385155728657224
-0.0047848544159629115
0.031849600831497696
0.028515759668588006
-0.005141310061744921
0.026245533304409346
0.007193165319626708
0.031085696905143262
-0.01918764713167466
-0.00515214402452922
-0.015790918708206782
-0.023571917850449937
-0.018295721546380997
0.020057972379435365
0.031081995255179073
-0.004951893602674291
-0.004436747966829628
-0.009833381930370803
-0.025149906184531945
0.0013179114011540524
-0.023418210394551185
0.030560884244104553
0.023120599906619452
0.0029294006705933087
0.02294958127277754
-0.009572098734364518
-0.02386536455356409
0.014625882441323096
-0.013227936109426679
-0.02352881131900092
0.002576632208559096
-0.01742874555055755
0.03357849148232965
0.01419563041975383
-7.545815526309313E-4
0.013790550260260763
-0.03432346498592121
-0.01006311629788417
-0.029867701655589645
-0.013197411489751992
-0.033090387951617686
-0.005632802296368342
-0.01577169180359734
0.013949809969005751
0.028499133050565215
0.033206368234995176
-0.020103044381428386
0.010158096148267043
-0.018235656375433538
-0.02693592616373447
0.031040279800674128
0.003946761519174037
0.024549810219059685
0.019543081332018805
0.011326273481541825
-0.004947459873992546
-0.03261628044535104
0.00974898436648973
0.0179513943580489
0.0028302379072732142
-0.011075578710534644
-0.029598052662744248
-0.005624244968495951
-0.02837387410044878
0.03307345795327864
-0.03190463519855529
-0.03050964928953922
0.01927529248607196
-0.002736155495554997
0.02708553911320627
0.011669521475566963
0.0014602841642459077
0.0069570759430763185
-0.0180685484607627
-0.016322045229398587
0.0017177156789220521
0.0037851964027485266
2.678353323232116E-4
0.03425747536286089
-0.025176626754936815
0.02376443778356098
-0.03349939048044399
-0.01633247965832128
0.011088751837885436
0.033820326045556764
-0.002943609413461723
-0.02325076078317994
0.011715044548350158
0.035651490460746824
-0.017720500608039622
-0.011296629541445849
0.005325865073526802
0.008303367009568116
0.012826975520627643
-0.005462295366446417
-0.018256972006956425
0.03170564448138748
0.02818778815222349
0.013564261055405931
0.0356775342022156
-4.8520636339128426E-4
0.005889384977548852
0.022068214305020747
-0.020745326849952377
0.03229052657809947
-0.024153926927265472
-0.03461818569024652
-0.0051959298928462225
-7.623436459635244E-4
0.02371728272668979
-0.017194519633518843
0.006214920491138344
0.03141216937223412
0.03521489538019411
-0.03273726894290815
-0.004552913979894577
-0.010919495444540787
-0.03452907371459236
0.015386928225595557
0.014787996932806483
-0.01879337296495597
0.0031867530382467327
0.02048314286967156
-0.03503541333795196
-0.009945158872406878
0.031074627330676383
0.016500923525773994
-0.010612742277236718
0.032906785638918246
-0.009561861677166533
0.011467451159393925
0.02771004476455856
-0.02049367956349618
0.025028909498051373
0.01549346327564824
-0.026837087697502766
0.03507226040024207
-0.023241277936890632
0.017223965709969383
0.01764283050540487
0.03564724643116078
0.023676763069165288
0.013589164249884725
-0.006310870678925322
0.01643275874395704
0.011567389062919549
0.00873474011711154
-0.018744994088147646
-0.0010783916922036813
-0.020777748705340937
-0.020897176141745466
0.009451960677228227
0.010850077470328831
-0.011093042209931157
0.0015622971593808321
0.0013064397244981207
0.01638690759678861
-0.03392263260274068
0.0031787532363201157
-0.024266952508946758
-0.023189057778091514
0.025603134049692097
0.02677315438044054
-0.011782156828007508
0.01638248806213132
0.010594314476711011
0.02758613455410773
0.017564487986335156
0.031868108226381614
-0.010329327871862398
-0.01001957149052312
-0.034590136302538994
-0.0035962553736600053
0.031037692494675556
-0.03163076138370448
0.031113003554250923
0.02719340487772602
-0.03297398121362127
-0.01752519850662327
-0.024578596310366983
-0.010093703472924185
-0.022015136665454453
-0.030491628780497482
-0.011511780323210454
-0.02700078407130426
0.0320606086646061
0.007188883591001734
-0.01578150583694497
-0.018653241018688094
-0.0060344907814680535
-0.011565335944653293
-0.010609417583388181
0.024544258208956254
-0.03190913689549677
-0.01478910412370743
-0.020594264052377693
0.025619057873385913
-0.01847382223547956
-0.0031205360315323047
-0.006711870360767178
-0.015281844086650825
-0.011176497048279974
0.027388775648613223
0.022291754840572817
-0.032117988707191784
0.03543301393044057
-0.017733438976244336
4.0515844102186754E-4
0.029304321499346697
0.028955360821621895
-0.014618771347849415
-0.027259761252884103
-0.010904107375983543
0.016521520284491456
0.01572522810518697
-0.029149413826683755
0.006068868073635089
8.95182220223667E-4
0.0024412887174710893
-0.028411226411601993
-0.026132275556671063
-0.017240095507188292
-3.669237505515635E-4
-0.025523943189213374
0.015302017536906805
-0.021141184288759145
-0.032444848574425936
-0.012177333824543175
-0.024666372387247636
-0.02985074335539873
-0.013133837330303242
0.009129750203214437
0.019414183822682236
0.001667958572351698
-0.029810586339123715
-0.008466596848288606
-0.027648330426138477
-0.018606408375356057
-0.03129806901019215
0.015341173102420898
-0.017222177660366798
-0.001957645109210142
0.019955121531078285
-0.026157688767113035
-0.019676574775433744
-0.012361686657212885
0.02062051975310586
-0.007358768092486041
-0.017985242690291604
0.003606066925450395
0.019220642393387936
-0.03392008983700028
0.012887803686244634
-0.005456485388098689
-0.02885267915036541
-0.021849818349391363
0.013943988277598789
-0.016148019482031206
-0.015078328652627544
-0.005563358100111739
0.019815782857691505
0.009181259337389523
0.008555066292240454
0.014244351762628456
0.014139028998968184
0.03156183508139471
-0.034427263198405965
0.023647820410650965
0.027512120194420064
-0.03280407801295201
0.016107624429291437
0.0029850795506968925
-0.0051325195895524645
-0.029543313481175924
0.03321011206847298
-0.026651972886155166
-0.0026449003701260465
0.019828074300276194
-0.012422125238711817
0.008019029833378648
0.02663134079472733
-0.01780102931565615
-0.007609298672540392
-0.022512453913097395
0.006633684316462267
0.01982408459445919
-0.03394343896500135
0.01968759436468178
-0.008962146398880447
0.03092717241620327
0.0030025133118093197
0.027369546817119686
-0.01798583554823341
-0.005248011687582797
-0.030041434664217048
-0.03441019555832184
-0.03251514361958344
0.011307645506400295
0.0019663052349975646
-0.011170837834571987
0.003203817994911831
-0.003877675169376045
0.028594511553223956
-0.018309974823559283
-0.020968167809759353
0.010970344454402176
0.02926471248046396
-0.017753244636234535
0.01928873166040778
-0.004502757874576602
-0.0014121001827211432
0.007399716959628724
-0.013090666476539954
0.025268575052617197
0.006390035848470546
0.01624438278597353
0.02379915202707534
-0.007203751324896916
-0.020539574686608844
0.012060499954637469
0.002814629598222297
-0.0016246356161404435
-0.021719285008437172
-0.0020824274043375474
0.007342255273152416
0.0013621369857930513
0.01294431212038323
-0.030248279627867126
0.011636313907457688
-0.017600614307528153
6.050660592661697E-4
-0.02213335938460658
0.024404625260280553
0.0016053351412968972
0.03225393818152121
-0.023518960046817732
0.020430423529195288
-0.026979680454512718
0.025287056267315394
-0.004049876806958785
-0.0023708634550098293
0.030283561290025587
-4.623079832069901E-4
5.268541586834138E-4
-0.033213908934378256
0.028738167237205167
-0.008716689692914628
0.02955361968236815
-6.810982474447363E-4
0.03073488632377419
-0.023221761503947978
0.03046612970725769
-0.03109850505159233
0.017760048223713125
0.005426870498710393
0.034782719191370035
-0.011035810966569706
-0.005700630378031337
0.025640815691219093
0.027805109292275393
0.010387943760238182
0.009070713793268355
0.014137627428888681
0.024920324082903136
0.021579145863294666
-0.009613752394713522
0.014418669065171738
-0.023272958644626696
-0.020676850290041564
-0.021419828518322415
0.024779600315561742
-0.017939814225790638
-0.02620748331665998
-0.00618431251313728
-0.027883141856295868
0.027997462690033212
0.015434347155899725
0.03566942003830864
-0.0068769440165837616
-0.024650862620066865
-0.02877682761677607
-0.021976979733677
-0.00909676497546457
0.0025839838810240087
0.030778234011453617
-0.01694251444635007
0.0033112753672644366
-0.009673008060484076
0.03178027851487919
0.006842346295416558
0.03326818287354322
-0.009875429023496887
0.007458662223548747
0.03135635406750677
-0.009462893721590076
-0.015793888735682285
-0.005014215550167511
-0.0040779561226606045
0.03162615220668995
-0.03524796647810702
0.03120504692594149
-0.011239914490623917
-0.022162052817954685
-0.033478899515831884
0.03349851594493854
-0.0030861598068794432
-0.022991190735478347
-0.0032113054124686125
-0.005366549452949447
-0.017080975316186287
0.03567886548091402
0.013371388454555731
-0.023985464930924363
-0.018946192007161935
-0.019585275752087024
-0.011318223796820848
-0.02150130222097963
-2.0433697235658355E-5
-0.03064728563722504
-0.023894577428062745
0.004078131887730395
-0.03512168251082735
0.026255226642682865
-0.029182325879712763
0.029920675465193572
-0.009221013555329085
0.026860765412927062
-0.017577150252173657
-0.012534177172105858
-0.03189991668441494
0.02454757309483465
-0.006500483365458443
0.011984285394133758
-0.02882769416382032
-0.020523037617213538
-0.008287880420015856
-0.019103458776826145
0.028072913755826656
-0.03162881484752328
-0.03396108744796863
-0.02858667168283264
0.012501673177386333
-0.016303652170182748
-0.012981218035147107
-0.03416496381235562
0.01359684639135482
-0.026846850542790845
-0.013347655081208974
0.035255700088796416
-0.013896120523514417
-0.028890967213042563
0.026827040854267015
0.027061497339421356
0.022993947319541234
-0.016076196279483573
0.03208679616275116
-0.035020203631048887
-0.03376950367852848
0.02573537271996535
0.007437342820912622
-0.007291358947770658
0.020984299449359166
0.015606266741962964
0.020098406966137523
-0.0052808637983731525
-0.001406714634607828
-0.027869842810854355
-0.032072993784759675
0.016232046813996058
-0.025081175845206687
0.0057641978587630385
-0.023857904556929464
-0.02761703441621357
0.029011726081851485
-0.019244648457791436
0.03145184709456601
-0.006890731177795165
0.021192139725826287
0.030270551051073166
-0.01839012443793931
-0.007020916705365254
-0.01897582206055969
-0.0353928364176387
0.015713475749154285
0.032234748384670595
0.016695659892838596
-0.035310400781246205
0.009705147647260423
-2.8595892767504377E-4
0.028063360761190245
0.02851019051236875
-0.01953819940720695
0.009907140291439742
-0.006929697128587358
-0.021258257981603055
-0.03529624002784595
0.0021466527665944604
-0.003755467678431955
0.026055559642482982
0.0068180562540714265
-0.022309385036551346
-0.030283458700264616
-0.016563437526268605
0.0330678096760553
0.0020498129102200432
-0.014571863350505976
0.01580880015462196
-0.00565058591746849
0.019463902784596317
-0.025029006405689773
-0.012351355541896123
0.0026868448761116354
0.01285043100386088
-0.013074734723598873
-5.359786501923786E-4
0.013306593975348571
-0.006372120396100672
0.03500488048916664
0.008859388196760479
-0.010009464772441832
-0.02710990395141078
0.03188555596148629
0.03242774683434958
0.002827746418514618
0.005005842039164335
-0.03277717383676604
-0.005564749712548913
-0.0050578761957494715
-0.009230140552045955
0.027901015553658592
-3.2632715872660256E-4
0.007695378988045114
0.027432383066787802
-0.020910000226409285
0.030243931351241482
-0.021436878487228472
0.011295448112457127
0.0236684064226051
-0.028364989364731228
-7.368915700410733E-4
0.01424638855791132
-0.032786371047982925
-0.001168480530041767
-0.016358888899091466
0.02308081291626525
0.013533684760212626
0.00165144191123031
0.007040043030086936
0.007193915842600089
0.007052028032162129
-0.022494942481015537
-0.0024618133639564
0.017928105651417343
-0.019986489083085677
0.03530086370251348
0.022665824171875473
0.029785763352206382
-0.032265226600552865
0.028890253636719113
-0.020339608815511317
0.007049032242356382
-0.030248703044787897
-0.014373381234382032
0.030452112956096428
0.0242385439612643
0.02811848196988727
-0.004549101063304591
-0.015520248308800777
0.004146659331406823
-0.032348014137001384
-0.022234803074521175
-0.0072004577785217405
-0.03266133168896335
-0.006946732316360307
0.008729853997938589
-0.0037956407133146394
0.01280234756384098
0.01345115406355641
-0.032338701218003536
-0.02892853964306816
-0.03237811927194409
0.029427138599336586
-0.027222617354004844
0.0084432713568229
0.016088979226437046
0.023260828212059007
0.031293012445762755
0.0028499063158213614
3.5594223293724386E-4
0.03554603255298114
-0.03222714792765522
0.013913613406059108
-0.010920976979989876
0.028169222470138255
-0.03271822067201014
0.024664751869692934
0.029335313310501737
-0.011528165527335321
0.01744708001074704
-0.024668735216011553
-0.02224576225934676
0.01827254628137282
-0.02151493806815348
-0.009560055047502403
-0.007242608091721305
0.017873162011781928
0.024944683229431844
0.006355317291820525
0.013882788458397473
0.022418178771750077
-0.01748382365958457
0.017521058590081476
0.029400106512105784
0.026577313062995753
-0.01621262949272835
0.0016593029454127287
-0.002727940805925845
0.026297424586390464
0.02510294546040439
-0.028451629158874257
-0.009241780038546348
0.012171241409701675
-0.031111461224784885
0.009063493764409083
-0.026888773022637306
-0.01832189123549687
7.842787698136358E-4
-0.010212798534950423
-0.03211831469231671
-0.016265359497608146
-0.0015616585645622585
0.001897129578712707
-0.029841088594580113
0.013638859983061573
-0.03435199173670515
0.030175411525678736
-0.027277920744656292
-0.01665190570506855
-0.012151999680157153
0.019696214047863765
0.033829204687951975
-0.021574143765497496
-0.0138685251945901
0.027807899986791063
0.002546907570889878
0.00541323232296808
0.0026671563312827967
-0.027165503207672158
0.018822843446630835
0.006896451416982488
-0.01704719236155981
-0.020431196161734094
0.03121518338172638
0.012182464970224904
0.0034171100384052314
-0.028332354385170518
0.034003877808289146
-0.03365396021727198
0.018896916812098805
-0.012356192761044691
0.02092781028320613
-0.019646837339419822
-0.027179151189741207
0.007673356672179846
0.020711803033103562
-0.03144807929087908
0.029180415222832767
-0.012425968892758939
-0.009381178513543989
-0.009019588119813706
-0.0029203594789919754
1.3354759611000633E-4
-0.012490655102723514
-0.009262068806812764
0.02657906768973725
0.03286385634231441
-0.02665105513620704
0.0015288399386014229
-0.0019884556942752624
0.027351591781015844
0.0015004677997808233
-0.010095862141667467
-0.019156537259011983
0.0010712763345866946
-0.009561410117404072
0.03144549946990455
-0.030465654712473478
-0.014810400317985067
-0.0071020949456126956
-0.03109122091904563
-0.010045242268823949
0.01537250388647135
0.012609815084166406
-0.011521402451039022
-0.01063591056242173
-0.008909280551942487
0.021061061599918836
-0.013467368731202845
-0.003900417436026364
0.021237224176704594
-0.012927370339394648
0.0330754916065763
-0.028521525511419288
-0.030354710561420105
0.026576077112945302
0.005945815520636569
-0.019172546622240366
0.022437075352115143
-0.007789688695071937
0.015196267846671802
-0.0036286242292728477
5.356265740284472E-4
-0.019004502813344062
-0.020303348694485
0.02076327949622348
0.0053447358044584475
0.009709470076193716
-0.02444773174563467
0.010680144351632288
-0.034736028191590225
-0.012799253914179156
0.01919680557870232
-0.01628284376357765
-0.002245986347335603
-0.019439884707829314
-0.00888386606602936
0.03386438891593879
-0.012466318681186164
-0.02478410857386452
0.03493479519457568
0.018813844625521596
0.009928039990589305
0.034093066223807644
0.0127547248511179
0.017936417703761864
0.03514707115773846
0.02597882832858138
-0.003970010754417511
0.019278044584091054
-0.007994599752405834
-0.03405136224934431
-0.029688912491540414
-0.025896041996937638
-0.027010001648386024
-0.0038540254601568402
0.02241345198769401
0.011835871484181568
-0.0032074237959186652
-0.02507715111838526
-0.029253276769692693
0.0311708962410268
-0.0195619061862574
0.015730530390509874
-0.007335772316743275
-0.025733654299778926
-0.033296267255522184
-0.013914645971091964
0.027801528471759193
-0.02342121300310291
0.03556567567015362
0.011391113589517082
0.005545585332774716
0.020306202746249058
-0.024015264537973986
-0.008504904633516813
0.022934813640895578
-0.026212250602552806
0.014721656378092501
-0.023534275542752683
0.01211825152054724
-0.026160529277662974
0.03447004175412054
-0.00759138856263291
-0.032909935204750135
-9.274248221835396E-4
0.007443704816723261
0.020359670271259248
-0.028609736687056003
-0.014719370672635599
-0.023662686318165163
0.011864489723888122
-0.03540515266691076
0.019084714108153572
0.02665007701042796
0.026017838809390896
0.010277906805551767
0.03321087328153853
-0.009927626811405972
0.005829530513100534
-0.012221132388990252
-0.009644347719908644
0.024676250127331392
-1.049471726002546E-4
-0.03106060925008159
0.03167903247831791
-0.013197730776025825
-0.030081845663442373
-0.023722654402919166
0.004210194747968042
0.02860027211942888
0.024820136467713305
0.009774870408865738
-0.033660734104543524
0.018446845863991035
0.01000084092675406
-0.012423991162723691
-0.024324121153695095
-0.018335959709909658
0.017310253707952146
0.01579757724336573
0.024085173243150335
0.012019324498933406
0.013734082720258396
-0.004123910580270999
0.019121184832749237
0.014057811264127806
0.030100763640249828
-0.029829579706815632
0.02668870811813078
-0.029449289809535102
-0.015521235868805699
0.03192698669854907
0.009230644806403836
-0.011302214536586277
-0.032610436962212226
0.015527633724826746
-0.023636010603910122
-0.01260299510696572
-0.0334694816898268
-0.002771503732675387
-0.005863880590115118
0.03447346407741947
-0.014221090992671943
-0.009835095255181184
0.01043366834876866
0.010559735318199336
0.0331923295650248
0.02355243854192534
0.00575717129049904
-0.027942467844086872
0.007884928739536605
-0.02112560732778187
-0.03499065615402982
0.029770225543554518
-7.250157610238436E-4
-0.009926780113192757
-0.009652736524771666
0.015231454234510583
-0.015234695591039595
0.03448184353495541
0.013851826325761617
0.03512445777896743
0.017102872506625164
-0.020639859637413105
0.008100640162499596
-0.033454738758080284
0.02973280866596649
0.0022103303783619355
-0.017114762424659948
0.01562529762609726
0.027883633511189818
0.016236057262203604
-0.01469796766212397
0.020005934310993394
-0.02974637954492174
-0.029729281725000046
-0.00544491269286344
-0.028175442855551045
-0.024192323210297413
-0.015537721360759229
-0.007335706382243148
0.030213831395800805
0.007606914131026446
-0.013053507624439735
-0.028200294556041464
0.027043196843612866
-3.9460796325929E-4
0.0073721478737502
-0.03196913266532569
0.03372423533495318
0.0335112375035623
-0.013921430862848472
0.030208308452849622
0.029235326776384837
0.0335744631093083
-0.029644225309469203
0.03045543313602604
-0.008535052477947207
0.012477532378653983
-0.02868675369377472
0.020028905962177344
-0.031235939674330294
-0.024385265828846585
0.004822583636214427
0.016617550947440378
0.029382425850337443
-0.0133949707407108
-0.029856484222704094
0.029440675226944768
0.001230035792468602
-9.266268907138567E-4
0.034641747734164646
0.031172571100454335
-0.007912722156119576
-7.056487365823122E-4
0.0017152321092646777
0.0068037576752027346
0.028613909525941922
-0.03127605667288573
0.004707995678050185
0.03112655789935667
0.015171257463993108
0.028087942600493965
-0.03437608063978279
0.028871461159445666
0.016025201761526796
-0.031252578972541134
-0.031272968736625384
0.03345635256666006
0.012388684857453994
-0.007175220645435909
-0.027077012325040416
-0.03124331676800617
0.02675340860134265
0.006268522533469309
0.022917846908349124
0.03164064770405797
0.003640026427764377
-0.009778887057243328
-0.024492418792518074
0.019237023206736134
-0.015859954777940912
-0.03008193661585768
0.0322842988311247
0.005202753145988372
-0.02282445237119544
-1.948455864679982E-4
0.030081694768620798
0.02971539118767079
-0.028584379659795392
0.016765034324205466
-0.007208599484048783
0.007191008526820981
-0.0018165687380721565
0.0075717899075327735
0.009299401556851355
-0.010409996108221766
0.026254821876156235
-0.0035607276099603527
-0.026388839694699573
0.03396016542186123
0.0012699180254415257
-0.02616993401079515
-0.03525062998407871
0.023418722855413784
0.03294616326846109
0.024308957666461246
0.032242344362496914
-0.010017192326430516
-0.020763481137733946
-0.01190088447457937
-0.016487234667209923
0.03368281795851638
0.023627041266508046
0.0065852060967251935
-0.03235279478517839
0.004666973066818569
-0.03428141014584344
0.02624064661649035
0.02256161658958402
0.02267989245726234
-0.015071934070466458
0.007783989710258177
0.00947767925445276
0.030288815129169422
0.004311832511518662
0.018334793050225534
-0.028027709714134406
0.005822204717315649
0.014491634988910498
-0.006894331403563485
0.03384380393606849
0.025718312382549353
-0.0036968860675479845
0.034331900724683326
0.01974375397566608
-0.03476409787967515
-0.003439774560372276
-0.008803998716541219
0.011322512944139558
0.017033045994730614
0.003910765351210023
0.00329750454458351
-0.02826267813502254
-0.018102760796517275
0.002358238319475729
-0.026953160994523023
0.018084173069128587
-0.005630826090282717
-0.021953309837575763
-0.014013895799507244
0.03144062189054929
-0.02369828434287302
0.00933033493641907
0.03496252666869479
-0.03132388343215703
0.019385296277491817
0.004749346966373247
-0.016713912531114473
0.016949359585546525
-0.001961559196541833
-0.02058370045576505
-0.01602761053307023
0.03439117191116213
-0.01950617588720817
-0.009151605784531884
0.013743978230372704
-0.02899138860008184
-0.02471915899148519
0.016106521008771343
-0.02048699425414132
-0.0345546631538865
0.007438720550311931
0.02748670828490596
0.014848776767802406
-0.0352463305402802
-0.03441079897427815
0.017850419690315714
0.03218489187409157
-0.014841447181792873
-0.004755195393255775
-0.010263215849704226
-0.02689659053863534
0.034172320120911565
0.01081449293785209
-0.005013448526999746
-0.013843544398245786
0.004994024430540478
-0.01785401358479711
0.03484961449330552
0.025190037177403306
0.004017713317173523
-0.0033866312861885947
-0.03568389284471315
-0.016438590574730284
0.028884070636534573
0.003988339611189981
-0.015473117569844708
-0.007511960338185859
0.02356124162011418
0.015845025492566833
0.022819080504428144
-0.02381000192114577
0.024167957013645346
-0.008429481614506414
0.027090968008857172
0.029440298785986335
0.025661711343548506
-0.012250831772021645
-0.018749391354390726
0.0021082907489762617
0.01291984552553005
-0.03332425968094577
-9.587846876844414E-4
-0.030853488863692418
0.01949904243039588
0.006238559366893125
0.014470762525833986
0.029913843580284233
0.027780935658306166
0.008081645018828125
0.030687414683211706
0.020667716295358095
-7.193550372592977E-4
-0.013675968124685314
-0.01752895461364668
-0.002821058663627647
0.02350926326794686
0.032368760580956474
-0.0328624971216849
-0.01974776849401121
0.020647935847166447
0.013133292296865405
0.006643814827665261
0.011808322439991498
-0.019287673492467055
0.0016902111870279596
0.026398956078884935
0.0020110853579986404
-0.018377987036395718
-0.01327011949773333
-0.007958549824090642
-0.020301936552582125
0.009627266119693619
0.029612227514351303
0.023776385956348095
-0.03428341807061667
-0.021644276686684526
0.01569301590123795
-0.022766768489986787
0.020882165443650867
-0.010286815068540733
-0.03384883488894241
0.01916231920937113
0.021393393537084374
0.026405218948979854
0.019008757214266273
0.004359735591427778
0.010148432364776819
-0.029564623862583427
0.020254076170720198
0.03382386371218571
0.006759733319453058
-0.024818148424352267
0.026635646754348666
-0.00598523774711977
-0.03408037952422601
-0.022485247833859905
-0.01758437094605478
0.005942482663939083
-0.01917770108961019
-3.380470181578929E-4
3.435540264330461E-4
0.017924768814520653
0.02100671020875411
0.004675832752734435
-0.019390195177478278
-8.233427632886592E-5
-0.02107888216095703
-4.655389489784875E-4
-0.021723121208158745
-0.00160572125248825
0.01597547103946479
-0.026678575219914243
0.017186048069548883
-0.025729197704277472
0.02522711796774619
0.019602318987505994
0.020395706296447283
-0.02311467310549742
0.004230097427130097
0.027911127279775114
0.02214283815638695
-0.011278195922397784
-0.028953703522141255
0.007796849306262989
0.01941197159425155
-0.020848237816270543
-0.01906495661323396
-0.02646867794987469
0.01295243321476141
0.019173137046796206
0.009122866857938193
-0.02567198110738963
0.031377922514540024
0.03465800505079891
-0.02711139489842853
-0.004147951198744379
-0.02509707890935759
-0.003238430646024082
0.0054803298861472935
-0.01407589293567025
0.009935908964578022
-0.024409913509014385
0.017236010453008564
0.011639039039802485
-0.004732481997260878
-0.0019887884292340355
-0.030758571648480233
0.03411856653441658
-0.002423739493883116
-0.033206119648463435
-0.023005101265607966
0.018025381380776154
0.027245576639365596
-0.006207697509630555
-0.0119136742372326
-0.03168826118840991
-0.016982735412292733
0.01827476757456231
0.026116839645269868
-0.01467064769678135
0.015731501375582713
0.004101068389760251
-0.007620272821497378
-0.006559315685722194
0.0207816820714517
-0.03430490413922052
0.029601403924634354
-0.003939325513730725
-0.010374038894516435
-0.007343119910941529
-0.033800339143209505
-0.02981932699729274
0.029035465226162946
-0.011853975347887291
-0.022943142545217097
0.020303288307609323
-0.017230562309746258
-0.027932325226920095
-0.018487129197745356
0.0065271440956487375
-0.03382249264364742
-0.022449552563410222
0.010815334312978667
0.020135083793607886
0.0043893438494965326
0.025823707449214493
-0.030347240717510722
0.034159746978659006
-0.03474798835662851
0.03205750444127961
-0.020364789520424087
-0.02055352361222505
-0.0034487891228956527
-0.011411340972142383
-0.03384743085033246
-0.03472869237016309
-0.019162624764356897
-0.0032774262256471884
0.006579964110225642
0.005999017897326771
0.027544415978749626
-0.014627744106918774
-0.004902345671730233
0.022748675410198094
0.025816968113988148
0.024663142857494144
-0.034993991133266636
0.03394158468588036
0.018616027698926063
0.03506090033234857
-0.011149116711677391
0.00999219071044001
-0.024034934828767562
-0.0032583707696353867
-0.015861830081929665
0.0057890764643544965
0.02829921966380504
0.004509100944878608
0.032518930440935484
0.031615153762825324
0.004891425986234842
-0.03459456807304419
0.010162054908104921
0.029618655423833032
-0.03520455421676928
-0.019634756425272744
-0.029938456887642215
0.02560853920393886
-0.009153142525703158
0.013091287614430125
-0.03268214511080913
-0.01316522730492109
-0.020380808034526663
-0.03320065162154197
0.014998789734486546
0.024515079494349917
0.029628853599521027
0.03477112236634976
-0.013738876757106173
-0.015290738498060244
-0.03286545788103271
-0.0031971172378202906
-0.020266690220025814
-0.010336413615370379
-0.012679856002388634
0.01455144091613464
-0.021370106871861964
0.034414514535149196
0.020401273036857473
0.008446627092036259
0.010674052964518461
-0.013087576527897628
0.029151672353326608
0.0251568266084167
0.03274734274059943
0.008843288743034507
0.005041596254844918
0.002986343022373328
0.017834142946149045
-0.021540443894114802
0.01838889861577815
0.021988202319678393
-0.0013999645310230555
-0.015500566389606823
-0.011207127526311693
0.03563193680076959
-0.022264947959328023
-0.02718000373671621
0.03388104943827307
0.029884367443384824
-0.012445569523643174
-0.031244373713601843
7.966663987378497E-5
0.025375681417669438
0.032311674655418954
-0.0020945375775188874
0.005937463121619961
0.0045767123267135695
0.01495320118833239
-0.006285125635631612
-0.00755637306824896
0.02031934274823579
-0.010730341515155797
-0.02118353021358676
-0.011894485388021361
-0.03569642957886838
0.021610382075916555
0.004437819220283877
-0.033317575785589616
-0.006247955214240684
0.01770106309642005
-0.020812366107827558
-0.030044338434794503
0.020243972132189897
0.03477706187559289
0.0037762076769712466
-0.003449559510968092
0.034442932650730756
-0.011802847403589993
-0.034501257999770274
0.012465637940719553
-0.0035499310733341713
0.027813687029688228
-0.023685189970585885
-0.03338646168054068
-0.02740081812157919
-0.004541199844473955
-0.006372623299507805
-6.589201819011681E-4
-0.009583123748432627
0.004383451030514275
-0.02651945580536244
0.009531843739759502
0.02574210440931128
0.01745220006610603
0.024633288257571037
0.0016799817766414843
-0.00897077555867714
0.027172162608567613
0.014541159765614126
-0.00719821639395591
-0.027757403962208087
0.0021363688997813463
0.010080478676887779
0.02053634033185083
0.001345042196872391
-0.030210556107185704
-0.0031630443909806474
0.004882011671289911
-0.03451260281882804
-0.01686120921928913
-0.01542188303811801
-0.022773813029302217
-0.03248536055303894
0.00561094835692106
-0.010617231283038216
-0.013897645749039598
0.009764502668916389
-0.0218360276051073
0.020060635078012562
0.02114759162525448
0.03166843006409063
-0.005863560682860362
0.02060675854998096
-0.0047816645153107885
0.013378603773171634
-0.006185834052869408
-0.027100953012054323
0.03523225960224581
0.02910588175809213
-0.02308509776191877
-0.009102769338027616
0.0039164047964634005
0.013492399043363676
0.007169739701388227
-0.01806043441779498
0.022222544513450966
0.009521388024907124
-0.014672583438006218
0.025137233636319388
0.02346011897214202
-0.013923918520659502
0.007342833788558677
0.014439562621127056
0.030328544660570556
-0.015047348279140844
-0.03332562767260527
0.008471856822692629
0.030127867956005236
0.009300155384689764
2.8097677992840187E-5
-0.015096522343163766
-0.022137630154004377
-0.018535516117800035
0.0031890005372178093
0.02661161226741842
0.009356217761406369
0.021661160856735057
0.021187311317348134
-0.015347047969260674
-0.033112338689315304
-0.023877725417080775
-5.911891893008864E-4
-0.023358584938254774
0.0033845757229854848
0.03206997675584586
0.012650269260279144
0.011322842327519254
-0.026650173236369257
-0.025209533605209285
-0.02684187101781562
0.034248000445054744
0.035269366444592026
0.004161297097384609
-0.015418245031248255
0.02164071932119139
-0.01979887175370496
0.014928551993689379
-0.028124282285818
0.01761857589055102
-0.012656348361509442
0.007951961452398078
0.014808067749222428
-0.030215042298009434
0.021501281374840225
0.02715031040946851
0.03267432891628805
0.017580983916776954
0.008342178530708552
0.032059958051597226
0.02137214731630635
-0.015255471919211273
-0.006656052252465652
1.6065448825209466E-4
0.01787284560688507
-0.02587679680401094
-0.027656434972545423
-0.0079353094821812
-0.022674908626143707
-0.006357604479645642
-0.0010346967788177758
-0.00653761639160436
-0.02746374553171114
0.016122722892683634
0.02489903307837041
