0.019084551056357153
0.006601689013748961
0.02040106542989583
-0.0285423347157877
0.01870630217613236
0.0037631201486133872
0.0025617539223994276
-0.028136591376531992
0.018003862291257083
0.011708070671829558
0.007786540853787785
0.009993879049473742
0.02449004408353799
-0.01158627168900532
-0.020774883337568554
-0.03340811811288452
-0.013526319724656819
-0.01843441826937936
0.015211562127887879
0.021693859811271074
0.0041586957643969386
-0.03219310874190113
-0.011234174766765484
-0.028174867281483305
-0.027379872079402075
0.016514209028410172
-0.009265723920732414
-0.013264583656725455
-0.012164877823313807
0.02967923528515981
0.013420360872095347
0.026803486695770318
-0.0013980810202188455
0.020569559169470456
0.004957812479887371
-0.00588067045459497
0.004790302533415264
-0.022092069937827665
0.03259157267937507
-0.004790373746795636
4.762903517666461E-4
0.010256409288862291
0.0161146832540813
0.028916895139619394
-0.002219901298481886
0.01721680134775419
0.018779370706837707
0.009473184478934558
0.030022785721182388
-0.0030768576149943928
0.009339323325499013
-0.006628178214823074
-0.026211966296413574
0.03265686095195888
0.014101754759410862
-0.019339617812272572
-0.010115143593761311
0.030460552749925138
0.01687398245036006
-0.02287692947157549
0.001082826798574511
0.0016867846598163636
0.001823348319321568
0.010790206732265883
-0.0024619873127396125
-0.028110425223613244
0.02672383205770176
0.03635159170430579
0.017496303036317738
0.007835751912617133
-0.006247056974371936
-0.018982116979426162
0.04273478009618097
0.028706121300480517
-0.02293692338165507
0.03314808899398269
0.006132886050699147
-0.02353190777119296
0.028538408058133558
-0.016180159795694808
-0.0035526639261053627
0.0167099843178725
0.028597864022882086
0.031237681052181526
-0.025930834675994312
-0.029848863626113425
-0.01779042983739195
-0.017384760925617703
0.004109169967863432
0.018245980639924574
0.035786958494898366
-0.0033813042967126916
-0.007429704057252315
-0.018622260828186455
0.033686142611903454
0.04988875432245902
-0.014461544841033578
0.027289826608865347
0.01084741406691146
0.015303709964434031
0.0526670623160933
0.006025821052191548
0.002405339455877061
-0.001940712247159202
0.0458808178336453
-0.023703188731561513
0.005360318912721834
0.03753692841803819
-0.013822026809672164
-0.027424539364586272
-0.033809939723834566
-0.005429148659039991
0.034110986193105264
0.00282797909982516
0.027589314975771276
-0.003952247381213013
-0.02690338284613084
0.005056244209217022
0.03261454730979048
-0.024370584287047237
-0.021218095829771584
-0.0020445317908891823
-0.008069010843255507
-0.00809163939244872
0.013257244543218926
-0.00491173090019957
0.04142410697546949
0.008096644862811116
0.023475793613294885
-0.017178913884227914
0.037283841911474255
-0.008480992340185465
0.005624272139368021
-0.01685597106082638
-0.01600046200087048
0.03251632293752173
0.0019365983206404737
-0.035946450421872965
-0.024968357724400647
-0.00306447193157491
0.013230538976241463
0.0031528072835594403
0.03316714244813452
-0.03206614769180781
0.03547910357600274
0.010852615101737111
0.03771093570441772
0.006873025500126364
-0.018578772289416286
-0.0014798316741499403
0.0061242389934861845
0.04520879704705711
0.04927516646892406
0.025743114158763923
0.04653604632294094
0.052552816306085375
0.0648585618918684
0.017671474944576587
0.005740958714741148
0.013426423612569101
-0.013547370240713733
-2.855725150585673E-4
0.01726148446816896
-0.003645286925744141
0.006783202350199488
0.003120702598881313
0.02821190646697522
0.021073349420285502
0.021837478313366743
0.00825895670147457
-0.00930253640301957
-0.016865925990051253
0.014146958391889956
0.02102109852461737
0.023513762732381115
0.037982791365111956
-0.015051736601144377
-0.0020829152271569502
0.02853405588544566
0.036613247625599414
0.0163693577470885
8.479922043847025E-4
0.043290238894327794
-0.015637797899633297
2.107150837276343E-4
-0.0011684220241092026
-0.02105632117607671
0.02483551115018351
-0.012678397412620519
-0.006022321919951746
-0.03160736866274703
-0.02374326687639425
0.025367275379288096
-0.03934995023826455
-0.0202644342858121
-0.00443730974335196
0.02842924276205824
0.035266021280346914
0.03351871039457681
0.007788350272829913
0.02199144314007213
0.010328173764563155
-0.03296045150996556
-0.03530937003064764
-0.033384455762535924
-0.026067349856147348
-0.029089848740859372
0.019235851969698296
-0.002177802799690322
-0.03779461738135787
-0.0030307126782074157
0.006639245043874337
-0.009098416280555435
-0.020384203083722616
-0.04015397779673889
-0.0381799077725521
-0.0075374849905836625
-0.0295061437433195
-0.015902755321504272
0.014482926350192896
-0.015258125593420857
-0.03617934296471836
0.014154974710959348
0.01872066767496925
0.024694743409932628
-0.017230489845424864
-0.012118002246017365
-0.034592882021816665
-0.023955870372553964
-0.00201926705059468
0.024572152654611296
0.002047542037697696
-0.025762927403215525
-0.041993686813103476
0.018086966412394285
0.02152267341273354
-0.013649114430592807
0.0031209004352358957
-0.018612896539252362
-0.008662432218703928
-0.01930854373453922
-0.057446809037629096
-0.017143697364115886
-0.043704493769929784
0.021634219762340166
-0.03950921344826232
0.013478016948497902
-0.029098540220454508
0.01652828553092237
-0.028739478433468395
0.010879477104032602
-0.024920088430566725
0.009477635226444637
-0.016599224307551654
-0.019746952916991634
0.015370014039596935
0.010742443765740774
0.00817799625927369
-0.018214459953812108
-0.03854540260968274
-0.008829228683461915
-0.04323292318727012
0.006114903933060507
-0.008491435936914692
-0.021898720468212503
-0.026173030913063916
-0.00447415174240131
-0.02041210703711991
-0.021557673064133993
-0.059112704697135976
-0.0557006639699501
-0.027434129102941004
-0.02656653862877284
-0.015801530756296082
-0.062396293020816763
-0.029779691088030514
0.012969540967722676
-0.0046681461426556345
0.020541356439215237
-1.542566950034696E-4
0.033496006078019565
-0.03227863384840152
0.01235032942464782
-0.025142989214605775
-0.023314728212320186
-0.021097974447838674
-0.039435011381578615
-0.04488096823912951
-0.021180294996056764
0.009208305023391218
-0.021633484645151867
-0.03508932262328208
-8.750272142053598E-4
-0.01654267545618121
-0.021549704998178022
0.010569887335375274
-0.027521778026490203
-0.012056261825466177
-0.04663280140438001
-0.04709271629571043
-0.0512124652260258
-0.037880496638812856
-0.04400535294074547
-0.028792436171295278
-0.050309700022832644
-0.02046743892191441
0.02496429432917005
0.016841288401821284
0.0024288096485983943
-0.01900884271644698
0.010144529464756781
6.179496679175068E-4
-0.002090411108213686
0.0017040541918734848
-0.010818612926858722
-0.0035337642301062934
0.004306230414861818
-0.0031862882513668633
0.003651017547935458
-0.03607093754690314
0.003904148952315482
0.03790530885141847
0.056575622637969364
-2.138303481607748E-4
0.004062790121773986
-0.03587900652620505
-0.03124177926733093
0.02837489232675462
-0.03765398090244917
-0.004127162554291565
-0.0032081264924041846
-0.018717386816184872
-0.04504804771910231
-0.00689478653198221
-0.019178275396212065
-0.03000016064293897
-0.027803511527302333
-0.023533778419111178
0.030713503417842073
0.01570875780413067
0.02437530329446461
-0.03556086504613172
0.011037508110808416
-0.013771648972558956
-0.035013026558459386
0.02027814024241488
-0.0034233495140704347
0.008339453815032318
0.0031391681561983055
0.007662521307023772
0.07162612823923595
0.04211711403581298
-0.021491703174547298
0.03401829627441435
0.006262956684226012
0.010339321559045333
0.019966790784553098
4.3758679295855587E-4
-0.03627097434144536
0.005146609324720504
-0.018384233181154036
-0.03220495251500968
-0.001165313033499201
0.03466681738358456
-0.013367258130863128
0.009654382023559407
-0.03202315108998186
-0.023781382424887105
0.0053213874786636455
-0.052614043952054226
0.008507963492143219
0.0014471278453666572
-1.998953589948773E-4
0.006986765907551557
-0.0249206654286981
0.02007462758078902
0.06100298022873794
0.0763614932445203
0.07979735512802942
0.04390568833058496
0.03489871601880065
0.037476546574317295
0.026860655868024958
0.04996999336411413
0.014519963431488508
0.028379191173609736
-0.014759796514680538
-0.020181972128580063
-0.027073116654987305
2.1461518504535228E-4
-0.02483562461771582
0.024402843731555317
-0.031056885821407695
0.014878084776090929
0.010455979845289766
0.006965597311275341
-0.024090970262313553
0.014397586497376769
0.013318486554763656
-0.02018796811887917
0.0477893712237233
0.015563045047470988
0.009977922293739205
0.05356787686393574
0.03419596329138982
0.08484928938811158
0.0641288339615483
0.02317404812077418
0.011643318400252931
0.019099619419887345
-0.007312446058403641
-0.006982384156794771
-0.00309879172431713
-0.0038305156103894023
-0.002158899799254029
-0.0043051415092530835
-0.01330262983616605
0.009587364700686184
0.009454520856395086
-1.3456735961477688E-4
-0.02568049505175115
-0.023915534385023
0.030031072357792482
0.013139371968606116
-0.021594954947332552
0.012398142870935188
-0.018035229994834763
0.014950352058216954
0.008816546342256851
0.03543673751386395
0.07295082554297493
0.04092482501372717
0.07497945810241519
0.03051337372672435
0.0727429077528171
0.007077112271228794
-0.004241301933820266
0.034959190675544705
2.416054630979498E-5
-0.0181118514544795
-0.012348273992979851
0.03193654998297801
0.008807634840110497
-0.013583399470349403
-0.02318919201891244
-0.016525912195279113
0.023740176801794185
0.027088542035489254
-6.815082640855205E-4
0.015130416237850872
-0.02694143223568283
0.03226568187506528
-8.835554446248069E-4
-0.012904261447942702
-0.028631400814929018
0.03489441732416699
0.03634272114176257
0.06601081211691757
0.03976485191282557
0.05069236451935271
0.010760696265243404
0.08935365694738992
0.07293087327652545
-7.132196132880894E-4
-0.004034618361288031
-0.01257445268330585
-0.014586231855823124
0.029239662706508462
-0.00745210127200572
-0.011433371761516946
-0.016475035547762838
0.043465462802859164
0.01818830500212293
-0.02044241810964818
0.002919250024845665
-0.02201008265412468
-0.017617192446204893
0.035579723293380855
-0.015867229691426378
-0.01466575891058785
0.007806766052588989
0.019942948987175947
0.03953212805138743
-6.007836969043534E-4
0.03938930040880978
-6.837760092597017E-4
-0.00269608983783168
0.04043966470614663
0.06494977950425888
0.0418289293063416
0.05681635729222413
0.013636671585605126
0.05429220757306699
0.020910657063315886
-0.014390702838004426
0.022296585917026233
0.04302071113452421
0.028925475634351334
0.04899098238005601
0.02284388130786092
-0.009531941683022491
0.013255022453816035
-0.03105338264784211
0.014539645669528808
0.011868497228047725
-0.023336058234433844
-0.024760084875702523
0.018357788037123478
-0.017512294443316395
-0.008625818213250069
-0.01937547257650372
-0.009254089653193034
0.01741997172050558
0.02708431711724455
0.06310503520713517
0.05259110035924352
0.03398927397985292
0.04186885541436335
0.057638032607588624
0.022478016857022515
0.019726797495985254
0.012367855956693628
0.04024205598433449
0.02277986715800646
0.05069748984332305
0.049677345503977
0.0521446344360222
0.0336197196825274
0.013101910841247798
-0.025496124185056205
0.03363570569841554
0.024815168091057705
0.023700897624167994
0.029769987901885255
-0.033976508243334064
-0.0031603559306559513
0.017896801191933123
0.02916323134268266
-0.009964136081600378
0.029767310149295505
0.05798447427245284
0.010033423900479888
0.007856010570651693
0.025116249939748814
0.06708544139890629
0.01162331937236547
0.002725870239034927
0.03263168804546448
0.049429929019265906
0.023774167987094655
0.07119116297483172
0.032694832805174844
-0.0038553424738386292
-0.008950202527315433
-0.0095612961896617
0.04977814563337136
0.02007620577492923
-0.006520715970883607
0.014612162919651898
-0.01569059910458163
0.01907970505289274
-0.0020496278489905502
0.030254995027152596
0.008405318141366207
-0.014670198144995173
0.0015333617850304153
0.015470892135298958
0.046271752289728935
0.030905267675714023
0.020320100952702192
0.03299535302777508
0.05164663291852247
0.05642333179543578
0.06773957379966264
0.06992333713646806
0.03916931187269643
0.018661170658302025
0.019031284863894583
0.032585907813369244
0.04907122682863996
0.03328416005324275
0.044599112946242636
0.04793899390253264
-0.0216574631333854
0.02353595497119471
-0.00886329893279536
-0.02567238687096072
-0.003516711324511593
5.067630482165834E-4
0.02870045537626678
0.014123062500359706
4.8588392489523196E-4
-6.094305304793296E-4
0.014706307103032104
0.02708137343720893
0.0070038229930786695
0.036658949514689544
-0.004334584538876494
-5.014550199662653E-4
0.003478765229095632
0.02214207171684494
0.012470239805175204
0.03866574321029522
0.02901666362627308
0.01081173994602732
0.0644739135268873
0.065244716975064
0.045611890930800515
0.005421214356473584
-0.01300104934799466
0.0028678720685067377
0.033327375870553504
-0.016766821693370137
0.009513746954187993
-0.021713353250174205
0.0041220184715840625
0.009378157364615815
-0.01611139827427155
-0.01007062492856236
0.018301035668281618
0.006404762214874765
-0.009572099586960661
-0.02788045064130916
-0.015362530989676633
0.020530658217434408
0.004574582754779073
-0.03370980254153759
-0.04450359263170231
-0.04702443972902222
-0.035073804810341565
-0.026956698787409895
-5.413166019469198E-4
0.008369418413520917
0.03159918338599696
-0.009795550480562036
0.030170614298071323
-0.012840699135045121
-0.016851744178763967
0.018614873554360995
0.027262723095410057
0.03182545399269165
0.020976866209879156
0.016569929607652807
-0.02706786987078647
0.007374645149390138
0.007197878560391342
-0.016278096598120455
-0.02126816210443876
0.017028121628930245
0.03162597358759071
-0.012270466761836624
0.011724621311405272
0.0035490953519399
-0.002011543882688781
-0.051055545152992196
5.280403186192724E-4
-0.04004124961056373
-0.04167435840547224
0.012588669232841973
-0.03067385216264784
0.008498332789870323
0.011620165490004834
0.03043880651466973
0.025615600879619005
0.00854566104379354
-0.0233429162385899
-0.02043205614850246
-0.0057603624840203965
-0.007814643967354718
-0.019501005695320237
-0.014518595820933925
-9.8310920902471E-4
-2.6303183709559114E-4
0.006540025695305443
0.017326683705991528
0.0037932445918612474
-0.017054041842461395
-0.02586585769441444
-0.040807488265967334
0.015241933867871755
-0.03184972808367052
-0.023834843303203176
-0.006438745797155282
-0.02948139069519965
0.029674122727908824
-0.005150101207903946
0.013417313483602986
-0.020281093689318047
0.03218171520163003
0.031281347980263406
-0.005148710399621421
-0.01086150008338163
-0.023636713309608735
0.022018499605875638
-0.00553023790337476
0.006182359083179062
0.014142574273848947
-0.022563337063844658
-7.674814309367298E-5
0.002616106294994959
-0.013060125431391234
-0.016382085027402928
-0.03548495891297912
-0.02511873763219965
0.03215077522114013
-0.00612860926150763
-0.003832357704437662
-0.031431663194048075
-0.026310887600743106
0.011446198544871724
-0.03687371288904792
-0.009754520616476848
-0.04825503782197253
-0.023122766775687417
-0.024683992282040497
-0.017146072821716526
-0.025862899679003404
-0.036092239229049264
-0.004076789970294428
0.016738995851962438
0.0024131192944322854
-0.018188308764763777
0.03139357573771543
-0.008125245249919472
0.0204358784934198
0.03295677146842536
-0.014838847733807664
0.02267452549436151
0.022671860033716046
-0.006020168524003094
-0.009290118127424363
0.015003187725366457
0.001924604531972356
-0.020967348210076998
-0.022575867936164
0.010142085360676177
-0.02377402732198304
0.015013198320082372
0.012055184475422021
0.012281876500845234
0.00356004459074815
-0.02049007527458712
-0.050834145928299
0.003449224507186799
-0.0442556171153289
0.003815665928415196
-0.03301825109636256
-0.040048665641731984
-0.023939994440948627
3.0104586890486256E-4
0.005722890296269494
0.009045042412310687
0.011223064198578792
0.01859222870471209
-0.019345138070183166
0.0056745589895798795
0.00472061587349646
-0.012138474963568607
-0.005582557103563472
-0.016352614347690888
-0.0055311820266266114
0.006224396177486608
-0.0022477847824040396
-0.009568043417453511
0.02920398547097707
-0.0018686444689407968
-0.03035698041341589
0.02162767312965849
-0.02717347212586544
0.00968725979898999
3.4753248023705174E-4
-0.01611376490061241
-0.0052917359284465745
0.0010393061675999492
0.032788048538098
-0.020933825140393544
-0.014916367089541445
-0.00289914163831933
-0.03502248142775013
-0.034887635324983346
-0.008619953789684713
-0.0010328646654812132
0.01446303741868625
0.019903186369347785
0.017058577340322185
-0.03223157877527614
0.01374217703092967
0.03557821348699863
0.0034039946972427987
-0.010875969442025821
0.023331575924668807
0.010792134712919128
-0.006833505523349253
0.007116237828920624
0.005333137353391797
-0.009866827762324486
-0.004990814644275464
0.004823864345868361
-0.016501527403664673
-0.028153481579139727
-0.03501890058711343
0.004269851730446417
-0.03150526801047267
-0.02273676960314696
-0.029307728783497376
0.028563822712635856
-0.014592946728203673
0.0021676320078193798
0.016545277673492356
-0.004755886138685748
-0.03304241173007412
-0.0039005201318926402
0.008483637800007805
0.008080525264180204
0.005411835279129432
-0.0013877246451734424
0.016700216403875354
0.005592230781253322
0.03309222609284573
-0.027584341193056434
0.010930525275973029
-0.01993373537661334
0.01563454025779075
-0.0044190741164690656
0.02172349795255445
0.031246319972445976
0.011202282036732004
-0.03404746312509028
0.03153677757973175
0.009121704844320852
0.009793076245524501
6.080014758376787E-4
0.01989067822952768
0.027287226535037575
-0.03324647923149413
-0.028250948236609133
0.014225008628325403
0.005081910061298954
0.0014773848035426057
-5.696438035798224E-4
-5.01692815761838E-4
0.023052318306180757
-0.011383463349910194
-0.02105605193486459
0.019192971926195998
0.005036594172302585
0.03180547225290226
0.008764507940297149
-0.024579318667163997
-0.0016387935822231815
-0.01652957094485279
0.0229334416902207
-0.03467860236639283
-0.01031577965278554
0.032452264920193506
-0.015061048041689186
0.027889415352329295
0.030967382508787784
0.03832214592726703
-0.0025645798380486825
0.003763569521794161
-0.003930357691563279
0.014265425534835363
0.013956163128853838
-0.030240994955896466
-0.014367797202573473
0.012513849325108892
0.005295450267810968
-0.027825126263195325
0.013145325512839548
-0.013334652856113644
-0.026434895104563334
-0.028700790101105714
0.019926068387044475
-0.023188448807691407
0.03275574450853495
0.021522743164817153
0.00909524127261542
0.007307423163624878
-0.02302463235769733
-0.025219146365475013
0.017571656946563336
0.02129348981149778
-0.022060816678884734
0.028497874814552772
0.005729814723576508
0.04885563080266997
-0.012644139957494095
5.427528086146278E-4
-0.018645333900927347
0.006747911965915424
-0.030009579448522086
-0.023553211510843854
-0.030735147162665375
0.021595979751421877
-0.003619396176407823
-0.005456561234114643
0.009370570619328668
-0.017871052282510368
0.027954801914156585
-0.024980749539326625
-0.010592708492812368
-0.019749024902683113
-0.02843638444008473
-0.01736493016655698
-0.03967670973368281
-0.021119175959734504
-0.03653666860769141
0.015541084486145235
-0.04605839168092726
-0.003408486602356339
0.03060392696596308
-0.020361485254404076
-0.006748523492481265
0.03810690776461985
0.05271879904904812
0.04956533472955953
0.013034036686801805
0.027894897526751988
0.003314957324220174
0.031125384649710087
0.03447437226378942
-0.025172861556195383
0.027079600615056463
-0.02688444120249034
-0.004034114301272804
-0.023069400077835645
-0.021925601747010255
-0.01772735291272777
-0.0012493518435089813
-0.008814440905359499
-0.045692768808511953
-0.029535062883645956
0.009526786547159069
-0.04263914467352827
-0.05729613107861808
-0.023240732208250587
-0.014342949763374633
-0.004063062178034432
-0.008238698634627332
0.03697313540431087
-0.009073614390816793
0.027811333102807877
0.04477158463081896
0.011467161737846078
-0.0060407166846736145
-0.0057420427071276205
0.009583041147168975
-0.005681701520840369
-0.03499001731991208
-0.0040135389386839046
-0.007199826042551209
-0.011211226473944538
0.0068067713031774845
-0.0011456577358866125
0.00692739498482685
0.017895962782111093
0.0210206213199595
-0.030382393853773195
-0.022743264770157746
-0.05586086601033375
-0.05576611863269207
-0.05536656244347776
0.0052896917363281955
-0.04647506663437634
0.014680096708860727
-0.012154266523931432
0.01411479678616238
-0.002183614063586023
-0.0030778579305525836
0.024469547790591205
-0.017410890344637144
-6.050735895427299E-4
-0.024893932583768943
0.01541471871972974
6.642889416826948E-4
0.02044424567191131
-0.015127833543705541
0.02420347926990642
-0.019474060486341073
0.013359382342993099
-0.02735576973794225
0.019162415166090838
-0.0024995521504493296
0.022964287015420748
0.0030940027865351207
-0.006745402065408095
-0.014236411585892521
-0.03747400257463242
-0.05914773525275784
-0.061152440329044086
-0.04859280378410825
-0.035743531524287636
-0.026966133135854366
0.019475736077265292
0.004379075957783868
-0.02321438860279997
0.028474930471654145
0.005044201720537075
-0.03391850854551618
-0.00579236532176734
-0.03536243947806041
0.014719086459822284
0.018116006196335306
0.015276924193079753
-0.007418148686758375
0.01577487214357595
-0.020447889034237707
0.018619747606745382
0.0012376259932813584
-0.006749045645447631
-0.03567424888675142
0.015210656634114776
-0.03716917523060632
-0.0016551346993615736
-0.016476095620430453
-0.04835566855498885
-0.060049581305496695
-0.055603678341366196
-0.051705854800576684
-0.019561369958412313
-0.016222964791763717
-0.02546586096739765
-0.013988937788255605
-0.009296792754665495
-0.021214440636873153
-0.00616600486841674
-0.048390893302970354
-0.017662237842593846
-0.016361613369009473
-0.02719790461069419
-0.01028025298948565
0.029499930994680654
-0.019066528159941327
-0.028992054023327943
-0.012770354585555017
-0.03397120305627648
0.00842898823615779
0.027021568052248226
-0.027437223358638612
-0.0353502467289656
-0.027733082783629213
-0.016700012906197898
-0.02921432824521141
-0.06321456319448714
-0.030782807374271172
-0.057972285950036354
-0.04771948101694846
-0.045028671166547844
-0.010463831782992256
-0.020104424393949452
-0.030032977756569625
-0.03200377967129904
-0.05151243339178911
-0.018661653283001053
-0.030635968570882834
-0.043905083718988075
-0.023315141511255515
-0.0013390598668432865
0.029069219367916687
-0.012825310136850432
0.04175808933915122
0.005574123632790349
-0.03059942480324
0.013581163879460477
-0.01279156114608587
-0.022075847555834603
-0.008477284031028754
-0.038020088262228156
0.022689425737317984
0.006162432370558844
-0.024722116369499714
0.005478086001946647
-0.016378895204411527
-0.013259120506109293
-0.0069369140106502174
-0.01995034785187032
0.03068880997385568
0.05049131428457613
0.03571666402773435
-0.03867636288938982
-0.05999659485819119
-0.07049648165836837
-0.09002063592758468
-0.03828999597092369
-0.024222921253057132
-0.0655369279084463
-0.028098288226924884
-0.005233261116826916
-0.010901510779685344
0.019783022766294418
-0.0026952579224176054
0.01671998839962881
0.025898520561286262
0.01142175856614917
-0.027266845098736114
-0.03544046754174157
-0.020524974006430458
-0.016362320678724993
0.02876673234000604
-0.02292988711368364
-0.03198670403191007
-0.04006346425767404
-0.01740595708153235
0.04789607862783241
0.04688856683661479
0.07199606049049498
0.08832517109334555
0.00838051350190127
-0.04690407532836171
-0.03834072579779056
-0.0854041209953142
-0.05336179022146718
-0.07692969583509485
-0.055480567522142886
-0.03629345021908949
-0.025483844652519936
0.027359887321261007
-0.01937344712035795
0.010007309084894523
-0.0351026001953658
-0.0017914829381104884
-0.005253065823788322
-0.01819917636815505
-0.033098922500001085
-0.019516061327220037
-0.010014671326860968
0.018191320966747793
0.01318424167940182
-0.008679937667632233
-0.02064287076321826
-0.01716252377016859
0.035066590968852826
0.10546823135408447
0.11599057440536985
0.05060236405609722
0.0018429807848647016
-0.02958401220329361
-0.005786890504396642
-0.02205142518165911
-0.017877644285776716
-0.06941100312091267
-0.05850246278552815
-0.012680772663912328
-0.04458481075701605
-0.026557665047097823
-0.0012398848293534459
0.024876271836505207
0.018603203278676032
-0.007965581745760108
-0.002559279735294397
-0.02211255370703168
0.012254397185042993
-0.01800584019292392
-0.017124340954588563
0.033311463251040396
-0.0035282165857318383
-0.021341585725058353
-0.0629616892079968
0.020804733946139093
0.01260574927915025
0.09401850324926744
0.07014690080873343
0.042457356994012235
0.0015908817594233774
-0.032427862346525616
-0.0054702757420931405
4.8411113871416257E-4
0.029711425618155343
-0.008219828010445561
-0.053177570946736384
-0.030911832883241817
-0.004704347892029631
-0.013410785746293266
-8.958847063666281E-4
-0.02489052566741869
0.01904561054912708
2.416134561517599E-4
-0.003302828353469682
-0.025862187847203993
-0.020464355724320343
-0.01806918332271716
-0.006196437158251495
0.012290341735645246
-0.016857739715837684
-0.022703015003976305
-0.005051735376334879
-0.02100643068465046
0.06136103820384798
0.044395827942529865
0.07825142790297604
-0.004391969765730717
-0.033552924199367756
-0.049045721820793864
-4.188587578951598E-4
-0.006519760740502104
-0.01506120445152673
-0.019377799542294075
-0.001000509216211128
-0.036079554525300865
-0.029627192833545174
-0.019002756007243028
0.026500851707419816
-0.023953170737795005
-0.026779158289599352
-0.012913207107005572
0.02427325120635259
-0.012962422845357955
-0.012203767576058865
-0.030367743087956648
0.007708478872450412
-0.01451848704688767
-0.018626326748565087
-0.0074671769385825796
-0.01782456624220492
0.01400842958531856
0.01853122215971238
0.027860684493742176
0.04790821471657263
0.027408241882112678
-7.514265868062772E-4
-0.04316545577984864
-0.008003179611354733
-0.020444997597143726
0.02007145364330376
-0.007141025225698359
0.03843325323527091
-0.007485343040045488
0.0178164408155034
-0.0015928877151035355
0.02667871293613369
-0.004105292332506051
0.007847546785065915
0.021440296276022903
-0.033827347175647414
0.023482663337972633
-0.02719950138973156
-0.03618014544659207
-0.05816277666262645
-0.05064324742523423
-0.07435364916641621
-0.04371025759431234
-0.04158900215918901
-0.0061135507352278835
0.030215732807849772
0.05606959007322004
0.05196848253393031
-0.007719634358929074
-0.03349796731959607
-0.03047143589434006
-0.05311539211081705
0.008014355983316198
0.03256157676910833
0.04251981904089447
0.029614004601225048
0.02036866922850075
2.019764833353937E-4
-0.01613728983204215
-0.007241470724597974
0.01367305518956467
0.007764139256797455
0.004258243776541187
0.021317987059424198
0.032549777596200445
-3.47390596448819E-4
0.007207872040294171
-0.013923918895534487
-0.06536844189267356
-0.06371075424923218
-0.06836362398161171
-0.02669133372700235
-0.006232742761301181
0.02517114894063374
0.07061613239883056
0.01887093099325384
-0.04331698593291261
-0.021773722750639216
-0.024212006285719203
0.00527683136265899
-0.03219130442823451
-0.03767683425184156
0.031027174446261224
-0.01741676610450686
-0.034086867063871124
-0.04076373530964983
-0.009892048177999196
-0.029908773625366886
-0.00399941452723612
0.015273043309307533
0.02497607764861575
0.02354170598246528
0.01708039094714557
-0.010501100212834652
-0.04379796308515601
-0.008722892489653055
-0.01676887922295966
-0.03302720752470524
-0.02877440806102126
-0.05350477952810113
-0.013517086723832564
-0.025367343343545436
0.01768391999465102
-0.001960792472014641
-0.037318537350316094
-0.0040012542879350604
-0.012862890299610621
-0.028395286429204417
-0.0054207357693411146
-1.1768783843728107E-4
0.015529749357905822
0.02075377521956884
-0.02890338875360045
-0.04208405902500586
0.012965536434852938
-0.0291299055209083
0.025337835234570772
0.004609375444844632
0.02386051513740861
-0.009320457716479087
-0.033883308688650235
0.006212937916200662
0.0227596762496043
-0.01738041960415856
0.025909657882958622
0.02822856993117986
0.012634982073755859
0.02686795533999069
0.02263657106901197
-0.010085136851786216
0.010530977377624344
0.03371820148165616
0.020373028288982464
-0.033373691404287836
-0.005099281119653325
-0.01384856598071973
0.007516003549934895
0.012363307115147767
-0.04199041157212868
-0.03873955269032567
0.0034151874775013025
0.003977611360727384
6.184867611945674E-4
0.026058177050753716
0.02791677958009443
0.018702950191474894
5.940300882559118E-4
-0.018420147483748813
-0.033032531705572
-0.041891164865728754
-0.02324141112543743
-0.003964030946004614
0.03514117654515265
0.055221584992840606
0.007196578590772597
0.05023090899542872
0.07975689868723128
0.06256340576687873
0.01539218572924414
0.05669798723549732
-0.01582867033166362
0.0036521540246771266
-0.021469430850628465
-0.03998037912083475
-0.053214026660122406
-0.03302265962252703
-0.0018032232051375986
-0.0342576787539964
-0.00205342739448585
-0.02108378296553894
-0.026740812997590433
-0.022661996200013364
-0.01029766571138289
0.012306734608123733
0.02601521575756753
-0.034397455851634076
-0.03270753712024994
-0.03565719107844106
-0.033394189238320014
0.027427900181275167
-0.018194530013428117
2.5071477627766246E-4
-0.006440697649834741
0.05352532351586553
0.028040977828772077
0.01223504905405024
0.05212994069855997
0.0484164324416428
0.03222021049782241
-0.0026305893867771086
0.009315996330319517
-0.021982461635877013
-0.042596473740674566
-0.061420580638027154
-0.03692058571269847
-0.03173687943437136
-0.050123107911223104
0.01486686508807608
0.005204487819754383
-0.026978534001347265
0.030105628919979623
0.0034969198226124897
-0.013362568353031753
-0.026163811720762733
0.023804882156657155
0.029669246863380867
0.008022896568584584
-0.023501951255544214
-0.02822996756506657
0.02167181384444817
0.00318278893047168
0.005264325481095369
-8.782670135041813E-4
-0.042339495269366235
0.02267501037746744
0.03076060217724281
0.017783372698814186
0.01179649804717736
-0.015067524808547708
-0.00773836128712214
-0.022279235700814592
0.005866180384651872
9.749427482215177E-4
0.010476731686636894
-0.03689021462019172
-0.04113969534754622
-0.0326980697709176
-0.004473513692583511
0.018006772561859997
-0.006944013861200051
-0.019136787199220864
-0.016755921673184494
-0.014035884565949647
0.021048077013931254
-7.835089145848532E-4
0.019802239892094925
0.027781343646422936
0.009906287204343148
-0.024276328172581012
-0.008375559034668651
0.017143217239504953
-0.04915841903884705
-0.029668247503768622
-0.023619858007501507
-0.03365536010169419
-0.010997483766314481
-0.019698689883586088
0.0036189097191655206
-0.019570136716504684
-0.017850528083607098
0.006395587331030708
0.012864136280002108
0.015008563073240187
-0.03126023607318702
0.03414499426575132
-0.03136351071443594
0.007550027210138345
-0.03431270481054997
0.00753873335064259
-0.013168745053504863
-0.020425149997452246
-0.008667593214794163
0.03556197652689286
-0.01838573756657412
-0.01930258401129065
0.001390436285765138
0.026846565273373212
-0.019057704783717908
-4.3448472270632475E-4
0.018464482651093718
-0.012073256664373524
-0.014384355019213207
-0.014617924385921957
-0.017482657459172067
-0.04140102083430763
-0.02173028068968592
-0.03410951000766271
0.028153809154537895
-5.414324880808874E-4
-0.010134964022319674
-0.01569876269709305
-0.035397543422224086
-0.023638919087265904
0.02223123026377262
0.006469626446568906
-0.02029015279146553
0.026393344990598644
0.0315127670036369
0.006304654230769389
0.010551085202439536
0.01038890953474877
-0.03735262758314581
0.028408383801271114
0.019125583611225298
0.011615747785860364
0.007111674927643231
0.021530919101968988
0.008515783384326093
-0.0025092454155509532
-0.0272954744117457
-0.03021668069170175
-0.06121399483337995
-0.04732723937663463
-0.0011667784337776816
-0.033243436569917593
0.008681712228835426
0.012866373397447029
-0.0025865390946760015
-0.02599441511422762
0.03046190354877909
0.014493689528250838
-0.004188130551349081
0.029822846513487045
0.03077301880326494
-0.013994114830633269
-0.016695744504527033
-0.006179769558781362
-0.006830101887224367
0.01747768633418585
0.031094432952175604
0.011536251590684072
-0.0049739178973282885
-0.019816514054647936
0.01209187293638381
0.004190637394296794
-0.026807278802560043
-0.047533303990047696
-0.051430278952396144
-0.0107776011435417
-0.0044855440536029165
-0.04013943499236871
0.018492199943338315
-0.029496092974706498
0.024902921074931864
0.016121084095276003
-0.02215688315426095
0.01995042611107539
0.00280679878465823
-7.047504012922442E-4
0.012693921149577597
0.026615920612466995
0.009602498296389053
0.033530783950264445
-8.675472435217962E-4
0.014150180875198926
0.0121815053233838
-0.0209845120779212
-0.0025578799294107618
0.027594005366216007
0.016950670292240753
0.029911367207971624
-0.0016376152832740137
-0.01709981699564073
0.009248588113492872
-0.03624653633039129
-0.003089044756048285
0.013934383458968939
-0.01549599421292288
-0.009858384205182182
-0.023394595158533607
0.02634978687143961
0.007474272828921425
-0.008481523677759117
2.507862930540491E-4
-0.015710027702533293
-0.007149143308663404
-0.03147426615654847
0.02077361732802767
0.018328681433993542
-0.02571499218336388
-0.018320387707100712
0.008721293932018044
0.0056306941117615986
-0.030037474332470924
0.01788658226875002
-0.009938551651325622
-0.02662531986071191
0.02840332120817153
0.020646388999268406
0.023862572706504798
-0.012450960185024253
0.03441341628194916
-0.027226743750114062
-0.029098445896988383
-0.009260075077909862
0.03302964688867316
-0.033358844666128436
0.0037140504018697493
-0.03474772670688439
0.01961325161132825
0.03468421312201836
-0.006392336477151133
-0.015002627137881353
9.112833648685786E-4
0.0036627858952509307
0.0028333243791896015
-0.01009627397031549
4.7528785560933123E-4
-0.017351762569727154
0.016839166915632538
0.023192526891280422
0.03134144795405048
-0.00772112747980804
-0.003801924106341251
0.026955477004672247
0.01699614682342166
-0.01951377060225593
0.015004600374060937
0.030737473878803642
0.0071041576017772815
0.0045636691298854195
0.026819628163115502
0.012747003824026267
0.02481882833010945
-0.0328009945108307
0.02593096284497077
-0.022449564073078684
0.024780288312275047
0.003700387763366415
0.010056900413592522
0.033134205655565116
0.0057570955588936434
0.019225829840981264
-0.02795788471438239
-0.013264995133420387
0.01933947141848119
-0.02808912820442245
-0.03024009714675499
-0.006345466707683552
0.02677595970765875
0.018608716552875194
-0.016873856286034168
0.032350556768905796
0.022102274986596532
0.03965568620734633
-0.0025454836080047705
0.00781335530581694
-0.004697644764685885
0.019187774059483863
0.018936315416003525
-0.011034007591153068
0.035202530246284024
0.03300690568979409
0.015823433522714415
-0.026864457484223628
4.6511121556907695E-4
-0.032341069745477236
7.663300695976426E-4
-0.02985459383596978
-0.02863954769958885
-0.008888212179006698
-0.0272133195411211
-0.027842998596777562
0.0021420405905709164
0.026036284248204603
0.013553985658618865
0.03301197878680666
-0.002393547326406422
0.014792631903382456
-0.032616297796275937
0.02349071725560845
0.016377852137579075
0.046140646314132276
0.00895192034126745
0.018735693856626063
0.027803542270652362
0.060290237284836214
-0.002810666869547673
0.024974112649592376
0.02195298356782497
-0.024815282048126643
0.0022826364610351317
-0.017597401538396833
-0.005831054421101115
-0.023771855104669674
0.01137869120561171
0.03572247982274002
-0.01583743672305248
-0.024349551761584234
0.03551698040858537
0.012653363068294288
-0.015261013950141709
0.00298409275818729
0.01414777031086485
0.0022765120007842313
-2.8309503887810063E-4
-0.017956606027997958
-0.003108135565466724
0.009172507694387171
0.010676531824113022
0.051794188118824476
0.03186166507437332
0.06210793013018734
0.052006095971586355
0.03286058760915056
0.029296996848385375
0.06964742163139999
0.057240304732988787
-0.008157068077078812
0.015949512403242102
-0.013127324870767282
-0.013557594837152314
0.001182552872508565
-0.034843531839486686
-0.01963478869910149
0.0277300227986465
-0.02964494937701255
0.0022821719655597783
0.009799651092083344
-0.030318095566822776
-0.03354317293614969
-0.022829438003995606
0.03621134364087328
-7.618156316772034E-4
-0.0024414557135412542
0.02314192156409104
0.03612674744025335
0.03782906479636429
0.021287168633172735
0.04795774376945703
0.04365198585412886
0.07163057864143324
0.0727158476223243
0.03468409814578196
0.04801268700932575
0.07178817240352418
0.05297697251129072
0.049483694413374205
-0.005214132279770062
0.019032865726981256
-0.02427311638434804
-0.0136466908934431
-0.022167989769200848
-0.048465226725138894
0.030485923613037
0.020520117952173306
0.028839742177292262
0.028077155157446493
-0.01609811579470528
-0.0244250367266882
0.023651118646767937
2.6748945567695335E-4
-0.017663883701479165
0.01881459872603516
0.033515448625012045
0.03995139524381728
0.03913687689476578
0.06270003004719293
0.059897838608335564
0.025653897334606716
0.05792037845333617
-0.024506800515948418
0.024155005362180702
-0.02052497431300097
0.012142429018117042
0.014046980654548418
0.0028026163833267904
-0.02523482693590232
-0.01290985610615195
-0.011491983613669479
-0.01870507662967196
-0.003188437499100806
0.009977618630919973
0.02188786204400475
0.009803644156997606
0.014465679121509796
0.01707316898376309
0.020397460342499507
0.020023717832759153
0.021370857332969256
-0.011048108031993464
0.038346279199610755
0.007819758737317424
0.05926403279344801
0.07274981394971136
0.06002368122738527
0.05849237153640586
-0.004044528961704446
0.025522453352852848
0.027974784077953188
0.020605318108218678
0.015952149760469013
0.026185178016292082
-0.003477979552526454
0.014511834697764769
-0.02936925212386509
7.410406976409029E-5
-0.0026323212231055743
0.0021963453860189093
-0.051699154945127224
0.015419167602755255
0.02960976560683208
-0.031257495481126434
0.011343258036181032
-0.024787380736789617
-0.01396672741987356
-0.03271612152648615
-0.02102786631818181
0.005803282335067281
0.043051798606674574
0.06737985810194984
0.06073065185523396
0.04800799803469161
0.029916762734677325
0.051742256416372985
0.010556891989727759
0.0549634814077548
5.055719635805858E-4
0.03787601019301151
0.027235325648025298
0.03601889572198707
0.0021476538492592886
0.03916715591486773
-0.0028754069021516815
0.022551357006545283
0.005738286950907157
0.0035885686635812137
-0.007559611738880903
0.012565299336820381
-0.013246934667680158
-0.02768026936536676
-0.008412664861492442
-0.01378454955509934
-0.0011735913843653905
0.030522612453940803
0.01799304413451641
0.04581953583960888
0.038717557643686305
0.03367576536390967
0.06594281589869946
0.07719791553979355
0.03868737433499881
0.05938257826790082
0.04920138173520369
0.02476394632834216
0.03424546505088605
0.06248201231711211
0.06171889182994436
0.0330502125765313
0.031210632478186052
0.052356521344672724
0.018919172376970453
-0.0018813593137473408
0.013702845642438892
0.03030073806904194
-0.006772960763661193
-0.015344062500300277
-0.025383636660279794
0.026049302910107937
0.0015512615219124622
-0.011759567680972216
0.019437592614242008
-0.007812609706431385
0.03641614840027787
0.023641638901790083
0.0513887901665305
0.012446822677120387
0.046908330304842684
0.055570347124920365
0.06993853794444783
0.042087048144276426
0.01782120541276643
0.03277018009999041
-0.02376984078765039
-0.0304614456896896
0.0021323030523885287
0.05819221556988006
0.0244107195819554
0.07293554033274907
0.035070910005975474
0.08260109347916496
0.04249264438372584
0.0783361863401539
0.03436358328147475
0.0032179012578291495
-0.0012068107682359696
-0.010875548017201957
-0.01735288810582286
0.013732788347822947
0.029587046766560075
0.020699754506263886
0.02434773921899059
0.027716843453711747
-0.0011006808568271751
0.03522350715412535
0.05179119712577815
7.943160922749297E-4
0.04756980251079043
0.02931979552953127
-0.010697417780130131
-0.058072647067440086
-0.07158381522024956
-0.07662275052710196
-0.03819920513732998
0.04774176666803585
0.01131433237942776
0.02681611510358498
0.09771348231848039
0.09507071164223369
0.07401378184259554
0.04186982430379013
0.03612445945115396
-0.01583285343886216
-0.02158521898522382
-0.025409784603798054
-0.031606652193798705
-0.00647729264925899
-0.00918393301362709
-0.0056129576878519594
0.025760856347699375
-0.017310666327036584
-0.02257170971444623
-0.028445220482807988
-0.00575768513533654
0.03120915317497125
-0.029288677142881695
-0.01595153350303579
-0.08852736545242845
-0.08965643118274308
-0.06384101618113477
-0.06191229047801753
-0.0400892789688896
-0.009496920018673484
0.003235847768191054
0.07101546819436598
0.030594651230583796
0.07767924937397644
0.05371467483563152
0.03043595107360334
0.036968688393537494
0.020010244179606857
-0.033316379019389095
-0.011517780944707694
0.017179793017108896
0.01578357162803402
0.010667948950699205
-0.028651421251261126
3.9895897773251794E-5
-0.0027191771691325493
-0.018202578300594907
0.011182056223620519
-0.0038794882157899818
-0.005752124495061437
-0.06619151744922173
-0.026059370054146644
-0.038688856968092905
-0.09430544718340463
-0.0659296576535207
-0.06982925489079236
-0.03228478449734894
-0.04577465018277622
-0.001629746261907601
0.020919429275140695
0.027491629717117935
0.04453151982381186
0.039926513362760346
0.0822770837640177
0.040480789206091036
0.008805816071389935
0.007503953960515564
0.034427188966014134
-0.018467026512462865
7.001753054007365E-4
-0.01889110774882213
0.030665807873650867
0.02577771881163177
0.020001214279925766
-0.006837742118743657
0.014194082041505657
0.01538147221488148
-0.047564958267829055
-0.030433084777648
-0.02710813215499448
-0.05042021634785589
-0.06139985335489431
-0.03193775257948967
0.003000780858241393
-0.04447837652876426
-0.00854865335050805
0.04014008110489825
0.03162190307812606
-0.01642223992208622
-0.00544719242846395
0.04533913576349574
-0.004814365152413859
-0.00993499631584416
0.004757616132221642
0.01352069486206194
-0.022779740489989035
0.010313322922911804
0.019398154730065544
0.02609731989093908
-0.010006217528719497
0.0013923249797269124
0.024846649239753667
0.03821634013967349
0.011824286203752407
0.04158569529513776
0.03693231766919079
0.024407814226666585
-0.055122749620804816
-0.0664365362253811
-0.047770496292559625
-0.04542913297724842
-0.030186173537533823
-9.256253323222116E-4
-0.01076419689917865
-0.02190836378319513
0.03383745545543634
0.026525985164197137
-0.027819979057661443
0.03172167797089435
0.03827393295699561
0.01031224680691135
-0.014352754641542008
-0.012752375494314972
0.023366827520931277
0.018849459032484354
0.02603022916484728
0.019538653241503615
0.004071461604714939
0.0219446980046051
0.019864792333190915
0.03250864213150271
0.0590347113873434
0.030905899989371422
0.08112689876906927
0.05927076372423722
0.02782767312462814
-0.015772139637397497
0.0054466601479288765
-9.560987750014007E-4
-0.0165359649776721
-0.02440142616396527
0.017135411970872764
-0.013373273173650394
0.04119966862775727
-0.0230723292535097
0.013688874936353818
0.03636150461190765
0.05229279034459079
0.011782847455666143
0.017232369414164006
0.03430115177829298
-0.023697975252558956
-0.03282792105853929
0.03506193695959905
-0.0028146202549755583
0.013451523163168635
-0.007339433701068993
0.016846652449342144
0.05583860327218446
0.010914974528176776
0.07437275860945727
0.08129709587141185
0.08599413735578545
0.09053109434880159
0.06089129670448797
-0.038606197907294
-0.03427671024404418
0.02411575371122455
0.022629305860813093
0.04514097946331364
0.038432384920162925
0.008225388435778587
0.02844929452724953
0.022540383527853553
0.04162507334181842
0.04323310240090157
0.01665101906392969
-0.010449751655691944
-0.020930474195913863
-0.007817885209800526
-0.012517697859403138
-0.005445585861705637
0.001072990069087302
-0.023668071339923918
-0.028280234452810565
0.0036727909650666767
0.034037522466851634
0.02916806567547815
0.061240489786450726
0.08970970162306731
0.10943818335317478
0.12767533647151946
0.07031451905081841
0.04441347671015518
0.03545498921166055
0.02402578424621664
0.07780815498300202
0.03763840009697679
0.02120412985789766
0.022291809338007628
0.02765285086469181
-2.686265196982306E-4
0.052746908665709934
0.011155857905604801
0.004590379491084472
0.028100571124112527
-0.029783645864281713
0.023484303817818224
0.0060441099250714
0.03157127920967307
-0.0019568052513260934
-0.02520101401337292
0.030909480263843905
0.030313123892211316
0.029840987289969655
0.026656289800869856
0.06605567530082103
0.04442702018164181
0.091830642952237
0.03755312375838789
0.08966406024166122
0.03679687164163662
0.02624316516960203
0.0642940287862656
0.04356086199725616
0.002669208495219802
0.022904023830505146
0.005173454964588314
0.047125144321065154
0.005421021972243414
0.0581982405697842
0.010842130669912109
-0.002981730655131495
0.01360292101073863
-0.021653354687712574
-0.028784684102411136
0.009824895086871621
-0.035658761481724706
0.03354312986286638
-0.0171710470638326
0.04338585731629339
0.03927773688875586
0.016724785542242302
0.05611142443813456
0.047483517729652994
0.015022029673132781
0.04432185040252371
0.028510160601283484
0.0415636853292562
-0.007468022541069391
0.02339655955158837
-0.006850511427330499
0.012284772450147504
0.005511141190983295
0.02121552827615927
0.06801798286214042
0.054720279581330175
0.06634773339252614
0.023990743491690687
0.013076478203168698
-0.0074996566900107624
0.024608377189181917
-0.018121997826622105
-0.03230678680369597
0.012516926121692518
0.01130396993615386
0.022024539247776177
-0.025633778556292914
-0.0024031932145857533
-0.015983852543879348
0.03921759548502715
0.018102458058171875
-0.00886124142105766
0.025216714942074493
0.004464794338770316
0.02187910794002083
0.047989478124762404
0.040733612730374076
0.008015891988961866
0.025065264712778118
0.047674296472227234
0.021318832996934912
0.010593895141076237
0.06469876766982585
0.04368056204019538
0.028874929769110748
0.004751543826987149
-0.0027272459295180416
0.007439435037429169
-0.027775057619893424
0.024376799074018025
-0.01911585271925284
0.008280025383619697
-0.015728794030725222
0.01868130656843713
-0.03354764347650929
0.008835918643422185
-0.011210534416116736
-0.006848668009563274
0.03702715799865229
0.0020963926623264345
0.04625856577204471
0.04078721723237807
0.023036554508953047
0.0169756179108053
0.04369112838648529
0.0157119650841828
0.03791515511135653
0.039601810617638164
0.05543371961933002
-0.011842636868145172
0.014952672632673343
0.04526948788454293
0.03627971504207621
0.0016904236931740597
0.006753436020430153
0.02897498098600131
-0.014784979124497773
-0.02540419225381703
-0.030166142626120752
0.029204140736487832
0.014385792759505966
-0.0234852923702576
-0.028474007198224762
-0.03563334696284824
-0.028480457692908148
-0.011380333956035346
-0.01703363555774784
-0.020998527959511987
0.023137762377929423
-0.001409190689468651
0.024576899154255
0.04835944445754287
0.035710594273321586
0.049196710473240014
0.052036685368628044
-0.002154986475558306
0.03639017121706416
0.02415705132226225
0.032524880814855966
0.03780023494942362
-0.0072782336903206455
0.03474485058372412
0.027235724400780096
0.022005212857907262
-0.02170130404562121
0.008912949923647153
-0.015696480272135074
-0.0028313507440736324
0.007891760119315298
0.007358345165164804
0.021042131403227457
-0.013410938803049903
0.010400713478038018
0.008215289233271458
-0.00712279080631726
-0.02319316730959742
-0.012423094204959871
0.012401875376455793
0.01902173047326575
0.03180603075351434
0.03292480342889238
0.014867476115711884
0.029537427243875296
0.035844336779931034
0.05125197881343043
-0.014513122004701277
0.009959944241058349
0.017275349985552125
-0.011348705056484965
0.013140260948922974
-0.004197904182465086
0.015581971233625983
0.008294861924725184
0.009136755704798884
0.01681064825064193
-0.023180259834098747
-0.027631193519592756
0.004182942802260025
0.013547722761803905
-0.014113917799148338
-0.024281820648133664
-0.03566401007596456
0.020948248623223902
-4.257206810667456E-4
-0.014941592791867193
-0.029480729180794488
0.008741994802798133
0.010999913027322923
-0.012326256457328247
0.05778732722643439
0.05084153181034514
0.062086682774772556
0.012110729843855052
0.0239941776667515
0.0024146297224753007
0.005892126432649772
0.013932437634036968
0.01542526681961003
0.02979911282849652
0.031035873768340133
0.004041034821184294
0.028227543066144042
0.01021173209201437
-2.4605966265643653E-4
-0.02686694161833448
-0.02944884709253693
0.030874313680175854
-0.003035213953004795
0.012068257855334386
0.020231024341590697
-0.005633230023789351
-0.02928674620072108
-0.02782594636999646
0.014064983519293096
-0.021344714266282705
0.017504542938943872
0.01828711948484855
0.053026023125499776
-0.013465640309420752
0.03133258256870004
0.041541831839546746
-0.009244220760843745
-0.009023502486940616
-4.5175675505092287E-4
0.0039543080324454
0.036661431812680556
0.027879435248794632
-0.00220302632668879
0.022175387133697346
0.03301052596223804
0.029457060784126216
0.027255341764071225
-0.011950731717883412
0.035073334207592524
-0.03148929768744042
-0.019989979158468927
0.023274528721134165
0.028116895623454506
0.02142744542809405
-0.014593873257459547
0.0059751212409354625
0.021852122006244985
-0.024887367977250975
0.00978869037930843
-0.02856832804630252
-0.012709924013647162
-0.019165560743661422
0.02795324673905341
-0.007992595302223519
0.03312229370410279
0.0018720445589119684
0.02301717501797456
0.032982707172623645
0.03573368701130535
0.02431013198650075
-0.03353970060659634
-0.01743921250730966
0.001032523158483789
-0.008847374993705193
0.004238405866911356
0.010593090528112845
0.0038637821782613255
-0.007492513264380607
0.024896362642240384
0.017322086574101225
0.02541664221007585
-0.03453780889155673
-0.011696590540874852
0.01961781429602602
-0.023096549563742186
0.027426375958790106
0.022714676135861707
0.0334666637802515
-0.019423161157129283
0.006783211630950735
0.030818087613203357
0.017662822564427035
-0.019402449098239506
0.035617290088965595
-0.0100065819273671
0.022446096524418854
-0.007142918454118883
0.026543258520652327
-0.02404572426517442
-0.001380661129688772
-0.021994576884180238
0.031622392548885644
-0.0026169100398383896
0.026449018261608684
-0.030797387211212588
-0.019692075767195425
0.024545937997619928
0.027034237801295123
0.03390278070196545
-0.013985976190186029
0.00805511284915535
-0.01606083701926915
-0.02061973020449418
-0.0156280776468347
0.01771872966623028
0.006592537248915818
-0.003341558005891304
-0.03367500894710063
-0.002565961745475472
-0.017652824715071517
-4.2013774463915523E-5
0.03430378856756582
6.491621011417127E-4
0.023905741850173166
0.019380837812932043
0.00891423745855695
0.023532223889327478
0.027318239834945246
0.00842956814379834
-0.022524867698172666
-0.03349072619650408
-1.321191504492364E-4
-0.014916283504256412
0.02848765085339679
0.010261085238219851
-0.020275758158457585
0.0023996256187004314
-0.020307622669728194
-0.0051550237045966205
0.019607794696020385
-0.016474468802694472
0.017663734869203772
0.0019468564061535325
-0.029771832573684192
-0.03583208708389181
-0.029272011189117566
-0.02830055584059955
-0.028782156583886328
0.0011749294698127544
0.02599224956056907
-0.01503203752131742
-0.0042942297937541415
0.03013376899886879
-0.022160662337548286
-0.007044293093016345
0.006406023366473403
-0.02775340589910294
0.01886164930941181
-0.03311223277524084
0.026541805992411578
-0.011972731720995292
-0.03538436635872049
-0.012214830984936902
-0.003765166610548119
0.017246453118947055
0.012048952313420043
-0.03258520310455546
0.014166989196552605
-0.0338249521398878
-0.015257492898041049
-0.02182799301655157
-0.042180354279121535
0.02302393484564431
0.012503713510284717
0.012778630836074882
0.0014531010062139125
-0.012110617309768791
0.004466730989379628
0.030788569054797148
0.008874819946272094
0.02257283072374051
-0.0022485430952081673
0.029465990570286097
-0.034137676749756415
0.03371873323503723
1.941978553932494E-4
-0.018961817096011753
-0.010225042165758398
-0.019257949353321202
-0.02962319258184161
0.027548022844331804
-0.01811167366834189
-0.02160464573015348
0.029401282798713697
-0.04000326096070141
9.99345791560627E-4
-0.03408279177553514
0.0016266939329909658
0.0017034507763531732
-0.048651238993788495
-0.03320342809452978
0.021394331270460167
0.02383565576757559
-0.023469719240992327
0.02466159528296117
0.04294668464495514
-0.023051288655892246
0.043549489393456924
-0.006116457108572145
-0.023995517016219305
-0.005509309980427149
-0.0037701383410063427
0.02747711146491484
-0.0031631928919839424
0.0038610390561748045
-0.001518003700893271
-0.027061851703277913
-0.035261590353522915
0.01749248302792121
-0.020116506656721066
-0.011929720752371116
-0.02933281493999532
-0.011101943276764668
0.0072455272377996505
-0.04315835696668512
-0.02257170225534737
0.006877950215111425
0.00262771597802092
-0.04547065988151807
-0.008780859344923356
-0.019509113617186345
-0.01870829409491982
-0.024233788432838566
-0.00619792142500404
0.04128496638027384
0.031160239050829774
4.0627086206183646E-5
0.039790626777194665
0.03867508319012751
0.003666678147141166
-0.011562929274403326
-0.0031547217827003608
-0.030606792048113805
0.023910362087551016
-0.03288206516902655
0.03425715078126134
0.029533063150482052
0.008233505932608529
-0.02154235784270544
-0.004423702203339896
0.023213806635926728
-0.02368746748541284
-0.019223392911800117
-0.03891449875877743
-8.287695567859775E-4
-0.029699536644326223
0.022828434550674712
0.0021734769300469493
-0.018988163019242374
0.014525565946240437
0.024104304088290375
0.023594693421877776
0.031228728331301206
-0.020936482067500727
0.056720109179041196
0.028033773057859108
0.04994447718214356
2.888104217970457E-4
-0.017327311561385297
0.0025072494268328417
-0.008165159856645633
0.028171321908681303
-0.02797468496940484
0.017227630696474743
0.019620265573440866
-0.007273544685105958
-0.00618175157948742
-0.03417313595965229
-0.01740817151156971
0.003175723999900937
0.009902904001891248
-0.037133701269111245
-0.027966701964787618
0.018605103395557644
0.020405722373286674
-0.012397657321344374
-0.009219318904497554
0.043052650337297584
-0.027353790475007283
-0.030019803019235965
-0.024739256258875637
-0.01295480404411587
-0.02129335802439044
0.028386372168748442
-0.00599903726718746
0.033244847318266775
-0.018880196830913378
-0.006320730019658684
-0.009384431106957322
-0.01776783373199509
0.032398507253983515
0.00421360046313794
-0.01000357780548841
-0.002622193168929333
-0.020860709846950803
-0.03525203013009436
-0.026358562718130182
-0.04339750287373909
0.007309218589532047
-0.009553202420408042
0.009100756378349685
0.013777942184610517
0.017648240633282263
0.01856320777352171
0.009018216629539003
0.01859792770527683
-0.02366885661588817
-0.04103548613439572
0.021617097818686433
-0.002267077244725556
0.009756304782096013
0.0058487668396467836
0.03825929392881668
0.0378411679839692
-0.001104039966718932
-0.005721529524192025
-0.032617644278448266
-0.012127859356210385
0.02188539161767846
0.01983941089323674
-0.030788765298745913
0.01889985363182971
-0.008064334565096417
-0.028631345523235208
-0.003827374041230799
0.003332979075950191
-0.0359414840251522
-0.02539202217230281
0.016176029857488092
-0.035115089745128024
0.009138363036496597
0.011974284158926906
-0.010175210226014286
-0.04248561277129821
-0.02651957301147607
-0.031050265152995547
-0.02216976591254291
0.009128346801886244
0.01200034786473095
-0.015629503968558126
0.058970316504806726
-0.012351194209259337
-0.008063366058215869
0.021392005745742695
0.0032037327276100234
-0.013270657528059289
0.020659653969849895
-0.0013628126634310795
-0.01579528951969756
0.025156307347350356
-0.03885166138007564
-0.02512669543118912
-0.006646149079546713
-0.009469314899969003
-0.004179304405756217
0.017981461331382537
0.047239893483240696
0.02887337256079765
-0.0299938984641219
5.65708133518952E-4
-0.0022454435650107285
-0.019000243935366617
-0.0502117791676679
-0.030301788097511564
-0.017384491406443228
-0.05576916438563485
-0.036905585572621726
-0.04064230928041686
-0.022606856041588172
-0.010223810209455791
0.029505656035003127
0.0023428178573313696
0.0016415940537927453
0.02174949248163135
-0.003431353616830556
-0.019872558618698355
0.02662069693907758
-0.019550228712031773
0.019745496406220336
-0.021192574339563987
-3.6677165931401983E-4
-0.013199848070439437
0.02353623653436028
0.02174164107260419
0.03152054157429853
0.06297265452004872
0.03364667659975502
-0.022349101061583176
0.03219337506687913
-0.02594304784242546
-0.014083192735851026
-0.0187944960444079
-0.0662432602174958
-0.05218169850689637
-0.030598332844241957
-0.04755997752501582
0.007307291391964452
-0.007624252715994644
0.015127033113590958
0.01892944009034573
0.004551730001432676
-0.02169077357615466
0.012845093071122263
0.03532833196497416
0.0328697289201476
-0.020610731618153882
0.016123381132858196
0.021032108639565034
0.002142877349775102
0.04050165749092731
0.011412986970982083
0.06503838249168441
0.04673867558627681
0.042112050660364914
0.039982949366839694
0.04184678140434098
-0.02424698455678443
-0.01609995722152964
-0.0381300050813334
-0.05287312732289129
-0.08005948111615403
-0.07069641961112712
-0.05432105013784028
-0.010799153286969192
-0.004021619380523133
-0.02181711769285185
-0.002173823286809582
-0.0247997033323923
-0.03513917412388147
-0.02791262248081406
-0.023989473375137477
0.017782114501604423
0.041689561141625156
-0.014155443755567628
0.03206339062332163
0.019368037677734536
0.021345606504759248
0.04730442819288327
0.023961106712025428
0.07650713169361192
0.010967209825016677
0.06521092135473122
-0.011292518123570525
-0.024589290867974525
0.014044491393297335
0.0016660066686722931
0.01144459901438371
-0.04285643750815956
0.005211504069849856
0.00842721442512332
-0.028846314863594524
-0.05393707240438116
-0.021468657111285427
0.027932244414944372
-0.009246799715202854
-0.008044386893119378
0.004545559502501546
0.003613532264469744
-0.005550745081434695
0.03150929727900921
-0.024554599330871073
0.03221803454697794
0.010861524127621735
-0.025388370463264677
0.025669522011198122
0.050908996739456557
0.010382819756719723
0.012448899314092817
0.027740732717266004
-0.006238279549726121
-0.03295805603767917
-0.020527030991418144
-0.005840508951088023
0.039243369349882255
0.016581276621462034
-0.022156369070895483
0.007805982663204654
-0.005485149517957478
-0.008407194047341629
0.016364545721094075
0.003510110076471097
-0.002749951010664979
0.007394475160762994
-0.03231325296980093
0.02782602608631092
-0.02506701849638989
0.02773867220900652
0.01608860523615901
-0.013837830931072678
0.0016741326288850153
0.02067265726212381
-0.010941712024200467
-0.007559684518496293
0.019506197872073937
0.016660758993686565
0.028616235735987306
0.04387761474787952
0.022243434935187833
0.003231478365100985
0.023392849149357648
0.022945946828727314
-0.01648023508892108
0.01256126653096851
0.0382014453572306
0.019420536264517434
-0.003215450139634659
0.011081916897641765
0.013939741337661194
-0.03550738524609074
0.003666307519871465
-0.020504403688368027
0.01922095151045557
-0.020584251294707114
0.02745221095349433
0.02356527503407086
-0.002757652602676303
-0.030792269094271567
-0.007601563374958469
-0.030987916276091668
-0.05121138575025486
-0.027535307135047156
-0.07622672911958564
-0.0014891258520046264
0.017799931499433104
-0.012775030180277152
8.708884270791568E-4
8.815196654388363E-5
-0.014054910137588235
0.034787199156735435
2.4753369056379364E-5
-0.015283089238935873
0.015272732133993912
0.020937332855767307
0.037318206473832875
0.00373879582562186
0.029710160649699145
-0.011052453145758725
-0.00106585520050025
0.0030339903784898235
0.03452332204435176
0.0010298805479239254
-0.03459417443440196
0.016331774906699414
0.007789216275640549
0.007973630452332361
-0.03492211536185093
0.012430166197694744
-0.002321498511391709
-0.040122047794115746
-0.07980260259893257
-0.08437019000222762
-0.02401630952690772
-0.051635992623630306
0.002663859970377887
-0.020655458946961722
0.016821451978914114
-0.001807082017748382
-0.022415626834788174
0.038600464299510605
-0.004809335884815008
-0.013584099032419781
-0.025115733776846554
0.01438436253148369
0.008755471555687816
-0.007116060569990426
-0.022140047096952373
-0.036807049613526564
-0.0034503810772558447
-0.0014361089966792161
-0.003217533650482738
0.029323352635299876
0.011810213966512394
0.013172550647136148
-0.03215598485097664
0.0023393558537342114
-0.03875022205999109
-0.012018070535507836
-0.04963487512064609
-0.0931309326261351
-0.058870292965666184
-0.05020648610333308
-6.556995135157121E-4
-0.028658023368855944
0.010546432175920592
0.015421576927230278
-0.015325599787458276
-0.010408844104974068
-0.020648905149811523
-0.02586913910151932
-0.019778505617257438
0.02514149560225813
-0.029225628195946145
0.006148079113477784
0.026466244072685913
0.027121329614115314
0.017728221697166504
-0.004847502867039957
0.03479836926555393
-0.032705829590142135
-0.028694920067201205
-0.012675576176365283
0.0014044939044152783
0.03962856628756753
-0.027867849236201756
0.018295886789314205
-0.0433553586133469
-0.044581173539944625
0.007056520922123153
-0.04192347063666197
-0.017153232313552605
0.03784799912583505
-0.0036864688246086587
-0.011770454801970982
-0.002346207730021569
-0.01111569783220373
0.027209033117157982
-0.02832198045461821
0.0012141844311266516
-0.035411360782734956
-7.554775080279822E-4
-0.026107378037311186
-0.02959631336757665
0.027845837570104837
-0.02375311465231788
-0.017679730847525648
0.01654956832867385
-0.018769197091923505
0.024995397339862137
-2.532267450447709E-4
-0.013634159497610421
0.00642140172291531
0.0026980462040253985
0.029138145379620253
-0.005549221176664428
0.025707919521637604
0.057459106237439966
0.06492568693369918
0.03690373547780413
0.05398357430998044
0.018965984153822932
0.022134906769611808
0.016178650691471445
-0.01248615391920505
0.007415153668118774
0.02123665698804369
-0.008241751984201916
-0.032256239050526485
-0.039288061973104464
-0.0068717545816015775
0.0016590386149461815
-0.011074992766781262
-0.03010190300846623
0.013199858954839544
0.003504191451769878
0.03215194122373502
-0.02263637028413254
-0.0163390433621486
-0.024546557251899484
0.008538680628550338
-0.024853253055390767
0.013549085058548176
0.04223940882814805
0.03236301500840992
0.060529152128832274
0.03130102925818516
0.020802309962389128
0.01493769790736191
-0.01320981064295169
0.0020842219674288946
0.022448309494766616
0.02230888193508798
-0.014962216926686074
0.01923384876401104
0.006667025770965601
-0.04788512870020453
0.0022039137253055756
0.023623504053109784
-9.490603028870837E-4
0.031077995974164815
-0.014689917469730297
0.024935638658084597
-0.028271299063358374
0.03421371454548762
-0.00413997838817243
0.020036180008378385
-0.03586745395414325
0.01314085852076911
-0.005193352351825025
-0.035523653308831685
0.010945979179881889
0.02905013420958522
0.030957262671387046
0.02449195554184283
-0.029455920830371504
-0.02549128241228065
-0.026885570836251847
0.006854511700540926
0.01950385817451538
0.02667605254672061
-0.006690309160117637
-0.007640955828885183
0.014795454778848962
-0.011832825114627963
0.012273836097334444
-0.020144781913437815
0.013980336146649256
0.029008213219296582
0.00836213723445764
0.03179317865405955
-0.03335577570901167
-0.006780026701150254
0.024130522485877704
0.0015039706378278275
0.00558880215140655
-0.0020173517685820787
-0.01377261293800066
0.008892220719634004
0.012428708709997745
0.003665871001304427
-0.002815074861052882
-0.018681468825271438
-0.035846405491303295
-0.007558249543210286
-0.03808758203119184
-0.02861550019979807
-0.020149828778982175
0.012582123863503426
0.018437808648458582
-0.005383963616858316
0.01001086670367025
-0.0026063073831937345
0.0154381659425035
0.014070933730766358
-0.035227211281652134
-0.006722426725352748
-0.025380723825907017
-0.019568565377125906
0.007840103695085796
0.02588186082400058
0.011596723802239244
-0.019970418155947696
0.02692440814847899
0.027544570554258192
-0.014130254715448733
-0.011522992582638506
0.005086922924265499
0.00952192353193623
0.0036766758469509602
-0.0044985799637368065
-0.027516682082262864
-0.008520779396785435
-0.02038990865492861
-6.087661178744257E-4
0.03040173243559814
-0.014084222451251785
-0.03564883612713658
-0.01008586413421064
-0.03760427106256959
-0.014649162129491182
-0.00802505341173203
-0.017237822915001217
-0.017180388802719427
-0.020892571799133237
-0.013762196175577286
-0.03322859873188566
-0.0184305332793539
0.03354449941626619
0.034408207753081975
0.016947317106540363
0.00397925961742091
-0.026436440124599832
-0.02599757384344708
0.012398949842041897
0.007146616941290962
-0.0250609785415481
0.02676729625333884
-0.020753339038426362
-0.015891177067256596
-0.014669692510875028
-0.026700725512625288
-0.007694621130249115
-0.022102769798670326
-0.048864893113654946
-0.028303163157167573
-0.03742026237376452
-0.015530898471631518
-0.03073349705865215
0.03398090461595349
0.02546198183619867
0.01762156178758008
0.018503966229578304
-0.013618830758054003
-0.01616367825614443
0.006963496469119701
0.0034943546851503166
-0.002518909443898712
-0.01601980339547279
-7.840510757011568E-4
0.01914627184066593
-0.008908991427536987
0.009663890427288624
0.022469310289394986
0.01824251479402288
0.01967958294134605
-0.022223584940090545
0.0016901503688946766
0.006734178554132457
0.014870704542700642
0.018681395601746247
-0.045157626715765425
0.020222868859180947
-0.03853730193790759
-0.03242813508344468
0.02371861931382587
-0.008266296761561907
-0.022086203859799258
-0.019687908545149294
0.014455706353833298
-0.010964428461560576
-8.117080643856092E-4
0.022608314419799873
0.027485880950349872
0.03178012876856284
0.01990038920345548
-0.0044555936870808235
-0.02689835332818034
-0.01259538197603972
0.0013520434975527892
-0.022841569195368932
0.03524495395943854
-0.007995775857541694
-0.03408689836265418
0.02866807061469337
-0.024763177618419237
-0.020324637822296418
0.007969186080979657
-0.006525470622480062
0.020573543069881794
-0.006167784815517886
0.01002984242919897
-0.024481400266801345
0.011928054091096355
-0.013276511784529235
-0.012708657516371704
0.0030246700668225754
-0.005100555372666071
-0.027014101673954554
0.028528652353409872
-0.018572553290785967
-0.01620513709873829
0.016546837147917014
0.007248804447652135
0.029787501502387903
-0.024434146237149606
-0.02659679909363584
-0.006957186174999044
0.020191043081890188
-0.01631768949340132
0.0064189134717475005
-0.01932494808338246
0.033853774014543585
-0.001056014205244547
0.010729003739319998
0.013972440115174966
-0.025358801862463434
-0.008289739856378524
0.012139402741118022
-0.024526960909019506
0.01125375277004971
0.01498382056264335
0.013466639070017779
-0.003767094121102918
-0.03387127199326805
0.010540823666520809
0.02371671216649031
0.012845372760648954
0.006275746736992868
-0.017863736852749286
-0.03528845363315982
-0.026306241677740677
-0.006648901043181402
-0.0025176320044857257
-2.0284907117660086E-4
0.0020167490341043764
0.014896640470515851
-0.00684286433000946
0.026846901962167897
0.02150811009455807
-0.024819562153784128
-0.03088346333839968
-0.026523535674205387
0.01164384081224853
-0.031461753450873195
0.025642281479768218
0.02812239334010974
-0.02916293838020004
0.006473266624302505
0.023413035203820657
7.991956988146947E-4
-0.014628878197666704
0.014495102695328554
-0.021958044573155304
-0.01209265445029574
-0.030569713293728436
-0.034827873342330895
-0.01798254487189617
-0.012410115205688702
-0.009087220377323867
0.021147927276153913
-0.016864745874577366
-0.00861157757016799
0.02222021942010463
-0.013249334376490982
0.03600381810711752
0.009211397142810695
-0.02334910116083333
0.0030319475195125733
0.03601152898939814
0.013144930375197613
0.04449437116480822
0.022713813653007557
0.03850512912904555
-0.01576369753241912
-0.008310609883539662
0.004361225911217581
-0.01779766632923184
0.028385588318279854
-0.0011418903605882496
-0.014818437657632688
-0.014458688159131237
0.01773132480508583
-0.01850020841583988
0.0153344632482849
-0.025008670276443504
0.016000338478198886
-0.0010321633946557968
-0.02175352301884619
0.02730088290070204
0.029325432617230238
-0.01534954291320616
-0.004074644579625898
-0.02507020950540511
0.004373934697914136
0.01690284004527483
0.017162909806329167
0.00813406083769198
-0.01192793383012142
0.041806499694972216
0.050845455005075944
0.05864496702279362
0.007773458369139597
0.006391474698351267
0.045967530431500946
0.009854036474060954
-0.014283996224295525
-0.028763456118349958
-0.014157014206308155
-0.006269860309938179
5.335036753332588E-5
-0.027894290137760507
-0.022953225197307685
-0.00883039892708018
0.004098554165785926
0.012567790724864792
0.0025995567369238117
-0.01886501520076688
0.011577907227331605
0.014886182589814743
0.02634715740953406
-0.005599545341009555
0.017806280674007236
-0.0256388893719539
0.008297286414971829
-0.00933962405147558
0.03269867338939704
-0.04088213607768797
-0.013263693520583259
-0.009545360841114547
0.0162439414211851
-0.010285645929736052
-7.860399257261492E-4
0.008399145379603583
-0.019784335531140344
-0.023798395666993075
7.38824137455753E-4
0.021277723671154405
-0.030374627387482117
0.009850124923678434
-0.025892630386924215
0.00257469467970204
0.021623088674765468
-0.021337945116711884
-0.021779664163714435
-0.03349357342241381
0.008991139727469613
0.0015078639224970648
-8.313164849307339E-4
0.030634556538925144
0.005157211889400514
-0.024410877020424333
-0.0016770673717481234
-0.02284799707124119
-0.007909798385674432
0.039386280451719685
-0.008095691758868708
0.021825499056762256
0.05925760398199904
0.03447217696971363
0.0067184688895544275
-0.0023991979104653408
0.02273321378685945
-0.002583313883865139
-0.027115816915280453
-0.025883164149866213
0.003038133093750472
0.030315308818142005
-0.029813087900009288
0.026988249089312334
0.014671006037160237
0.005710855221713511
0.020868904354013368
0.0047002677789391555
-0.02701206727390334
-0.013863061767620056
0.001760485333539685
0.014049082655002213
-0.022593063777073163
0.011685563129775391
0.017039476420215378
-0.028187853637733892
-0.04984436132328801
0.020131566079756986
-0.011647331382167572
0.01721977672882031
-0.014975866331333361
-0.027879363808025144
-0.03699331641465488
-0.027094758082832283
-0.007192299216232809
0.0056962143509806645
-0.010969711760504876
0.015504576597653016
0.00240189595823283
-0.008957373948675422
-0.0011500638439412654
-0.02309326896717898
0.022031092803333867
-0.03279692426705705
0.027611070614066223
-0.03208432131058254
-0.02051675713476469
-0.020832138676083682
-0.035508758635124774
0.00811548566769842
-0.021580525330327144
-0.053163839507765466
-0.06812658072552882
-0.005548947192508467
-0.0010323622145748128
-0.047826166053958785
-0.05737077429484795
-0.04590903829621395
-0.04663193144247182
-0.03544715003641772
-0.01978536255112679
-0.02527840405109272
-0.03577869793335592
0.006742981727713815
-0.03434337915022483
9.307313716777046E-4
-0.030130428459783348
0.03230553983877071
-0.016716064367635657
-0.0012428917628712417
-0.0129639084844314
0.02399377264436397
-0.008604002372078059
0.009383283259515684
0.008364030036197567
-0.040464274770422935
-0.03406473813252477
-0.0066070697128880525
0.004308387178829188
-0.033885745107701204
-0.049722447898533674
-0.01057201246509604
-0.024841441481696296
0.010466798648889485
-0.048910399975977334
-0.034635003491788205
-0.05909007757628638
-0.007989057298519878
-0.008135710440313729
-0.05442067988605941
-0.05346317094474887
-0.044045703337689895
-0.03547190810551656
-0.016906713114829244
0.022947572202191208
0.004122729019703856
0.03236504318780706
-0.03331630158765144
-0.031023059682620598
0.00363096914223811
0.023244069811463864
0.006393986075641541
-0.02067931112625184
-0.025434268804403595
-0.05949784456416752
-0.03722419266458642
-0.01368700506567929
0.0030474827638136658
-0.045887549303238385
2.5548184483297105E-4
-0.026991933609918698
0.016373677445626338
-0.03704779085877858
-0.013755033868536323
-0.06493905217386099
-0.027188764482696942
-0.05754758458651047
-0.03258804293029186
-0.08063489492905246
-0.03757247438247205
-0.04169093303733334
-0.04081033528186137
-0.012039463263394837
0.02974031389241452
0.01834008793659254
-0.023168073266010007
0.0034289028134201994
-0.004033775376914797
-0.031544665860595955
-0.037681061653022915
-0.011512953105628295
-0.04529354182844998
-7.561176723407745E-4
-0.01026869255885603
-0.026209810397958284
-0.05240709816098202
-0.017278716706140777
-0.031405261994937234
-0.024555442006486537
-0.024581933619649506
-0.023657694773909242
-0.03215813500817035
-0.04324486539257344
0.014112168175318879
-0.04234825962346738
-0.009353494812848702
-0.061095127348240005
-0.06083526201959889
-0.0692727508578383
-0.058009544152183616
-0.002545559734620654
-0.0356352623042643
0.007699128347461441
-0.0032136538840660763
-3.0179505086157227E-4
-0.003441582572533007
-0.003986298675472993
-0.014960818602470683
-0.005483718761432828
-0.06171148585671493
-0.044340017213487355
-0.021959923708902086
-0.04667820693875095
-0.04975439727603279
-0.04888079666802602
-0.02320513481676366
-0.04090285157700664
-0.02317416736712314
0.005702777648183411
-0.027343060989257394
-0.0315622591212285
-0.00744001167375011
-0.04757165487609815
-0.04762240393317698
-0.04476237845342348
0.01262537531873199
0.008780991376502133
-0.038315087274832585
0.0030530110677162324
0.029885463420147147
0.03161097002455252
-0.00351330073175162
0.03329355970913765
0.034248902786543606
-0.04203789394866913
9.333506562291265E-4
-0.02675355654609575
-0.05275855241801992
-0.03120242069486712
-0.008445300652066487
-0.041582873330318224
-0.017925779750607926
-0.0448907321130972
-0.0342525043732324
-0.016041751452945098
0.01388542324675142
0.014895720273189412
-0.029614984035155275
-0.017033024421826942
-0.03550445691269881
-0.022750715547453174
-0.038549657586248794
0.022213285796830486
-0.023018161739573953
0.032879159092317145
0.020649986888713195
0.0067956153491445185
0.010010075031493211
-0.01991733202471025
0.009599253481137772
-0.035740573404228725
-0.017865021614453976
-0.009083297248431618
0.018915554228587657
0.016368647833532264
-0.008693753690569106
0.014694981626730844
0.02293866304393853
0.014805065957978092
0.003559940897076324
-0.003315558945440101
-0.03389190431687144
0.01853561451763681
-0.009825486275073295
-0.022682672178056102
3.016163943557958E-5
-0.023791661848760207
-0.0070345659963418575
0.00377099014443032
0.023614930146380858
0.013374067847517643
0.026514180013559922
0.049822242799439385
-0.021454193403728408
-0.023950172318094022
-0.019613696875733666
0.008530367571166248
-0.009326116316638473
0.023705456161830514
0.024085395366928677
-0.02269108684716314
-0.012947432695104469
0.02788966133372898
0.041811561265717924
0.04031728082751171
0.0291614879076981
0.04798303355716665
0.07385815576201159
0.015282771227109266
-0.029026596839073264
0.014530172484364164
0.026558519332391207
0.04288119998585351
-0.014722787491846044
0.036299888257539006
0.0338049401648514
0.04454733822704829
0.047804737539150946
0.06661093240501306
0.05221857155264435
0.03929389474136381
0.004528628532251423
9.285871207021289E-4
-0.03422188421396903
-0.024061230358166263
8.213952838683232E-5
-0.01979656247759616
0.006541339150619351
-0.003695668496510477
0.04073117542988801
0.07160958810197661
0.08642065312634704
0.07998758522993497
0.028676417139083178
0.028765523026730012
0.08045758945472338
0.019230389937395082
0.02572439227029875
0.009224257454233945
0.05769313255589084
-0.00922220693656219
3.679784216856998E-4
0.010561331210009742
-0.003673394803499149
0.03418297888058768
0.03902684053765367
0.011831019990038659
0.02243852266760057
0.04168097522846246
-0.011842436575202689
0.030082438948705187
0.0011804989722678256
0.025019432290260896
0.015852401382317607
-0.013678267480463727
-0.012400838795251588
0.023189518538591886
0.05436481752223537
0.049643393592429676
0.07419302834100074
0.048465776671945
0.08822337650740877
0.08420355048197478
0.03553186342475731
0.01206516473171532
0.007937079585926286
0.06552064654103497
0.06260429590909698
0.013366231524042545
0.0069166699851883765
0.04961646939751205
0.05701638273075245
0.06019274767997314
0.019704820527636634
-0.005197378943716525
0.013151094770297956
-0.014683750100698294
0.015238100612313264
0.031212535000494913
0.0155386804432162
0.015558828545564063
0.03456569820022808
0.020562652986196164
-0.010403456394001415
0.010372283065487842
-0.013971542720026525
0.0656556944282445
0.05801373282930492
0.046171597477449124
0.049117244941916584
0.08598147201212944
0.048864904291369395
0.014667241419696827
0.054087429964863765
0.07468040835395545
0.0336770692337867
0.02512049802733425
-0.006630416977168029
0.00852534036754235
0.006041831558460923
0.03009789113936953
0.023734668347801306
0.02647651532762634
0.022721349190204982
-0.013491308500689443
0.010347421344850248
0.01022321635317689
0.01909575443463131
0.0018375882118674125
0.02143413708814407
0.02187479902998615
0.017814504552188328
0.017983652090636664
-0.01715093434187414
-0.01110346585179225
0.0375978526196314
0.05392634395946674
0.08009928241191357
0.06191300508523955
0.057551194796495446
0.09620704378243385
0.09044854134075492
0.03448815732698682
0.06346076320793746
0.038519962342694856
0.03375426057147787
0.02160744380497453
-0.007089194128511564
0.011141356564349761
0.021215574589672825
-0.013163522275209968
0.019373759718370402
0.01398995050018368
0.010328305138112571
0.033636809429268465
0.00866544936722469
-0.025536057665385265
-8.723959495471288E-5
0.02316636623898871
-0.015264572548747442
0.019827430159531225
0.023225977387968427
0.022881225476457743
-5.207957183851558E-4
-0.0030766691757856115
0.035208320636440985
0.012656987111844575
0.08811849420628508
0.08004225701255618
0.03285934704407483
0.026616291201130373
0.04230603093589214
0.04435762303448285
0.01719289592433493
0.039421134677056234
0.0442208746692596
0.015168163699588807
0.009391647202357732
0.052579670206681424
-0.004304070164880224
0.02717337779579451
-0.016265037762684828
0.004648916799023773
0.023234959068003897
0.03498893074223523
0.03551144700989124
0.019600918397062527
-0.013315004646422206
-0.009835448726776958
-0.003963040944984237
-0.018771122611285128
-0.018711608490011085
0.018522419521409445
-0.03510228935668764
0.04350304361557295
0.06529036545079979
0.033722003346611414
0.048143957120567675
0.06120701275927924
0.08221451037928584
0.04915262180555545
0.048765119473926914
0.02917953652981159
0.050000652630447166
0.0042122059205078255
-0.007923460229911363
0.014980320033817848
0.05235094222893318
0.003117005767647766
0.010407153632863066
0.018133954168557228
-0.009864291540709471
-0.030457615768063634
0.013596677360638772
0.02495893873392748
-0.023645771579333282
-0.02086379698509046
-0.02694762869473355
-0.0202383925902357
9.703189439678956E-4
-0.012906158381055431
0.016048702310923927
0.029754620037040932
0.022740296247702022
0.004998836877467422
0.04431525241239949
0.04901096176366068
0.05130401347615006
0.021064492901750758
0.03792240251188581
0.005821417936130906
0.052866393696928214
0.03092934387425086
0.024781295146084948
-3.7707222402448115E-4
0.024978246087856856
0.04780017634831208
0.02884178468951319
0.0020025796453908467
-0.028327605987614007
0.013727368101905396
0.02885299561600096
0.02319474670874113
7.043578494444108E-4
-0.014688082016983416
0.03179045540116399
0.013113567626372455
-0.030947302068210617
-0.017698005521430086
-0.03339081009247766
-0.012033447005441138
5.859077483424034E-4
-0.04347782545153406
-0.009477791602659066
-0.003597934515258679
-0.024686315806660593
-0.022035144737019625
0.001623409390921361
-0.004711005550233415
0.01092312084370074
0.01253908610158642
0.010591342020700866
0.03822855297787189
-0.015660829735695596
0.004628979923406081
0.029861620489072024
-0.018988895278551802
-0.029934461039896918
0.019526704057724137
-6.212601821687716E-4
-0.0168054936471858
-0.01598460684916538
-0.008203100523190936
0.02703151785176959
0.005252308611265353
-0.039868189808940295
-0.041442821421310505
-0.04809991028091577
-3.957541790368777E-4
-0.05034665552442164
-0.017369349296992326
-0.05555316195860604
-0.063857628393919
-0.03890277436964543
-0.031400015220973146
0.01864439248978207
-0.002486610532505862
-0.027741752135690287
-0.0013574553558875514
0.011574781133715722
0.011544315699136134
-0.03650652412459927
0.02107543986035658
0.033086370600423666
-0.014142954644593959
0.028043071312614076
-0.0032790634027807797
0.02451372905859462
0.01951753858595845
-0.01422275043749941
-0.010435290074118104
0.0015534283618804444
-0.027564735777894048
-0.010542314538707253
-0.013062986370798816
-0.008357134561636732
0.00107988308648764
-0.04510865502512413
0.005626708113318858
-0.013809547487639613
-0.04750438174846516
0.00839834368810268
-0.0223738880534108
-0.03089477773732633
-0.015387634803430524
0.011563156653381215
-0.029560864498500854
0.013491967416464393
-0.014913265911704712
0.010502571012152125
-0.017977121347055345
-0.02401591319060782
-0.03264758055701807
0.007300429580413922
0.010967938285013433
0.03400881526349414
0.024424667130681296
-0.009258505195718974
0.00888133926509745
6.851148818967005E-4
0.01930955005858137
-0.04208618435311124
-0.027284807760777886
-0.024732858267169436
-0.0421508970481587
-0.06985141212354683
-0.06609484017834785
-0.03544293748280322
-0.03891676401420354
-0.06438507553120273
-0.03853044748910861
-0.01916099947037761
-0.051528431643006446
-0.0460085669250146
-0.054888275749322854
-0.002974050497829364
-0.015225651178788024
-0.013791654104332269
0.00505032078006843
-0.0338973707498465
-0.031058744416726312
5.256698654051498E-4
0.02974454243429546
0.013029047969437643
-0.028287387435897114
0.0337372538727463
-0.02162063655265326
-0.012117914575483628
0.022294021426294993
0.020476674063894477
0.02537402384462809
-0.01833375571271014
-0.025441162188958543
-0.025550952652499657
-0.021062824900387588
0.0017566234888810109
0.008050321168486875
-0.048680216272425844
-0.05578135095781985
-0.05419131574112652
-0.015147400351990713
0.01726419645815749
-0.022133054083454947
0.019113512686478273
-0.004963908521788976
-0.030919622975267465
0.030373175379095414
0.015583549286639388
-0.0010905241379021505
0.0017994035919016507
0.019880587039371955
0.009509669299874908
-0.03098635761506534
0.02608386579772442
-0.02142444572535886
0.03434537072016426
0.013386247438852212
-0.033139138203793286
0.018769946107696108
-0.003805401949544074
-0.006731631288642723
-0.02666608739527859
-0.01062816291210103
0.03371939286491662
-0.0021808246487950286
0.01750538184969431
0.019277791431759027
-7.165369482470598E-5
-0.020389068098707337
-0.02403057945002778
-0.033307105105280496
0.006886501617055026
0.02329835447939614
-0.018344657405146476
-0.02147544507383011
-0.023724105296452906
0.016428352243964016
0.016161311544924756
-0.025751781880574198
0.023726666769684365
-0.009983832439157316
-1.8941400352463778E-4
-0.013903799598191515
0.024176675431197198
-0.031276746844975195
0.03038219786166957
0.030101054229122223
0.022555440662398236
0.028644203261718904
0.019655464888121497
0.02534816063630319
9.89576858479742E-4
0.01977295046928824
-0.032295564436439474
-0.02612924919480137
0.009036456497453403
0.021633312012925565
0.006029913331010751
-0.019043289615478933
-0.020477371733162195
-0.007899357650406884
-0.023764189495019808
0.0010354532541231726
0.02625193445953114
-0.023215710672808237
-0.031668018739275564
-0.013686243272022072
0.023595542871324378
0.013509875796477118
-0.001847978880475401
-0.025383641858609463
0.015079287057856236
0.024281496609737288
0.03224830217684363
0.02485988980381955
0.016375083839115588
0.019665711559784485
-0.013371662964246005
0.03357494649421979
-0.026414471989097823
-0.0191880902625082
0.03210800142509035
0.032685265675834706
-0.016190928862421506
-0.02509477488378327
-0.009636896641276285
0.03495090974051828
-0.02007551751758598
-0.02639742826009609
0.0016149593329755512
-0.02585750780566161
-0.021520702764547466
-0.010892453900498818
0.02250150692451222
0.00810093287447363
-0.015259844583874398
0.02737137865086021
-0.02598042671076991
0.009504064479032832
0.010536974333389182
-0.007280321079317609
0.021320056559976878
0.0019866969622365075
0.007704161496256363
0.0036268743573030795
-0.018919735687009793
0.030803505642294067
0.04058240668612729
-0.0055542991456026675
0.013726995398408852
0.011203316744153037
-0.03321025508497633
0.034720081618446565
0.009243125444612418
0.013956904042685587
-0.012142822769202269
0.0045643073343371796
0.014583783301570733
-0.023388585447859333
-0.025530009814491564
-0.027776880799619874
-0.026302448101714997
-0.01982632009178147
-0.026379287334268236
-0.0031671895377184157
0.023289251919448292
-0.009386035832700963
-0.011714007618921189
0.03416150403043473
0.03674052316500478
-0.014882955893536845
0.03653189481950854
0.04904851713133741
-0.0033854339218033227
-0.0018953475963561133
0.038436673817550907
0.03776572506488623
1.3617692633583184E-5
0.02714827102780375
-0.024460650640576814
0.02302682459764194
-0.00946052546151509
-0.027541686957868666
0.00877856416507392
0.014859468630940809
-0.026203116635432695
0.015213881222521493
-0.02233209127039473
-0.019328021314298324
-0.033318590560829066
0.02355091558109009
0.012718117115617593
0.017415111858198926
0.0079826316569343
-0.015236031124581424
-0.028143855329771605
-0.004778027579851774
-0.019584715801660824
0.007176885358630967
-0.008734911120862011
0.007450984964125107
0.04628747698719572
0.01052846693092913
0.02093793003631324
0.06660954296514514
0.028796482928712723
0.003682013478902818
0.038773719045889284
0.033266868431710006
0.017395026360301345
-0.019417880186167996
0.005277580052929863
-0.04540463978111117
-0.010090963311220554
0.01768450788897339
-0.005150074377418651
0.019422163439958093
-0.014697731991795356
-0.004160360643602139
2.9052379396226485E-4
0.028639874181540417
0.020810307275500005
0.031213356680742942
-0.0168706191393088
0.019825522097400933
-0.010074805579487919
0.019094798506200536
0.05873641880570238
0.026829188181855784
0.043043128346745285
0.056481173367982335
0.0771313005109084
0.07498314742637598
0.08016366713969167
0.05337912740186176
0.02793589907285697
0.021308516570884898
0.00903716391995507
-0.03236847148178262
1.8864807761383344E-4
0.020762832461232957
0.012048320857491296
-0.033531101973609395
-0.02992299265442636
5.952254068975689E-4
0.02922755906553873
0.01700864605410994
4.506916199202868E-4
0.023366426681305785
-0.01926887016265852
-0.007001121787487084
0.020074237037310427
0.04708761007293856
0.005831478181521565
0.004036979443331101
-0.003561050998635621
0.04914728369204474
-0.004392708764154871
0.04673545271856717
0.01156546881146473
0.04256120934025133
0.029382301399435037
0.002325153948460894
0.005271347144748565
0.05799522584804497
0.018663343733270388
0.03418306594990547
0.010602060169806965
-0.0024999104370390427
-0.025006302307732656
-0.029276086608143057
-0.019360295270490508
-5.976962613698918E-4
0.025180382039406736
0.0034207534490470638
-0.010808350762890245
0.0014054694230481455
-0.026245775402202732
-0.01833386745392878
0.026485183959604378
0.039886125637927886
0.061457600697212386
0.0041450127176390055
0.03578290270960637
0.0017252150273787139
-0.0018705452771907423
0.008043514432579404
0.042276073995812645
0.048432118007600694
-0.018246903661209516
0.03973934485729743
-0.005216002871619504
0.049529452819881664
0.035605085958650716
-0.004080632717484646
0.011778711250136447
-0.001970138493185242
0.01182505919401192
0.013947485051020857
-0.005276595017213706
0.028649757179124564
-0.03275624487010989
0.01461644906146066
-0.008392053202323325
0.02837439009528453
-0.004992272719237588
0.026224260949924263
0.05034788654345032
0.023536655059267945
0.03728189520196036
0.04677354680450927
0.007157049131818282
0.03781120681541006
0.060631093174364964
0.0531852258742278
-0.012575171236486752
0.06343237442812605
0.061043794036530485
0.05693420214592695
0.0018187582402884345
0.030206506670162857
0.00783700717776353
-0.026116851104002043
-0.03121816389782234
0.008926212273158447
0.011759048947411435
0.0052663327837643445
0.023657717932139024
-0.02208196902445878
0.02969327032560809
0.00597583367051114
0.02811385234210416
-0.002810688340104718
0.022325705735860867
-0.0010707924913422853
-0.01215529068120622
-0.01584843607648714
0.011163031597459452
-0.02993536811435664
-0.02494668191769166
0.03130876503489889
-0.00365761481614193
-0.03526879365925565
-0.024071302975789657
0.034609551460120416
0.06966522131164882
0.07446461423734432
0.023832239644462384
-0.004413626315134303
0.005747580837141558
-0.012372320915471555
0.0047476245647892915
0.013363596339980152
-0.00860656681407186
-0.015475252200352608
-0.006538141777224764
0.019399977286308698
0.031261082642466714
0.006494636300839926
-0.025454357461638998
0.03549877519428565
-0.003375769639433631
-0.02165660401414903
0.01425367267220829
-0.002197534166081249
-0.018225827993715103
-0.04528921127623739
0.008864378835721151
-0.052040540808875116
0.005929859682009207
-0.011355950760235677
-0.04514179936329964
0.02178535958796372
0.009541980213362729
0.0217980997057503
0.0666825759252517
0.048770124037584184
0.0375165321651373
2.7352499953603763E-4
0.004684161882504332
0.010062428454813843
0.009482035991416652
-0.013110879283271629
0.004945798272636784
0.007034964415635489
-0.03217951380865002
-0.013427471749774262
-0.031204776962811306
0.016387822797142643
0.030884416434710134
-0.033159627586339814
0.009325318976498681
-0.04299235228779983
-0.08184704852568683
-0.08876571876930446
-0.05514471763393195
-0.061389622337024184
-0.02170400458318482
-0.031488739179305635
-0.05378676129065103
-0.056106613946563015
-0.03540078087508467
-0.023231797365899455
0.001730169666865306
0.03161626142983262
-0.012317932391995403
0.03368412769160134
0.014330593128442188
-0.0307148913220839
0.02672346822198749
0.036094998953646526
-0.011039162021020128
-0.009547110681620827
0.02642881988113708
-0.025869620455742297
0.023845192090942834
-0.013629877908431473
-0.034173735438694924
-0.006446724482098173
-0.03912771160936078
-0.022628701803826087
-0.07095558414848266
-0.025486603571401752
-0.06728414682813319
-0.012184576469985565
-2.0209913436684688E-4
-0.03647813229545354
-0.07433360676073753
-0.056030877677496135
-0.012196143087207416
-0.006628264820093418
-0.03629411205867677
0.024285107731307237
-0.008307701861672004
-0.018045154094821356
-0.0077876514588224345
-0.05151992085080928
-0.0018021764651050876
0.0016314869796745313
0.00910910040075699
-0.0032493721830495863
-0.030507056963509714
0.02791300723697229
-0.024122729443747024
-0.03155305330563504
-8.919462290640301E-4
-0.03527066434454001
-0.011421561044208306
-0.08767096117473863
-0.060791152253338386
-0.08040507442889541
-0.013028020338951696
-0.04303263581666764
-0.015562271817652795
-0.006092522651021111
-0.037717138335420945
-0.07586765767377052
-0.01828575828803489
-0.015658979053183322
-0.024422279848518094
-0.036312024867883555
0.014375396121088665
-0.06383857626243666
-0.002129241202134462
-0.052457323325698586
-0.03518911196737137
0.032656248420721075
0.0018200585492218208
-0.006101605108678223
-0.02731889798369678
0.02242252176775803
0.019329515296550272
0.01150261535113011
0.014431927299257734
0.005272545621400547
-0.034049419104904034
-0.03312739938891453
-0.0396011174190008
-0.03316570515447054
-0.012569231538958744
-0.006309814531917375
0.02320210146944488
-0.008380672386769036
-0.01768729037142577
-0.0249801332743351
-0.03866024182976277
-0.04143432867168472
-0.041593602998293136
0.009279992503784773
-0.028492235105904602
0.007889614071934845
0.004212403098224648
0.00307574818973917
-0.0026377871251777995
-6.14215881263244E-4
0.01135976707404313
-0.027364503184153482
3.6321284615862745E-5
0.034791124139139214
0.01836949992107782
0.00275364455271248
-0.011605079115280078
0.006010256421312139
-0.05212593344751732
-0.00928318812475112
-0.001249825598379784
-0.03478125189113813
-0.014854016897429172
0.030097124723285133
-0.008403573601342992
-0.018715499692857476
0.025304657157100237
0.0283341439792377
-0.03914769843525993
-0.047484100150887866
-0.011109450415343775
-0.00681225106570974
0.002080763375887331
0.03699974751002757
0.026710859537897483
0.007052698632756022
0.022595584399069522
0.014711085687137004
0.030391662697321756
0.008277197131955759
-0.031584538594472425
-0.035353217216330585
0.03240202618753009
0.004843225759748259
0.013537483123733802
0.02505573430147178
-0.006769483681629206
0.01388166628571452
-0.02702418964146099
9.928307893180882E-4
0.03965556105836187
-0.007357442106719787
0.0014658111460238655
-0.02595033198953128
0.006662480284451308
-0.014657966250884938
0.00664120658534035
-0.0352562752404219
-0.038907044549841896
0.022429577658912857
0.039342071411993695
0.04792229860097005
0.047780041472940314
-0.01278934452463537
-0.030729341553674055
0.039294873632415656
-0.00467213856311656
0.01973307419243679
-0.03358442602506894
-0.006035652352465375
-0.01657073175813555
-0.021471292193115804
-0.026269475059086923
-0.01866231404384292
0.013409522421229086
-0.012792668009905932
-0.02332248401578894
-0.03027736894685367
-0.02937371604586819
-0.03908511768322171
-0.03000767203442336
-0.038743773431026814
-0.03269812759248803
0.009078479741375841
0.019085531620873522
0.02557899465899981
0.037584663096079066
0.05247114037622906
0.06303273814326349
-8.257178187225216E-4
0.03784966406555065
0.022505935679708353
-0.012753917320488093
0.03482718893295851
-0.020721877549065612
-0.01271746081252962
-0.02178088835340221
0.024766752412919344
0.02987503375681694
0.008143899179873616
-0.011197800817918935
0.02278409423912146
0.054872358184256745
0.009712411003573822
-0.022354509776397385
-0.017098060640432514
-0.02011663617594751
-0.03945073508648614
-0.012568415107235779
0.004945226573449838
-0.02965651547816848
-0.007285901947390495
-0.005343681361327222
0.011078336349638564
0.07697960869563443
0.0411055525199659
0.050457654212602635
0.01528531557042803
0.04910290855676669
0.007641115331987077
0.022056900836465592
0.032497269861526915
0.011984277499696532
-0.012527858367077557
-0.030932549200717644
0.009055550356649126
0.03446745173459311
5.1570610786084405E-5
0.039809267212394084
0.03700339587847511
0.047632589882783204
-3.3732166646751086E-4
0.055453142266349
0.054540623460543926
0.008629757831830447
0.050683247690251294
0.018513419465092558
0.04474412642013716
0.02855226123118061
0.042033117267321694
0.007866600917371628
0.015464225052798325
0.053198438845728814
0.032112658339765086
0.03176993417141358
-0.00858559022028956
0.005567873091335582
0.024841241055119635
-0.0037093199971833524
-0.011695659595171791
0.01884996412818871
-0.023303268679342026
0.026302887857710067
-0.017602820856844257
-0.024034637442838697
0.0012843876365066101
0.013583125781929028
0.06047553108751387
0.0638380899223668
0.05967405946298052
0.008153118688323044
0.003373666717954753
0.07238011090148311
0.03493900589325322
0.029627379741613957
0.05041369127304905
0.02635290516320449
0.021454553260070935
0.04480293368886384
0.025441040393738797
-0.0034666724366942225
0.045526282113779126
0.04107787827197077
0.020877110041701216
0.015454052001355518
0.0027808469117731995
0.055965230389543257
-0.012530950218479059
-0.00492102904851393
0.0025673907630212856
-0.00564907994209363
-0.03279328611805297
-5.317637470781802E-4
-0.0026178107176642075
0.03729397438445286
0.059343866863551524
0.03987826534038596
0.06021254492004899
0.05093331352519876
0.004619088996200738
0.0545741361913634
0.06730060622067761
0.03148988379459438
0.0011242085217568515
0.0025564777394746045
0.030719525174973703
0.016360586219973963
0.009398253459627188
0.04755711827167564
0.028989045316537305
0.03514784715075564
-0.006589730726088194
0.012088274877081764
0.02613810992291698
0.02198907823120792
0.03506137857923556
-0.016949337983184553
0.026348493428309763
-0.035130129181530176
0.017458193233417102
0.024932874094962598
-0.007178341441536844
-0.0017020992922612901
-0.0025680049346279523
0.02090667479330379
0.03304207282268883
0.004688984128979154
0.013834314794228832
0.006160438491924071
0.00578789152397677
0.01984016847874261
0.0022733911068787255
0.03452138091122828
-0.018619157857972975
0.03949148332614835
0.04039427712965315
0.038450282792676566
3.9470314413559673E-4
-0.02374713929462638
0.04058621314213626
0.0011285484262815084
0.01125683931952884
-0.02496784580202847
-0.022926343081525927
-0.025993819739249198
0.03449174169903934
0.006479093073067122
0.0080331089766119
-0.034868332912460186
0.016902012860003368
0.01791350967645714
0.026745875335192345
0.03043865482616075
0.034852995353204026
-0.005470989917408664
-0.01992254933102922
-0.008217018660843721
-0.012037436559183039
0.02389551934463821
-0.019245071093160027
0.029804790762593857
0.010000923618382361
0.011316316078418655
-0.0036923255157207415
0.010354595182944263
0.0250907160028053
0.006136972330817693
0.009830025506566345
-0.02938423621111322
0.023034945749041687
0.007277306528571017
-0.019770965323275356
0.017994075345453792
-0.01738138696870183
0.027657584705900434
-0.01080116065406183
0.034938784331352196
-0.011459985307627577
0.018614866908120184
-0.0210706835558715
8.179296310623855E-4
0.03770283876844285
0.042676893028186134
0.02081989974300532
-0.015992919337712488
0.03080580817900832
0.011625631262571563
0.045095813074175053
0.04369966342632121
0.031678304240628744
-0.004288938019638876
-0.016046103682922152
0.012815668598507551
-0.041561336640138904
-0.00961022199788337
-0.05586172431579335
-0.002674616020605503
0.02378342567670367
0.014724092677841546
-0.007880874410308911
-0.027769569819908097
0.010171492365153295
0.035403222722182534
-0.02839864964827569
-0.023935983358808435
0.029442482268627695
0.011361889109861302
0.007784265211633765
0.0046659968628612455
-0.028600270959858096
0.015663497990729882
0.01784289197043334
0.0073512334624964044
-0.008567829401669943
-0.0029456407935705524
0.009214533004622378
-0.013838892211954442
0.039319466894870855
-0.021591552133179693
-8.610590698180812E-4
-0.025488568560968723
0.017051339952913525
0.02798701524833328
-0.004679019934930294
0.022086559822182154
0.02980268224294283
0.01481268088242032
-0.01723388142099612
-0.03012212653835407
0.020645033302250683
-0.012856897814734956
-0.03555346274142399
0.019691207285046475
0.006976246635363573
0.02116468038011755
0.0034985643137364813
0.026270013282380805
-0.00733648270103471
0.030178539109023714
0.009011893744902072
-0.00510353291672325
0.019135905526929644
0.031319337452471556
-5.036813744048579E-4
-0.021366913293852964
0.023354132899226533
0.005440419244430602
0.020788209947922957
0.026152192431193363
0.006709510207804658
-0.02061602773045033
-0.0021249596672903506
-0.0073064194731197254
0.00471739186037036
0.016875564295004215
0.0032043079561423376
2.426664165521817E-4
-0.014540442471696873
-0.03571282129092571
-0.0029604060162489593
0.008667930328047746
-0.003485565345312476
0.024328969318507462
0.015566882884732096
0.01064012460384989
0.012490555257906323
-0.03165454282086113
-0.009470916170223465
0.004046960568978949
0.007396978529279199
-0.01332638677704663
0.022989851886072915
-0.016308208223292438
-0.0036513440848340304
-0.020843106451116686
-0.03292038904319215
-0.021792139064924
-0.027328949053064364
-0.023038744100461663
0.0029884561875897038
-0.004562811284295077
-0.009016439491376893
0.004295636937722997
-0.012673193315631895
-0.027663499993514834
0.015062896093636424
0.020222131932846214
0.03378588356358675
-0.024022618268023217
-9.543849726065118E-4
0.0179120906378072
-0.0020252409034659177
-0.027802718065661425
0.01895645268714355
-0.02483811993302327
0.00533554470197696
-0.004985037343782282
-0.0054622809132112635
-0.01959565922987761
0.013651331514299023
-0.001402508752271519
-0.02007576507041562
0.030424780418864317
-0.02728595638488724
-0.015060627935871332
-0.019021324176085066
-0.0348395081397898
0.02240853013236964
0.018425194628067132
0.02453006369842805
-0.0038921466041645855
-0.0040690368274343
