784-4-10
0.01743351471459613,-0.030988312557395765,0.015980121016056677,-0.03336652035919862
0.02855803137801663,0.032640434920096995,-0.015932722195197837,-0.018634586185276494
0.0253707474988831,0.029024627759393337,-0.02504468797779628,0.02713559509174085
-0.013466596448756845,0.024664670629408414,0.030227524607604028,-0.018536351537564482
0.0061322244294078135,0.01830374244995961,0.03278169478626834,0.02901289046961933
0.022598143468130716,0.015616237107613236,0.014741563798193469,-0.028601604111927564
0.015005682634345346,-0.01594351345206775,0.03491208454652203,-0.00481987792581871
0.031441421489441054,0.00423118516037084,-0.010591130508578708,0.028974659827071425
0.03316666847672382,-0.014646789250773205,0.015650880899386842,-0.03366652074915058
0.023386822252364346,-0.035708209647345626,-0.02665418734424894,0.02126012617800535
0.02644184732319673,-0.01754941506926797,-0.005155353678972366,-0.00736365050583699
-0.03354505015023852,0.018777563076641753,-0.015035850786838445,0.017940979394990106
0.0335161629613622,-0.012749351243739162,-0.00285989671440353,0.005319040433866788
-0.028202459285074116,0.002658694250693623,0.023788733661306464,0.01737518495152139
-0.0043973481051471945,-0.0023681298760324706,0.013771799733365005,0.018912229391608974
0.016876375737373172,0.003547026744201154,0.031480873404933704,-0.020387611047748375
-0.03400313417241064,0.004695327610404455,-0.001453731999318135,0.016904199292039616
-0.017284971633101973,-0.02991450373493012,1.638695879477639E-4,-0.025113712131202098
0.03393172196285581,-0.023056095430621433,0.013528704709528508,-0.015132617521839007
-0.02522619494341083,-0.018461228808368757,0.0014454634667616512,-0.006101270037503961
-0.011601761277125928,-0.01778088166944436,-0.00610559245902538,0.002128318518087542
-0.020226263336626915,0.03448434182315761,0.020265791202243276,0.005807081258762711
0.014679667756141879,-0.0020132271533586585,-0.013670259103209681,-0.014779529342221296
-0.032933998982388885,0.026379166628516935,-0.010807227866685101,-0.013137605475399296
-0.009272808714253542,0.012406050212632039,0.024984529423950852,0.009948253049398378
-0.009516938426516717,0.002856190865789962,-0.0016903994867330865,0.00575485066928378
-0.03287719146179119,-0.026179823309613846,-0.005894611180000644,-0.012271314449096498
0.021305407071483914,-0.02490865602840532,-0.020921558480523954,-0.024453556344042407
0.023872016284877576,-0.0016774433606658312,0.03387951237629398,9.09194335865296E-4
-0.0233366135671854,-0.029820988001466,-0.01859544498237328,-0.00656442895425861
-0.01868491002632322,0.025877848566675438,0.011688204638591077,0.031900105207965754
-0.01723548529940935,-0.004534994849642773,0.02686069172160957,0.011245630393627096
-0.013902317087093087,-0.003970793694334036,-0.018300071852910996,0.007526830745794733
-0.02305514261508391,-0.006208411766415599,0.035059381075504804,0.004356860299040455
0.010341459684307991,0.0023731259910479367,-0.017341686119388498,0.016687853991546087
0.023021679551406493,0.020512227311536315,0.020674834729348644,0.009736788265417165
-0.023567200307018223,0.03487844551494054,0.00578916391090646,-0.036648721320978475
0.029224953191641218,0.018356120376739112,-0.00808682043195983,0.010476660430505474
-0.033158400656867995,-0.017375899966694017,-0.0026508902058141773,0.015800952189749966
-0.02697219660253236,-0.035565482269555276,0.04715131766960179,-0.025612462240931305
-0.029206632828714444,-0.017663950579044033,0.03228914801544111,-0.03982156259495153
0.010388366008378912,-0.018074327564521427,0.011676913787693663,-0.03868337198012918
-0.01603934741461986,0.014984212512065179,0.023917971644168565,-0.01843905463541797
-0.0031947505427659235,-0.03404233233998255,0.040585712641047135,-0.003429409878870196
-0.025425174022185644,-0.006112959266663698,0.034584533516355154,-0.0404199094825056
-0.03189996223678922,0.01143803056293204,0.036204803002292035,0.01101957863976418
0.008148594544269151,-0.02801195570799612,0.012822637946862007,-0.014001942065396475
0.018966281790645936,-0.0020784394265443624,-0.002218576387722501,-0.0034152770542242037
-0.033816270487689176,-0.034229726851091845,0.011502165874725594,-0.004726846221175118
-0.008493345645803764,0.014513660331070592,-0.005445167475142371,0.009861079258843197
-0.03561855512125282,-0.021168878336677657,7.286573459034384E-4,-0.028076860891167194
-0.026538850922372348,-0.005636946895737524,0.03245258049636971,0.032007402947613756
0.034817191671694975,-0.03548168862616703,0.032302159186211724,0.01686540430738232
-0.01606440566843367,-3.6708268324258525E-4,0.004914313890675336,-0.028632727711410413
0.028963770590600818,0.03368858241161336,-0.0025754139312731544,-0.003678943704948631
0.03326416042534823,0.0020069335302935684,-0.0034257186323814123,-0.009037789809046713
-0.0058340099967277535,-0.005047808222346968,-0.020127907143046186,0.0012417913110088635
-0.006154840720433246,0.009352090543634416,-0.009635798698126134,-0.009948416808575958
0.006638045638327681,-0.01875698338214555,-0.005394880647915953,0.02830572511678635
-0.020719019545475795,-0.02194038488280528,-0.014508032888102476,-0.02994327477482764
-0.031161807293160516,0.01914151891311712,0.005122637055050874,0.010958244872527218
-0.02313663327280315,0.0032884444806461684,-0.028883166366655087,-0.015819900303173977
0.026447744067460897,0.005406388186515505,0.03299163723616482,0.020878709829688934
0.011973894126439467,-0.03062218528256966,-0.013392736429566326,-0.010789867654511837
-1.584876110722204E-4,0.015444216937387449,0.010094941903196632,-0.0442181956999069
0.0029979323302578974,-0.004043598707010072,0.06471287011585856,-0.04606118562316861
0.014272806929696095,-0.042870747871274026,0.07686553683278671,-0.11980000719362663
-0.008758804028867969,-0.020735447523719246,0.06603238802043092,-0.12189614841906266
-0.02674707836112401,-0.0020620975471596368,0.15302933893510004,-0.12121248466759613
-0.01898693531772874,-0.057178816529336984,0.16151584013256334,-0.16511693816796374
-0.03321155885697594,-0.05051044349521806,0.26205736613715314,-0.12823478098451907
-0.02973659811706509,-0.1520753895607971,0.26030429339586514,-0.14326305791775457
0.009380262670974034,-0.14386655750643962,0.30463909986040966,-0.16829726858781652
-0.04597544584529258,-0.1049504931344995,0.21090904036650504,-0.11610846751180143
-0.01722226670435057,-0.16059527365101658,0.2130936535853432,-0.0896757037979899
-0.05090092323863464,-0.16226625244487045,0.18882980699451743,-0.0693337931873009
-0.020833142084060976,-0.08015180779529282,0.1413096809953656,-0.06487020195640802
-0.013688124857088025,-0.07773606454144277,0.06284327296843929,-0.02511226888217691
-0.002795697989910165,-0.07180910258089525,0.07512119572290647,-0.02691639857452491
0.026106951789507424,1.442530265371612E-4,0.00210650215546369,-0.0017658031207538354
0.005763588127594329,0.031327292838075144,0.02880233392552124,0.01842215448473306
-0.03386651499280084,-0.01537107815813349,0.021984283765377633,0.022362690727358726
0.026520061701377134,-0.010498206629662148,-0.0019209676395381264,-9.524728950061762E-5
0.012233138826793596,0.003490529912435099,-0.03496295120314233,-0.004105087305760632
0.028931889744177597,0.03323983767784443,-0.009138790172512228,-0.005574303578816813
-0.02472030669396989,0.015157793883932083,0.03139570889240478,0.02326971873654518
-0.0020049423183060577,0.00973362144712337,-0.004845208705464676,0.012964131269531845
-0.01811208093991754,0.005072702780825372,0.029616054984467587,0.01050676063330078
0.027674966077078613,-0.005375871911559146,-0.024983693933894983,-0.020264870162509264
0.011167527004447274,0.006446750504776948,-0.02960366511871734,-0.023849655536790734
0.008494086958218577,-0.009057128920146535,0.007139141367003455,0.0024661503520864393
-0.04171711091272466,0.0460383103337244,0.021682685491804153,-0.028410167582181716
-0.029889031786344892,0.022222685396777013,-0.00783493728941641,-0.10706679062108095
-0.03623783015354717,0.050671167728213395,0.016397424759172434,-0.16262906393390383
-0.08789742922008666,0.07655280291105732,0.03542118843201103,-0.18785872964676173
-0.08713702673072247,0.10107269051235039,1.317782682783282E-4,-0.23336243033930457
-0.03985499649264047,0.14957212485695412,-0.01291315247724242,-0.24095169425621568
-0.024252345940881274,0.16094445246492453,-0.019133233746585068,-0.28236549599682226
0.011794773562714472,0.07845053290736888,0.08275047252195382,-0.3541511080942609
-0.00932282451163479,-0.03141375998906185,0.1150239360746438,-0.33753948308852116
-0.015068580809261479,-0.02070548030216512,0.20213812861156566,-0.2854451994743754
0.007237877298989744,-0.08437367794295843,0.30043960560132177,-0.2763019129205179
-0.05304118338224941,-0.19031643911602866,0.4040165997704015,-0.2833905489353371
-0.02022990163420043,-0.14733526873338892,0.3588799428159248,-0.21855083419766827
-0.05916010256644174,-0.1753276994428612,0.2910505088507665,-0.15647073891003496
-0.01876568075621626,-0.1450904902462511,0.22273146832181945,-0.10081912290533136
-0.05225775117030254,-0.060485403246640555,0.14799330468232869,-0.051146217996535105
0.012390439560852411,-0.06411753680965157,0.04564196974616797,-0.010129053575546646
-0.027433113240652268,-0.03259111460211345,0.014149815860232761,-0.011533220225887533
0.00844470995501196,-0.034707511531514544,0.009736017305606828,-0.03729068141136744
-0.022548046396815295,-0.032168485773802685,-0.005112084856401396,-0.0019096926890253612
-0.028240314384195393,-0.033207314934617455,0.035369087281823336,-0.01518004228006032
-0.016776303817576468,-0.012951669334344478,-0.017241892655972178,-0.015084601236913329
-0.020819944924598432,0.03300959235681095,-0.01565378917186879,0.027032177834335855
-0.006051305488501081,-0.026327956527256842,-0.01639880374162555,0.003897841972963855
0.03077870332515413,0.015459289184607407,-0.02706719151200916,0.0072553414593159475
-0.011812333459076655,-0.03289740535470665,0.014410213744781198,-0.024315926893195908
-0.021576451295801855,-0.013053805551063552,-0.0036098290639703053,0.013380145791833341
0.017728551067013164,0.034438779109283654,0.008874657717361864,-0.035737693670496576
0.01128254151823406,0.026889620413164173,-0.032375523930897,-0.08038181969976288
0.005301814585615226,0.07625510063213507,-0.03204833605669451,-0.10979890130758513
0.015328667716123349,0.07586553215345361,-0.03633220045865193,-0.15854092564937897
0.05075713134837105,0.11140856618923548,-0.06198347529829804,-0.21089749446989253
0.04917151688401325,0.1740025381430934,-0.1196249770472591,-0.14848217432603827
0.06917759786987246,0.20077594420233877,-0.13187497126881903,-0.14680394230876834
0.055348731148111986,0.2508917702431381,-0.08626765264062017,-0.13267344953055618
0.048157397206614626,0.14186200628782372,-0.042510757733908125,-0.12588621522424567
0.03932941408828143,0.23286344318607535,-0.10222729918514983,-0.08089816597302515
0.09105245324838905,0.19097482480986205,-0.10340693702346668,-0.056114315499596064
0.14569485095480497,0.0740057178290204,-0.029369780413040666,-0.07088213432292356
0.21464058331525515,0.04249188033956702,-0.05556893862713721,-0.05718602084533602
0.2629732246366209,-0.05137871843105205,-0.04448641399191621,-0.026484994140793507
0.2507313344377686,-0.1122492365175449,-0.012380275024642133,0.009770418874413168
0.17499159988249952,-0.17627302670911874,-0.02783430590822831,0.008767273459652222
0.11357909291207323,-0.20473715422589073,0.015476969202943018,0.008158401924753006
-0.015980598553562136,-0.13337982803045886,-0.016839298312603525,0.02727091864245348
-0.03501016194989876,-0.03868653710908605,0.001520138098959189,-0.01773895346715935
-0.014762578558540091,-0.034053185927548635,-0.023522069572994474,-0.009595325659925713
0.01773704718533185,0.013764339761492628,-0.024373355276718283,-0.037945549951545705
0.02653553910856121,-0.030301363329612113,0.008851974922625313,-0.021374197326244328
2.272191839305243E-5,0.00809995241831233,-0.007903437626263943,0.03265711605302676
-0.003535794224530771,0.03126361944763302,-0.006160322011238575,-0.018164159442093968
-0.007938625970713608,0.0028028533877619737,0.01151181115264298,-0.005060714308503328
-0.010057525746346318,-0.016328952340252664,0.007622065364980086,0.0026906917989849848
0.01981608724273186,-0.027963157946177587,0.024786153099876224,-0.004481958150120007
0.09567629351512863,0.01634052413392467,-0.023602441239295356,0.009195596750528997
0.12099690044907717,0.04358535180776253,-0.10937509250854927,-0.0560097288523366
0.056442308046817574,0.08925508937905284,-0.05466468973900261,-0.0696499140909739
0.07162791523153622,0.13647566517066725,-0.003436187751195161,-0.09290333734366638
0.052111810749840615,0.1888369035213524,-0.011823303020936256,-0.07428561159697353
0.07719729724971866,0.1628195846774301,-0.037195053758607016,-0.05855860469896672
0.14535275110731297,0.2371700094816414,-0.149049362050791,-0.026884442896588655
0.10615769759448285,0.21561207231977314,-0.12276901826618655,0.00686030448004573
0.08358831587038056,0.28122503584035363,-0.08749104169464152,-0.004181583049067725
0.1044954022777665,0.2211325871835177,-0.033979250998125064,-0.03321168862070202
0.08808076470097384,0.2682987519830849,0.003477155440196655,-0.026663968394143873
0.03578722744587958,0.1821550330581192,-0.022841334738632993,-0.03679935394442053
-0.03341847596610306,0.10691067658470928,0.010729892356699758,-0.01718237713330733
-0.010424593575537478,0.0021538503124414925,-0.01552132340669616,0.01697595612645142
0.08743843083731931,0.03116076708895619,-0.027180203860002007,0.05429988307687565
0.09663707342460132,-0.10564244934934482,-0.06937316765020006,0.06350000758122068
0.1310745733889855,-0.1977510169061704,-0.11556605583264642,0.0665995947330818
0.06997014910812735,-0.2404919483904321,-0.10861061314066789,0.055897441336160876
-0.015306072742678525,-0.21111838709758382,-0.09251626020790789,0.06149948371402504
-0.03461781984651577,-0.10332752174893287,-0.09346207118616885,0.006647599198654631
-0.006755646843653859,-0.014543328537374228,-0.037529336476802996,-0.03789685890961618
-0.02689237177339245,0.029391257810890966,-0.0399859479435342,-0.006684772638503926
0.00536246806727203,0.014891024643107837,-0.0013980073250682416,0.03266301458860389
0.021715850600946517,-0.025880068352983066,0.03479621299320258,-0.03260923129444916
-0.02517940452695918,-0.027867327781342086,0.022032521673545177,0.02670398791478894
0.030346051495166976,-0.03304237957239422,-0.013240175295878212,0.013501515959839786
-0.011986045246758255,0.01569559313658405,-0.025187703761248834,0.03218487725651516
0.03965145900576763,0.008303591278406682,-0.03977096001753519,0.005686688370812201
0.12036008336277997,0.049774775988571086,-0.07099941359928544,0.0207882499807538
0.11468992932456973,0.10338740572734635,-0.06751477484443796,0.04056481413728234
0.10945977985470802,0.06202050423266082,-0.022083063857113956,0.036547263315086904
0.11820654004570648,0.08131845983497793,0.007182466522399537,-0.022786077418562728
0.07400934395531243,0.09794807498185365,-0.014576456692618376,0.014627304817343457
0.037370771669541177,0.11891115697160642,-0.01850623844342895,0.03252540884475472
0.05944361157929968,0.14762819729024093,-0.10941316177336217,0.03936113690858821
0.032188442185319105,0.2596977930582301,-0.05894832693266595,-0.016299432288297833
-0.0011442687253697364,0.3186369763345495,-0.10976224778669137,-0.012724642053322858
0.014867284058004436,0.35479503084122394,-0.13788811334511478,-0.013198847891436676
-0.0024404959484797813,0.3093946074089635,-0.09734794197753134,-0.02489290683069685
0.08002104529545483,0.20382116100465225,-0.13532452147823032,0.02896389511165745
-0.015551774667959742,0.1597338973418326,-0.06118498139530409,0.0474283495783396
-0.01942838609774811,0.11979194722250947,-0.09100330531903728,0.06144744142180875
-0.010315503525229744,-0.014441221245590784,-0.04055886325291498,0.05744733507775313
0.001994790129005389,-0.036184400468904115,-0.025917283346687952,0.013901084369640913
-0.05480915716738906,-0.12480158014185712,-0.07257028457291398,0.028021614695038933
-0.17223833953885603,-0.18663031880611247,-0.055168920443482185,0.00733644266067917
-0.16763533515373288,-0.19115722805591046,-0.04474804879699838,-0.0402234872466352
-0.1144955483170111,-0.11712484531050804,-0.032242551803334664,-0.10042895687510257
-0.05184506223636703,0.012370195316896067,-0.029900424523216215,-0.09971388359450935
-0.024220074265967333,0.037009518380828124,-0.04770460473909336,0.006185190699755307
0.0026901870841865485,0.0028754377317006152,0.001758420654933926,-0.00953242091393223
0.02528128044822478,-0.01418026105423762,-0.006099836186245796,-0.03235098139214674
-0.009002771171848773,0.012948902620202816,0.021703602980434805,-0.025100575405014015
-0.018171787405922093,-0.0492601927064924,-0.030164996265013337,0.025807506148656296
0.033996305563538436,-0.013049837127057371,-0.052510671461202356,0.008270641198774216
0.09583937540499352,0.011440958016585302,-0.038554252631832035,-0.014874695075706379
0.12563790885452208,0.06171613973039163,-0.042537902299866134,-0.011160468624840342
0.10703648716264207,0.034290421691076184,-0.07954928744658794,-0.012924364030695426
0.027984093172103222,-0.029593358193519426,-0.003929638392529982,0.06865091269483303
0.0225336537461808,-0.054422653026042926,-0.005997713404005505,0.07612816427413427
-0.0029923838930058476,-0.11144123274463262,-0.05934199617986023,0.07644239728166109
0.008427193175814801,-0.05727489706756856,-0.06401837597033949,0.04820239767319034
-0.04449093425212944,-0.001098499957847196,-0.0947211595229938,0.04523140885832078
0.014091982029010044,0.045226568133943115,-0.10043037211052169,0.07423131241449495
-0.01441666444783346,0.1697252000010438,-0.15019200703661037,0.06705804207771039
-0.11252552745522221,0.2187680168183012,-0.1744558940290477,0.11256196274050129
-0.13686503830536206,0.2029235329765333,-0.15590105903142906,0.1423067198421088
-0.0459798026664084,0.08105896547753379,-0.10336913730776702,0.14646134033811495
0.10175623263048683,0.08624957594163471,-0.11938479085619473,0.12153255462466002
0.035875537398471595,0.07604137082547424,-0.08731817268266459,0.09916456918677918
0.15327993010621407,0.010899152728052489,-0.06770796185006632,0.06720842962741735
0.10731700432589317,-0.009471868979663857,-0.0630498783460907,0.018574753353095833
0.025157349109232344,-0.025383368835877246,-0.027146768672732136,-0.06546150909329444
-0.13135373431993766,-0.14037444380420158,-0.018021505741651546,-0.047954772088631324
-0.23130123723073642,-0.2223890405128398,-2.1862380377508868E-4,-0.19051250958066046
-0.14102636717574626,-0.12932341518697957,-0.024746778689735977,-0.251244985295754
-0.08006034999952653,0.04170620464819883,-0.06144413737750613,-0.137186064217848
0.00631159182196843,-0.012162645198322565,-0.03656955897747125,-0.05104683890975332
0.03513593726647686,0.006092917714045375,0.01447659338876191,-0.021232224337364658
-0.0030647351159412395,0.034558173402328383,-2.715953969389967E-4,0.0063924051766387
-0.022549909637337096,0.0011945022128181334,-0.023468944214909363,-0.032881218230971385
0.037609002306338776,-0.03670971800755996,-0.03435955213805833,0.016693319985751267
0.07003451306546726,-0.07710250688536548,-0.02533612902218923,-0.009548681248387852
0.0724040863062882,-0.04200147425866412,-0.04951493669113142,0.0030232884700197977
0.10569139301360263,-0.032121252828118306,-0.10486612819800427,0.01215837311453275
0.05279636840397449,-0.008244327020805456,-0.0410318018240605,-0.04509598885556149
-0.018360419467166652,-0.09541542694827002,-0.011016634450168202,-0.019313012085372946
-0.06222500351951068,-0.11772184984602026,-0.027024418142414654,0.025716509099662034
-0.013466109768929958,-0.13249101325161566,-0.06518884546748932,0.0019018915201991428
-0.015305117031311221,-0.11771305723198319,-0.03818455794907424,0.07867671140034542
0.024871077948905414,-0.17056527023344767,-0.04407780256867039,0.02557582972256317
0.07020037524796953,-0.08207085791938042,-0.1023058739483951,0.029518006736412816
0.03508436298304276,-0.025572255680677194,-0.07624199227196143,0.027673882449122954
-0.009728192276100308,0.14480530516549162,-0.15289390107325065,-0.01862482862342526
0.0534038319214141,0.14950206964854287,-0.14468786252690613,0.03152013750975551
0.09756257617084782,0.15065200104332485,-0.13216467074766927,0.07673976891028578
0.2673538699067908,0.10292983155861402,-0.09249124319691578,0.10684642958362536
0.21382904889496834,0.14113923256380106,-0.1460257031707778,0.08553055802672568
0.1661807634871984,0.13680573055930706,-0.10253619080268354,0.07983187646344608
0.1159166271982457,0.1549856104510778,-0.10561812608370669,0.08973861952850129
0.1055957123724851,0.05261053563615769,-0.06255916780771598,0.024260033897878595
-0.09520489550324526,-0.014379315328192865,-0.06588468262449805,-0.032299051994343554
-0.22952981534162864,-0.1360308485216087,-0.00480136043318783,-0.15551034698837596
-0.17065213746814456,-0.12890929969953566,-0.07042793406716064,-0.3062660897926299
-0.06460370453244178,-0.012645523867178142,-0.04363839132022444,-0.21287728637333087
-0.015205424110760294,0.04209024615873024,0.02459316553523223,-0.02152589981031394
-0.024769543095290218,0.015602122646410225,0.013259868358299814,0.017804161272522184
-0.02063007383403027,-0.00513758980109244,0.01054826659266539,-0.03296194499288278
0.02988531943084459,0.015434241988160034,-0.013623608455153105,4.5150565648939675E-5
0.009583786790505283,-0.05616060067039387,-0.010341292707152998,-0.002644979003111832
0.0486723405600785,-0.06088851619602486,-0.04079835525450237,-0.02000049276465653
0.10179813856978802,-0.05507227117218442,-0.060145175754607656,0.009655131367172984
0.06421296236505192,-0.0981785752995426,-0.0765713616185675,0.011217102619380755
-0.004780819018612403,-0.09619293127574653,-0.07949120959232271,-0.06019612880356207
-0.035969846770147536,-0.1740893877215174,-0.028027474094936007,-0.06251010526787612
-0.06623838911926862,-0.21399924756264574,-0.025697137913911,0.026793191502042187
-0.09496944793662646,-0.21486380348325376,-0.042737938550313284,0.1134829528262499
-0.12825898867045896,-0.19560247967634328,0.00495342833487593,0.08580456560302606
-0.039645539696178685,-0.1683093563463241,-0.08993577432683766,0.12821839740625549
0.02666238342719317,-0.21510827671192323,-0.06876290016659217,0.2164026000040134
0.128432282042812,-0.11541099171076212,-0.031671245395548865,0.12468015885950533
0.23865837149099026,0.12841518733157872,-0.07716047497947921,0.0033093957577080887
0.3260520500299591,0.2313781334295602,-0.20770013905183582,0.1721592309583375
0.4134536413088203,0.20833158869780105,-0.20815056216397207,0.27546677507472084
0.31433943521806995,0.22506272757279572,-0.1801786451308732,0.22844093142740893
0.29094077342648333,0.2114794190621299,-0.17340666310810496,0.1813203654549262
0.1664097565619473,0.2403569267605731,-0.15131667543044397,0.22115990621049586
0.12801497032926012,0.15505867146096525,-0.1835209996044229,0.21271507732273628
0.08838157172962502,0.09083399633132885,-0.09506769325581901,0.14628626249457213
0.05158350560124044,0.06628234015595909,-0.06865693968578901,0.0891059848918641
-0.11347716181421834,-0.054799208818016774,-0.08770872546653176,-0.07119267741584338
-0.107300694303906,-0.004882687956376092,-0.05852084169091304,-0.22545376235103404
-0.05468164453998661,-0.005668168293324209,-0.04240243771883937,-0.21131670717420348
-0.031213211944048556,-0.01022700530648705,-0.029126560609749906,-0.03153882814781104
-0.025976874465928095,-0.014565101532728499,0.02801518477498479,-0.002498516417220609
0.007539311597039141,-0.027340373354128086,0.02180828502852133,0.03073762737462873
0.005747248407538221,0.01194015979690912,0.02658084863800198,0.003403883310088381
0.07045719049109522,-0.03410454498095356,-0.03136677746253898,0.010911320752182844
0.07860779515465802,-0.07183629790655603,-0.07461022558097448,-0.017568693263940803
0.07852620221681741,-0.05284349814224281,-0.04178524865428688,0.009549472195522732
0.08015137741695089,-0.09319269122737199,-0.0651459836058689,-0.016113757881782265
0.004492590471035698,-0.1973796294065512,-0.07438847525020018,0.009385663969042016
-0.021571899333644805,-0.32328793221191476,-0.01727554456907171,-0.021726018522645194
-0.13112544118020966,-0.2610801662560464,-0.06653215148493383,0.010991102400827816
-0.14934927375674867,-0.23066410510462482,-0.08623207683785354,0.06924005470657789
-0.1903741459621934,-0.3177936444369915,-0.06704626495076334,0.15426553315360575
-0.2510422018865519,-0.3203137875400528,-0.09453117429815376,0.2696289585768001
-0.27300318072826446,-0.34399232403936314,-0.0819489720191096,0.30813921863220156
0.024179498112254533,-0.16671497181615122,0.02549601706748289,0.18040230025068385
0.4267580666531598,0.13486162177457386,0.031025820254738008,0.0211458522122771
0.4939320524399016,0.24798906699386833,-0.19996983014685926,0.1773389801714456
0.463823714684438,0.2622280589343384,-0.27359759033802217,0.38241934054375093
0.3419958515869268,0.20270843400649066,-0.25066261480840174,0.3687323849620771
0.215051791909213,0.22358320371183674,-0.19279172945712236,0.2831132233037171
0.23317343084712752,0.11623276172292167,-0.1711702498775048,0.24469785964483365
0.16215568208978187,0.20539931806370562,-0.21946920566423966,0.285050742676281
0.17798389410125398,0.1306378108043157,-0.18903058759742014,0.18109944583661014
0.08006331232536244,0.09572492096982338,-0.2169036967342279,0.16562726393047567
-0.01816787355653451,0.10004817227653386,-0.19623757694962402,0.1298003381411456
-0.03299236562473751,0.07444721729420078,-0.11144547356589381,-0.09703570937938705
0.0109221179102776,0.01849479857287115,-0.046814744576066825,-0.14264357297911034
-0.030094606752607053,0.0306446788050583,0.021567958694829928,-0.005444915291814585
-0.0016373700326044978,-0.012121397727620066,-0.019543442739576984,-0.021668700763648924
0.02896896073573999,0.030213549870035473,0.017933439936635882,-0.019665081563293
0.005705748419068549,0.0012329934954033203,0.00403583934175342,0.02201336103385914
0.039040331558051554,0.015411874589431359,-0.04809686896899722,-0.014259072116213715
0.08442469844590643,-0.047912264407426325,-0.04093151688705046,-0.012836316564898066
0.09051394531721378,-0.0967823450247317,-0.01866130871405261,-0.022847236387498217
0.09656849482503671,-0.18170082293726394,-0.026177136034795077,0.061844622944696344
-0.018760033004134584,-0.3368092506124077,-0.0803570333210293,0.09990200854460474
-0.11436051390780907,-0.38211068101184836,-0.10658128392976364,0.1388394092831896
-0.22128878895600398,-0.29295028053508576,-0.06190986707058417,0.08604230627984877
-0.15261797903121965,-0.37057583096577074,-0.06840373672937415,0.12633349281631093
-0.2603651385244433,-0.3348083867139807,-0.0376718061614641,0.1766101712510768
-0.35918918252460275,-0.43579176664470637,-0.10883447095803697,0.16997506781671298
-0.3500535352018969,-0.4445725553015713,-0.13868113058443707,0.14855914033264822
-0.012511200786776729,-0.2369056626798827,0.04993053210379308,-0.018758272957289435
0.4895003062377855,-0.0459950729660835,0.0959381407001351,-0.15210745599130882
0.425472875901459,0.06323678025577498,-0.08604043416432472,0.037011574674818026
0.2402880344597595,0.12223346836942317,-0.09604035151145962,0.20976951775141064
0.23575305852742906,-0.0038845732780581985,-0.1076058142849539,0.29247346915749084
0.16761977367382916,-0.011594227918192668,-0.14324138932507702,0.21354480362365455
0.07758953528034539,0.07249768262448615,-0.13797703282520496,0.1664376705355514
0.06954502400469148,0.08826522981617023,-0.1648312685958123,0.16705015199028886
0.05120630605676057,0.08659863007264273,-0.09071577164353692,0.2087731532045016
-0.027326752148360993,0.12540951825528893,-0.15976966851147797,0.2387349616648089
-0.08569602363347135,0.17875356031530798,-0.18934517153476926,0.19001165213210627
-0.01046254628897202,0.0724381918937962,-0.13381555353407484,0.03452254895276389
0.021369470569970062,-0.0015716315880442485,-0.027224047762970237,-0.05818536553431309
-0.008729677286375907,0.007227111497738479,-0.006176687553320142,-0.03016134662945365
0.03196911538774938,-0.028157440228719414,3.73565951625383E-4,-0.007575559689531959
0.028942296139284392,-0.029241510453405204,0.004413776396873787,0.02405747059716576
0.041399920124285935,0.014807827969067685,0.0069154429522793525,0.0318974347538505
0.06112349261156681,-0.008847213812395631,-0.04284046107505343,-0.029798490562126186
0.06473647513462327,-0.03507078060097242,-0.004889232297535562,-0.025496193774574658
0.055421633572489394,-0.11304019819552333,-3.17289176681244E-4,-0.0070173231134240885
0.04315089355010647,-0.16855601305724174,-0.06818568974315285,0.10063123835571436
-0.05838840317304601,-0.3285331453320767,-0.06423481916103065,0.1100420076866609
-0.09818243813668133,-0.3657723847308763,-0.05661120214831377,0.09972096895015697
-0.1567584593458052,-0.3248634902639163,-0.054354885649112984,0.09228969710635883
-0.16351906029342042,-0.28647465750543677,-0.04606801260938169,0.07263534755784572
-0.24970036319002453,-0.2794151025036576,-0.07988032416960687,0.07300905806236584
-0.4102599170074802,-0.4521063968810448,-0.025171912514343604,0.019860345402210704
-0.3594307639834347,-0.3810814497724754,-0.17280133923060945,-0.05539475247956675
-0.16710707422170967,-0.2072968287068685,-0.001937327451627274,-0.22345747470467572
0.30198908219579856,-0.3282278015714267,0.163422062059194,-0.2732840946556245
0.09584760534349286,-0.2619058139886511,0.009329806107344213,-0.12448856191051885
-0.021046611231667674,-0.15865634607714021,-0.02504955742650646,0.14127307821456364
0.03122641865347873,-0.23469695584058467,-0.03955330409539931,0.2273817842886242
0.0270840543956983,-0.19344131628652395,0.010579768312759147,0.10720966338766923
-0.029514784875427975,-0.06590303971893467,-0.011749855494958961,0.051489509826024696
-0.05827853598472653,-0.024050982274201153,-0.00549295889245149,0.04857286278243185
-0.11841423242170379,-0.027155001596762617,-0.013583327273504683,0.09243030959925687
-0.18297495191063554,0.08498209113273542,-0.08633421601187316,0.27445739326294394
-0.2209304588840715,0.10013152281851322,-0.10080761884147817,0.2803112109620732
-0.08528305342653289,0.05296355871924103,-0.02006589277314388,0.0660239848592562
0.006284062891674963,-0.006503275906370995,-0.005353873849224141,-0.018802814852043843
0.02526194420534234,0.001249887846629224,0.02204451069649696,-0.036082129270893715
-0.019221808969562874,0.01894181483699325,0.008697176339568164,-0.032371878872456995
-0.023867978620849214,0.01678746890744929,-0.03239823618859135,-0.02555381868185109
-0.008651877722769603,-0.006831888017764967,0.009582399134749174,-0.003347271271252864
0.0019468594453074905,0.017849520207340864,-0.029631092021293687,-0.023420105462023673
0.07455891257414766,-0.04319338116946081,-0.0046524904459476655,0.018885815268001066
0.06514715220933967,-0.11519620087315825,-0.01319399668099378,0.09413045831517351
-0.011243723506808422,-0.16718441684501642,-0.07992051231552881,0.17134272953352286
-0.10404900086787444,-0.23438012567038802,-0.01830445082911936,0.22126583764944344
-0.14015829074445088,-0.23584295233588462,-0.06181939193597998,0.10925283183741936
-0.08361271980591191,-0.19588259187181922,0.007806778764699078,0.039766946428796766
-0.1716911626401586,-0.15827650615635439,-0.06004413651175955,0.051804343927403844
-0.23347653230822948,-0.1936047222665357,-0.03288500742729968,0.05869868968259693
-0.441761550493976,-0.2520797240104672,0.03243734990075559,-0.09778770114651224
-0.3843017878187167,-0.16573600275043393,-0.1604592556963908,-0.167658946953833
-0.08950777484130444,-0.15564617422838822,0.08564727927449238,-0.253222346362087
0.21173405637383724,-0.37344531014197085,0.1412717700406631,-0.25800210055332334
-0.06447020631494717,-0.37418376028881434,0.009354292468232283,-0.06292805084841852
-0.07424435515674872,-0.08757873635135272,-0.06468902015388928,0.18225443048208784
0.045061755880922864,-0.17109368182441254,-0.03338824793870001,0.18392174873012332
0.014021713349094345,-0.1770428010173733,0.04621118590779207,0.033602022002589965
-0.020167220568903837,-0.20775397422837075,0.06306198909723225,0.015832444516935686
-0.0035315350620117474,-0.10017739608614379,0.019126203434168716,0.05556767126947343
-0.204117915750891,-0.019332393405873713,0.05948572229354496,0.11685451305028363
-0.22591133394368418,0.016277532948372895,-0.048774951383222694,0.25961900369559043
-0.2310475556429962,0.029014163781671685,-0.059377626360469456,0.19864632344710018
-0.040016361061407775,-0.009413098478912587,0.04495480306455508,0.05627663328091133
-0.017298629590814504,-0.039394402277971585,0.01840894791505559,-0.03288785767639763
0.009434582533936328,0.004105178084696478,0.02198174109743155,0.0142856232369802
0.022644879153126123,-0.0038166918288212496,0.0093647307141797,-0.01126073598744987
-0.025988822085654593,-0.02169711748702599,-0.0016394483857174367,0.009347705513633708
-0.001314466977813956,-0.002800088620865325,-0.015688222558069908,0.03409345991985289
-0.007175160647496697,-0.03772432170054064,-0.030830344649616905,0.032243420814902925
0.06258604556704066,0.0035272278270491266,0.033547363803912766,0.015618501900405334
0.019953755392921213,-0.08077913563726372,-0.008277261831227532,0.08968349515052239
-0.03057605318229073,-0.07652652135868508,0.010025295943046107,0.2697125067442152
-0.1090307933519938,-0.09044638890440929,0.03586157530469765,0.23547988708114773
-0.1238148056623248,-0.04455539524792788,0.03921187734616201,0.12002698301561031
-0.11135002978990667,-0.007377016066872298,0.00763313270233985,-6.483619189083859E-4
-0.1865115610046399,-0.006765914064169686,-0.04266965035194362,0.08284750945102384
-0.3048128005015533,-0.061163547532929394,0.05780059584397797,0.019565134002895217
-0.49977002841937085,-0.14664971507653962,0.12398571143432208,-0.08638379475302914
-0.3078765481994629,-0.14148487094720114,-0.040948272723535996,-0.19375786748394805
-0.11999959343484799,-0.1787934758636604,0.11940356722799526,-0.18414381360146562
0.09971750465887244,-0.35078411891496064,0.07444356609967079,-0.229615006989763
0.03497168767261648,-0.24176633478544468,0.04801500299860241,-0.038034475077646346
-0.10609538538009378,-0.07036049772313166,-0.045486612840102476,0.1437660976177205
0.07972499810156344,-0.09295243127619578,-0.038214488341894226,0.14754136604228116
0.22953411094134157,-0.07332743081008168,-0.042175299643749824,0.07312962406477186
0.16130705247178317,-0.17355321907093718,0.027228462431330983,0.1142146869687568
0.11956454231877647,-0.0902527504287316,0.04950759372897719,0.1449766993513479
-0.009764099192137572,-0.13981176796445063,0.02027714583241022,0.1523155145430397
-0.18083867171748116,-0.07828234693406999,0.05686933975747568,0.25731505335478577
-0.17277549582510865,-0.0047399942948514765,0.005174415928099988,0.19365581301305193
-0.03545181523476224,-0.06808101417838108,-0.008515051815241393,0.09401729887369459
0.0046370867194101785,-0.018467717267203018,0.02078978034274273,-0.02609026552308684
0.025198704502097692,0.018637458772875835,0.01973524150257752,0.02555468900689207
0.0038654656317929767,-0.029025238480604437,0.025617643371941296,-0.0075008899944401545
0.015752578057923995,-0.03303295183516648,0.011686384900661654,-0.03371030568658037
0.028789397115735974,0.026333303504668344,-0.011992952448877377,-6.654820528899934E-4
0.04252952555102895,0.021633567850704614,-0.02803927417519669,0.006527878288843776
0.04098732932753704,-0.012647536172103931,-0.032394630508435635,-0.03762983057146668
-0.009799736117355974,-0.004228704040848162,0.0029790222737610325,0.05295942923854565
-0.07123103948571062,0.14681002454105804,-0.06828136633661076,0.2583683692558911
-0.1356907351961373,0.043366903547806784,0.02729363547821608,0.2870354553908399
-0.1727268650625237,0.0042741866792432946,0.023377890111012056,0.18481038709138503
-0.21132392728397564,0.09960049018872323,-0.01858098801969646,0.12046457115550221
-0.22937834388974046,0.08306093654134705,-0.016850348708276945,0.08633628531611784
-0.2828998343724182,0.025548768300433594,0.04350003582612205,0.03886053602790244
-0.29906813674623967,-0.2231102225438137,0.11295768560751523,-0.05849766019654284
-0.20973141633377793,-0.15097778035091855,-0.04014966765500654,-0.10101706225651942
-0.09198954157859908,-0.0924559306207102,0.11806965241509394,-0.2561030624047235
0.12421611773704413,-0.23943939323430993,0.1639989721591288,-0.2934005962871466
-0.039982186595329566,-0.12437073196620847,0.0878131107927597,-0.05274054037854557
-0.10720051063193436,-0.12872631554396605,-0.06523568350095628,0.22819243744512238
0.2026610840741023,-0.21391292241324322,-0.025949262670590074,0.19582635085198855
0.27074209912419017,-0.07743403665094126,0.009358591074051868,0.09729560054669564
0.2650607564095378,-0.004590701433779917,-0.03204200462033869,0.16951105592620067
0.22369330797569956,-0.01059104976547847,-0.003941421785450549,0.1847930097685275
0.1518870039355631,-0.10903634514207333,-4.755975209742175E-4,0.08195202800746676
-0.04888298498940731,-0.08698444026523533,0.05493834509527368,0.11394600459434856
-0.09216120071293901,-0.05186776703402296,0.04348454292128376,0.13419450305799788
-0.04387643833310233,-0.01140782670591632,0.04170503591573296,0.04753343647920535
0.017497811466934108,-0.020170187442832704,0.019074182580867915,-0.05343619062850959
-0.0402791945786114,0.04605442718406414,0.012182169892850907,0.01665651038343497
5.46751970572137E-4,0.032149566073310626,0.012274125141092104,-0.027183129291125596
-0.020785257368997886,0.008066549017757106,0.008663813231890362,-0.005111218591390041
-0.010429281327488821,0.01568245588676359,0.018653459879355634,0.008410367432936822
0.023475512686780397,-0.0020851575471109675,-0.02461188022165121,0.020658532160800113
0.04542771577016015,0.007974283928631308,-0.012444589284022324,-0.006766750373319716
0.03783221328070151,0.07768267668292932,-0.033840161867155466,0.0026745097434274718
-0.1745603361294833,0.19499963534180806,-0.046236953947560035,0.1926066951507248
-0.19148965724902195,0.15224207988843427,-0.010783179301766577,0.2378461929000563
-0.23024696719540122,0.062217279007606964,0.0608537281985604,0.15678366367933524
-0.2012149086591072,0.12755273524050795,-0.00454123058456409,0.19638251209009758
-0.27931888034964414,0.09095254780844303,0.06835004934763676,0.05231776502284473
-0.2990409973983206,-0.03861400066182654,0.10366368777269093,0.07611762144408113
-0.2950374276307205,-0.225560881437097,0.08789146470254236,-0.0718627012057793
-0.288495954004877,-0.14724674590697223,0.010533428264797228,-0.09823542919323813
-0.005436498487044707,-0.19721772732326132,0.12520312401774025,-0.2504550993092421
0.04652823777448327,-0.27112678486793923,0.17477394497241566,-0.2523403993647878
-0.16121821392758945,-0.2603139771483937,0.036132199081549056,0.12175904898654068
-0.07102213832812491,-0.30907875903768744,-0.04554094491849254,0.22567223235888173
0.17056697924769287,-0.18867307224571295,-0.03953483162816884,0.0954894209645539
0.17781104586363103,0.09438558683702367,-0.02973237952596584,0.04545601508953326
0.218739343939438,0.16529908875394922,-0.0331834058839864,0.03407443647813978
0.210276794131716,0.11484310192119582,-0.013539418239343622,-0.022964564274234114
0.19212259759594277,-0.031377755011649855,0.04526671815694881,0.020229561508650892
-0.0010131907002485698,-0.06389110778057949,0.036277459554748634,-0.02783860132182275
-0.10048815890045831,-0.042148551770808645,0.024333343776718863,0.002130817684160677
-0.10654121528421727,0.033408965835702555,-0.018696940577379587,-0.01088528160179137
-0.06451287478360719,0.10271889086216146,-0.02779877186675681,-0.0280020367345065
-0.037436515459522396,0.024534459751149786,-0.0131489261967591,0.005393090253362779
-0.017589921251272372,0.02486710323492213,0.030064084688109283,0.0011896804145376265
-0.011371078004184323,-0.005777542633770085,-0.028409908041281254,-0.022329104267625098
-0.017889223498651786,-0.02930678260358983,-0.030052999965032336,-0.02504718747586767
-0.005732014682235604,0.021022867549794023,-0.046367180393194304,0.010711228307755975
0.10542385374645674,0.058211249566160986,-0.07076042094413004,-0.08869469644541847
0.03433965585459959,0.12215657260752247,-0.02486210582208746,-0.05256427759098248
-0.15009397772044333,0.25345765441253776,-0.07363022532611055,0.06847185704591435
-0.28544765239742165,0.17402390916074287,0.011868448592556957,0.1368044004996446
-0.2528156865407198,0.0992062635393804,0.05734702623934909,0.07954867842263616
-0.2659797111278875,0.007641110228386013,0.05637815265135419,0.12482923253362843
-0.2654907033452745,0.0014847722051035653,0.04895339616937447,0.044438407842304
-0.21281230595044803,-0.21873490442593527,0.1254209193402931,0.009597960891029352
-0.33296009441621405,-0.2406175627062372,0.056746864326232355,-0.0443357044514824
-0.23795627885214857,-0.14041956887475407,0.0480010964996647,-0.09249035100930038
0.015078622022674456,-0.24918065241869472,0.13337756314542798,-0.17308241053357085
-0.027778809934874592,-0.2499285825053095,0.11608951514800638,-0.1605124929336227
-0.1878364871830416,-0.24541370419213182,-0.005243631111802019,0.10971161393141167
-0.11877664919522185,-0.08215903918209244,-0.04587577857886266,0.08179574670002057
0.01560915247592926,0.12007705982988995,-0.062353730948966714,-0.06333556526238322
-0.01958852527965353,0.20588039906212507,0.02226519319136828,-0.10920432612241265
0.09199073090407552,0.24753156376811675,0.04843201435323883,-0.1731784702490518
0.05499974084572033,0.13465890482099832,0.07078603511745253,-0.1418030214341005
0.10237667423195965,0.10095820122142256,0.0574951497171739,-0.18898548320976338
-0.021613191873642013,-0.008142386433420919,0.005639363963791698,-0.13491919848280912
-0.08102611550045374,0.05452710737833982,0.010848135846730049,-0.1083734809838843
-0.11306963024373437,0.17464518008589872,-0.03336557170293948,-0.04839069215282953
-0.0783614019277678,0.09589206245906756,-0.05580622154615255,-0.02118997531762256
-0.0282756390327572,0.01955636423478055,-0.0168010868400145,-0.0181271491373387
0.008294860809926178,0.00788630096198705,0.02376990874769735,-0.025804684049256066
0.011344233856010697,0.0014662244360642168,0.022337763749711928,-0.021849431062663724
-0.018537742319690895,-0.028323985417500804,0.021551825092551213,-0.008621330313896149
0.03408623741356841,0.01442577233050191,0.0021612026574713574,-0.023570139848526364
0.17696489919254374,0.06301420059606912,-0.060737340125237634,-0.12673241032087088
0.017052225107270277,0.19703546086673138,-0.024578761178326327,-0.16784133772667417
-0.1458211811871206,0.24443568340903463,-0.04520516221052978,-0.024530210026784433
-0.20651361278364247,0.18419889941595152,-0.019871824035922827,0.010634779669261532
-0.23328632892916418,0.08658644446551354,-0.004503105514708629,0.01047059065853532
-0.2990482218963663,0.037838005599159806,0.09997650742964588,-0.07589656351345889
-0.3244064814280596,-0.038666491166363816,0.10500631169036441,-0.15379250249269477
-0.4075559784899411,-0.05757167816866597,0.20870633831054158,-0.3141039641709812
-0.4087316761299381,-0.0949498793214246,0.19805200304416481,-0.3174247931249356
-0.18362314005623961,-0.16778985114236444,0.20300962216251028,-0.2693502563793655
-0.03447207484717925,-0.12463757466600989,0.09403365031585785,-0.2177457602984739
-0.056094084172324817,-0.16868369609921066,0.048769780001405624,-0.12027891409370363
-0.16277195214584392,0.0405300132319434,0.0319318406656319,-0.0903116860110261
-0.2006963815064667,0.20406225645577336,0.09796950507098139,-0.26553033252326347
-0.22634748812847352,0.17893457563437554,0.06836480690039938,-0.29648736345163024
-0.05865308539079963,0.1651545853087174,0.10793086400912824,-0.2820181050965734
-0.008083167292486666,0.24342416710994025,0.0691799145225105,-0.24291778089177224
0.03695488704413516,0.1727400840810016,0.09860635934266809,-0.22335705803068232
-0.039414164606474934,0.19664302799168798,0.06948131386780222,-0.2016511247571981
-0.07727651571169865,0.13736574442677055,0.040597294634854494,-0.239883848684155
-0.21323939514519277,0.1857113717798311,0.1438564874734148,-0.23822184509130295
-0.14492507393713452,0.2931483426041693,-0.025257072445787,-0.11853501160049487
-0.07138883655799493,0.10859476508465483,-0.006246351451028924,-0.02312804488115475
-0.03661851703339268,0.03468135062469137,-0.0028913010471861822,-0.021598553566379103
-0.028552120083336765,-0.003029354879055407,0.008926984731267509,0.03462132623853889
-0.020468937382899326,-0.03355463972391562,-0.012050606921986834,-0.007043011555162597
-0.022640945765367224,0.004888532230191938,-0.03324920144784453,-0.004104508213240256
0.005441762068445988,-0.008538085090444018,-0.024161268073182286,-0.041246818264889934
0.1864434602291371,0.0949722627048454,-0.00773454465273247,-0.11189439327750927
0.14079496001847397,0.21281687383533768,0.025619134346891895,-0.15884606124289777
-0.05779013172129295,0.20300972224262753,0.04791445131257282,-0.1313165405010505
-0.16928235883668905,0.17619140821026105,0.017079993075839222,-0.12401308250748769
-0.1149973182733071,0.1588987566373329,-5.6825644856442E-5,-0.11722731475988692
-0.13826071507937998,0.07231133075510915,0.031076686499770825,-0.20407416785757246
-0.23750920440789156,0.2147926202405729,0.08386937994750085,-0.34305136249763024
-0.3659730115667208,0.16820050199737277,0.19726000738876254,-0.41503442721135125
-0.37337210038769875,0.051807325763121456,0.27157645015557724,-0.469798283087607
-0.20277292085697257,-0.03204148022097417,0.2477172346103023,-0.3179441408043193
-0.03575163755724176,-0.06747134764364898,0.16631870635851334,-0.16414130308017583
-0.020117913953649275,-0.028841232052485885,0.053308105280189,-0.08884739003996728
-0.15199055594168334,0.13921202825093076,0.09883020186610368,-0.25657434844813537
-0.18030936950273704,0.2794933637592199,0.07096230609909362,-0.26085331327225897
-0.23341379490785616,0.21127861546601168,0.11417779611666114,-0.24553317990372792
-0.17826992313402626,0.1837731829251229,0.1314263110559723,-0.2042410247297065
-0.048332165999476255,0.19845024848077847,0.07925280005275978,-0.23132855328005164
-0.06693145167727649,0.16469004733987352,0.07379534229526304,-0.19577455253668147
-0.09481043690812686,0.16456442627443743,0.1196969294896274,-0.2072723495908833
-0.15417407778980205,0.21748329311109368,0.1019074097199279,-0.25483779435027964
-0.22412709869675695,0.23613404664347964,0.09740412235911125,-0.21426613695780194
-0.13549652306472426,0.2540861699192429,0.044193910453529106,-0.14282819792967968
-0.08111999733636001,0.0992900576142377,0.008448199277328972,-0.022345583996993164
0.013943460184930891,0.044936209409363,-0.03728697357894929,-0.020401657658986667
-0.02799152679729724,0.02202315090487666,-0.017698227164078623,0.004926365980779864
-0.0042934338272899025,-0.033005507637716876,0.002094222706936051,-0.0329831455388624
0.010350964515384623,0.027394092552892386,-0.016398687816642346,0.004291980448773273
0.015953248137468727,0.05246965105439466,-0.04025329615522777,-0.03161230144633637
0.21474540357651856,0.12314517294124605,-0.044958239950547506,-0.14774876272810353
0.12600489038857943,0.3066483310098902,0.02838172109880246,-0.17138209194842763
-0.007117155098466455,0.2741775124621664,0.03486547659422255,-0.0811230358845022
-0.08928250214262679,0.1799494295187675,0.049804281952545534,-0.09682704186926022
-0.09589642841513554,0.07248176532446186,0.03430967477912894,-0.21889138170019695
-0.07752783548787044,0.0458157630523278,0.035973813492622006,-0.1713586084127194
-0.06590425642665337,0.1359044093468949,0.008887463426012552,-0.18943629891999839
-0.054155127628064195,0.137384977469073,0.05753151644604812,-0.21951248534972384
-0.029020733240366293,0.036991454906251255,0.11599130793925305,-0.15182037879654317
-0.09256029594156069,-0.08056585408461965,0.11255219984200406,-0.08504487069395004
-0.016844124311913473,-0.17689364693929782,0.1276415120376093,-0.010989238422815193
-0.028184409283287762,-0.1257602234588654,0.12092895636476916,-0.034602340493282334
-0.09941900446558365,0.07075484207455017,0.10311712455562506,-0.14420049236839197
-0.13675958930185939,0.1355464436433479,0.07353942462958582,-0.12916350319112285
-0.17328340985163582,0.13233135478043997,0.04459093731341941,-0.10873307941038655
-0.1193163573827284,0.16164252549023062,0.09635534461870192,-0.16443793694299172
-0.18621171914253062,0.12427617016221296,0.09788315517711484,-0.1597611689728934
-0.15037767067316207,0.11697118087873108,0.05072593110007576,-0.1681234665253145
-0.17847047787494527,0.15610189991909765,0.07161387853730554,-0.231943499145564
-0.18177291805369855,0.21894811457560395,0.1210192508088231,-0.23069258401540496
-0.23174210225711253,0.2695726429590123,0.08800298117261288,-0.18433062138719356
-0.14415452279240154,0.21661817934719987,0.01409611498199275,-0.12310830526864779
-0.035609951994617514,0.08231351016372203,-0.015274157219695201,-0.05214931806190827
-0.033851147494034214,1.3840019214738064E-4,0.0326140140628108,-0.007081364507263267
0.015756126148451354,-0.0016234422519508026,0.009435334149292443,0.015372662022369352
0.029668335851160663,-0.03553411730689623,-0.009222300725564925,-0.030324150849582534
0.03423909440736953,-0.029906851459029223,0.017757953640830448,-0.024335821205528834
-0.014613993879237891,0.015960659038294425,0.023607428591186967,-0.04150731545032985
0.07970217993000765,0.1812680602534277,-0.005275428234498146,-0.1347835657822102
0.07844739897044872,0.2758617403506154,0.038372242371475206,-0.17152508953504678
0.023783375439709552,0.29998034921939326,0.0879843958924277,-0.09192769760258174
-0.0021500920141439327,0.22918906657455093,0.023884814026964088,-0.1366903550956814
-0.11062471347089577,0.12564471262704657,0.0527775118637362,-0.13681772244875012
-0.10291276670103577,0.10217866748957603,0.02049221401861369,-0.14709345497658444
0.010834859824294758,0.055378561142855935,0.0011333402073857907,-0.08408567160064902
0.012330849719386324,0.032132664661993826,-0.017743753276522438,-0.059805218928323516
-0.00805525473336566,-0.007583761982713424,0.028832751541961313,-0.057226415878867315
-0.07851119990504864,-0.11781988263644387,0.09662376875325114,-0.059109927854596775
-1.3985958260414802E-4,-0.1936540746547051,0.20994389403801783,-0.0496941183712678
-0.009409312390283647,-0.1613410047977141,0.15070331827178562,-0.056758371166464636
0.006278535229456421,-0.08201395322514159,0.11486681213029673,-0.01544164154838582
-0.03546623295102913,-0.04607676742764017,0.03132602684522133,-0.034066680156993864
-0.11553401194780055,0.04134276191498938,0.09774951652970443,-0.10683083954791547
-0.23712469568075545,0.11245926875686432,0.05007055627597399,-0.12315494785130215
-0.24879074940810125,0.05891161719182744,0.07203174532738886,-0.12010368744641775
-0.23917339688669687,0.08561288270608998,0.08568873431619721,-0.18455049479707528
-0.3221088051333762,0.15692308295242874,0.11308230901017258,-0.18990574717019118
-0.25036011665099084,0.1975360331537839,0.1983001421301146,-0.18388647905901098
-0.17475193502360742,0.18064488187449992,0.14796529827606947,-0.10272311755452442
-0.12110037788469998,0.10075993093444542,0.06622306134650288,-0.07794761695156877
0.007613739678157472,0.04902820238213019,0.020551488400102125,-0.01721540819467445
-2.7938791055396754E-4,0.004066563801774093,-0.026528683274974398,-0.023098585947985667
0.02574311357128321,0.03336060112187063,0.010078930351241914,-0.029659401574150108
0.02329933228034145,0.03021952929182799,0.002786312570362658,-0.017070791724697807
0.022665824401138762,0.011478412225055114,0.008543583558011608,0.035661248564751065
0.04383653218113647,0.036501251073007356,-0.023189435803939045,-0.04427198678718626
0.018883657784777543,0.08052390810053756,0.026831722734322033,-0.07636777730759074
0.05210728836354631,0.26867806208643014,0.022350984093571894,-0.12378467728027871
0.00818278783687552,0.23960693345833817,0.06213498938117073,-0.17149673748037456
-0.02550720663591351,0.24942847558993175,0.03303549491153498,-0.1101233217306059
-0.009666571154431109,0.1856898866747836,-0.014892623236470634,-0.15553418796076948
-0.05894714079933091,0.14686510007947298,-0.0016991686713355549,-0.10484994911159413
0.051561858695454814,0.06885947559964788,-0.027042229651283563,-0.06549576565962839
0.034922679592125916,0.05264418057650287,-0.020949215973649724,-0.04550583403373792
-0.03957501202188769,0.09116179125693087,-0.15046887546124296,0.007615375430160434
-0.09792848473461276,0.09429036400099933,-0.11396087849051853,0.02527888982082397
-0.11715513157001876,0.04494165028312092,-0.07636465487448654,0.0554852716750908
0.042756685028478805,-0.09253815297173447,-0.025569234808754122,0.06312927440409365
0.18341801975425737,-0.06251225716862521,-0.002237475768193821,0.07350789004007906
0.0064063018193948424,-0.05411625300959114,0.009355190055165856,0.028487248644288355
-0.03428275361186834,-0.03676948478276538,0.032395248683434484,-0.0432291091203043
-0.16657389238005846,0.026937244667401817,0.03336856369313157,-0.0642200121798155
-0.2362546351232987,0.00627694494663939,0.02942269599791157,-0.1334762451374674
-0.2817456810613965,0.05683034162670675,0.10510172704622346,-0.16874134252665032
-0.29878648348377446,0.10658438473979129,0.07976430136929907,-0.12502689272696058
-0.23506005546538047,0.11628292920084712,0.11959249119889974,-0.12516026066623476
-0.14353917348328937,0.06902055502262022,0.08595818004962114,-0.06939932278034017
-0.04118911008759595,0.08109359772968086,0.012247027193435022,-0.01648309727056099
0.01864561721344667,0.016338495148181312,0.022962402729974442,6.292554350953112E-4
0.03215215748416889,0.028516471047817016,0.0011316155304017066,-0.03539533227825384
0.013138601844456881,0.012540606236208635,0.01360430115228599,-0.01403828371433755
-0.033300370714229935,-0.017025739123136586,-0.003191927130548132,-0.022733380458147354
0.027445179030719455,-0.011423679652337908,-0.0324195577599051,3.254644644956062E-4
0.029787725169193036,0.03728437467650301,0.014998501042585684,-0.005711138045976266
0.02418930371095873,0.07891996681926891,0.013213324254955939,-0.07458975965427551
0.12097779237235073,0.10409422389479274,-0.008980563027761502,-0.08397761856057802
0.15793959049727188,0.1440904724773629,0.016921485027612166,-0.13237998728579367
0.11384869179530402,0.1279850114123702,0.033390134052023894,-0.184463866007169
0.14924308499839298,0.08146289804264051,0.06929104983288188,-0.14081015029115224
0.040202248176296654,0.03899464369255543,0.10757450878421759,-0.04596358814963999
0.004240244045202253,0.025902018779792795,0.1138873662989277,-0.09130841653346021
0.04230195211287092,-0.00799432449551374,0.08670753690257454,-0.08373191423073693
0.004433475868594964,-0.013695377792859028,0.058466677196028334,-0.08049610101729572
-0.04640508719999439,0.009469358197733297,-0.013209042491960199,-0.12494062773002315
-0.015486960005836825,-0.003852232732078701,-0.023288154661748307,-0.07639037500440363
0.010116200006918857,-0.11046305721436751,-0.009908090735863814,-0.01487106364696626
0.07306110551546036,-0.10442107018748235,0.007649529331738791,-0.028686882182389035
0.090735892145669,-0.1584082962655647,0.02977097735489056,-0.013968236900725814
0.09195163553997665,-0.17628007895375677,-0.05392440740657247,-0.01154633622141147
-0.07266171232454956,-0.09705496846089401,0.010264063940721402,-0.0705770026004388
-0.224369021961601,-0.08047796857243016,0.00796877261163166,-0.03737335381598814
-0.27813209799995964,-0.10059037541565385,0.025192040173380524,0.024066134404099153
-0.19360133328766638,-0.004698835842894051,0.03919115214464655,0.0012159310439999397
-0.15780741650160293,-0.009201832191214397,-0.01790839278587112,0.00410812297085956
-0.06593492471380101,0.02589770580320695,-0.007804944867854125,-0.02310883362947726
-3.892142537809983E-4,0.004273983848050301,-0.025749657327411846,0.0259278960742522
-0.02898294742259472,-0.0356163541237738,-0.028826212914202762,-0.013647117538751592
0.033581784543595554,0.01010133720668774,-0.03026411954060333,0.01671755133177333
0.029225677260588848,0.021518362873138616,0.03033560237905117,0.033897160711792496
0.026104680952476922,0.02117735275816232,0.003786098868827567,-0.01355935050037348
-0.02874243850236014,0.002720615274228469,-0.024901001023054876,-0.018078683728739487
-0.03384794527831092,0.03165354634627693,-0.008167838202677129,0.020007071249836274
-0.024147533995600216,0.022804757008191966,-0.01915387704587416,-0.00939497879855702
0.08099232635424639,0.007481974133299666,0.007068462321072658,-0.036499491913231576
0.13119684542013033,0.05807524133777619,-0.06613903313816773,-0.055734256549350644
0.1593107952015317,0.06326855017051822,-0.07857614265153069,-0.10163448948176168
0.11123403473546199,0.015385617601492598,-0.02853160180317141,-0.07973766919386327
0.1005171303514854,0.01824253094026144,-0.02335766758634296,-0.11470863526379084
0.04067200338938645,0.016757479998763532,-0.0022754583408608827,-0.1424001294941887
0.025299293146929476,0.09122521663376877,-0.014478907213979804,-0.16898404603750639
-0.010913304556243416,0.10806095724544089,0.038910656935619306,-0.27099843033834525
-0.06835721037531974,0.0816552125624382,0.026048702720153322,-0.2845282510298818
-0.13108708131376412,0.10437510707417144,0.08779157928926558,-0.28497572948303806
-0.14041075056257538,0.10008723945370684,0.03974018985861609,-0.25334208633014116
-0.0936030652451746,0.04282633086394043,0.07536991618080331,-0.18093849859647632
-0.07552514173194426,-0.029400321489190067,0.04179680850573846,-0.05333977018328364
-0.054120024538607286,-0.09155222382470841,-0.005381210109165336,0.07280160417521529
-0.0991596962387335,-0.17319623167296216,0.011382623292389428,0.06573598498835562
-0.1090861767255355,-0.16312801640668106,-0.04390407356886451,0.12712159038241477
-0.12113147160134986,-0.1593375803658312,-0.09946630333999962,0.12106361955125589
-0.10803532028195366,-0.08771324114028106,-0.09223455056390217,0.07542985886883231
-0.04007849105640918,-0.02183576462110671,-0.03483788778401692,0.028436785512454172
-0.023041711380031516,0.01440371544449481,-0.03164497947246573,0.03167613373829522
0.023599829957322595,0.01802651455817316,-0.028511718615969912,-0.006066113078031173
-0.01950862740621597,-0.01409035212061679,0.0013338366904712942,0.013709809438485423
-0.02271918758370447,0.01859392158164058,-0.014088331355568124,0.006231031044239844
-0.006610454769440666,-0.021770527233620003,0.023240248726142665,0.013358976475088845
-2.442394470734549E-4,0.023393242490961814,0.0177771018285814,0.024798984003131318
-0.024132860102507685,0.030313893507895526,-0.011142506358208903,-0.022997266652458555
0.005603780652196207,-0.02834011902498018,-0.025265930506719436,-0.008178925699851512
0.018872229583962497,0.022815151120878906,-0.0010517637758337326,-0.03319900534179953
0.04218788544791223,-0.027234278703716117,-0.02273290273243552,0.02679437116628408
0.027286610822330814,-0.054464448838862575,-0.020680264386646174,0.0256083274673677
0.0860485789557209,-0.04569456370910774,-0.06943361056126922,0.018816514072005873
0.12760007657500302,-0.17562846457601317,-0.09767128292548631,0.10044230756567167
0.2664464858339685,-0.1676552819151857,-0.1421929475356182,0.10451832627705128
0.27317199018946714,-0.10574354781693034,-0.18442551968055804,0.16613420804030293
0.25285711392059923,-0.07884638834539805,-0.14944212736533774,0.14486709522408003
0.2548026394345755,-0.07830256935247698,-0.21960330147451732,0.15120479828345632
0.24998671080869617,-0.1587391428712254,-0.20804311783209986,0.1452693114124254
0.22177585068601438,-0.11391062882175362,-0.23734017135042595,0.17898496721880863
0.14042224975135711,-0.08987181952873355,-0.21840646869318803,0.16089284603385637
0.10863538746326094,-0.10724357686085516,-0.22598547249931414,0.146330586506712
0.03135803123498523,-0.16080493381770794,-0.199497721455379,0.18717688109642316
0.0110455713845192,-0.09363500850437476,-0.15152594114680235,0.208398815734331
0.08321056397124899,-0.12649067200962597,-0.13976044346614516,0.17893140925609993
0.04533145918993531,-0.11653737166097715,-0.15161855017160697,0.11991684799964221
-0.014677266465203906,-0.06692860695756472,-0.10636919810278059,0.09605464257154515
-0.024205325376863693,-0.09009163556655599,-0.06439222426908259,0.06759288850714888
-0.009348939685975416,-0.008525179129750772,-0.05824252740060018,0.03949170829346934
0.02636031548483918,0.004356597810966761,0.0018229770002773937,-0.01929888570926744
0.013533244958482743,-0.01580100769307833,0.008619313306831033,0.0068001388483511
0.030865353839157002,0.021531553042447554,-0.02647369732141413,0.02245276264092993
-0.02469742846542102,0.00857899343671224,0.026549397425248044,0.0180797329832854
0.024204114726247117,-0.004407824838732748,0.010013160414177116,0.017560579525399543
-0.00889681412131544,0.027456710422390465,-0.013099180280533314,0.03220722047665554
0.030431383823381924,0.021218069857731107,0.012184111594886624,-0.014999570044862527
-0.0039703767091509926,0.001740202925481979,-0.021424216675583876,0.03269813507182959
-0.027953089126878963,0.030685485313777617,-0.01083963692988586,0.009800233778035988
0.031111257561387686,-0.018798132081538906,0.026398938639136935,0.02380944161420382
0.018774178594789828,-0.00482597484250615,-0.0212067203841056,0.004451057658909818
0.032077893595915265,-0.014821288206051513,0.012991159313671837,0.008432888133565958
0.10165334751018783,-0.08536511070400829,-0.06499211465385835,0.046577386480768
0.1427527834827727,-0.04677863198700334,-0.0773502750598239,0.0880366470501219
0.16115891696754767,-0.11601016148836905,-0.052428652653345786,0.07157605106646132
0.1341794740160241,-0.1343181441383156,-0.08111081352640784,0.09354648754164852
0.20232028210015696,-0.18800802533552394,-0.13676117287979464,0.15880685590024846
0.15443649145060515,-0.19568706227950297,-0.08952857915729383,0.13484253193871715
0.2187713695809757,-0.187260502899948,-0.16813386996625534,0.18780547018388719
0.17543512547003828,-0.2135680489949712,-0.13710964649882001,0.18807098112116122
0.14126745615458708,-0.16100763594712328,-0.11483630470090338,0.1079935659266667
0.15205591786160488,-0.10678366880765261,-0.10471060079463206,0.1263265354330068
0.10963427035153703,-0.06731629834055182,-0.11701272776540883,0.08130769150597777
0.06880462012669847,-0.024842431502390162,-0.06876947021807547,0.05985085353847311
0.012079402639619959,-0.003339706333177603,-0.061440423668645425,0.05149424634291202
-0.011374385153838791,0.004417703400560865,-0.009404476842724852,0.04766482470169814
-0.0062343640308275446,0.005102950501485523,0.020521859416837193,0.004953896678974823
0.015394239086312335,0.019421047107491873,-0.03743454457280629,-0.00939554048876413
0.030493380487762314,0.02216557651904191,0.010019567883622035,-0.010149266621047037
0.0022389859183550437,-0.002422529554149804,-0.015345559861585487,-0.025250026455759075
-0.0289933807648133,0.01024855313982156,0.0021549545429574955,0.0059501414221986276
0.005169372293328381,-0.024882023635051716,-0.011491775985873136,0.0193898739057254
0.02681305929044242,-0.027612260745218338,-0.024352544742920472,-0.027137455488394163
-0.027580547676510032,0.028158143769936944,0.01053835235590414,-0.004947317554751061
-0.034196279378515056,0.003198790999345981,-0.007878918950335545,0.0043143011077131505
-0.0013748742493784744,0.02667808046263727,-0.022771422959090508,0.004604018815739172
0.016830071568114696,-0.009516399365507553,-0.016599451403903683,0.020213215817504737
-0.009879013654939149,0.011244061970795626,0.013506171488120514,0.027175668402300405
-0.016623675399391778,0.002436727295132374,-0.034531270621950334,-0.013286101016556915
-0.03156864680414096,0.015473795494680418,0.02518625555968431,-0.0017201752818377526
-0.012464797626634317,-0.03252778112176053,0.030899630367214676,-0.020063049962163182
0.03619461489081161,0.025482783262720507,0.024329665900469415,-0.00135733961792303
2.3842427488619217E-4,-0.03581163629753554,0.026664211152283453,-0.011524495894866699
-0.017629137719858738,-0.046904184285833594,0.010492171293244522,-0.02973232364990486
0.004689074928033031,0.011460399876981013,0.012391136473847096,-0.020780460942785375
0.03911760373551937,0.01659884576149892,-0.001982933083730335,6.85143344259422E-4
0.057897626270852515,-0.026353812070561453,0.01845123627735734,0.020543409557657568
0.0748808250336735,0.013984477056927456,-5.969405989698905E-5,0.011108959746779558
0.033507479744461374,-0.004078350246607977,-0.010802786714916314,0.01642619895221291
0.07205065399796068,-0.027229974158481357,-0.021350968472424313,0.019965034911187743
0.017938522382566477,0.006275851508147362,-0.028120339482097287,0.028574191777420835
0.007570164730570911,-0.019729167738561416,-0.041587630488170296,0.02205678717112253
-0.008953862991796993,-0.002457081829205399,0.021971876238404627,0.02095633689583135
0.011083950054958165,0.015017310981163946,-0.003289241424637546,-0.032105442342769214
0.026026647631242537,-0.03492692636506005,-0.01111435711882216,-0.0155521108854911
0.010459790174303901,0.003456017158768494,0.034675350729036214,-0.01033265013303374
-0.03170303276551694,-0.0013973379042497127,0.021278528482284405,-0.02554231764835085
0.022390431029922442,-0.0011171993589354917,0.008656084147560472,0.034949303725867686
0.02736388841343862,-0.011152662837540565,-0.0034030978720953967,0.026867276305371612
0.02071858671599671,0.0308719016018707,0.00846446548281738,-0.005079892595004028
-0.01688579721286586,-0.03427580003226045,-0.014438639871349957,-0.03218604281400466
-11.220327161398865,8.15148274195578,-7.64397240732153,4.07129527509009,-10.505504657053024,-1.958554825499965,-9.833138912183426,5.51196750210049,-1.8670142267867134,-4.644552862523773
4.439265154158446,-9.765720776503738,4.067250342074894,2.608764978976377,-12.367369579732145,-1.3226875765861636,-5.575567710785523,-6.458336634612368,-2.087176143010531,-7.875228528167075
-12.953121176683949,-2.558589624065006,-2.5584849111143995,-10.761579173936854,-1.6798196218881147,-2.454136561793326,2.127686293008542,-12.654297991753067,-1.5143504291217018,-11.09601820809698
-0.6884249339744279,-12.918328142228658,-13.610079603629401,-6.988984728288744,1.0235629913909232,-1.8497524493676591,-10.215417761249089,-1.7847413806856305,-2.276685649868192,2.4095922021617553