-0.035292247055098945
-4.4423064304578014E-4
0.010644177205144427
0.020069393174646864
-0.0065796892910630865
0.010879944310201964
-0.028801422763038112
-0.021719796016951412
-0.019002195509706523
0.017804854834084123
-0.005615356279455013
6.164264723773766E-4
0.030152586260996345
-0.018084799576103355
0.032014898788010004
-0.027449467198153138
1.1849854965072237E-5
-0.03215404891250141
-0.030378419178515692
0.02350434490741416
0.0028593493085761756
-0.02096177320073752
-0.007586251545253768
0.025210325999560634
0.02299014034408338
-0.004513030908648512
0.02400317183099715
-0.0034631102169499703
-0.02901945791123911
0.002770319890356372
-0.009423150967330991
0.024504469276333096
0.034688469134049826
-0.027094406535922898
-0.013160800367049332
0.033849624562367064
-0.01781291358641728
-0.03112168406954739
-0.030820242146239105
0.03356700485035252
0.008387411738640202
-0.01726840913840756
-0.0019755641282306682
0.001498461960498236
0.0018058522242482694
-0.023012693071899498
-0.005537566761610078
-0.026981300294119364
0.00885084356879557
-0.01768337093705993
-0.014632601073437113
0.005015379077316966
0.01361798731421579
0.014364145620084812
-0.030445782128730326
-0.018681806937897907
-0.032062574751461154
-0.009818136541306224
-0.014253917554054044
0.03305209039701311
0.019320218872966033
0.016736445247382555
0.02283485120518336
-0.012970779767387135
0.011661470017745437
0.018097321799602106
0.0037317628195180225
-0.012636869377027411
-0.030998918268819287
-0.035615050370009727
0.024642923536028205
0.012201334053706735
-0.03169599428716523
-0.029429149481279986
0.027576103918203004
0.00603295998538779
0.014713074418219257
-0.005757357578629312
0.03499829976050778
7.624619158214593E-4
-0.03315635416432846
0.02813866556405216
0.03076077728288626
0.03386045073187041
0.002765590379780525
-0.016701144576061207
0.0028323347772952687
0.003760587434644261
-0.01691152487230741
0.032951669789108975
-0.016368474732380456
-0.026975251763470487
0.024439892547006258
0.016122798290338997
0.03357021287414669
-0.024239778603958713
-0.004445955200019315
-0.018839219473454252
0.016724700887968943
0.009595441924219315
0.02181937974057812
-0.02782193736654371
0.03193675335963503
-0.025586090016359125
0.020766022809686945
-0.017555692623411025
-0.0117173987381957
-0.014279515686484754
0.006340693783318467
-0.00939603296514386
0.012441350663884694
0.032960888021547646
-0.003674753977116356
0.011146002139545495
0.030411048735185395
-0.018455488870976946
0.007479046106692713
-0.024174751097475182
-0.02087364402950504
0.011373626566388018
-0.004207048207385149
0.02589200642393409
0.008119374748137051
0.025259959849702807
-0.010658858741236017
0.01416098344869638
0.013920021904061393
-5.789705964449193E-5
-0.03002599447519383
0.007116009776085952
-0.026305207226630052
-0.016344058282576138
0.003570593477006709
-0.023458129921153335
0.008138941331856352
-0.02476202393185854
0.004996898739645997
-0.010860899929528298
-0.001004822958886993
-0.02304394390091563
0.028792703857936863
0.00410675641568551
-0.025339496934474244
-0.013678845008498444
0.023770739178290937
-0.01332125399388101
-0.007749120191354018
0.025525428346968658
-0.03288008695140902
-0.008131612215986524
-0.014367602896491739
0.014156561915622354
-0.009495644452031708
0.030268430075553146
0.018413693832615707
0.019603236648396388
-0.0063000931895328335
0.026895437039806805
0.01736583137181033
0.007782867525473712
-0.02182121449290187
0.03571335549341534
0.009746275503820762
-0.024671756606707007
-0.001624437039431527
-0.004376065311844278
7.104131724649312E-4
-0.019216081705846638
-0.025434645779499658
0.0129478197829003
-0.002653365039680798
-0.0012906425776038136
-0.03113284306283152
-0.022841138577983644
-0.032422147289542624
0.004167396450798763
-0.01975807611629014
8.880769614479297E-4
7.576927025404051E-4
-0.022174262912239638
8.727405769189608E-4
0.010879366160914748
0.0026447716648961977
0.022416386910480056
0.022034982301392773
0.003422926993163808
0.0052398418985833
0.008891253560584088
0.02140909528602128
-0.0073483602252608395
-0.01230500692327256
0.022158077364218064
-0.011532159789410055
0.008991394382265885
-0.023510983427327412
-0.020208236804176223
-0.009804134070775801
-0.017307549380585048
2.685717850872543E-4
-0.012037473548337667
-0.01156968262074785
0.0037557388047361057
-0.035283666963117466
0.031108657663899086
-0.010802852205847344
0.03214733637751793
0.01842246672958149
-0.033954907595337015
-2.9736284074731445E-4
0.016588706678473668
-0.025216733748162683
0.016114949528287847
-0.016215618459023837
0.02373905432906409
-0.012464973277848894
0.02053531065453658
-0.034523383515187335
0.008452439176385204
0.02866775674754138
-0.013418371795277224
-0.007926271783995013
-0.029127322496923083
-0.029007838202290002
0.0038755149114043513
0.03500279932067779
-0.03416318501600486
0.006377095236566328
-0.0334556228508003
-0.0029747819443476584
-0.034410834175774264
0.03551463221313314
0.027248545884135528
0.021538476367982534
0.006536322845605368
0.024720507143314335
-0.02332897080209164
-0.0017240955099665986
0.026768310328565144
-0.011363800278067087
0.02341984686476667
0.01706337602211474
0.0033583160032589626
4.0016101103393376E-5
0.0194933239892435
-0.032038288145777416
0.0224586073844089
0.0010026047286145964
0.029264842848368028
-0.03559250709692217
-0.011354184904043867
0.031730667832937084
-0.03139331480021293
-0.009013761934378417
0.007836752717275144
0.01602819056264708
0.01897567823732617
-0.031365818510596666
0.015245994915647557
0.02640948274274519
-0.028616608404076736
0.0055133026966434
0.005631212291295283
-0.009351649051414928
-0.03547202248270333
0.034405215101608586
-0.03401056578254281
-0.0034881827824870607
0.008839790288301771
-0.021249835582580888
-0.027441832923832073
0.026269458043756203
-0.023073386311455883
-0.03367604100415508
0.029363270418538645
0.02829576394191921
-0.008665268784615803
0.017815755150563238
0.030099871779169812
-0.019342724070853475
0.01104398156796163
0.016947206373792323
-0.032258030692287415
0.009966578945385898
0.01669893059039209
-0.029237821304499666
0.032860125530017104
0.005829539879581742
0.03058178163443956
-7.030375334475883E-4
-0.02243576637464946
0.018767750177226775
0.028337251812123196
-0.01725536443123048
0.0043579635050664395
-0.02349874493729711
-4.3212935371857164E-5
-0.007691070847510844
4.162668462734248E-4
0.03138829988196509
-0.028693992248336145
0.01656163946110903
-0.028295404396833843
0.03190061664295636
0.006552320501104603
0.03196519875338549
0.03358811760878405
-0.03315200772334595
0.005171881721831181
-0.030691151343402903
0.024965352793471757
0.013683191309240547
-0.024069211869784238
0.01361103459306829
0.015197714025898194
-0.019721822796202316
0.02698923069348677
-0.021065736978011736
0.008550090877935998
-0.01920880464341207
-0.011793684234153008
-0.021864564553228834
-0.009246313146739214
0.0019085819491088535
-0.025451630308730433
0.035222713295935515
-0.012632214264313515
-0.014037262109863256
-0.013165852067791282
-0.027568924486631535
-0.011722059209274976
0.02462837339105446
0.01601337546089536
0.02844297158744606
0.015199840656747857
0.02401775365084459
0.03253001305279954
0.005552971992640321
-0.009028096205692185
-0.021335046793220395
0.01028298937373346
-0.01522069862123986
0.027687591816249774
0.024789646188722148
-0.011615173977848985
0.008626523499473716
0.024845822193310656
0.01951966528959677
-0.011620544190478713
-0.017290797022281066
0.0023356943769012664
0.009661966901669955
-0.02563481108659436
0.023729589599592434
0.02133075211964902
0.029728882855335523
0.02407270643912051
0.02981063842065504
0.013298478797250997
-0.015665842037929003
0.02437221524814854
0.035359087705217424
-0.011481336319952486
3.6471962163568683E-4
0.019179873383817006
-0.03089820241755182
0.01673016515737375
0.00430649523923262
0.0048940247340412
0.03384902222495273
0.02675273629912322
-0.03463147785077721
-0.005069216729566388
0.014243468729768914
-0.029541399634980637
0.008346877564101296
0.03488762943833662
-0.0158157290126157
0.021101406411482566
0.02929682575044866
0.01492884127642409
-0.020931429149944246
-0.03501673251005428
0.02172132817158514
0.017950183664463187
0.02266697913650613
0.028513871451097614
-0.018907267526610896
-0.0015565078813550154
-0.01857168634495945
-0.0030311072005729384
-0.025034399625421793
-0.03484561843354685
0.006001422176204009
-0.025759383857545462
-0.034587334639462945
-0.01690471517494735
0.030702273351086037
-2.710839512978999E-4
-0.013507161888294823
0.00785087398577361
7.887910397854567E-4
0.021073500813533264
-0.02949881549714068
-0.007246966890384232
0.031921884252617605
0.02074081364368551
0.03309003810972565
-0.010837758114798708
-0.0344854073819913
0.015036131011958095
0.02124574477117793
-0.00813670344972275
0.016449752882763152
-0.03534576905384036
-0.030532657457942463
0.008822441035648769
0.035320423198601375
0.011923276043740959
0.028384151771621735
-0.0010500461448454332
0.014458662731194144
-0.02535738646144381
-0.0036557455385636956
0.030911757927278835
-0.02306042074403584
0.010739865888975339
0.021292242125603725
-0.020945013465715756
-0.015131647447959178
0.00830186850111736
-0.02621441008962816
-0.015322019850431967
-0.010300283269084956
0.021978462967388687
-0.029590645934792197
0.011772228897742772
0.014541843305429639
0.0073942387260574755
0.0175240820172025
-0.003955423320173568
0.01971074979697053
-0.00513179820782033
-0.009282550679909612
0.018069102997142678
0.020427380292986144
0.02461821514558426
-0.03327688950455527
0.028389132702412445
0.03283942481015137
0.018840575167560755
-0.007396721348124826
-0.02440115864481307
0.022005023552879747
-0.025503377034293243
0.03151484566415824
0.014656806290984543
0.012828733908698361
0.016243261957282228
-0.0021825573720952313
-0.0320534718156253
-0.018542001342374357
0.03337446775240213
0.0101273957891903
-0.005698929929650556
-0.034357677027911704
0.022890364092511148
-0.007290412886830459
-0.0256775532415199
-0.024273999110252836
-0.004311196898369951
0.028538994926500305
-0.008651489764596572
0.021136436171740172
-0.017559053354082817
-0.008683040815735357
0.03434566907754549
0.008354917768182243
-0.02041580584620907
0.002798985038539384
-0.013946341799095065
-0.0076128641602719975
0.007613165783072216
0.019020782479285084
0.012430041037357661
0.0025672508123989607
0.016772137682732446
0.019745454369521617
-0.022712521985859456
-0.019483891917091663
-0.02784228519654275
-0.022821001449797998
0.025197142519613996
-0.0016013316114861648
-0.022495695647834893
-0.0070414347200133225
-0.017713301792778
0.02402742992299197
-0.021253080213591853
-0.004056138095897575
-0.01458201380457545
-0.010838227132378364
-0.02803113261616986
0.013312423912787717
0.01866537527367359
-0.033472409710688114
0.03394101675610714
0.005127401760754678
0.02523791271348863
0.025843598013888733
-0.01823966360201598
-0.02527989425955867
0.011220064157105684
0.017037211217293312
0.002916675450069406
-0.029931073592188273
-0.008663306783614138
0.02553897198333968
-0.02096327723870267
0.020281456067036747
0.02940010803743029
0.027818157998377224
0.015371513808770706
0.02260282413440625
-0.01786593493782835
-0.03442522815254247
0.006168764612414793
-0.023054417792516005
0.013841204917535106
-0.0181033709817993
0.023251378630516857
-0.020042560153355513
0.01020075509573995
0.01572027244021796
0.002257761796594933
-0.026973682675067015
0.02529994779700192
-0.01872899678450085
0.007521609595759628
0.034514782809247274
0.03260974351306166
-0.0244240472477926
3.6562637730849085E-4
-0.006978230812019964
-0.026519878947808644
-0.005590559739600962
0.027223943886712995
-0.014313693468451023
0.001907306532223152
0.028610401724767226
0.027660226967463925
7.529654314937309E-4
-0.003882455892938244
-0.03186966450972727
-0.0012559798833531172
0.03065206230299411
-0.03373302667244785
2.4144279126579044E-4
0.011203240980689061
-0.02673106512076511
0.0035339466773436565
0.014959612781312318
0.015894070033428492
0.01444540662092407
-0.01691493117791173
-0.011692314133207822
0.01692640042392412
0.026835800110595318
0.02695128359560571
0.006161241840571027
0.020078035535126645
-0.03038090497070892
-0.010538513886392344
-0.00201738933439697
0.02888879188336517
0.02880994745005909
0.029729659797971625
0.024401395018227592
0.03356511613787834
-0.017013082706544343
-0.015777577507335366
-0.03378416977419503
0.034213505082067455
0.012732891391934127
-0.016648569636042568
-0.0045989099569274244
0.02296126860277832
-0.010595916966763111
-0.021760613806815272
-0.034938420423749526
0.02258330291179788
-0.030563585169579986
-0.013914602759541157
0.024115929249744865
-0.020207823485725487
-0.018293471490492992
0.015871671017518983
-0.013351011879283059
0.021451580642423057
-0.029777236509960302
-0.012633514670889887
-0.02746857492908365
-0.02780403876398399
-0.0038624759641915918
-0.02177193167112184
0.011543206480615645
-9.600371921210382E-5
-0.034412180120808857
-0.003948271205428046
0.004252751104422421
-0.019421676848517158
0.015628114121280894
-0.006965551149514779
-0.0032010776737098137
0.00905253371279275
-0.019036613882482914
0.02660263288878023
-0.019761708771004725
-0.010315912592481935
-0.02155878633217124
-0.03174867868002406
0.003952836834852903
0.00499975040739014
0.03244263383864884
-0.008118609146184556
-0.005262802580737205
-0.005345296809019913
0.012742537953979616
-0.011690212156317839
0.03500690387984415
-0.009612510520728763
-0.028763818318595147
0.03016221820000757
0.018963828811656598
0.014399910606394117
-0.035632958890935096
0.004755094053881262
0.022534800664498977
0.01794471673051222
-0.031862976701767916
-0.013329356832721819
-0.01836575778375322
-0.0066545620108560445
0.03442956815879665
0.018666890069582574
-0.019221385956725946
0.025200700847485644
0.02288747810617455
-0.019611687652505243
0.01141328258677849
0.02139289051392356
-0.017937435920948874
-0.016443400166379088
-0.0210148435937801
0.009821197973707743
-0.009934037468782693
-0.004028079021892346
-0.03478112223197232
-0.02802517664067445
0.019978142604822058
0.014277707903849642
-0.02283734113803844
0.006158445919574228
-0.016313409556230427
0.02331097486913747
-0.034613506851019944
-0.00713413318721029
-0.012406274170652154
0.03202540341781347
0.010644062425186132
-0.02197291836837793
0.0032038930640965954
0.013557283916831246
0.03406040484790776
-0.016621119560825497
-0.021006466456734523
-0.014010925795681195
0.02624317841928979
-0.03339438931278069
0.03549800589469673
0.012285753021040617
0.0038926186315331943
-0.01654709206365052
0.02977068586767087
0.007890151807465537
-0.007433397117146905
-0.01906936234056001
0.02066159928930362
0.018483782290069833
0.023327381484773174
0.035031687609399384
-0.019705064458072574
-0.0020248129181395028
-0.018943396973903317
-0.016667176082130735
-0.02604144469638256
-8.583964033610017E-4
0.03452709366791398
0.015315542010131869
0.008601880668815856
-0.005604986949070981
-0.02633951849720571
-0.01988139471003636
0.029791221142987337
0.01971840855116412
0.005653522416981686
-0.012695038990795198
0.01078426781643857
0.011380203862376648
-0.006648875748402963
-0.03192791306049205
-0.002870481618470984
-0.010218114690251665
-0.01869601364450242
-0.03541375687852715
0.012301168599404014
-0.00324928331725928
-0.022400608728145643
-0.03564302860174832
0.026671775837194496
-0.029479657918937575
0.027702651168857312
-0.01443830357389271
-0.03030089054466406
-0.0030081866510274224
-0.026787461639264647
0.006712385921233036
-0.004299599105399364
0.025155747567597357
-0.02624701026584777
-0.027109009568667186
0.02957838714208831
0.01824029513052816
-0.008875315279630598
0.012054243476012368
-0.022565690975528272
0.017162738679055975
0.014918626477063629
0.013551797415838646
0.023693369098193078
-0.007526320270579159
0.025611026583269345
-0.026577659785384136
-0.011038731168289826
0.023091442703301997
0.011760098022835494
0.0168107369696303
0.027084784017111396
0.006215466898693248
0.005949614411551597
-0.024477910080523434
0.029537456486974117
-0.022186712735197026
-0.031413168900629326
0.014890039264353956
0.03151398612101443
-0.010700282651616724
-0.014389662806286563
-0.018993397321002126
0.007506203892892645
0.032062982435609566
-0.009758648391854079
-0.027555099690455602
-0.024089020265892706
0.02875049001123453
-0.006445481655202048
-0.013067225250226109
-0.033365980190321005
-0.02958992682390229
0.029451544495367674
-0.0016053318886515497
0.011294825629659298
-0.012198513620122895
-0.03210586503707909
0.021668670402486233
0.011790691213291286
-0.011155750302997019
0.03189432633434082
0.03466173742249004
0.024205781758195793
-0.006767839631617159
0.03517656562950808
9.440050989224166E-4
0.01668551640783414
3.9705429607104353E-4
0.011776757873658568
-0.0236048099722442
-0.02396733236444764
-0.011647854435744558
0.023920043015357703
-0.019257561635850597
0.016087673260794508
-0.02522795167123441
-0.02867124803746801
-0.01765391173194585
-0.009030944099881213
-0.01737786376454641
-0.02328271136263513
-0.03044422494186383
-0.031025107214214254
-0.013555416468371731
0.011644435863721561
0.023617739286270444
0.03283250664701652
0.035485688520523334
-0.020948150548092015
-0.02074790085308607
-0.029427863428969477
-0.006312231568007014
-0.030750527362478075
-0.02455279205200251
0.02759447880512872
0.027144751054004185
-0.03447410961588012
0.011712941928930153
0.025662760967323547
0.022408109390228546
-0.02906595424081055
-0.02406043805590132
0.029308986328056258
-0.019990333723803773
-0.008153206721791983
-0.01183915534706428
0.01081766330390585
-0.035510675204619126
0.0032924165947621487
-0.015566189849446233
0.005712550376583678
0.012939454857524367
-0.025244238944486602
0.034960550402877905
-4.4536904367416946E-4
0.026693142297251643
-0.01170866922983367
0.012481396914575477
-0.014491656719242303
-7.883818469365117E-4
-0.033883682431460144
0.03196280557300282
-0.02456258070717185
-0.012848850893560207
-0.003807587178762964
0.009921437110641591
0.013364095540875198
0.005209979978137269
-0.0017383271305568965
0.022116702166566707
0.014536128093056405
-0.03067536104808492
-0.00412027412238631
-0.005030887891412976
0.021545819940057
0.008103532892363263
-0.027703024608876352
0.03208162621888437
-0.0031736806221909428
0.034953872707948
-0.004865884339441542
0.014812776276573507
0.03403737672229129
0.004624214280012272
-0.002974499285418465
0.00841835124528447
-0.019149114688587154
-0.014741278577803076
0.00455198054874436
-0.032712274673086086
0.019825122654758894
0.022985958903168
-0.004267099903978007
-0.02197473989471256
-0.013664203217327284
-0.009603819277936878
0.007066207468866485
-0.007153538205427412
-0.010617942376989025
-0.030523474569538012
0.002310237170359275
-2.690096032513731E-4
0.0166574032092537
0.003134133308247987
0.005936972868487787
0.02828835749122431
0.03273879035546573
0.01933444088417876
-0.016203547641377863
0.013846908745390768
0.022585240283482806
-0.0038023480498398307
-0.011833893109068499
0.029685705991229855
-0.014404284816294077
0.01421521034411085
-7.460044231529447E-4
-0.03296202794369031
-0.022753524728322275
-0.016024536597372217
4.3501879423400724E-4
0.03083869495211143
-0.012621680318571051
0.02766828497044728
0.005645311041882095
-0.018277192917942362
0.01996321135539747
-0.00615743209397767
0.015951659571831298
0.01457749255527449
0.027423904188182052
4.3866903628085596E-4
-0.02868071417424667
-0.02202182728797153
0.020695910706622578
0.02854313750401495
0.014914027272280299
-0.005005695608200696
0.016718364134940183
-0.022938517331919116
-0.026591501112916714
-0.025027088720599715
2.0219843421670491E-4
-0.02424931153943744
-0.008611416066965829
0.029578583112490925
0.01177342356819213
-0.0071851627562471675
-0.0027340095765073097
0.024982583119855246
0.021915004023881413
-0.029056844408889074
-0.0059066393639233584
0.024056022462908853
-0.02989563790738373
0.01893299205834048
-0.015001785112292339
0.033048390963852425
-0.015155147858722986
-0.0032504489075332738
0.020210145470100985
-0.022287209803717074
-0.003779443030974175
-0.016413219163187758
-0.010637467360279651
0.012129261563035967
-0.02245330629818134
0.026243789011248013
0.001869720127046344
-0.015526170234736989
-7.592476539436399E-4
0.013735924935002725
0.03136635104233422
0.03215051028997758
0.013841248915044166
-0.03153008016110138
-2.618162163835133E-4
-0.010097612123251925
-0.02101696757464005
-7.846424434247712E-5
-0.0045814378863640905
0.02903434971921122
-0.0024405650721374336
0.0058289428264581625
-0.0035927676220175037
0.02656417176826814
-0.027541786356521887
0.029329365447161165
-0.019882778911213886
-0.030755801125471494
0.009129330567100906
0.002339979140165503
0.02869885648629336
-0.008969468502035609
0.005512419029157507
-0.005494592262700562
0.00753635387402142
0.0015815959565133042
0.02432325086539893
0.034186981822889886
-0.0343226958545633
0.02715340665668975
-0.014080691461856403
0.008854009054239942
-0.011497051731157344
-0.02692613788767682
-0.011096874808840283
0.0015029849418121202
0.010724293785489246
0.0024025381700448142
-0.021432026805146973
0.009061550426308226
-0.030192828658143805
-0.03214627756244012
0.02528525050751579
-0.015719461811780282
-0.003965090208200975
0.015256697565173491
0.0031407507774980775
0.006569849331703438
-0.028834435627198885
0.0023498279876403225
0.012134239357206443
-0.007303537299950091
-0.025064255387243946
0.02971026947276341
-0.004948209989030259
2.1895514831334062E-4
0.02638393042245859
0.03165649403515146
-0.007839751005450615
-0.03094382861115128
-0.021716593211581973
-0.004555987423113583
0.033644094348243114
-0.013215373101547048
0.028902259622697754
0.029431802531593915
-0.00944337841126408
-0.02718461832160835
-0.006640618173349804
0.03331536172172683
0.03382536737315989
-0.023069789638026028
0.004270885690326805
-0.004026313924727236
-0.03287589342693451
-0.02329079294941038
0.021624174143664146
0.02649278515861321
0.0272733358700787
0.030291275258959527
-0.002168031541282249
0.01513831281628547
-0.002367418656454616
0.008375333351560994
-0.001254253771607719
0.0020490981447908035
-0.007713142431489295
0.005006448079704635
0.006252166361611557
0.013158254344065881
-0.02962933329309172
0.028174063122448023
0.014392062269507663
0.010711845975477523
-0.007045027267102884
0.018449761275966113
0.009128924333842672
-0.013509605479272054
0.001947216172835206
0.013623540229531501
-0.02257761369418905
0.0058971092673871656
0.002285924810006744
-0.024161905913749053
0.024543744372919063
0.013344871702664615
-0.013987514862365269
-0.0037870607859393918
-0.012841166562130961
-0.022878099052473004
-2.7841440428660186E-4
-0.017920893358068884
-0.03096942651970469
0.03218568649865246
0.032262784000965286
0.004613053730727776
-0.005972355439879545
0.022487545767403055
-0.02323485087094719
0.019231405724456377
0.0017543281962678556
0.008621640041413602
0.031093550580419044
0.025028366621790768
0.022535719195386515
0.025421470126990794
0.03194060764594013
0.026049083866500525
-0.002831814215907544
0.033480747189571114
-0.028364108796228645
-0.013845545255316338
0.03296195005607927
-0.02709959923523394
0.02019710042928135
0.032889262646063594
0.0018153742377655518
0.010227464033437515
-0.00846208253880185
0.02869697640069324
0.023480021064058006
0.009268943668178889
0.022692923166089063
0.013813063440472312
-0.031283773350133354
-0.02769142125720294
0.018317760629204823
0.006972054483685812
-0.014895723158278844
-0.03081124084253276
-0.01351113714738365
-0.016452081921846964
-0.017240246671383422
-0.006995997621223153
-0.004920988451648116
0.019529667771465635
0.009690188424679565
-0.008305376348695666
0.02707309275733169
0.019212511814458953
0.02703423981155595
-0.02710551654566592
-0.0195995969765448
0.020071457313900143
-0.018244631425988325
0.024155091691432262
-0.020464832428685614
-0.015079696323145857
-0.023479173432334903
-0.006526296496030211
-0.022147937865880048
0.03305955547688792
-0.010985990414673678
-0.01473309466030841
-8.091670450904864E-7
0.00873006973109585
0.025399433080312173
-0.002152045551491129
-0.014157930406297637
-0.03346593711260218
0.016929753771465446
0.028136080809713637
-0.01304480960644763
0.004862803889015221
0.003939420089689574
0.03447211044476786
-0.012948312759958072
0.004304258118570291
0.026814239099142087
0.022140591492614145
-0.025151412808926348
0.008719009246512748
0.01810785593680085
0.024986248660058677
0.021070521594404777
-0.0034022360930556425
0.0315405064961982
-0.03078914004262092
-0.00992349753708836
-0.027598445600786697
0.012973341935733247
-0.032824009800614874
-0.0023048507105857194
-0.015738048848047095
-0.016024986963115564
0.03265941580110068
-0.018500082366282786
0.030689600224531516
-0.012326321921358845
0.006414834614391449
0.00743758403918935
-0.012289456227099989
-0.008910423458433007
-0.011804993427196112
-0.0076724261505067524
-0.025838498964333427
0.03351667740094924
-0.0046268082611874185
0.016233385231805314
0.017178131711313202
-0.02156147796607595
0.014048015745150105
-0.0052389252904872265
0.016782610168102306
-0.029391798573543616
0.010048778398508054
-0.007595978489972281
0.0025338987428199095
0.024156281131969617
0.02787907388377997
-0.02927871256599616
-0.030237922030355656
-0.022439318843598087
-0.0021217443089935548
0.019329247209175407
0.011586871579861366
0.018909826010767114
0.002183284298696242
0.02804842850369789
-0.01998326385104638
0.014950835073444073
0.026821609285541836
-0.02382898345213287
0.014635178772851407
-0.020497977634782488
-0.027935041579098253
0.025130121891471298
0.008567256552346088
0.004260617214089983
-0.034542409497361315
-0.021975169778356927
-0.018010449210612692
0.003492511767461952
-0.0020309879485053556
-8.102576499746036E-4
0.021407710818401426
0.018457547781109328
0.03235786919840543
0.01002198374741417
0.03359332051096636
0.030061219216221874
-0.034281709731897474
-0.012251311908344109
-0.01917287306281133
-0.021085053061175727
-0.010101478122795174
-0.020206912223252937
0.008239045363073481
-0.02360362508525956
-0.014820903791178088
0.0038259677902096056
-0.0029938338765418543
-0.03436403085786582
-0.025943587831540854
-0.024098107801211147
-0.02152307348859554
0.019138420935124925
-0.0256966780009963
-0.021875328839213042
0.011255212754227417
0.00812998793543248
0.007243835587557458
-0.01864481532529254
-0.027497861923710502
0.01213031317047953
-0.017482731018778355
0.0352419284355929
0.019323207900985982
-0.033847717399239696
0.026007211843054392
-0.024077420020197304
8.204104288705091E-4
-0.014358338702237697
-0.011767741717825575
-0.029478937516870488
-0.006702574489186042
0.029691007758369914
0.018228570649080664
0.02216218949282213
-0.01855860852919459
-0.012847070268084824
0.005409711181169528
0.016852455497281787
-0.011928302377933513
-0.032011932291648976
-0.025322638349981448
0.02756563267118549
0.024140415750250888
0.031668586077089195
0.02357965106450255
0.02454016117697426
0.01646790075405668
-0.013391155854853565
0.021584178124927016
-0.02046004581279241
-0.012926739978977333
0.03449339614492268
-0.03413134188679954
-0.009170781610605607
0.0033008775105124247
-0.02171476751197393
-0.02677898442803705
0.023792512083855147
-0.028675594632192172
-0.005327206389212229
-0.007084678016935218
0.014493050411580263
-0.030182649130181434
-0.03518046521139157
-0.007373874394926452
-0.026218895059296157
0.03214808295502494
-6.643746161007422E-4
0.024755983036913246
-0.011637297024864886
-0.03473862977845157
-0.004435919561938943
-0.027149473484196274
0.015857960163357374
0.035547799051126525
0.028953541044606096
-0.03332181112814676
-0.028315733223881423
-0.01632340305238553
0.0023939829832475557
0.03345428380828368
0.02019681542417774
-0.002102420100049393
-0.032257463166534224
0.019874382064312704
0.03535424526694457
-0.03451082010697027
-0.008949446684177409
0.02294619168440986
0.01347420776720628
-0.003224689492594801
0.012879293776757159
0.00786891537242091
0.03160485660288363
0.02625143310125247
0.030958452373395298
-0.01067710731051564
9.83204947408993E-4
0.016876660534138943
-0.03512700079626902
0.014066148199462412
0.021398160548659124
0.01694625558959347
0.025017249332306465
0.012227472305189238
0.032368430954432065
-0.00587691030309009
0.020471783394199874
-0.011005621940090336
0.017563252352290143
0.03450973650507712
-0.01857779817811217
0.0010650458665132714
0.018318836362560778
-0.0272951846991919
0.01703652739411962
0.004331536635871089
-0.020357728259785504
0.01741551527893387
0.01464349492487417
0.016197926532051085
-0.007929913995841989
0.006529714091522566
0.005270164421712062
0.020102459778132714
0.017354015403596434
0.003186155974098104
0.015526986802777164
-0.03180608905777732
-0.02392519653345789
0.015033234632847045
-0.001402325003698461
-0.010260569726738094
-0.01329925049697745
-0.005737908898800801
0.011258752771376224
-0.028594241327220403
0.018298208441111068
-0.014988915896820599
-0.0064818170389783145
0.01799552204632142
-0.02851350797988258
-0.018864234462613188
-0.023466629973441344
-0.03213836495898639
0.004029898238789187
-0.02414164999629006
-7.325321789117961E-5
-0.022474701619300017
0.0154759153234491
-0.02430289234196647
0.0045809405065780975
-0.010090018363750071
-0.025064676476606967
0.010037775709871848
0.0066127781249243275
0.027979417318292663
-0.025121925227182013
0.007710663824992366
-0.0297933106101961
-0.012641509775927911
0.003593025427443948
0.024809593573496207
0.008852100736788417
-0.007396175089980084
0.015119362633836293
-0.010739176029814557
0.006594829522607801
0.034616921875703505
0.02759419533143953
-0.021978314082775355
-0.02917395250670885
0.015303673028112051
-0.005155291880258175
0.03406722354080251
-0.02171554049401648
0.023103097521425697
0.03384714694097814
-0.03490981264281395
0.026039198362612835
-0.023409182237707674
0.010913415076742206
-4.7762115952088013E-5
0.004221242807664158
0.020544978744410823
-0.005908027412793424
-0.03251241615854295
-0.009170129286042557
0.017636889995228236
0.017353773857220603
0.0051931158454658205
-0.014481912492238892
0.0012437268147170027
-0.008084322345600945
0.01357121265322498
0.024091712955138705
0.03019651176548059
0.011707924177995252
-0.008551510511188139
-0.010948032913856112
-0.027991447781290178
-0.01678693348452329
0.025356883454969746
6.826641854223783E-4
0.018667970748096993
0.027847499182785493
0.025766745208792297
-0.028182799930029374
-0.03173857898082668
0.023618305214837716
-0.014058540828226263
-0.002835412980410547
-0.015959976990992553
-0.021348677258324344
-0.01234827998146381
-0.021223860254821196
0.024312482096444273
0.007426815872519636
0.03453382054096049
0.022548977589261707
-0.02659889473459604
-0.007690422941166928
-0.017146719864469154
0.007540864203489213
0.034321090953566516
-0.028268751790265865
0.021239054732478606
-0.007455440772196398
-0.0019115860397988862
-5.9733165619517414E-5
-0.02579380090812646
2.3823558525887245E-4
0.03349415010422577
0.0342171881513999
0.02091739378027791
0.03048762146021375
-0.016347594313637793
-0.03396872002239357
-0.018806831567165717
0.011639045100785977
-0.01957040927035182
-0.00939430346007995
-0.009362429874316163
-0.030292813612193815
-0.006366864467402193
0.01990331898497589
-0.00419688468599428
0.031448996827063924
-0.02462099241612779
-0.03242802540883649
0.010645661979328265
-0.03544119930339019
0.006283268110923189
0.02786937106267981
-0.03022032725413766
-0.0214374426005079
0.032717184237212524
-0.024717191223715754
0.03394340216598715
-0.017132761164783825
0.022177482917102427
-0.005246369352761973
-0.025560365249584348
-0.009640324374920288
0.021414069236625886
0.014804166361120363
0.022363030152867752
-0.008871821662236948
0.028891140287486267
-0.019874416277393114
0.0033138770317627034
0.003764207714456201
-0.012443104146324428
0.02837320538147356
0.0310658151037551
-0.01458501913217565
0.004004659380859657
-0.031510253049468105
-0.017236839765726222
-0.01726477117060793
0.023950602346034328
0.027580395832458277
-0.016158611114158086
-0.029596937702970505
-0.019964967026468383
-0.03477559499701099
0.007278544340694949
0.0012798178842276658
-0.013434151094695042
0.006599770804322842
0.018075424457855996
0.00537340290865445
-0.03492713133095781
0.02770677535337067
-0.031449052517365524
-0.0075506844535725495
-0.011465257380761294
0.0010766535432280358
-0.032024887797479244
-0.012924084844336596
-0.023211873605289264
-0.03476487068651878
0.03194665802428838
-0.029468120717523104
0.02475942080258811
0.024941504806856057
0.004787437949651578
0.026337631525903238
0.007836333106510766
-0.035251148337836
0.0022887084089343104
-0.020145909451723176
-0.02383244998755683
0.001317118174832134
-0.00883328176959183
0.017911068821390812
-0.03266260353391471
-0.006165226803033861
0.0052629080344670995
-0.015937865058719896
0.03302272892348729
0.015696770985113233
0.010388899764644743
-0.02400718124645087
-0.002350488542995653
0.009245981340879526
0.012549021525566084
-0.01827653443102685
-0.024819420382831914
0.02163078884646133
0.023362974600069482
-0.021869541048174804
-0.023892689234157792
0.008243880393331002
-0.00813123859629078
0.00746095491151294
-0.027682732036042428
0.001720888610200054
-0.02018928967260797
-0.021590787919259755
0.029955067145126316
0.0257071555325864
0.02571152150249239
-0.02700056885069075
-0.0027813663376532807
-0.025410402130423598
0.008900588008192337
0.028477811338699893
-0.007128240600858451
-0.020553441449154313
-0.0014873995022046602
-0.02263416098015742
0.015410634912037077
0.01425158153441753
0.006418510417074662
-0.001984934592679191
-0.016762214883145166
0.028139984077109298
-0.004251688989115286
-0.015494323217947501
-0.02492271584181395
-0.014187572102311512
0.003697236342212841
-0.011480296360311781
-0.02869871348696129
0.01651485818277911
0.01844080808819512
-0.00591858556802332
-0.012153301476374643
0.024984160849023704
0.003293149448330035
-0.011263017779139586
0.032551591847071126
-0.022899940876092033
-0.008366853814522138
-0.034838467393443664
-0.021866687649653847
-0.012424749231845826
0.015805976659734447
-0.002203793977600399
-0.03239791283637438
0.021600992878196085
-0.011498537092353291
0.03203544079405134
-0.007305594522150641
0.030181883980063412
0.026146288461753917
0.003281611933614849
-0.02955561990620691
-0.004498344417077582
0.014100509440640514
-0.022193134019617443
0.02638193314838718
-0.009445025546903716
0.0020395369702587013
0.01518690363813991
0.012750216539529263
0.03225639301811728
-0.02444174606828676
-0.008165340300258561
-0.030456782207302087
0.031564974791282924
0.009481926216208483
0.02597004267315721
0.008429719254739614
0.017486906219087765
0.0013138198284292704
0.015818297456272265
-0.011884590384009488
-0.02872693951123544
-0.02102473863072947
-9.76800135283562E-4
-0.020093776840866637
0.001072017477626315
0.02968904173003141
1.6093878304495463E-4
0.013391811676084019
0.01427996103900489
-0.015644482115893723
0.030561546759928032
-0.0014872830469037854
0.029470019439659267
-0.0130919888358072
-0.0206114279873646
0.006298004557465257
0.008116310637670342
-0.0282091880547475
0.023138404650012656
0.03342171352937638
9.81821448219837E-4
-1.402906210316024E-4
-0.02517811523043907
-0.00688392700700011
0.015264721856835757
-0.026620712290688225
0.022071562984747432
-0.017374989806179138
0.009970004063123386
0.00327717855337719
0.011179412747223949
-0.028624028004782427
-0.0038015616886243747
0.03303518689716671
0.02914339363123357
0.024587726842662153
-0.02009652304978976
-0.0019002552089721417
-0.027265340170170363
-0.02263479376588328
0.004846843118388143
-0.032864444339854276
0.007734978167202498
-0.018119269479151077
-0.029988444482532205
-0.007009431578074425
-0.01394312587525777
0.01567049512213415
-0.024621853587425274
0.01886542570159022
0.00339449692636596
0.03481773842480372
-0.007695261297511944
0.027333696472887817
0.03208513520798624
0.022150809722498076
-0.01898373384586648
-0.028019647214139288
0.00832875791540031
-0.03379230969117875
0.006352713618804635
0.030700541137860762
3.0422751819754457E-5
-0.02577212063864141
0.008810103939060614
0.027328420431903006
-0.01899683137175832
2.1190854530308417E-4
-0.011511053348115068
-0.017803199936620225
-0.01855367015580055
0.019922421200829897
-0.03242822206798177
0.0246503117074484
-0.02691432678876162
0.006013265711371021
-0.015785136628629022
-0.009743775601912846
0.001725231016071714
-0.009480253752068155
0.016791542220596964
-0.026387501970105483
-0.019940375627807132
-0.016259851297655947
0.007193998184262904
-0.01161616741629267
0.012162894876213644
-0.010218553919067404
-0.025287065665617885
-5.252893212334131E-4
0.015266216908447101
0.017902519353104607
-0.010409597419545644
-0.02059699827176943
0.030344322084590328
-0.015374469020512514
0.0023743696814661625
0.026720285614587162
-0.020827444004687033
0.024015977795150953
-0.011509965990433618
-0.027398891461072078
0.020659315884159875
0.0035130972232858756
0.034665279027214585
0.028733431768571835
0.03493362920347112
0.034999515084057714
0.023621617576905396
-0.03201520864861037
-0.0282250570713898
-0.003098968175244625
-0.026233049614507238
-0.024320133579959213
0.022966676775970682
0.004354575972256226
-0.031369042162792446
0.02877161885394433
0.013965128470927589
0.018391510321545367
0.018779207475507598
0.015016920266172448
0.024239635957612124
0.01587633168541449
0.03263166444225707
0.03395108653318257
-0.01603396216783042
-0.027527172704171564
0.0035057789013452426
-0.03228136852108988
0.002761161661164531
0.011110709009953826
-0.028284891688595895
-0.026843733913976993
-0.009748484607974353
0.026679443760808795
-0.023522908578752964
0.02088698686229315
0.022244340921939575
0.027030575737886642
0.0036688775030331994
-0.005444717414899658
-0.003668501671349224
0.03488621896024144
0.019015835695053926
-0.031578245863298424
-0.02482026945243023
0.023471797201456146
0.018369635734331695
-0.018576737474798304
-0.00561633107482366
-0.0038335009673918924
0.03127498058523952
0.03232845580645066
0.0321509424177632
0.018611018103108008
-0.021084928882451098
-0.030842697136095776
-0.029596864404299022
-0.024466299998741337
0.020725275729860264
-0.01097939717703032
0.0287142451117912
-0.009017168057282015
0.006489830914516791
0.014729520616150446
0.011811681435317134
0.011915614787792045
-0.0048056718268689805
-0.015475379996773033
0.005535544238583878
0.0191344079107827
-0.02348033492331581
-0.0016853441920039527
-0.006698101052277344
0.002147554816556242
3.290057399928867E-4
0.012330086554034655
-0.016649512678325793
-0.029926217799194597
-0.02522154624236444
-0.01487951321530499
0.03423561178443585
0.03390027575919577
0.0226412992199391
-0.03294026146189624
0.0013935853401889978
0.024934110477503713
0.003039611328105936
-0.021751738646342222
-0.024946618681527935
0.015176217106219803
0.011790703194592245
0.020321629648093212
-0.0010510412378597483
-0.006284969502215989
0.005611984822268941
0.01693552850556445
-0.011682429912492607
-0.011382423911053246
-0.024826231901020828
-0.017816162912346976
-0.0036593172770128593
-0.03253011227517492
0.00634763117962929
-0.02555985114558334
-0.033372988834914546
-0.005770049850978429
0.006306956214140014
0.019140728147503457
-0.0024186133128484485
-0.017619435154303285
0.011862903143688347
-0.027861661522510066
-0.012084673891383783
-0.018941554890852697
0.02286018072572421
0.015005882527481612
-0.012094182811078609
0.03513779323024016
-0.010428870763737448
0.025539432458029636
0.025064248361935937
0.011337910461456054
-0.019974992350435084
0.03057222417568861
0.0312374652597696
0.02157517131740399
0.029252136965521952
-0.022133382756441927
0.001518284565257856
-0.012532035123600484
0.011450401451661388
0.03283741633911974
0.027076362857552105
0.008699704057318021
-0.01298608626448874
0.012282181011844646
0.031423293678876044
-2.985120060326682E-4
-0.032525206413742985
0.018152944017937878
-0.001203544030181615
-0.02520837368549588
-0.018753357254561603
7.168297424922643E-4
0.007550753566781317
0.025599352614305508
0.022234349297645298
-0.021407182641194605
-0.03214135931994011
0.029906041506222433
-0.03320526546001066
0.003146419988023119
-0.019922135439491007
-0.0286802896857252
-0.013415147689216447
-0.013049794735501226
0.023801191542520465
-0.012208343319859673
-0.032839798205425
0.0036524037007295354
0.03423228613808059
-0.019716707129674518
-0.024601830718091893
-0.024874672987434104
0.02788241221317611
0.02064401950937697
-0.018131790714567497
-0.01198647002014857
0.030577483942665296
-0.02414747623592915
-0.010793924685034356
-0.02978493594810057
0.034321674937877716
0.034892676042903525
-0.01345053845443182
-0.024923019091793334
0.012359678267417365
0.031139465531204072
0.01732338369272586
0.006522445236486908
0.018139860836458147
0.019943953169542297
0.030233750044626168
-0.020668061001112934
-0.031203694973354144
-0.034956090302596776
-0.019300299131975698
-0.015210460097217094
-0.02260438702814055
-0.014138474484591806
-0.006735301812588593
-0.017331842546010928
-0.01846184085924564
0.01294177421588432
-0.02928469595769042
0.023820526905585476
0.006669290858188605
-0.02455811155558772
-0.022934454686739707
0.025784601679205765
-0.006969410844511952
-0.030419748220252785
-0.012464942155738123
0.02904720558658208
-0.03254745393802217
-0.035559802019449534
0.02451567536895631
-0.01735385913870792
-0.01664432381956069
-0.011486852578734719
-0.003293129369066651
0.0065556857824750694
0.02769852109553253
-0.018023931163841083
0.0011193212184507223
0.029209404923421348
-0.028676925900079846
0.004732659060873237
0.018879743641634708
0.01875243412022863
0.030846379204734098
-0.01822688905647905
0.003041912221601141
-0.030895186796426513
-0.025759783899335902
-0.01952669605152393
-0.019058933340431333
0.016049340153284457
-0.03174329682803496
-0.02346181771641538
0.012936843400325825
-0.0043460004527385646
0.02949521904716157
-0.0023984304966683037
-0.029357046655702306
-0.021127508327975893
0.03298601261265302
0.03485493838877794
0.027551047292772135
0.004992499413806535
-0.028928996346550058
0.03556721690674533
-0.015010323211805524
0.0266515250593874
-0.03227860748076445
0.017014067987407996
0.004573098393260651
-0.018936368147827554
0.00987873414290804
0.0217392940737811
-0.032976882317627756
-0.03129661608977952
-0.026450796918632516
0.016458635365525692
-0.030479532913861438
0.01976465060417837
-0.015352150719461943
-0.019368508948506336
0.00415109117458394
0.027881469789432747
0.026889867576418938
0.016676758014121905
0.007386331869560232
-0.013222511033266042
-0.0037051563791454384
0.002823885937998087
0.0042592863401320555
0.03465548035601085
0.033240157584138924
0.011437378409386516
0.0211286540310155
-0.007111963795133194
0.02763402455492213
-0.021115579859350635
-0.010675825716046139
-0.004852624556416225
0.01973874957997998
0.020717291128639063
-0.009206311534743834
0.0027594365505540716
-0.0010928238403734927
-0.002576185354430896
-0.02062454197257426
-6.744748722037341E-5
5.620983835484192E-4
-0.02879100220382511
-0.007589965002898054
-0.030621174443990887
0.03487779156050681
-0.020904297165435442
-0.01539728714336254
0.001790372250145375
-0.01408321202496593
-0.019713352380969527
-0.026776957794062077
0.03395806525113569
-0.012951092094622457
0.025198419189348134
0.0023910117784869053
-0.01617759601688572
-0.002768574519755748
-0.017911410532786012
-0.006959448181544568
-0.00756108917002702
-0.019000295566697942
-0.01662814754586305
-0.007560809672901743
0.005345828422918211
-0.026442120974804757
0.02937621323477048
0.008697500491523798
0.03353625204345463
0.03112874933676267
0.00958514524552647
-0.006065246339841148
0.0025689933421291986
0.014807254355311356
0.018113953737075313
-0.02702520223860412
-0.004945782221641826
0.001975130220684816
-0.028631074768267244
-0.029552358392640053
-0.005236868006913635
0.008035628601334818
0.014792672901455327
-0.026812447000024525
-0.035398430703632626
0.011056905307014663
-0.0033529925616191322
-0.035080682070933636
-0.009240473740120173
0.01865755315914508
0.02315133307153769
0.010369317329677837
-0.012331421655283843
0.023756123510933258
-0.027268833762986715
0.01750824209369744
0.015619401463342356
-0.03291996237175217
0.02270239919966898
-0.013350262397664316
0.031723345075570814
0.010641541627187404
0.0020970610347050417
-0.021227356841298013
0.014819150635827442
-0.006174625170571206
-0.02503857636579282
0.014713555533853312
0.03217381427725133
-0.020478714793753093
-0.015907316840153396
-0.0349131143202853
-0.004728926433927742
-0.019758394731608293
1.1581689885283714E-4
-0.0157589905604255
-0.004918451630269587
-0.02393710842150209
-0.0182146194101196
-0.032031524368033894
0.019660312789591086
-0.012922081604452684
0.012555742351981952
0.010571604047494937
0.005980581807624889
0.007484703038129918
0.0015053732172465514
0.0068248333681388065
7.648268604296266E-4
0.002248463789320823
-0.005851244648009242
-0.035235292764287045
0.012333906507465492
0.02897049815497564
0.02207370100498038
-0.013747242759912848
0.031447586596564533
3.553688127186441E-4
0.016483812127021442
0.005861566409374387
-0.00540144701686518
0.019856580050503565
0.033915518190057656
-0.016125383239278104
0.018432442931618297
-0.013976917007898073
-0.03137762213191039
0.015018959100481288
0.008354290598525348
-0.0035005937761721714
0.02658469208129531
-0.018612477205525953
-0.00880682252044027
-0.0288554792702852
0.02056276330732234
0.01748708672195421
-0.01913680648885994
0.010175927815017971
-0.007112257507135827
0.00805729303435209
-0.006753643377954397
-0.02938878317687774
-0.0036927395103575275
-0.014770760390763794
-0.024440641644320343
0.0034560804095563682
0.03541758315512246
-0.017896665638484553
-0.024755078392900108
0.014630240631426046
0.01229797593384014
-0.0045267152421754366
-0.030326351097189855
-0.03543654939371644
-0.012582541345467348
-0.01210839774778695
0.02147669675677768
0.018609400824018713
0.034426756178883494
-0.020958113243571566
-0.017123874029915925
-0.00864100958833695
0.021925149174240537
-0.03301990795403536
-6.190610430162682E-4
-0.002764702715517854
0.024487139035568477
0.00682665021011037
-0.018826615955964267
0.023203393650535704
0.0027848566402759317
-0.015538620855755778
-0.01859032952429437
0.01575146598634619
0.0267037635345041
0.03456231930497261
-0.0046334280338206635
-0.016692445056755774
0.015279250622248768
0.0283126168972994
0.03564719464289348
-9.083238835705248E-4
-0.02360049259813725
0.033642920645831534
0.02218002118020585
-0.02020118787489695
0.027755795459786334
0.03505613079022042
-0.019026077191764888
-0.02950091822523223
-0.011383180669667592
0.011477234397008484
0.02220459064146018
-0.033868602876876354
-0.031811948469571576
0.029208451361707646
-0.03100807521162463
0.004512057674696049
-0.03185453033991649
0.0356149790081664
0.012398187821660973
0.020486850071935764
0.01168438216192838
-0.030781961586935056
0.005601046998728543
-0.032094395545661986
0.014898298554595749
0.016540702473914384
-0.022243474975565246
0.014612984654499832
0.02870816519072132
-0.018719640556574935
-0.026903737849220684
-0.005855275113419094
-0.002775526439648013
3.3048891178427686E-4
0.0077937464619199925
0.00949181890113538
0.021886917761552868
-0.012037014924380172
-0.02967701840806699
-0.008700336746210229
0.011507808685313217
0.003974868476254723
-0.029599394341888366
-0.025158551649564785
0.026695386436588593
0.012569050889017906
-0.020989629920099506
-0.004191307907009549
0.022352531539046983
-0.02271362027223841
0.024481911343334176
0.0207380711308649
0.0031115423973554074
-0.00859351477491686
-0.011796309891393224
0.010923581332700688
0.01145678466555073
-0.03026767880317422
-0.021788408873682434
0.014495169837194413
0.027275610136387685
0.023338890804029608
-0.033463976775365604
-0.02560785424056184
0.008736374644840506
0.02968870741741439
0.030025143616424083
0.01715113331075758
-0.015267186876877684
0.003125364318663802
0.03079407246958922
-0.025027937521999426
0.0012142710262387363
-0.02872808319858279
0.035099078319419996
-0.0013578176812246365
0.02758957362823561
0.019332320045651746
-0.014482121160969186
-0.027871687760397418
0.02818592682350378
0.003708143615415771
-0.001627948321228645
-0.029217286811082877
0.014840749428332863
-0.01671405858393524
-0.012519513031445242
-0.025345080642139757
-0.012125102607132454
0.015564553936235348
0.00626662551568484
-0.011706489012461345
0.00980795868903133
0.010425034706038422
-0.029885668994549457
-0.0026656630190589684
-0.007321840427076991
-0.02805101403233419
-0.007725334749601718
0.009217561746081834
-0.008843772098949518
1.658523474099699E-5
-0.03003925381968111
-0.022305160792930927
0.013526528752108247
-0.00356107363719297
-0.010909652739088931
0.004301954685214791
0.002478635517733606
0.015042406896765476
0.015387575126775813
0.014406095335969052
0.0332737634247767
-0.03123150865660444
-0.01899843157860271
-0.017530635785851637
0.016100775699633883
0.021647130577473146
0.007435821503487476
0.029895355405262197
0.027505634445476462
4.894399790630194E-5
-0.013400106979642452
0.024483486921091008
-0.012278572138025998
-0.033888294041203366
0.016215561385092225
-0.02583400591445746
0.01432062590773931
0.02166059781459235
-0.012780026595905856
0.004036296760204824
-0.008482544223572062
-0.032667155862997406
-0.016346732174073435
-0.0019075965174811665
0.01886653644352826
0.023028599854172105
-0.010875274146282237
-0.007336859038699666
0.004372340760975049
0.009329597762695728
0.004038429508507593
-0.03251441582525843
0.014378020023646208
0.023314145218147342
0.004138500886023785
0.006700021557277745
-0.007812824968665293
-0.025405169304480817
-0.017135800268444912
0.009423292434116826
-0.01726923589654545
8.735506608360602E-4
0.0094512183658515
-0.02050736002413209
0.02972483963230052
0.028961291139452644
-4.238016649499993E-5
0.02587356628663367
0.005494610358749923
0.02787659022340666
-0.03018785074829218
-0.03293493836800063
-0.004699818929175949
0.025342726976301792
0.013175558918482051
-0.02503095563364776
-0.0017247834722347727
-0.03499988588021721
-0.03055966263654776
-0.025776186989619893
0.034538748251147666
-0.013661886807242767
-0.011844499354966675
0.03186885378904074
0.0031718916635658304
-0.02657023300400707
-0.011789465143699409
-0.002952551258122431
0.015791283813268518
0.011062532107469152
-0.018039554564083356
-0.009669241651863971
-0.0079687532930105
-0.03502157458293467
0.03313796613992613
-0.02960300825852606
0.004466972685575457
0.009334903896788878
0.009569969300368852
0.018605482151196402
0.006024327250949306
0.02088198543206024
0.009366579790687585
-0.004221981540447263
-0.002497967811799888
0.0025193450169678708
-0.01902372566803706
0.030873387220078916
-2.0981919860091347E-4
0.013556687547836746
-0.007001857570820384
-0.006813745972545818
0.013728819091006011
-0.0026548396255597143
-0.012752060687197555
-0.001302506258771409
-0.02046983260729552
-0.002373742801567283
-0.03267238844107719
0.0015109980066163667
-0.012057404894541157
0.012254632637633288
-0.002547854858588418
-0.014177655574452282
-0.01928359533695777
-0.013566045226764092
-0.010098986213139864
0.0026410032583051787
0.023620077312031522
0.009408783610509112
0.026829127850724693
0.021136247956674126
0.008347682003880905
0.013995107012487303
0.030925219397876166
-0.023052861858780034
-0.033031232203365936
-0.003264629673497159
-0.02639737324513486
0.015015508928521
-0.006262353079250025
0.02750166530272817
0.027999205807349534
-0.03137836860092394
0.015020269459618249
0.025715628541965477
0.006618939293044454
0.024466782728410283
0.0266434527346536
-0.009132357521341956
-0.028956222937595522
-0.011495132904221866
-0.02715300749127826
-0.00767020410911665
-0.03220712556678234
-0.029234050874600213
-0.003564442373979536
-0.008234571340658064
-0.00635920670984292
0.01265036871981768
-0.012098754935091199
-0.01600877752728117
0.0354670334282553
-0.007963994101235421
0.005255978729850182
0.03147499515396718
0.03003394181483887
0.005920503605063895
-0.013074447154240776
0.006197180015920553
0.021649566042630748
-0.020394482088469966
-0.018132964084042722
-0.02040790972119407
-0.007299170715163086
-0.011094245826836172
-0.0024508151522709756
-0.009766504411362866
-0.020939831352738136
-0.009760438035006494
-0.002666917655098855
-0.0120318131138537
-0.010821211265391262
0.007962541526497856
-0.034566674940387426
0.023733910715060813
0.026975137014612988
-0.0192817702489638
0.035636274864305637
4.548175028160767E-5
-0.02582576957825588
-0.013367157009770314
0.006633797488457514
-0.031244123982332384
-0.011672136177935784
-0.02199061211328735
0.021335520242011116
0.016477993387363103
0.01241018099561532
0.022048214286070678
-0.03466953909477715
0.011737221335106157
0.030160909371591965
-0.018221104793297613
0.01210524654588456
-0.03453780669374598
-0.024075280937594715
-0.02789960341468533
-0.011839345190192856
0.005220987006301844
0.02564987505523901
-0.02780236919297808
-0.010064198927616508
-1.3356000884786473E-4
-0.03419967018297488
0.01871309153636242
-0.005745559534916747
0.01869490292484193
-0.003032197162302741
-0.015030642278627684
-0.02412163237543854
-0.003514602234432028
0.023993972272129134
0.0049620206786744545
-0.023702865193881283
0.0022835950731488405
0.03502185769651266
0.02170517374157182
-0.016938299599910587
0.02266655497617613
0.007147989391284304
0.0304579285382693
0.014486785445832248
-0.006767001731344837
0.030357697260238473
-0.008806121562761074
-0.014899371582529509
0.018572347332058724
0.017858847437766626
-0.011647419553135734
0.018013390357049908
0.01119778281196393
0.010265606072899405
0.035013767499018966
0.02954276270674673
-0.02284461155579206
0.0051458320582098566
0.01257771419892574
0.018005922977157994
0.01305858748612436
0.025115172433446242
-0.0076053493153768505
0.015415299741939642
0.009073621323468915
0.023155657887252185
-0.014327334149896832
0.03279353180803972
-8.527246570777733E-4
-0.016034502296182074
0.03010686501209571
0.02583590451094505
0.014484281969295285
0.006473141048498998
-0.014125084637955965
0.01133810015824211
-0.007981941616753148
-0.014071514578197344
0.019147936762377984
0.01531757507858058
-0.025046286582297156
0.003780956334296648
-0.02608050222329658
-0.02338219258622861
-0.008731467321225324
-0.03080099902414935
0.0022074451904442807
-0.006453069014590966
0.02468247988870345
0.02305066654293292
-0.016349568843211582
-0.026369895402091906
0.013887564006515002
0.021690649854399835
0.003545237680056011
-0.034325163519037
-0.03072038091257744
0.017510211717911214
-0.0037339578838774673
0.026915415247989974
0.027359607962004193
0.028473726808187036
0.024260869927893017
0.007726990724383917
0.01889604090735269
-0.017988213210617728
0.016867252196591867
0.013124571972285504
-0.02180222064983642
0.0333368325111492
-0.025616952685852755
-0.02388437294440065
-0.0216071648652817
-0.009772509985078542
0.02605613352263938
-0.010830757630692672
-0.00319434581588135
-0.011867252672584372
-0.03422219422855347
-0.001084411254902759
0.020168527186970014
0.008716486365259103
0.02253938940078451
-0.00941658071466359
0.02931579939093025
0.013801446869829578
0.028384515313060604
0.01684991332892332
-0.02773378011607016
-0.018513710818268286
0.01717114349848327
0.02811767474471666
0.029016669524342953
0.03452578312788182
0.018551495340795594
-0.021513130305920867
0.012815331478032425
-0.02375975502139338
-0.01906503944403452
-0.03308224544241686
0.03148451246694785
-0.027821397178241503
-0.028472523140188076
0.0032103770720450717
-0.014920109246373419
0.016775226039218688
0.009969970691112794
0.026532348204555828
0.007906362774160569
0.0287990410137121
-0.01779523001816953
5.136838067348951E-4
-0.005050609278102705
0.02312110347342266
0.0026084527820840267
0.008415333490925311
0.013760182251318379
0.004270541028105521
0.027849323349615665
0.03179781675085737
0.005540100571521864
-0.0066626867857740545
-0.015774025999642494
-0.0052971056338771
0.007719108117055805
0.03430810984470399
0.011198327113923177
-0.03418754972644322
7.589194007446773E-4
0.028115850079429933
0.008847050845624968
-0.03446228035115437
-0.029278678584744762
0.033250444387246766
0.025064163562192127
-0.010469998737487971
0.0026930672999197353
0.03203577829513432
-0.0071964625831809695
0.02479387425712295
-0.011154410793473592
-0.010662311731323672
0.020634769448462396
0.005626545720562641
-0.005336004362663873
0.00886877461836931
0.009738192795215893
0.034113793785998575
-0.03532089528559492
0.018321880584531096
-0.018273148372414772
-0.0029630872997159843
-0.013209289419124914
0.03429737049764284
0.018277201244334206
0.003727070098705633
0.031112859865517567
0.011306049678228194
-0.010581890904233837
0.014777446491477934
0.02725414947175872
-0.028094863888785127
0.03439242001519585
-0.02828035049245318
0.014218732012878994
-0.03447007033507494
-0.006896525363029236
0.005432554075392497
0.0072078398448994566
-0.03349927418684065
0.03297739860158064
-0.0023766507671968556
0.01850345272893887
0.00902515146769528
-0.004966752759861619
0.029560033487989912
-0.022748124852464642
-0.0060484576698720295
-0.018484401905744144
0.02993927000217976
-0.004465984110280222
0.02204490830211968
-0.019729571449465973
0.009765798099889256
0.01575444734088565
-0.02648622906632912
-0.02108452054824577
-0.023913594952132702
0.027197971221774392
0.029844382830882393
-0.01873276767154021
-0.03092999206167561
-0.017223370211115283
-0.03388977718563814
-0.003339407886447106
0.017069731409508127
-0.010376158540284317
-1.4262077328385664E-4
-0.0189733908460805
-0.025583735287879328
-0.029499341241973197
-0.030278813005321734
0.020754265124930574
-0.020437532181051803
-0.020989716185960364
-0.013195490385644992
0.026499995126133595
-0.007365283331444688
-0.02098062603066999
-0.010724761700631476
0.025442456956375988
0.032969660703978304
0.008417717455044778
-9.986233577681455E-4
-0.001369898768000713
-0.03160476709294246
-0.02228564326025391
-0.004770660065088035
0.014797883382521013
-0.014172710084205977
-0.00826919767391654
-0.03513708849425881
0.0041004199829407645
-0.019311687888440073
0.007800644595335575
0.011842686692827682
0.0332371490601544
0.021875463512898395
-0.024308663079028823
-0.017590565773133393
-0.030163752496769485
0.0315624398482562
-0.0339054503459333
-0.00805709743788107
0.024914711745577717
-0.0049464782108013215
0.0019969958460735668
0.03483779953226315
-0.029084284583376394
-0.004675041433605514
0.035659991603899155
-0.009472543909242861
0.02528345132550773
0.021961755859063757
0.034704314381193674
-0.023093180991518324
0.01337226413942521
0.011612240713291894
-0.0026126529347514013
-0.013887428876349861
0.027916710504032813
0.013635422068550507
0.033675145146043695
0.033765595486630204
0.009909284124834175
-0.00693439138770386
0.024565891733475356
0.035386251358351606
0.017533654341538744
0.016240633598333082
-0.025930687993492123
0.017393594404714413
0.02158122151114497
0.01574081379290873
-0.008126893551793926
-1.9111745982066525E-4
-0.019586538361420814
-0.005424383471461847
0.009055719855163007
0.025119428638271164
-0.013759016347137585
-0.010889371933027778
-0.0034804906828163618
0.020476599471934483
-0.0010729368892128874
0.01961879929992101
-0.004485976978045456
0.02697983228036202
-0.0036983251975398063
0.01506471740819667
7.679473353148433E-4
-0.013221402261467625
-0.028051122651729113
0.019327619347787824
0.034947211635215455
0.00943428970116475
-0.023902130599768843
-0.019616974160515315
0.02807659488889501
-0.0014950904025220826
0.01632864115068095
-0.017829789970054313
-0.034890877630965426
-0.017444587545523995
0.022683926038843547
0.003269209790173193
-0.006733894568928589
-0.020525377242018257
-0.008038650157097118
0.023372404273836737
-0.017712707154240503
0.02603483170532305
0.002683839664772661
-0.030706193510230018
-0.01014210930736071
0.016648523644232034
-0.03490180543854657
-0.024673622550695738
-0.0028912172137462028
0.016222917237923427
-0.022032333529077772
0.024466556182387633
0.011097842249759488
-0.0028361670515550386
0.03039085160880499
5.962753163198803E-5
-0.003733365666980404
-0.012143601860246156
-0.01330860846680288
-0.00919726217150189
0.010423380076239407
-0.030207404413181916
-0.03527046934954355
-0.0038009645755761393
0.03409278362145021
-0.003211700933873303
0.005152015713014421
-0.03053541191935928
-0.021029236840965262
0.004309946338946678
0.026063514040415042
0.033812488493126444
0.011448907846998285
-0.002110389598744565
0.023393027664600302
5.248911310433077E-4
0.013555893354620388
-0.022409203491239198
0.00640761541780116
-0.01581646602036374
-0.013264672860531377
-0.006309011237664801
-0.008527514067098563
-0.03504793404386861
-0.019656472488645636
-0.03035404162801244
-0.026004825453679298
0.004891159331728366
0.0028976997261945664
0.005403926367416656
-0.009458883335795046
0.015184190067363608
-0.029735121773164706
0.011389540412360608
0.03356854265917458
0.010859858691164154
-0.028218157154421098
0.023519934205244966
-0.007978981791203026
0.016980021293444246
0.02483512332693128
-0.011364741171265982
-0.012827167399442872
-0.028804856505981982
-0.014424713294048253
0.02112189567204026
-0.005317041386264789
-0.003831994393529811
-0.028786703106695555
0.004764640730434429
0.007693609403772873
0.028117248184242827
0.017236561308930892
0.01209641120330187
-0.025610264258551015
0.009512406305640951
-0.020265669193393097
0.025765458011121276
-0.027797142706663974
-0.011784948189183866
0.01906963034939429
0.0031819849707773115
0.007372327409105504
-0.01606625342863442
-0.0295730800900348
6.802451113687921E-4
-0.014730287010222172
-3.333362959129296E-4
0.005900079404993715
0.014708105047045235
0.028902176303692684
0.026468878785986166
-0.0095344431267381
-0.030722094809282664
-0.023968283778916265
0.0025315405651534853
-0.010581431944818784
-0.011376308212552286
0.03079349859408842
-5.965868110535191E-4
0.023712112434981544
-0.00377704295403742
0.025701628921151742
0.023268905463059035
-0.03130995731752065
0.028670796305923535
0.02112086551138343
-0.008551680299946754
-0.014320418694799376
0.015821620493059463
-0.01542463608410078
0.003281353175714097
-0.00996627776565523
0.00255110531972768
0.009700569605111668
0.011060002009724242
0.0027873909628850085
-0.030064630855434038
0.03141574191122917
0.029209258190274687
-0.007107136530081486
-0.006600025745570979
-0.028242846363104358
-0.0020709553879524126
-0.026844355061115342
0.029399379992415348
-0.01107845404451785
-0.03284148595920574
0.02966516978029375
0.005579757649095754
0.022017159984055706
0.03388963198346005
0.00447570255309955
0.019651561122821834
0.012297358471326805
0.012930786645888148
0.030203895300633984
-0.016378359224771946
-0.017065700907036446
-0.0033521288792150786
0.017762840467904772
0.01014167173213771
0.005678345345362788
0.016079242258113427
-0.01583768098101329
0.010327075060934832
0.028627289681383977
5.4084129553114146E-5
0.02393977800403973
0.005163919091308776
-0.011879779888107019
0.01669091600809392
-0.015219046528870388
-0.019081053021335993
-0.031201154619372083
-0.026043793725161364
-0.032726154590588086
-0.012667343017115178
0.025244405962966884
-0.01891875793058353
0.024940499446852976
0.009397332119009325
-0.029460469657508155
0.014111062990257647
-0.0015201418258754956
-0.01600330572079145
-0.02817398343490295
-0.03376735212822268
0.01663865010885869
0.013031255652168297
0.013329421650703853
-0.024494337296051032
-0.00981199580074505
0.027352253835280338
-0.001715329453363293
-0.001680777982390115
-0.005712889917692254
-0.009932380576840729
-0.02602506630072133
-0.030390528905851
0.005859409176817432
0.032360288877030255
0.007617462210530848
-0.005062007647303246
-0.01678084619184468
-0.028609740344136
0.003268888231260987
0.02414800313021643
-0.007730045456987657
0.016937551864434255
0.021561491697054506
0.002092542913461351
-0.01960399013100404
0.013710655005624933
0.014272712409060424
0.016832483251860826
0.023172999515988613
-0.027313824114256074
-0.0074919650507278245
-0.0019185114385798438
0.017090465670700425
0.02696150869964925
0.024060763139489932
0.013077423686700826
-0.021384810687981974
0.005268811030953023
0.01908268101180261
0.0341418649538157
0.030080364211565347
-0.01984496981514395
-0.007745987457613915
-0.02439839556182393
-0.02068681148804718
-0.0336330711443229
-0.01498994259982956
0.004554538347052536
-0.011878373270068632
-0.006230203787862321
-0.024585923873854214
-0.029707944134366265
0.01854311374607233
-0.012022062202441564
-0.005592955177513712
-0.019186850486066043
-0.024555185068170518
0.007241641910138215
0.002485220016099514
-0.013137080518814594
-0.02315039119800742
0.011486208938406468
0.005526200765819431
0.02291341865827866
0.0059651812424502335
-0.022317153492474023
-0.029413312099343468
0.013801965826248312
0.02710145763165102
-0.015071155078194478
-0.023402566813106238
0.026472216065119902
-0.02011390344749322
-0.014764500160785985
-0.02762691520945061
-4.686116584170369E-5
0.028474986337947344
0.02284479210117673
-0.03354094286971853
-0.024382971332462033
0.022696685346492218
0.01674639418400311
0.01756939240883182
-0.02278222307013645
-0.02653451599579853
0.013821541300016442
-0.03279479111720008
-0.03301193441840496
-0.009921959491139228
0.011576952370653489
0.029889570063075216
-0.02883437570093591
-0.006632978949542463
-0.020744984999240955
0.035427928469566605
-0.015705323970098262
-0.02135485210266289
0.02522455104184504
0.010998701394762174
0.02690320816471317
0.008124488379706932
-0.007141489924154157
-0.00928831881103593
-0.009723694056911852
0.020274225799960882
1.52097277839644E-4
-0.0013343808032607804
-0.002329621240010425
0.02008397934693
-0.0037670944526483896
0.017811730470804317
0.006128408008387924
-0.001581123844115677
0.011121719250699727
-0.009590350317206738
-0.014274606483897001
-0.0012157417929143863
-0.004224625660221283
-0.033937392634284046
-0.030271679102066927
0.014596572067476138
0.012842186809317799
0.012685610741020897
0.0021059965233615544
-0.03292089926777321
-0.010635601802216357
-0.03327574860357396
0.027888633979425204
0.004612441592131956
0.01210366235421155
0.03021892612104146
0.03202033575943705
0.009758871834310498
0.03227669774674702
-0.020302235847710126
-0.007692578435277358
0.014887064556077266
-0.024559724675184927
0.009931280665312424
-0.022921973677220264
-0.003437343248728901
0.015447947640792978
0.03313609427705516
0.01854603445699146
0.03126715505476692
0.0252294905445343
-0.0311899055749544
0.007764506576078689
-0.010438176652318134
-0.012353355536775135
-0.017032673613581437
0.0063974410682922644
0.0012619096645357583
0.03308856848028714
0.03081590633563229
-0.01860230750464841
0.005522535993789698
0.004581891581292033
0.010282360003500468
0.004805582020148254
-0.034296087861356066
-0.002877446569360488
0.03418990894110474
-0.029370682339764687
0.014058976607833243
-0.02563972591084715
0.020646480368356895
-0.009177455847152911
0.01730564396763369
-0.013836534588060001
-0.012586255684286039
-0.024753987797959003
-0.021575829092994245
0.014947135503193106
-0.030227685986238553
0.03235707238817008
-0.022669822794320376
-0.02782988041985593
0.030369001885710997
0.03429833656560444
-0.018914815018135807
-0.035375278401441536
0.015161767028948933
0.012480030328250673
-0.0053807477653046165
0.024547218677468778
-0.030237390250745167
0.0018995206083569222
-0.0327953389855444
0.012098575433379062
0.01249372520293631
-0.03182553520598421
-0.018716468069589463
0.016568519833856044
0.03298067316465232
0.00968538242858663
0.02398481714021316
0.0010125561102368383
-0.020839062985744426
-7.633323139066284E-4
0.009998295152373868
0.02142645932503849
-0.019510994230580225
0.026958656535186462
0.009781052064582338
0.0097930045259422
-0.020079624634118307
0.003703124131615644
-0.01579668708003511
-0.008692949111133916
-0.024928695525425808
-0.020475609068937105
-0.010783135059854104
-0.03232277899429556
0.013887970689991945
-0.02316111735037192
-0.03144644013065042
-0.0022986589511757444
-0.028425193436645013
-0.00829741270004071
0.02965669702278048
-0.015127004813721423
-0.024418037381872558
-0.032836115975719685
-0.023966232615976166
0.02917374150071568
0.010763826174801941
0.01968466024885228
-0.03204579159889053
0.023897116361766862
0.014623956596493931
0.0134663544577859
-0.0031017008353940237
-0.0038291306785999263
0.00807635762396592
-0.017769865680353537
-0.03340225045591227
-0.024128209498833444
0.007521872871584574
0.02900105926377408
0.014452009368199653
-0.02417940131704182
-0.002893612134917463
0.014442836285637181
0.024776690527418925
0.002661154653711126
0.02222516021628603
0.034269210154782986
-0.020093200010604224
-0.027625396707950736
0.014319728038709525
-0.004988240867234442
-0.01836919227833307
-0.002987320315375519
0.019971482333923735
-0.0338132657374763
-0.020494175466296154
0.011128782194792346
-0.024617173525466524
-0.020215434452326264
-0.008347925086170247
0.0018558140317031444
-0.026220722282451425
-0.028961303874011593
0.0033225247277424846
-0.023422489128790212
-0.016126865759137354
0.021976673932632126
-0.03046022116107448
0.02970986714886968
0.02405053339257361
0.023941552687804513
-0.026018711496998685
0.024463711774290582
0.026945926899971967
-0.024332999141358534
-0.016279568798668462
0.02046995497747213
0.022461655373097536
-0.0241422487817152
-0.024922736965213868
-0.014178654991735682
-0.025063468254508413
-1.4459493069955698E-4
-0.03411559115957322
0.025542693219440367
-0.03261227782058549
0.03129194770462855
0.03518771583664658
-0.02776495501505978
-0.028633387143499563
-0.03143286482707621
0.016389322465865774
-0.031063053291063132
0.0034394314948935426
0.004497624837846659
0.002037705393285419
0.019301321770488822
0.03465811917270872
-0.024928847692040124
-0.011365597474615081
-0.03186125507037463
0.018690251074506017
-0.030856033341623755
-0.007364444858155475
-0.011295879372163649
0.017265592224129864
0.021713391759621968
0.02486345941268605
0.018575331929306077
0.02868317309600102
-0.03544601796715881
-0.021958217820720223
-0.019828489249019088
-0.029884138425154572
-0.007231860974200192
0.015441010252454326
0.03053721137185643
0.0243000012610486
0.007546504155559679
0.02980515228423382
0.008386708985732093
0.011298297151925707
0.03252473209026638
-0.025449472596044645
-0.012335659289937587
0.012248387785404775
-0.0052903189682951025
0.032247682736597574
0.0019483594175408944
0.028801327472381427
0.014594810362922934
-0.005559893012003745
0.01056096299469092
0.022470860666448197
-0.023653456655183036
7.790698510430419E-4
0.03513491528893126
0.03131488315322406
0.018353154405802416
0.03412213919292717
0.00388746702056076
0.009150770511530099
-0.0011254059227569363
0.0032540078888783214
-0.01857263903842249
0.006390733027547044
0.02619824075120126
0.022780677907050906
-0.0060462314283753
0.017137043653176302
-0.035561468930040564
-0.007294933507715262
-0.010467644147618298
0.033109706724148175
0.007726944315961368
0.018641938320864873
0.03254074557078923
0.0012443477710461504
-2.3894060380565824E-4
-0.009488192896334062
0.03562278614750114
-0.014575112450725736
0.01720379812976075
0.021400659429297114
0.013569582899647062
0.017777455404487524
-0.03494059569687687
0.0044273671523630265
0.03376710031969665
0.017267464976149866
-0.007401022107046351
-0.004436821969632451
0.005871871189711039
-0.0016891016294429892
0.003837460377852382
-0.025976456684837272
0.0075912428156176895
-0.032003409983386445
-0.004156789451440948
-0.0028452512520834444
-0.02850794559986477
0.029104335841466517
-0.014768842740179911
-0.005693041066798823
-0.029088667526397716
0.020043200320403874
-0.004963013514742463
0.013447134243929251
-0.01846935477919928
0.004918203568153513
0.006383215780189758
-0.008361453953594191
0.010307542037558175
-0.03259541189643583
-0.024442617520964403
-0.019903644884818873
-0.0018630757165419495
0.021540319936592847
-0.03237594445657824
0.02287876054794786
0.014592897341143517
0.03272562286087109
0.004200416978580153
0.009830828509948382
-0.014518766076099292
0.024238760240480856
0.0033381671427404544
0.02449949954292946
-0.032470286173863216
-0.002901039153752012
0.012966973563827769
0.009692870880483546
-0.018901558198557433
-0.0306708424828837
0.03118142674556522
-0.022159185888211703
0.0130457681338179
-0.03547693407625198
0.004747823507980101
0.0075926232974858135
0.02158816330673073
0.027707021015621336
0.03157530433438385
-0.008451025441167707
-0.030775663527299758
0.0011611217827883213
0.03559520298999812
0.019647365338494864
0.016263927327719335
-0.02633411218997848
0.008356174927886352
-0.015972488369105205
-0.029462315364860513
-0.03432373571355766
-0.012984603487394369
0.019564310803630962
0.023752962329469156
0.0066466566437262745
-0.012215467125249495
-0.026616129839358703
0.004631488522675246
-0.023707387722928304
-0.027908181721969412
0.010084095679938093
0.014058004357443948
-0.0022837800754602483
-0.02447492240672414
0.021017399264758763
-0.024531725625791312
-8.19490306881665E-4
-0.002494487229437091
-0.03222458686387889
-0.032715946670372434
0.02896330965453703
0.0030817024971654533
0.01626695919437044
0.032119265116796455
0.013294775610321906
0.00893282880584955
-0.024077301861445043
-0.01362134261817374
0.034604574036701766
0.007794740465202232
-0.0011405093722316462
-0.013732780748888791
-0.02903789323992827
0.0017373695503099182
0.01145692200477208
0.02608996197082107
-0.03386148173387036
-0.026814477754667776
0.005760854904503163
0.014774789005314364
-0.017501042650793466
0.010589580683928596
-0.020114758603518586
-7.161912255421524E-4
0.006011887964875215
-0.02204880930978971
-4.809179988897738E-4
0.015279765194688981
-0.030074870457648284
0.027031436318801505
8.57923949841119E-4
0.03098963770069066
0.024856167283325355
-0.0342385340876018
0.021522363864242715
0.02998331833692941
-0.009604711973139508
-0.006116423031544853
0.012203931408604922
0.01192946264509221
-0.023298946205194702
0.01852852961866571
-0.013465540847668867
-0.027555582423157213
0.018762504237486426
0.0022385740523697545
0.005936406553228225
0.0015785885858368084
-0.0021858093255652244
0.008852107475859919
0.02827060680258396
0.002554623025548694
8.20957046330853E-4
0.008221944400480186
-0.006925666861260251
0.029445067078064643
-0.023943173707345555
0.03273437137915797
1.0693556960446327E-4
0.003660887056509028
0.023541235454959827
-0.010259037442019496
-0.023704317484871527
0.0028467213272521455
0.008952374828490484
-0.02568717108535403
-0.03135980715655026
0.01189671056340142
0.032057406339670524
-0.013435839835271943
0.028688068931007837
-0.015926954107143943
0.02705633333367577
0.003204322847322874
-0.028945013001876938
0.02140221760043247
0.024549943145968707
-0.02115222210055253
-0.0035469414297643123
0.01983874469511706
-0.011425780660667802
-0.026919463079748303
0.0209468077291022
-0.024425328307462642
-0.032005606923233426
0.006563502079428733
-3.667898403999989E-4
0.01584349880864111
0.027738878020246494
0.03089708181994355
0.0201869293235346
-0.019363590076952587
-0.032349280391043594
0.03224442708568179
0.022713691817891332
-0.013395200045870904
-0.0210531007962421
-0.0350612840149839
-0.005726154271918953
0.026198133047699176
0.024029500888705174
-0.027967602764500363
0.006908107190359815
0.00818147403068075
0.024101484193171062
-0.019744054121082513
-0.02370167677524807
-0.034362250213210106
-0.0017217186422546008
-0.01593617427533768
0.028560045281161933
0.028176271991255192
0.0346139742930585
-0.016112493954856113
0.02697118040467525
-0.0216760304495558
0.009207170410545827
-0.015483342721968916
0.012715061404070443
-0.034049762619880714
0.03147131847487791
0.004977120042018689
0.021229837568807877
0.014766977965036496
0.029388250073540456
-0.026671357577128754
-0.017023374274054186
-0.01560365327323393
-0.001942010217287786
-0.033558462155378846
0.014259402112995215
0.0012319960809915181
0.03235280534340189
0.019842630174963308
-0.0318322234402763
0.02838844613508172
0.01860868224326575
0.011088938043926466
-0.02153002660784882
0.016388157049959717
0.0017139034083956325
0.025900124454995205
-0.009470028554407421
0.030321675539077914
0.003479010276197396
0.02185940152930327
-0.03252607768502466
0.008492757327409776
-0.021785999611345624
-0.025685812461383933
0.01570587760263676
-0.031476409586036785
-0.010324226751733674
0.013419659406119486
-0.027143925383140498
-0.021066560448123564
-0.005168027263960824
-0.01881503005022297
0.018102854627239567
-0.00868302659960301
0.00877398583892227
-0.032248155281001604
-0.020912860783873482
-0.025865486970520407
0.02011241767182209
0.016275522058455977
-0.033996427058687495
0.033121420752515174
-0.03451853559240221
0.0036286856794234476
-0.0025098777584367724
0.019531211706167888
-0.026303988914168318
-0.030225647778861386
0.0077427829499162465
-0.02166079495997617
0.03198159865855886
0.015850612222632572
-0.01721005714342887
-8.243851847011957E-4
-0.0037751047620990935
0.02875190864211101
0.03413684712117744
0.026901570897398155
0.020495863043582307
0.010927078028503463
-0.007766607901768412
0.02386467158083154
-0.008703955299868431
-0.01950108412146047
-0.008527321934220337
0.027985185068283694
0.031501385438824664
-0.02768904329718272
0.02094709604220127
0.010590602492246685
0.013518082104928067
-0.018562971310652654
1.3672165710652134E-4
-0.01259365445170623
-0.022359991724457864
0.01821342454815319
9.686471419860579E-4
-0.02570070990223291
0.0019087513086770147
0.004806764415301569
3.0010351345403224E-4
-0.014850675270794342
-0.0014386134226280697
0.03475240927504519
0.014020175473713176
-0.00431866125668233
0.0027416492936197454
0.01593380991208517
-0.03442636272653806
0.02221636111252427
0.014669554061140726
0.012244441015412388
-0.03140329184810553
-0.022810126168488574
0.018153666569622487
0.02001525163359725
0.005783999038393807
-0.014940715561506071
0.03245224151983142
-0.01491733022363936
-0.023888704292286782
-0.030098409058698886
0.031390782662586075
-0.024497444201616685
-0.009870817822294913
-0.024650930562234767
-0.006084716323060704
-0.0320504736846541
0.024689365015352967
0.03426306787940936
-0.0015222704864782874
-0.02330934932902515
-0.00622999057770782
0.02533924533595632
-0.010806062316409373
0.022516374362728506
0.010251406570173559
-0.0031164480887952567
0.006837932752910232
0.009303749574273622
0.003398039954953261
0.020715396980764883
0.004048833545407207
0.00965571181532248
0.005715917090340125
-0.022766292571943417
-0.012313421521201216
-0.0021248066099483418
0.02224284931178113
0.028185563998953306
0.023533489833123353
0.016428762589812684
-0.027984514597345
-0.010376027710309686
0.004645647280341655
-0.02262548093403295
0.010781883309771534
0.004150427818198167
0.031433058465973704
-0.01758794252206248
-0.004556632370148344
0.027313042350942562
-0.00536114465100624
-0.03537311496290755
0.006783457992668447
-0.015667454792222146
-3.297778230382589E-4
0.00805246344402731
0.017262091157212243
-0.023678196112609365
-0.01141100316143993
0.015493409555556108
-0.00621396457626858
-0.03383226754467648
-0.002469666685721246
-0.03382997818344471
0.00111793479600681
-0.018739107136723252
0.01940233898766954
4.231110472441499E-4
-0.031395167848579396
-0.015425041857987445
-0.0035602286223246
-0.034011066555715515
0.028000126381068705
-0.007587972653155948
0.017215303253304136
-0.010924784254259808
0.00816798922502985
0.017103766264214358
0.013186994044356755
0.03082346336474552
0.007212760371726669
-0.021886859835515398
0.028819160293351798
0.02929626815960089
-3.5818170609593775E-4
-9.28160941273827E-4
-0.02608930759324131
0.0172661427553749
0.02952189621400028
-0.03302420552561796
0.02982341950276829
-0.010461388815558643
0.03546078671653714
-4.961468918982873E-4
0.02444070562067674
-0.027223690515616426
0.0030528314172871343
0.022998062878375677
-0.01648635434899049
0.0068645002589118945
0.029531939347545055
-0.01851232836702578
-0.015778027793385788
-0.00312967160295647
-0.021575425610849096
-0.004461365487766038
0.0073085548801371525
0.0072124259344233735
0.01512404075029062
0.023450076934657366
0.025122587062900922
-0.006910520996367367
0.010579583682594776
-0.03267738586944883
-0.0028277399799104333
0.004467348531806914
0.031864498748077855
0.032693958065683384
-0.030810197686690726
0.016975985573017514
0.0045384553276545045
-0.01500627047561788
0.018188239402674833
0.010384660241706117
-0.031324072704264364
-0.011337643083438827
0.0356748111840689
-0.024874087174693367
-0.013877758230835487
-0.018715178897199702
0.016099453350335288
-0.0350783825665061
-0.01650110578917681
0.013364927428068517
0.030517326314296697
0.035212713692101036
-0.016078739596921545
-0.017751323725626256
0.011108192551049056
0.017463600834710956
5.181983543221108E-5
-0.011443862183455705
-0.026838264751970035
0.01060520098156869
0.011799206517311374
-0.01403313212862958
-0.0017768977270072941
0.015146035109319271
-0.001772195144286115
-0.014987406087248585
0.02954793192816514
0.006353172925994986
0.03122694814147607
-0.007665500588809358
0.0038591220289057593
-0.003923801505816456
0.02227263594432432
-0.01837834298591044
-0.015532052596176245
-0.008626944078128997
-0.013713668964526329
-0.026779356440011986
-0.012815445166928008
0.02612266020441216
0.02519435778943329
-0.011362797605610628
-0.0035571565115168763
-0.003314277823214487
-0.005520783370609364
0.02086628182105714
-0.004014929482449123
0.02634646226484047
0.02413447075533154
-0.030143114834440564
-0.03330909461554779
0.022685496900833234
-0.03234810005326775
0.005117762802474064
0.012698995093456067
-0.020779347409413427
-0.0070805136690707295
0.006162501466665041
-0.02448571374671746
0.023956187996552677
0.015058210533306263
0.011179368867096022
-0.01998415343713526
-0.03308156673647091
-0.03290502165770551
0.016002723784549186
0.002395216190978197
-0.02364232300224279
-0.01168306963671448
-0.012180860941853926
0.006361315231951818
0.03184991254205417
0.029467594852520637
0.02055884626582146
-0.033107365405368926
0.033885014599464094
-0.029355244741785656
0.03178291640933201
-0.005898166050918696
-0.006549161098644889
-0.008890348978518273
-0.02055631691841891
0.015104479462877643
0.01669800819717787
-0.024429700880772762
0.03251937923871702
-0.004293949018487939
-0.028048132219865463
-0.008870832403734635
-0.02320116484431195
0.012472331857829602
0.007316923170235891
0.01914902761447461
0.027986626915731852
-0.011063483783697512
-0.008103598429524596
-0.026697163497409686
-0.004703001898316288
-0.027859505104250885
-0.026440877214320962
0.015626557376161573
0.020251002004481003
-0.007883857081352561
0.03440707658638878
0.017441136521934852
0.0038702069453402585
0.031593711323315704
-0.018380178420319613
-0.027991478295066666
-0.019382301039014196
0.005510333556482776
0.002408140543723833
-0.018909027752199672
-0.02165833758312811
0.012324577320431969
-0.017766084732612777
0.016763316152291347
-0.005662876509580028
0.0038565347708280837
0.03502823238435382
0.008815746771191478
0.034369382369147924
-0.012874421308816424
0.015674717873622443
-0.021977618473391865
-0.004296851266321518
-0.03358119094097611
0.003768948951428437
0.011791633110158642
-0.008665825404980246
-0.028976580114370296
-0.009674181702501432
-6.849383612635151E-5
-0.016369488376422634
-0.013783089673486553
0.030689383822961366
-0.029680330814639475
-0.009193521879371263
0.008594460062442376
0.03570395713715016
0.014046385363516142
0.01230524086569132
0.010083690663010056
-0.01165287994291675
-0.024573843395407823
-7.023690338469196E-4
0.03178143436399779
-9.434473834351656E-4
0.0272344431918896
-0.021173159739860503
0.029289734743972506
0.017922554567202646
-0.012325578150637308
0.026722627961105194
-0.02058512151168899
0.0033568200958850533
-0.026600761398201205
0.001728331078309206
-0.03167834511994569
-0.013342301031173405
0.019590827585516828
-8.072637522384823E-4
-0.035608616887325
-0.012275499019871388
0.030078773656984886
0.013616818467105947
-0.01725696342711086
-0.02725726219293234
0.01007635760285571
0.019846573476021395
0.013417190002438933
0.034559538964125586
-0.001957256361263246
-0.004346540560736148
0.018793291557123677
0.015835860585110294
-0.026221267749693404
0.03256551035166544
0.006459162254275688
0.02173180511843384
-0.010843487649634189
-0.02523454105109983
0.020255418275537333
-0.02174118667642049
0.028177361446711388
0.014957588617701738
-0.03263379662418298
-0.028411771182889223
-0.014568523979326904
0.02362748358249185
-0.034712454488279705
0.01975789906238328
0.011466140795091118
-0.029468967664578426
-0.016427531172751506
0.01101230174655389
0.02629110214805129
0.028272394529157266
0.012618859645783631
-0.008280290670837735
-0.013941619550995678
0.010970346931581838
0.02990731557810894
-0.030128241463687134
-0.021454958293605053
0.01972985709344871
0.01973776129136287
-0.020487669086457636
0.031396095424101156
0.002867861730607088
0.021028513623409344
-0.022700314631961045
-0.01467231464811711
-0.006306759884016671
-0.01645554020416227
0.02626460312808858
-0.005782256508607291
0.03175773742930485
0.0187445952399153
-0.03532798651269286
-0.02560243498344411
-0.0032015046302399375
0.023817519069206095
-0.0064796349840407184
-0.022321687842565004
0.028408521217235014
-0.008291455664840804
0.008229640627431638
0.030611015145893053
0.02738726265408789
0.028625035230846252
-0.02346514067409678
0.027157042381183605
-0.015722881637338124
-0.007855536333467798
-0.03088685436351947
-0.012789222054990928
0.0041799939142494885
-0.0017304949510923498
-0.018845921882548158
0.019531164347855033
-0.015538180850313665
-0.010386839988537289
-0.009939583456158172
0.032738708770998076
-0.02421686721365708
-0.012364444313647409
-0.009502951747728337
0.0049667174227954886
0.02410733347072707
0.02174952503486334
-0.0031281409416412456
-0.03463963454100281
-0.018647730273074297
0.006195121865735113
-0.016954503247824992
-0.005855544601671068
0.01893205377826409
-0.011857705907308471
0.022016172692143572
0.03193940533466037
-0.03521650062796619
-0.03240177289735633
-0.030045322197293077
-0.01044087928043495
0.0073752520771848545
0.028662650115999777
0.019884376581738965
-0.012467199576223234
0.023285350486053354
-0.0012149707339637258
-0.01713642625107127
0.015468470108644189
-4.845103071494175E-4
-0.009529654982039053
-0.03418503349341059
0.01459984178164958
0.014137703494284462
-0.0224329963000481
0.025634355962208796
-0.021325953988767916
0.02557136353913047
0.005646894862248501
-0.010008042305161391
-5.600724240897928E-4
-0.025510457755011255
4.493717220310084E-4
0.0017841051732187738
0.017581888936228383
-0.03016367242969879
-0.015482207961793702
0.010849663709246622
0.02665984713833186
0.01904763179575853
-0.01085118608431375
-0.01945482277373908
-7.767681837920551E-4
-0.02009086001208996
0.03307012944477597
0.01608962668314938
-0.0125288560237171
0.0038290962827572245
-0.010018276510999274
0.011719373806148362
0.025167777097765173
0.0017695870128507582
-0.03471419439822234
-0.022581443400485124
0.006691244181737943
-0.01734260907454139
0.023222463376176332
0.0061942129272793064
-0.009268077727696587
-0.01322472697024504
0.022438737262937956
-0.01987399866090512
-0.028805686889709532
0.0039705923777498126
-0.02132385087863292
-0.001139142597980848
0.014970941326564617
-0.002279010407635916
0.014914298245024563
0.002437536070757841
-0.03352563025294123
-0.003517842291662618
-0.009276831681069044
0.0153705470533263
0.0019298079880335703
-0.023597105505646015
-0.004846170938930399
-0.001997283432363939
-0.005429170957624296
-0.01693827885635813
0.03286210021629836
-0.02454453244899113
0.016063279745815916
-0.007792090404672585
-0.021474568079173313
-0.018758964183802556
-0.021437903043943933
0.027454734472551076
-0.010604202762865493
0.025875300319384675
-0.01691972576790097
-0.02958093602022231
0.02671308479811347
0.02450779751363568
-0.01365188063142302
0.010207922731111659
0.0017045345634073145
0.028463535985806754
-0.02552374415408652
-0.01299855978423127
-0.031344417788696226
-0.02207218790747846
0.025344320142142558
-7.369034952825551E-4
0.013750925412904243
0.018134483536095564
0.005885579602167179
0.03283961238239336
-0.024941604216845888
-0.024149130682203493
0.02574302317319911
-0.012809639090058333
-0.032221334609305624
0.029773785253899676
-0.02441774121174988
-0.008130209818121029
0.016665619872666015
-0.004473707064406973
0.02283276349131705
-0.007360995017090841
0.013517470975602908
-0.023000342269850253
-0.03252586972029847
0.020487586557805214
-0.026064857492678145
0.025413800837578222
-0.02351508733096027
-0.0041625617497088666
-0.011458793598978865
-0.027980175415417568
0.015767279558408967
0.02896599706563155
0.023081774229904317
-0.023801878912538002
0.002348825825334966
0.02991968328852221
0.030138144425022537
-0.011621205852164591
0.03059977764595062
-0.018396851877866827
6.692904425748339E-4
0.02597056048600707
0.018047509125860083
0.014408125432414778
-0.02808492527745017
0.0016255165523463427
-0.003546010688019144
0.035638550771460914
-0.027341784117097832
0.014969041363313201
-0.0032412782027837622
-0.005520562472863762
-0.02669404620730703
0.0057340947951975
-0.033073842876248795
-0.03349401178972511
-3.529225522080279E-4
-0.001922127324565627
0.010935733607171337
0.02652597360601422
0.03491209059500833
0.015376271138459394
0.02228264817300632
0.024650128484230475
-0.03262725000251524
0.0020323893339180624
-0.015505306829010364
-0.010239049297297798
-0.03499009968731478
-0.02946149359073395
-0.03458070799867171
0.016018303757020305
-0.0018142936145687447
0.003471943312293495
-0.009744010346414596
-0.029084868655237406
0.025435586262944614
-0.016786342242875577
0.0051589187112476426
0.004416598542121251
-0.007342733926118908
0.007597137687536226
0.015687010818008183
0.006536918712966154
-0.02000170512928824
0.031069814295147588
-0.031207108474322585
0.025808920271443152
-0.014555896793638817
-0.025919103285695466
0.009295187185128964
0.0356703591774758
5.9582907538199836E-5
-0.01856504568354328
4.777500837876078E-4
0.018486985312564826
-0.026776831375840686
-0.012963434586281013
0.026212779733814133
-0.01828784247233797
-0.009224484543722225
-0.020372734736918932
0.007949211363326006
1.2507734378457147E-4
0.03325273314531865
-0.00647940198800756
0.026057833493381213
-0.03213633796309512
-0.03387196833512484
0.017902608844807266
-0.022019928195900783
0.0173452682347688
0.023704804553159035
0.0197026498798204
-0.029826843176215867
0.0012348734712761197
-0.02882840617609852
-0.004631113308206716
0.016291223966056527
0.011675554625717087
-0.03221269769030108
0.033818797660731925
0.01031561783450484
-0.012949848219539008
-0.02620765561023412
0.011845777119583123
0.0248117158834781
-3.4357200830471835E-4
0.03118860988394606
0.011457401687219648
0.008325999989435721
-0.03180816240946093
0.0034116553705707472
-0.006462197020449638
-0.018376087777782213
0.014557314637005166
0.004679043798893154
-0.014426709056400429
-0.02031937403585516
0.0017374407810703957
-0.0015890703791123229
0.03295456874081332
-0.0061356725541194534
0.02821722249277124
-0.012633417571227053
-0.03442164618690013
-0.02017870100656453
-0.0313150894511099
0.024852914619331132
0.026938483947122033
-0.01076071253470079
0.03318914956205904
0.029393035018140584
0.025979102632340018
-0.024066715875070747
-0.0012131971323258578
-0.03149335858453725
-0.008943610573201515
-0.011775056535172072
0.026060460787521292
0.007741009453877901
-0.0031703158561624117
0.023768585874500973
0.02942482588599503
0.008421444982030103
0.01581588454337273
-0.03131923410772066
0.012706179035751705
0.01862394569978492
0.018927496372939695
0.032572544606258524
-0.024992085088046644
0.009938735938504493
0.03248123066534772
-0.018673309453312914
0.009001175286930327
0.02261608374137128
-0.008672767246567212
0.006509021616510381
0.027866486944017416
-0.012031980841431651
0.003751475945873592
0.010046972640196286
0.020088763128213068
-0.016151217505131623
0.018282983849043637
0.004078747097898676
-0.005638229915146491
0.0148278111843115
0.025709305204308475
-0.007559675269725032
-0.03471730853080629
0.0025359691578918375
0.03122946399976062
0.015468911258782927
-0.00722174228178982
0.008720313961586124
0.009887156970859977
0.03359757259320628
-0.004409679853158141
0.009836041931157669
-0.019074013401485377
-0.023777191515059325
-0.03216091357698434
-0.015058966897153761
-0.009424103345897099
-0.0065086778298957745
0.0331723763925484
0.004524777230938089
-0.02235439676420338
0.01853136291668612
0.02026982859185377
0.011725915751497618
0.009621605424594108
0.01990238179024003
-0.03181352899813911
-0.03458657764036047
-0.004718650151519448
-0.0027018626508536897
0.025154325314576467
-0.017982591768596314
-0.03429548192745068
0.02206442278007363
0.00857881503533059
0.028819505455419323
-0.02166107524906958
-0.014095975462762977
0.008818913928231108
0.018370130650906633
0.0035150260380513235
0.019852386815996985
0.006644510270628741
-0.01792876806713226
-0.0053807955314468005
-0.003818825337874164
-0.023213868123876942
0.006774936798661556
-0.008095200414478088
-0.0017558986169671983
0.01610831953109415
0.019026054301080612
0.0036776782393940083
0.022696697046101354
0.002280112240297061
-0.024745186878555946
0.026288016769858154
0.016519339913106078
0.018293697590887156
-0.003929034202647362
0.008434941908427453
-0.009397461859001803
-0.025316544579366614
0.03162046525572887
0.0032959353152556756
-0.022153975591406354
0.02452050754843514
-0.01647597033673788
0.02473798714556099
-0.017761733657965913
-0.03241464963053138
-0.03300787491558143
0.013290970400314149
0.029310372132917303
0.006842729771929144
-0.02631429426382162
-0.013476546126442428
-0.0300030760443926
-0.009545337336011595
-0.020166788234899057
0.01972212445815147
-0.005025514338412734
0.01135463730489255
-0.019432766223001663
0.006297555516313204
-0.022979906797010667
0.02949864069926382
-0.010242060973854883
-0.017374275284215226
-0.018169747613769716
0.01568146754746135
-0.019697448356722214
0.007327022505874352
0.0019034984164914212
0.020858553416510384
0.03438867374023431
0.03080629961942538
0.018514996669264677
-0.026859899020205018
-0.0014784507888859072
0.01420314215613458
-0.0025119068080878826
0.0180459080678758
0.015815570513726257
0.010812044694604027
0.021914668232588988
-0.012676459109861309
0.009248572464797232
0.018938203881912606
0.012090023691835455
-0.03386158589758662
-0.02023289462626012
0.0027017885625943566
-0.02717207123681021
-0.01402124755029836
-0.034328691852298705
0.003934827898444057
0.008970332182366828
-0.028885845192591946
-4.104793743093804E-4
0.030521121942747906
-0.0018707828952069586
-0.02418469725653328
0.02189360759308756
0.03363981686004336
-0.035676211013689424
0.027080790228976706
-0.03242273696014458
-0.0023671561469686964
-0.03287723308516527
0.010542259439462673
-0.014306769020770698
0.003213423535873998
0.003866862671154471
-0.011510768898709705
0.003128829238304043
-0.02088026887998109
0.03337582032068141
0.012439086674959271
-0.023421924538479043
0.029263751783661793
0.02757571647124636
0.013621361770940893
-0.02563525514517522
-0.012518315113272407
0.021846315364522598
0.023238738849137255
-0.02353929585060208
0.03191367831927115
-0.017339194280294703
-0.007561954630903492
0.010751530948512014
0.007828171008080823
-0.0018740036714169142
-0.006410635502113984
0.006843042221847395
-0.022015800186847123
0.02706450683648473
-0.003127577956458731
0.02416166903855134
-0.0159421759096472
0.0031287824565206304
-0.026262591978578775
-0.011709459481864675
-0.01137159657268573
-0.007412677041429647
0.026224986313773645
-0.029996890733132685
0.01596061467808508
0.004666228393923125
0.02370112138792524
-0.020199457722017276
-0.015146352024931743
0.01846139043796713
0.01996982706248837
-0.01270405884843515
-0.004886166134408589
0.016255557729208565
-1.9642638154945824E-5
0.0109104192241758
0.030729473592905676
-0.0025720493711489725
0.004841516414296011
-0.02802601174867799
-0.013447226268738018
0.0349552565823488
0.012157350187358612
0.021714174686297986
-0.03391478016528598
0.01584946116649976
-0.020337666893571492
0.017946785385265333
-0.02156068927554646
0.030196028346864856
0.023779611933703988
-0.014581542483819501
0.034566395657225746
0.0312992208191154
0.01973700112369616
0.031099764815574665
-0.0048753316934561156
0.03191180508094779
-0.027945614094828375
-0.007575460791785751
0.023965640058121622
-0.02634526090006828
-0.02513078926698196
0.008562038465560862
-0.0035091964863089506
-0.027020547711879277
-0.01168208962899582
-0.012540792618465389
0.03483836574003102
-0.004597989240688192
-0.006099525951801292
0.031411540686896264
0.026799259637439454
-9.989398831116367E-4
-0.007653005048888741
-3.307272058056254E-5
-0.01576159348417092
0.02014654192872662
-0.0033036597851521035
0.006770741849422349
0.021882627569384187
-0.020707970141199777
0.014461186197631863
0.002158679381392324
-2.318470129109712E-4
0.021887718863602523
0.002389425180708317
-0.008746266218838346
-0.010374567820556988
0.0022191531496715752
0.018130612075913176
-0.02983295626969007
-0.0038548886777316146
0.002796883005196718
-0.02489913125662538
-0.014956167470977357
0.008160055126451717
0.01266872256072054
-0.012396055027168198
-0.008582962147369953
-0.014445412485098664
0.008137000405327478
-0.02246087431049235
0.014102179554727708
0.012272091436371653
0.010375034097690944
-0.007758446455240747
0.028244745299860152
-0.009341286879465813
0.03506804674158111
-0.016187740653815164
0.016551694085632257
0.008357539680859227
-0.0318316266991385
-0.012411654469596776
-6.013857035175457E-4
2.6901163371925024E-4
0.003918498393617353
-0.030962214882107673
-0.008727343563309856
0.0022515254189183556
0.015424199346464502
-0.001314964152436461
-0.015108099229814098
0.03303343951611318
0.01331915890724713
0.0028277624975519
-0.010601970344653669
-0.0010024787831537166
-0.0039059145194383707
0.007754012130022317
0.009017133315120551
0.02746365620123767
-0.010539668152795216
0.017109310316293452
0.01756243131083271
-0.019194448890077865
0.020480033673861996
0.03272943770138356
0.020984703939476455
0.031383666983561403
-0.027288608729404744
0.019461018066692655
0.032100868759472656
0.0013135166097194076
0.020515305422393285
-0.015270455586985254
0.0017552695445001779
0.01580934435455917
0.01762996418365416
-0.019627475975495894
0.0019102595119736554
0.006021476301642556
-0.035134707392934124
-0.003269089473746503
0.012574675261170232
0.024063421877042544
-0.03529118484940191
-0.022295173715057553
0.03304348574048965
0.031044330931221123
0.001618742259578157
-0.007063963616985358
-0.03473734389407797
0.015592362883529373
0.011246362209620206
0.02796053537915369
-0.005311209993208887
0.03253362565611473
0.016694706024762584
-0.003946316366231002
0.026444085271628635
-0.014715861125272803
0.03199298671660204
-0.035519392503828934
-0.0014870681495449747
0.03268026629232444
-0.012966822225743371
-0.026991558753809913
0.013645196214190844
0.035420493444526954
0.03151114691569398
-0.025371335128121918
-0.02339057436886105
-0.00232234028443834
-0.031728734819310225
0.03552720898503679
-0.010623110693970275
-0.00451002410729856
0.0356146054492579
0.021194016451081987
-0.015244687821673732
0.024985287510211687
-0.02460220388827175
0.00602115633510155
-0.005019660151435283
-0.015565587254143982
-0.002762462865691803
0.02205069662647413
-0.027470362376465322
0.011862234436111313
0.01810969966236166
0.011969491323260924
0.013841250848428306
-0.026591386407750377
-0.01728645845050168
0.015588428122838269
-0.012174559656690936
-0.01055093238990585
-0.008771791394543642
-0.011838518702311205
0.01799252475053493
-0.029752266227989398
-0.015011692925798348
0.031444513740894714
-0.020202335446583244
-0.024071974571213177
0.028985025308832235
0.030377610136789912
-0.03139093567624308
0.0198801022090117
-0.006520031546615401
-0.015762597805935735
-0.025062367156601966
0.011342957313099027
0.020932688019274254
0.015527907625758869
0.012078490105130173
0.02902923819759072
0.011027403651527448
0.03394339463160817
-0.013252285122715115
0.005996070062657025
0.011119910550418353
-0.030576532912580143
0.027285258950921473
0.03439465089135828
0.009291396134986814
-0.03149129416576153
-0.03020180943272691
0.015350920231949325
0.023456762033150197
-0.01675391900037565
0.0307284070928239
-0.0033173788147726896
0.014420050656090595
-0.030319661608945857
-0.02769158620241837
-0.03207757072094204
-0.029699341973200746
-0.018326190878134377
-3.385148389387013E-4
-0.0010529552949806661
-0.026818552926772637
0.00940005196877488
-0.009048424062049878
-0.005001246067499909
0.024370024241637984
0.0012119461432637535
-0.004479548695023015
-0.004321987175990263
-0.003846698304391806
-0.015652410449501337
0.022611387127275576
0.020935585316188374
0.021820890825436576
2.060472264919788E-6
